tree
version=v4
num_class=1
num_tree_per_iteration=1
label_index=0
max_feature_idx=463
objective=regression
feature_names=market_cap pe_ratio pb_ratio ps_ratio profit_margins operating_margins gross_margins return_on_equity return_on_assets revenue_growth earnings_growth debt_to_equity current_ratio quick_ratio dividend_yield payout_ratio enterprise_to_ebitda enterprise_to_revenue beta vix treasury_10y returns_1m returns_3m returns_6m returns_1y volatility volume_trend log_market_cap fcf_yield ocf_yield earnings_yield profit_margins_lag1q profit_margins_lag2q profit_margins_lag4q profit_margins_lag8q operating_margins_lag1q operating_margins_lag2q operating_margins_lag4q operating_margins_lag8q gross_margins_lag1q gross_margins_lag2q gross_margins_lag4q gross_margins_lag8q return_on_equity_lag1q return_on_equity_lag2q return_on_equity_lag4q return_on_equity_lag8q return_on_assets_lag1q return_on_assets_lag2q return_on_assets_lag4q return_on_assets_lag8q revenue_growth_lag1q revenue_growth_lag2q revenue_growth_lag4q revenue_growth_lag8q earnings_growth_lag1q earnings_growth_lag2q earnings_growth_lag4q earnings_growth_lag8q current_ratio_lag1q current_ratio_lag2q current_ratio_lag4q current_ratio_lag8q quick_ratio_lag1q quick_ratio_lag2q quick_ratio_lag4q quick_ratio_lag8q debt_to_equity_lag1q debt_to_equity_lag2q debt_to_equity_lag4q debt_to_equity_lag8q pe_ratio_lag1q pe_ratio_lag2q pe_ratio_lag4q pe_ratio_lag8q pb_ratio_lag1q pb_ratio_lag2q pb_ratio_lag4q pb_ratio_lag8q ps_ratio_lag1q ps_ratio_lag2q ps_ratio_lag4q ps_ratio_lag8q enterprise_to_ebitda_lag1q enterprise_to_ebitda_lag2q enterprise_to_ebitda_lag4q enterprise_to_ebitda_lag8q enterprise_to_revenue_lag1q enterprise_to_revenue_lag2q enterprise_to_revenue_lag4q enterprise_to_revenue_lag8q dividend_yield_lag1q dividend_yield_lag2q dividend_yield_lag4q dividend_yield_lag8q payout_ratio_lag1q payout_ratio_lag2q payout_ratio_lag4q payout_ratio_lag8q market_cap_lag1q market_cap_lag2q market_cap_lag4q market_cap_lag8q beta_lag1q beta_lag2q beta_lag4q beta_lag8q vix_lag1q vix_lag2q vix_lag4q vix_lag8q treasury_10y_lag1q treasury_10y_lag2q treasury_10y_lag4q treasury_10y_lag8q returns_1m_lag1q returns_1m_lag2q returns_1m_lag4q returns_1m_lag8q returns_3m_lag1q returns_3m_lag2q returns_3m_lag4q returns_3m_lag8q returns_6m_lag1q returns_6m_lag2q returns_6m_lag4q returns_6m_lag8q returns_1y_lag1q returns_1y_lag2q returns_1y_lag4q returns_1y_lag8q volatility_lag1q volatility_lag2q volatility_lag4q volatility_lag8q volume_trend_lag1q volume_trend_lag2q volume_trend_lag4q volume_trend_lag8q profit_margins_qoq profit_margins_yoy operating_margins_qoq operating_margins_yoy gross_margins_qoq gross_margins_yoy return_on_equity_qoq return_on_equity_yoy return_on_assets_qoq return_on_assets_yoy revenue_growth_qoq revenue_growth_yoy earnings_growth_qoq earnings_growth_yoy current_ratio_qoq current_ratio_yoy quick_ratio_qoq quick_ratio_yoy debt_to_equity_qoq debt_to_equity_yoy pe_ratio_qoq pe_ratio_yoy pb_ratio_qoq pb_ratio_yoy ps_ratio_qoq ps_ratio_yoy enterprise_to_ebitda_qoq enterprise_to_ebitda_yoy enterprise_to_revenue_qoq enterprise_to_revenue_yoy dividend_yield_qoq dividend_yield_yoy payout_ratio_qoq payout_ratio_yoy market_cap_qoq market_cap_yoy beta_qoq beta_yoy vix_qoq vix_yoy treasury_10y_qoq treasury_10y_yoy returns_1m_qoq returns_1m_yoy returns_3m_qoq returns_3m_yoy returns_6m_qoq returns_6m_yoy returns_1y_qoq returns_1y_yoy volatility_qoq volatility_yoy volume_trend_qoq volume_trend_yoy profit_margins_mean4q profit_margins_std4q profit_margins_slope4q profit_margins_mean8q profit_margins_std8q profit_margins_slope8q profit_margins_mean12q profit_margins_std12q profit_margins_slope12q operating_margins_mean4q operating_margins_std4q operating_margins_slope4q operating_margins_mean8q operating_margins_std8q operating_margins_slope8q operating_margins_mean12q operating_margins_std12q operating_margins_slope12q gross_margins_mean4q gross_margins_std4q gross_margins_slope4q gross_margins_mean8q gross_margins_std8q gross_margins_slope8q gross_margins_mean12q gross_margins_std12q gross_margins_slope12q return_on_equity_mean4q return_on_equity_std4q return_on_equity_slope4q return_on_equity_mean8q return_on_equity_std8q return_on_equity_slope8q return_on_equity_mean12q return_on_equity_std12q return_on_equity_slope12q return_on_assets_mean4q return_on_assets_std4q return_on_assets_slope4q return_on_assets_mean8q return_on_assets_std8q return_on_assets_slope8q return_on_assets_mean12q return_on_assets_std12q return_on_assets_slope12q revenue_growth_mean4q revenue_growth_std4q revenue_growth_slope4q revenue_growth_mean8q revenue_growth_std8q revenue_growth_slope8q revenue_growth_mean12q revenue_growth_std12q revenue_growth_slope12q earnings_growth_mean4q earnings_growth_std4q earnings_growth_slope4q earnings_growth_mean8q earnings_growth_std8q earnings_growth_slope8q earnings_growth_mean12q earnings_growth_std12q earnings_growth_slope12q current_ratio_mean4q current_ratio_std4q current_ratio_slope4q current_ratio_mean8q current_ratio_std8q current_ratio_slope8q current_ratio_mean12q current_ratio_std12q current_ratio_slope12q quick_ratio_mean4q quick_ratio_std4q quick_ratio_slope4q quick_ratio_mean8q quick_ratio_std8q quick_ratio_slope8q quick_ratio_mean12q quick_ratio_std12q quick_ratio_slope12q debt_to_equity_mean4q debt_to_equity_std4q debt_to_equity_slope4q debt_to_equity_mean8q debt_to_equity_std8q debt_to_equity_slope8q debt_to_equity_mean12q debt_to_equity_std12q debt_to_equity_slope12q pe_ratio_mean4q pe_ratio_std4q pe_ratio_slope4q pe_ratio_mean8q pe_ratio_std8q pe_ratio_slope8q pe_ratio_mean12q pe_ratio_std12q pe_ratio_slope12q pb_ratio_mean4q pb_ratio_std4q pb_ratio_slope4q pb_ratio_mean8q pb_ratio_std8q pb_ratio_slope8q pb_ratio_mean12q pb_ratio_std12q pb_ratio_slope12q ps_ratio_mean4q ps_ratio_std4q ps_ratio_slope4q ps_ratio_mean8q ps_ratio_std8q ps_ratio_slope8q ps_ratio_mean12q ps_ratio_std12q ps_ratio_slope12q enterprise_to_ebitda_mean4q enterprise_to_ebitda_std4q enterprise_to_ebitda_slope4q enterprise_to_ebitda_mean8q enterprise_to_ebitda_std8q enterprise_to_ebitda_slope8q enterprise_to_ebitda_mean12q enterprise_to_ebitda_std12q enterprise_to_ebitda_slope12q enterprise_to_revenue_mean4q enterprise_to_revenue_std4q enterprise_to_revenue_slope4q enterprise_to_revenue_mean8q enterprise_to_revenue_std8q enterprise_to_revenue_slope8q enterprise_to_revenue_mean12q enterprise_to_revenue_std12q enterprise_to_revenue_slope12q dividend_yield_mean4q dividend_yield_std4q dividend_yield_slope4q dividend_yield_mean8q dividend_yield_std8q dividend_yield_slope8q dividend_yield_mean12q dividend_yield_std12q dividend_yield_slope12q payout_ratio_mean4q payout_ratio_std4q payout_ratio_slope4q payout_ratio_mean8q payout_ratio_std8q payout_ratio_slope8q payout_ratio_mean12q payout_ratio_std12q payout_ratio_slope12q market_cap_mean4q market_cap_std4q market_cap_slope4q market_cap_mean8q market_cap_std8q market_cap_slope8q market_cap_mean12q market_cap_std12q market_cap_slope12q beta_mean4q beta_std4q beta_slope4q beta_mean8q beta_std8q beta_slope8q beta_mean12q beta_std12q beta_slope12q vix_mean4q vix_std4q vix_slope4q vix_mean8q vix_std8q vix_slope8q vix_mean12q vix_std12q vix_slope12q treasury_10y_mean4q treasury_10y_std4q treasury_10y_slope4q treasury_10y_mean8q treasury_10y_std8q treasury_10y_slope8q treasury_10y_mean12q treasury_10y_std12q treasury_10y_slope12q returns_1m_mean4q returns_1m_std4q returns_1m_slope4q returns_1m_mean8q returns_1m_std8q returns_1m_slope8q returns_1m_mean12q returns_1m_std12q returns_1m_slope12q returns_3m_mean4q returns_3m_std4q returns_3m_slope4q returns_3m_mean8q returns_3m_std8q returns_3m_slope8q returns_3m_mean12q returns_3m_std12q returns_3m_slope12q returns_6m_mean4q returns_6m_std4q returns_6m_slope4q returns_6m_mean8q returns_6m_std8q returns_6m_slope8q returns_6m_mean12q returns_6m_std12q returns_6m_slope12q returns_1y_mean4q returns_1y_std4q returns_1y_slope4q returns_1y_mean8q returns_1y_std8q returns_1y_slope8q returns_1y_mean12q returns_1y_std12q returns_1y_slope12q volatility_mean4q volatility_std4q volatility_slope4q volatility_mean8q volatility_std8q volatility_slope8q volatility_mean12q volatility_std12q volatility_slope12q volume_trend_mean4q volume_trend_std4q volume_trend_slope4q volume_trend_mean8q volume_trend_std8q volume_trend_slope8q volume_trend_mean12q volume_trend_std12q volume_trend_slope12q profit_margins_missing operating_margins_missing gross_margins_missing return_on_equity_missing return_on_assets_missing revenue_growth_missing earnings_growth_missing current_ratio_missing quick_ratio_missing debt_to_equity_missing pe_ratio_missing pb_ratio_missing ps_ratio_missing enterprise_to_ebitda_missing enterprise_to_revenue_missing dividend_yield_missing payout_ratio_missing market_cap_missing beta_missing vix_missing treasury_10y_missing returns_1m_missing returns_3m_missing returns_6m_missing returns_1y_missing volatility_missing volume_trend_missing sector
feature_infos=none none none none none none none none none none none none none none none none none none none [-6.614588833337443:8.4025463640795763] [-3.6983648385694061:8.4025462332193257] [-4.0212734255803815:6.2101265131308701] [-3.5762329913288156:5.4494646449414033] [-3.5237502909138199:4.8493703174677387] [-3.0558022350907481:6.6212923278633911] [-1.6363339050722052:5.833390920448843] [-2.2092632165291861:7.7554980407483693] none none none none [-3.778221328838677:4.0520152523729864] [-4.5292333805876455:3.8900585918071187] [-4.5292333805876455:3.8779834433713751] [-4.5292333805876455:3.4872977155771485] [-3.3153078221961327:3.8782121177924966] [-3.625319814189385:3.7552447874784964] [-3.625319814189385:3.748544035354834] [-3.625319814189385:3.7552447874784964] none none none none [-2.390058783486158:7.1668598816520532] [-2.9523046074435002:7.1369503216534946] [-2.9523046074435002:7.1685228662543263] [-2.9523046074435002:7.1369503216534955] none none none none none none none none none none none none [-1.2734449868080693:4.7367256994860059] [-1.4711573865529777:4.8345158929528482] [-1.4711573865529777:4.8338560308472598] [-1.4711573865529777:4.8338560308472598] none none none none none [-1.5281840334549031:3.6507719951276965] [-1.5281840334549031:3.6507719951276965] [-1.5281840334549033:3.6507719951276965] none none none none none [-1.618045052665352:4.8118925467229454] [-1.618045052665352:4.8118925467229454] [-1.618045052665352:4.8118925467229454] [-1.2508834786447234:3.7844633292872647] [-1.3797192416215545:3.4347586913394541] [-1.2171506072785629:3.4347586913394541] [-1.2171506072785629:3.4347586913394541] none none none none none none none none none none none none none none none none [-1.3054205581135068:4.364357791253723] [-1.5784913992771905:5.6486703365208033] [-1.5784913992771905:5.6486703365208033] [-1.5784913992771905:5.6486703365208024] none none none none [-4.6623457539643072:7.5177727414751505] [-4.2325631102551169:7.2721735571421444] [-6.558295195848447:6.7229781883571649] [-3.1280584748129927:5.8350406251906657] [-4.6661528783119612:6.5306861700270353] [-3.8760830613932931:5.4440642532988983] [-6.671376346797655:8.133851049414325] [-3.8676779870152775:5.7171752218570191] [-3.4716913906722491:4.8718262773249652] [-3.8326891477445688:4.4094325094832545] [-3.8727486782709075:6.6780229686105246] [-3.6984250634788194:5.3490378480707852] [-3.3503455035246534:5.767173600110242] [-3.0426257438434132:5.0759288568713501] [-3.3942160832518291:5.293237079799832] [-3.4065549873500069:5.3715608404308695] [-3.7019326773386831:4.7360054533749478] [-3.2237045650702143:4.6951154635759735] [-3.1021441373121514:4.8970326317530182] [-3.3405041410167029:4.5904684318803186] [-2.8480732868128342:5.9909312373799315] [-2.7707304523441887:5.7363170045796803] [-3.1416741111185766:6.0208073846558596] [-3.0031145645767596:4.920725147168282] [-2.2988857691518714:6.5123769272592575] [-1.7445802340502801:6.2409067030826089] [-1.8811240661280191:5.8760672012089916] [-1.7617380023469866:6.8281432319817448] [-2.621518545198982:5.1853079657542942] [-2.423567734248282:5.1858790119483187] [-2.4160576893639987:5.6275442099306971] [-2.2387418028542165:5.6577622701453603] none none none none none none none none none none none none none none none none none none none none none none none none none none none none none none none none none none none none none none [-3.9518538341206324:6.589902910276181] [-4.9928653334070852:7.827656103447195] [-4.6272007951304772:6.701365717200896] [-3.8712140072805372:6.9295145785589831] [-7.7309145759558193:8.055225896752102] [-9.1955278029320002:9.4043159143373014] [-6.9333385962429439:7.4647454779631168] [-9.4072379993043054:9.4075919084103425] [-8.0727276247639601:8.0365776913397315] [-9.4075919083918489:8.4038024540873586] [-7.4381974068942531:8.324758791544097] [-9.2147809429124639:9.1560399051025279] [-4.5363163889458216:5.9300420964125484] [-2.7169369275121551:7.6672008158473028] [-8.5246906902207442:6.9218921573270711] [-9.1758656240802576:7.9095205190605737] [-4.1890870037983747:4.0090947980577836] [-0.96105275531677681:5.2637206298725214] none none none none none none none [-3.5078268394947458:3.941327606757639] [-1.1638954346977857:5.5813899241637586] none none none none none none none none none none none none none none none none [-3.9178219070844111:6.1135394278292079] [-1.4595623199647911:6.4147892993319529] none none none none none none none none none none none none none none none none none none none none none none none none none none none none none none none none none none [-1.2675951743392606:4.6061480507628865] [-0.86602539674531487:5.8980933145969017] none none none none none none none none none none none none none none none none none none none none none none none none none none none none none none none none none none [-1.4562367480588871:3.8600175029891357] [-1.2939295098433297:4.218499156464703] none none none none none none none [-1.5486365957913997:3.2523442531732405] [-1.1334556585821227:3.4689714664185254] none none none none none none none none none none none none none none none none none none none none none none none none none none none none none none none none none none none none none none none none none none none [-1.428490791519416:4.0652688281689384] [-1.5536656190101557:4.0528062926080679] none none none none none none none none none none none none none none none none [-2.9733179830803347:5.1919630478362162] [-1.9854841132216277:5.008996499404641] [-4.0959546516165393:5.9721786961031071] [-3.8081316955274884:5.1690562047069673] [-3.0025421109520716:5.6130062686905617] [-4.0164140422174945:5.3254217409109721] [-2.410705037182542:3.9588004333025695] [-3.145269381018831:4.7634139080749938] [-2.9136644852525082:5.1254459017493641] [-2.6962103898348961:4.7279180487069272] [-4.8495857955172408:4.9758755106505443] [-4.0384630918688682:4.5620338376244893] [-2.5297689807124204:4.1816502423048512] [-2.9410917965957024:5.0502983965144956] [-3.892139716303173:4.4319724913380041] [-2.8544806920398922:3.4352272288068924] [-2.9049977361272101:4.4739080773337436] [-3.3108421813639244:4.1449373199371546] [-3.5443748491571507:4.8718265263504401] [-1.4996660804089674:5.5931129565789588] [-5.2779273288886328:3.9340533305309888] [-3.7503932819417565:5.3400651995263377] [-1.6514591027355208:6.4873566389382136] [-5.0122670156981073:3.8154948480241804] [-3.4482379843310396:4.7880048823523538] [-1.7200053544701059:6.3678883259584076] [-5.0333368018214726:4.6381482392888316] [-3.6230335391566637:5.1202745799835085] [-1.499778470412177:5.4211681294001854] [-3.9870652650186056:5.133889189657979] [-3.5676151484523762:5.074700372931658] [-1.9701973309137273:5.5412509968972641] [-3.9088558774475031:4.9521502673322333] [-3.6549510355652024:5.2525879307881773] [-2.2766017562421865:5.2766308861074265] [-4.6322953603930674:4.6987509449395759] [-3.2998319244344776:5.3107911700945181] [-1.4986746649297618:4.9286878247529584] [-4.3116556413135676:4.4118187292667788] [-3.3699956777947078:5.355844177521015] [-2.235401012264763:5.0336482361016355] [-4.1695292396965931:4.3223481074276533] [-3.4174501901437147:5.6131641061246347] [-1.9995720526976095:5.0829065954058512] [-4.2806647506933659:4.5394701323691162] [-2.9827192005082863:5.9783673050589474] [-1.4998822690505966:5.3761210231456236] [-4.9023367389411252:4.8529377669793794] [-2.8865590826297329:5.9542552137832594] [-2.2574056543053733:6.1349473946714959] [-4.741590429848987:5.0509036963656522] [-3.0906378317664642:5.9674789083764956] [-2.0673050621490532:6.6198353156490688] [-5.5422112533332575:5.1427586920856347] [-1.6878341552640583:5.8689895436712618] [-1.6378899421477975:7.0284565475594745] [-6.631421817180958:7.1481477707117502] [-1.8588790579116425:5.3556413778210308] [-2.322546019132707:6.7776141453974965] [-4.1533905301688989:6.3525137030033259] [-1.7470736888934359:5.4082061399971426] [-1.8921329016332149:6.7917104206144732] [-6.4695796208368179:6.2275430964123721] [-2.3583052719520365:5.6920505935858552] [-1.5318547479226317:6.2074302633600276] [-5.0450830242352103:5.4930214732981852] [-2.593843226006916:5.5829810010538363] [-1.9967544863103017:7.4486300596365025] [-6.1253820792559353:4.9588319424466274] [-2.3734453235782698:6.582191229262417] [-2.0596337747984608:7.8292150315637752] [-4.5292278499079774:4.3066631553721111] none none none none none none none none none none none none none none none none none none none none none none none none none none none -1:9:6:5:7:3:2:1:10:4:0:8
tree_sizes=1665 1668 1562 1856 1658 1862 1845 1377 1577 1277 1662 1473 1187 1955 1480 1842 1563 1583 1458 1761 1580 1743 1476 1673 1746 1859 1580 1573 1762 1849 1187 1923

Tree=0
num_leaves=17
num_cat=1
split_feature=421 19 107 107 110 463 424 183 131 185 19 415 180 370 109 381
split_gain=41.949 18.4997 19.7409 29.2206 31.1228 12.1866 9.64468 8.63958 4.73 4.25021 3.24618 2.80783 2.43833 2.11718 1.45535 1.38226
threshold=1.5921237003022743 -0.15047786366828533 0.52954170681619039 0.59670634784652143 0.020310428637693102 0 0.49721840741458223 -0.17094105291254522 -0.58745654569341743 -0.0048409480895005852 -0.11868003337050111 -0.16728432972923277 -0.29134887841202556 0.96539752325568429 -1.0000000180025095e-35 0.21187985794565298
decision_type=10 8 10 10 8 1 8 10 10 10 8 8 8 8 10 8
left_child=1 -1 5 4 -4 6 11 10 15 -10 -7 -3 -12 -5 -13 -9
right_child=-2 2 3 13 -6 7 -8 8 9 -11 12 14 -14 -15 -16 -17
leaf_value=0.16666052904242742 0.18659343669421474 0.17490367361572492 0.15969181825328457 0.1793047530862758 0.17526361957785469 0.16950589973646851 0.18422581597779492 0.17611487041106552 0.18095500839737708 0.17624887940892425 0.17667206384116996 0.1808737790683296 0.17278018561884143 0.17498407137181335 0.17718650956086052 0.17246452723139585
leaf_weight=651 805 682 749 599 559 521 734 514 905 1018 573 524 1330 532 554 516
leaf_count=651 805 682 749 599 559 521 734 514 905 1018 573 524 1330 532 554 516
internal_value=0.175613 0.174802 0.17532 0.171395 0.16632 0.176539 0.179415 0.175196 0.17701 0.178472 0.172986 0.177412 0.173952 0.177279 0.178995 0.17428
internal_weight=11766 10961 10310 2439 1308 7871 2494 5377 2953 1923 2424 1760 1903 1131 1078 1030
internal_count=11766 10961 10310 2439 1308 7871 2494 5377 2953 1923 2424 1760 1903 1131 1078 1030
cat_boundaries=0 1
cat_threshold=518
is_linear=0
shrinkage=1


Tree=1
num_leaves=16
num_cat=1
split_feature=421 19 177 177 110 463 424 177 123 177 177 181 130 113 182
split_gain=37.891 16.7114 18.4931 24.7602 27.5008 10.9479 8.78062 7.15093 5.94126 4.92626 9.69543 4.7055 2.5689 2.1633 1.80314
threshold=1.5218319390056745 -0.15047786366828533 -0.5294991483423388 -0.61961082918735977 1.0000000180025095e-35 0 0.49721840741458223 -0.094367996576620969 -0.014440945063438553 0.45787430845957683 0.56056630474259872 -0.19408294131862641 -0.25114020452226521 0.033005392935729849 -0.11038575210248837
decision_type=10 8 8 10 8 1 8 8 10 8 8 10 8 10 10
left_child=1 -1 3 13 -5 6 12 8 -7 11 -11 -9 -4 -3 -14
right_child=-2 2 5 4 -6 7 -8 9 -10 10 -12 -13 14 -15 -16
leaf_value=-0.0085685359403992502 0.010136463892379264 0.003246462502630667 -0.0006704773024456067 -0.015019509188674575 -0.00039536701084149105 0.0057479828940679503 0.0083127234296005957 -0.005680131187034582 -0.00092849428285142292 0.0035390924137728118 -0.0034666241068955239 -0.00087597806355798062 0.0052759439267277925 -0.0011372434298996584 0.001175583778164798
leaf_weight=645 850 633 679 747 562 741 711 968 600 1075 905 1075 540 500 535
leaf_count=645 850 633 679 747 562 741 711 968 600 1075 905 1075 540 500 535
internal_value=-2.10941e-08 -0.000793602 -0.000301419 -0.00409559 -0.00876624 0.000883908 0.00363045 -0.000386499 0.00276839 -0.00144122 0.000336318 -0.00316056 0.00173485 0.00131541 0.00325019
internal_weight=11766 10916 10271 2442 1309 7829 2465 5364 1341 4023 1980 2043 1754 1133 1075
internal_count=11766 10916 10271 2442 1309 7829 2465 5364 1341 4023 1980 2043 1754 1133 1075
cat_boundaries=0 1
cat_threshold=518
is_linear=0
shrinkage=0.05


Tree=2
num_leaves=15
num_cat=0
split_feature=421 109 178 178 19 19 20 180 180 177 109 107 385 131
split_gain=34.3145 16.0095 39.3917 16.0897 14.044 8.88468 11.9537 7.04072 21.8409 3.84216 3.63118 3.44927 2.33318 1.50566
threshold=1.5921237003022743 -1.0000000180025095e-35 1.0000000180025095e-35 -0.073332038709768704 -0.11868003337050111 -0.14082245092512977 -0.12975125211304417 0.20862343100864342 0.40878528485483706 0.49999999449182692 0.47600129838927752 -0.34575543933214387 -0.10811289253912966 -0.41186049507184491
decision_type=10 10 10 8 10 8 10 10 10 10 10 8 10 10
left_child=1 3 4 -1 -3 -5 -7 10 -9 11 13 -8 -12 -6
right_child=-2 2 -4 5 7 6 9 8 -10 -11 12 -13 -14 -15
leaf_value=0.0096017380799187507 0.0099309691526951495 -0.0066119766573079115 -0.012197008052992673 -0.0053141836328284521 0.0018570977907889916 0.0070855512450714881 -0.0045708349463755935 -0.0096071941428624436 0.0029246337691698431 0.0033481306066988612 0.0021493299170939738 -2.7961878263299653e-05 -0.002540123593963477 0.0049944571059726117
leaf_weight=517 805 846 889 599 727 704 510 597 819 662 510 2215 542 824
leaf_count=517 805 846 889 599 727 704 510 597 819 662 510 2215 542 824
internal_value=-5.36916e-09 -0.000733554 -0.00255032 0.00127459 -0.000776831 0.000347399 0.00118184 0.000458157 -0.00237413 -5.39069e-05 0.00200048 -0.000885002 -0.000267306 0.00353458
internal_weight=11766 10961 5754 5207 4865 4690 4091 4019 1416 3387 2603 2725 1052 1551
internal_count=11766 10961 5754 5207 4865 4690 4091 4019 1416 3387 2603 2725 1052 1551
is_linear=0
shrinkage=0.05


Tree=3
num_leaves=18
num_cat=1
split_feature=424 184 114 114 180 19 178 177 179 109 114 178 185 191 187 178 463
split_gain=31.5377 16.7434 14.0343 39.4755 17.3699 12.8318 5.90715 5.78689 4.99844 4.8489 4.92665 4.77104 3.97662 3.13318 2.89957 1.67932 1.34759
threshold=0.92784897538117983 0.087142979222208206 0.3353313394528899 -1.0000000180025095e-35 1.0000000180025095e-35 -0.14082245092512977 1.0000000180025095e-35 0.49999999449182692 0.025890505243595111 0.47600129838927752 0.66990111329045965 0.31068159663571104 0.14366989614041048 0.072112141008318462 -0.023050776563327286 -0.48867534012224273 0
decision_type=10 10 8 10 10 10 10 10 10 10 8 8 10 10 8 10 1
left_child=2 8 3 5 6 -1 -5 12 -2 10 -4 16 13 -7 -13 -11 -12
right_child=1 -3 9 4 -6 7 -8 -9 -10 15 11 14 -14 -15 -16 -17 -18
leaf_value=-0.0068148372327033468 -0.00078345183424391798 0.01301780815231493 0.0062093499254146376 -0.0012291055932958858 -0.015267495523031919 -0.0035655176002948891 -0.008557242230376759 0.0052346241572775783 0.0058507424562838448 6.9991091992813501e-05 0.0052050376218548012 -0.0034881182624376967 0.0030871839205326417 0.00053030829232682069 0.0014822678784021982 -0.0037379860232453158 0.0018205793689385673
leaf_weight=578 547 592 601 536 663 755 564 703 583 656 523 615 819 1208 553 513 757
leaf_count=578 547 592 601 536 663 755 564 703 583 656 523 615 819 1208 553 513 757
internal_value=1.6622e-08 0.00624169 -0.00107266 -0.00266204 -0.00889859 5.17143e-05 -0.00500816 0.00119869 0.00265002 0.00112316 0.00217195 0.00117011 0.000171263 -0.00105007 -0.00113856 -0.00160989 0.00327299
internal_weight=11766 1722 10044 5826 1763 4063 1100 3485 1130 4218 3049 2448 2782 1963 1168 1169 1280
internal_count=11766 1722 10044 5826 1763 4063 1100 3485 1130 4218 3049 2448 2782 1963 1168 1169 1280
cat_boundaries=0 1
cat_threshold=645
is_linear=0
shrinkage=0.05


Tree=4
num_leaves=16
num_cat=0
split_feature=416 25 109 178 114 114 113 183 177 111 109 107 131 191 183
split_gain=28.8898 16.4022 12.7045 33.2371 6.01912 11.6679 13.1105 5.3017 8.14315 5.23904 3.8678 2.92665 2.86586 2.71338 2.18966
threshold=2.0682701015741931 1.1963432124902005 -1.0000000180025095e-35 1.0000000180025095e-35 -0.58569517789049341 0.3353313394528899 -0.20225046154635798 -0.019534121696926279 0.49999996280841635 -0.30545185640777245 0.47600129838927752 -0.34575543933214387 -0.14573248539066203 -0.2205104324235331 -0.15026250236396635
decision_type=10 8 10 10 10 10 10 10 10 10 10 8 10 8 10
left_child=1 2 7 4 14 6 -6 8 11 12 -7 -1 -9 -13 -4
right_child=-2 -3 3 -5 5 10 -8 9 -10 -11 -12 13 -14 -15 -16
leaf_value=-0.0049931685574207728 0.011374488946517379 0.0058248993805313908 -0.00039625120782200312 -0.011887043611626638 -0.012077747012769827 0.0032305903583036998 -0.0016907517457368849 0.0025687979721685521 0.0041185252894380964 -0.00023737747454627726 -0.0015315693881709494 -0.0038080716310726266 0.0079365213838802056 0.00036647950210938875 0.0034120148544432593
leaf_weight=575 528 924 758 840 523 657 720 500 729 745 1193 556 504 1269 745
leaf_count=575 528 924 758 840 523 657 720 500 729 745 1193 556 504 1269 745
internal_value=2.94347e-07 -0.000538925 -0.00111159 -0.00277282 -0.00109592 -0.00235604 -0.00609202 0.000740616 -0.000492174 0.00294122 0.00016379 -0.00189832 0.00528933 -0.000912259 0.00149647
internal_weight=11766 11238 10314 5436 4596 3093 1243 4878 3129 1749 1850 2400 1004 1825 1503
internal_count=11766 11238 10314 5436 4596 3093 1243 4878 3129 1749 1850 2400 1004 1825 1503
is_linear=0
shrinkage=0.05


Tree=5
num_leaves=18
num_cat=1
split_feature=421 109 110 180 109 107 113 114 110 177 463 180 180 114 111 21 418
split_gain=26.7796 12.1917 20.7144 18.2968 11.9334 9.20592 4.54801 4.45829 4.28138 4.52542 3.9402 2.82631 8.7443 2.59814 2.51207 2.47489 1.19981
threshold=1.5921237003022743 -1.0000000180025095e-35 -0.31253267090709419 1.0000000180025095e-35 -0.063274289262550701 0.49999999997061995 0.033005392935729849 -0.52278968739798426 0.17574114194962301 -0.21528204197240589 0 -0.042905191872340605 -0.35846021401769673 0.61376615717499261 0.24214449277513503 -0.10145409156434267 -0.21289738964597424
decision_type=10 10 10 10 10 10 10 10 10 10 1 10 10 8 10 10 10
left_child=1 4 6 7 8 -5 13 -4 9 -1 -9 12 -10 -3 -11 -8 -15
right_child=-2 2 3 5 -6 -7 15 10 11 14 -12 -13 -14 16 -16 -17 -18
leaf_value=0.0049741960233031556 0.0087734597114943851 0.00011345469387828692 0.0017291120981654702 -0.0060179378495895915 0.0084090565041567457 -0.015175984617931272 0.00083675290267552673 -0.00053688531278519235 0.00051452246304741552 -0.0013502277380343117 -0.0060614370832717882 0.0010774882984932535 -0.0071490244610567383 0.0023513586787808774 0.0030458946523770386 -0.0040012186956969471 0.0058148908153254691
leaf_weight=782 805 697 545 626 500 500 502 593 987 897 723 946 592 518 503 550 500
leaf_count=782 805 697 545 626 500 500 502 593 987 897 723 946 592 518 503 550 500
internal_value=3.26572e-07 -0.000647698 -0.00223311 -0.00511696 0.00110472 -0.0101337 0.000883652 -0.00206257 0.00032072 0.0019406 -0.00363343 -0.00108019 -0.0023722 0.00246856 0.000234455 -0.00169957 0.00407261
internal_weight=11766 10961 5754 2987 5207 1126 2767 1861 4707 2182 1316 2525 1579 1715 1400 1052 1018
internal_count=11766 10961 5754 2987 5207 1126 2767 1861 4707 2182 1316 2525 1579 1715 1400 1052 1018
cat_boundaries=0 1
cat_threshold=1565
is_linear=0
shrinkage=0.05


Tree=6
num_leaves=18
num_cat=0
split_feature=424 184 113 180 107 107 20 183 186 20 183 181 364 181 387 188 135
split_gain=24.7247 15.6727 18.1777 10.4201 8.39044 13.5899 8.94566 6.68073 6.03503 5.13143 3.46553 3.43409 2.93787 2.55267 1.1791 0.794419 0.661035
threshold=0.55124234203193945 0.18139879232013417 0.34610518784101735 0.065417516913501395 0.52954170681619039 0.59670634784652143 -0.16458508598253754 -0.17094215098041315 -0.0065289856677451857 -0.12975125211304417 -0.11190671926658156 -0.1407108363968852 -0.97022425379067656 -0.27820205762423861 0.018460604153939648 -0.16386246266857371 -0.27509215662694003
decision_type=10 10 10 10 10 10 8 8 10 10 8 10 8 10 10 10 10
left_child=4 2 3 -2 6 8 -1 11 -6 -9 -11 13 -12 -8 -15 -7 -13
right_child=1 -3 -4 -5 5 15 7 9 -10 10 12 16 -14 14 -16 -17 -18
leaf_value=-0.0061884271130672385 -0.0052243037415568589 0.011465529270014183 0.0096698623872751507 0.0036072909621453425 -0.0042993316432920758 -0.0011121960676476657 -0.00072528330511830829 0.0058505547703577819 -0.011697182573243658 0.0037339620971276115 -0.0032624065158742932 0.0017074805199752347 0.00082219054375791628 -0.0028854939833371025 -0.0063440047729376716 0.0016617478490832715 -0.0007219157453289734
leaf_weight=598 695 595 563 634 611 522 698 584 512 742 576 561 1812 500 512 501 550
leaf_count=598 695 595 563 634 611 522 698 584 512 742 576 561 1812 500 512 501 550
internal_value=-2.63633e-08 0.00442209 0.00218267 -0.00101346 -0.00118701 -0.00392427 -0.000361311 0.000176235 -0.00770907 0.00156862 0.000761637 -0.00165645 -0.000167797 -0.00305942 -0.00465784 0.000247779 0.000506963
internal_weight=11766 2487 1892 1329 9279 2146 7133 6535 1123 3714 3130 2821 2388 1710 1012 1023 1111
internal_count=11766 2487 1892 1329 9279 2146 7133 6535 1123 3714 3130 2821 2388 1710 1012 1023 1111
is_linear=0
shrinkage=0.05


Tree=7
num_leaves=13
num_cat=2
split_feature=416 19 424 109 178 463 19 180 110 463 395 122
split_gain=23.9673 16.1686 16.6089 9.62643 28.7705 5.08246 5.03799 5.47854 2.77753 2.97498 2.24312 1.93428
threshold=2.0682701015741931 -0.15047786366828533 1.224519268784708 -1.0000000180025095e-35 1.0000000180025095e-35 0 -1.0000000180025095e-35 0.20862343100864342 0.807820998385684 1 0.16998409118171984 -0.33595843476984238
decision_type=10 8 10 10 10 1 10 10 8 1 8 8
left_child=1 -1 3 5 6 10 -5 -8 9 -7 -3 -10
right_child=-2 2 -4 4 -6 8 7 -9 11 -11 -12 -13
leaf_value=-0.0079937985083174522 0.010359852849376431 0.0021135691637320883 0.0074191924946800259 -0.0047052318265256264 -0.010370355660489473 0.0022071742584503138 0.0017306595140710525 -0.0022420833365162187 -0.0041528327775449724 -0.0021198381955096954 0.00635224320005976 -0.0001404265936963667
leaf_weight=670 528 839 697 574 856 1599 2412 1349 515 515 500 712
leaf_count=670 528 839 697 574 856 1599 2412 1349 515 515 500 712
internal_value=-1.08763e-07 -0.000491246 -1.20371e-05 -0.000540253 -0.00202194 0.00110362 -0.000363388 0.000304626 5.32497e-05 0.00115095 0.00368666 -0.00183454
internal_weight=11766 11238 10568 9871 5191 4680 4335 3761 3341 2114 1339 1227
internal_count=11766 11238 10568 9871 5191 4680 4335 3761 3341 2114 1339 1227
cat_boundaries=0 1 2
cat_threshold=518 224
is_linear=0
shrinkage=0.05


Tree=8
num_leaves=15
num_cat=1
split_feature=421 19 463 415 177 107 177 123 177 177 107 182 114 21
split_gain=20.9049 10.3683 12.1014 9.58031 8.47927 11.4902 5.14386 5.05772 3.72226 6.0198 4.64056 3.24441 3.40565 1.81781
threshold=1.5921237003022743 -0.15047786366828533 0 1.159506871341087 -0.50243681435924514 0.59670634784652143 -0.094367996576620969 -0.014440945063438553 0.45787430845957683 0.56056630474259872 -0.34575543933214387 -0.16398072210570222 -1.0000000180025095e-35 -0.36353312244003982
decision_type=10 8 1 8 8 10 8 10 10 10 8 10 10 10
left_child=1 -1 3 11 5 -4 7 -6 10 -10 -8 13 -13 -3
right_child=-2 2 4 -5 6 -7 8 -9 9 -11 -12 12 -14 -15
leaf_value=-0.0066677565261487673 0.0077512052839759874 0.0012727514624340734 -0.0079380287966658511 0.0086112378722385235 0.0051105663156879163 0.00019079816716858122 -0.0055253275614868431 -0.0010927098562797102 0.0028346001310252467 -0.002793031368649813 -0.00074994487677232271 0.0023427740021561279 -0.0023213368775486742 0.005332987929108593
leaf_weight=651 805 575 978 511 734 779 849 589 1076 843 1263 690 891 532
leaf_count=651 805 575 978 511 734 779 849 589 1076 843 1263 690 891 532
internal_value=-1.32376e-07 -0.000572682 -0.000184778 0.0023627 -0.0013331 -0.00434364 -0.000344506 0.00235515 -0.00123237 0.000361597 -0.00267811 0.00116982 -0.000284798 0.00323922
internal_weight=11766 10961 10310 3199 7111 1757 5354 1323 4031 1919 2112 2688 1581 1107
internal_count=11766 10961 10310 3199 7111 1757 5354 1323 4031 1919 2112 2688 1581 1107
cat_boundaries=0 1
cat_threshold=518
is_linear=0
shrinkage=0.05


Tree=9
num_leaves=12
num_cat=0
split_feature=416 19 25 177 107 110 376 189 177 123 370
split_gain=20.4829 12.8419 18.4823 9.95531 13.6287 13.9655 6.92157 5.94823 6.99761 4.95116 0.972745
threshold=1.8659174145569239 -0.15047786366828533 1.1963432124902005 -0.50243681435924514 0.59670634784652143 0.020310428637693102 1.3064245475808813 -0.22783030536349497 0.45787430845957683 0.22584986416771707 0.96539752325568429
decision_type=10 8 8 8 10 8 10 8 10 10 8
left_child=1 -1 3 4 5 -3 7 9 -9 -5 -6
right_child=-2 2 -4 6 10 -7 -8 8 -10 -11 -12
leaf_value=-0.0072192039574481438 0.0088380552783320493 -0.011344688227443472 0.0071914178307023032 0.0051178308113583384 0.0021543797454782062 -0.00081695283642260709 -0.0043569662702852875 -0.0017476773928337694 0.0021313316115365711 -0.00037478650823987401 -0.00087603715908861172
leaf_weight=662 616 748 805 1168 553 543 733 2853 1955 630 500
leaf_count=662 616 748 805 1168 553 543 733 2853 1955 630 500
internal_value=9.29789e-09 -0.000492006 -6.41488e-05 -0.000670743 -0.00350383 -0.00693691 0.000235884 0.000748415 -0.000169843 0.00319757 0.000718096
internal_weight=11766 11150 10488 9683 2344 1291 7339 6606 4808 1798 1053
internal_count=11766 11150 10488 9683 2344 1291 7339 6606 4808 1798 1053
is_linear=0
shrinkage=0.05


Tree=10
num_leaves=16
num_cat=1
split_feature=416 114 114 180 110 424 25 110 410 177 114 463 114 187 114
split_gain=18.6381 11.8055 30.7654 16.4294 11.4103 14.499 10.2449 4.50539 3.81208 3.25935 2.99496 3.22488 3.04286 1.90358 1.86232
threshold=2.0682701015741931 0.3353313394528899 -1.0000000180025095e-35 1.0000000180025095e-35 0.50909203271140391 0.51268028895461881 0.83402038136823997 0.8625490207787857 0.3195841274773672 0.49999999449182692 0.66990111329045965 0 0.8036252626467858 -0.21928465698864638 1.1940421556323531
decision_type=10 8 10 10 10 10 8 10 10 8 10 1 10 10 10
left_child=1 2 4 8 5 9 10 -6 -4 13 11 -3 -12 -1 -14
right_child=-2 6 3 -5 7 -7 -8 -9 -10 -11 12 -13 14 -15 -16
leaf_value=-0.0028274174251368069 0.0091358395966073935 0.0047975467052588962 -0.005988538289047678 -0.012894682180866885 -0.00497774975846128 0.010058493356672653 0.0075275612512275243 -0.00012266147082942174 -0.00051516135476635169 0.0042800399991850951 -0.0028504922362583779 0.00023039807161674073 0.0022570818672580941 0.00081711436198400036 -0.0012356496939364787
leaf_weight=509 528 691 695 731 928 515 608 980 585 503 880 870 919 1178 646
leaf_count=509 528 691 695 731 928 515 608 980 585 503 880 870 919 1178 646
internal_value=-1.88324e-08 -0.000433125 -0.0017851 -0.0069377 0.000466212 0.00255278 0.00150765 -0.00249088 -0.00349877 0.000768845 0.000585744 0.00229308 -0.000506755 -0.000287616 0.00081601
internal_weight=11766 11238 6624 2011 4613 2705 4614 1908 1280 2190 4006 1561 2445 1687 1565
internal_count=11766 11238 6624 2011 4613 2705 4614 1908 1280 2190 4006 1561 2445 1687 1565
cat_boundaries=0 1
cat_threshold=646
is_linear=0
shrinkage=0.05


Tree=11
num_leaves=14
num_cat=0
split_feature=416 19 25 177 177 178 183 131 181 380 179 191 365
split_gain=16.836 11.7265 15.7557 8.35117 10.9834 8.29588 5.15873 3.92366 3.76656 2.29911 1.97635 1.49892 0.926377
threshold=2.0682701015741931 -0.15047786366828533 1.2358002239603545 -0.50243681435924514 -0.61961082918735977 1.0000000180025095e-35 -0.17094105291254522 -0.58745654569341743 0.084654350863032954 -0.44090719069559853 -0.45867953185697813 0.06127998934608106 0.60204228561179096
decision_type=10 8 8 8 10 10 10 10 10 8 10 10 10
left_child=1 -1 3 4 12 -6 9 11 -9 -5 -11 -8 -3
right_child=-2 2 -4 6 5 -7 7 8 -10 10 -12 -13 -14
leaf_value=-0.0068006363306108309 0.0086833327155521819 -0.00099146249947043119 0.0067204386366766988 -0.003260540659476232 -0.0021754182267750793 -0.010236024787540786 0.00059960778344882778 0.0035537116415538931 -0.00067107635763738959 0.0022017212729271945 -0.0011649537383333047 -0.0028825287247953159 0.0019224169653633536
leaf_weight=670 528 509 800 951 633 646 740 2110 701 569 1808 524 577
leaf_count=670 528 509 800 951 633 646 740 2110 701 569 1808 524 577
internal_value=3.59037e-07 -0.000411277 -3.17418e-06 -0.000556995 -0.00314023 -0.00627069 0.000269819 0.00146181 0.00250082 -0.00118972 -0.000356118 -0.000849606 0.000558419
internal_weight=11766 11238 10568 9768 2365 1279 7403 4075 2811 3328 2377 1264 1086
internal_count=11766 11238 10568 9768 2365 1279 7403 4075 2811 3328 2377 1264 1086
is_linear=0
shrinkage=0.05


Tree=12
num_leaves=11
num_cat=0
split_feature=424 20 20 109 178 178 113 113 183 177
split_gain=15.3946 9.37757 12.8069 8.77285 21.6338 11.9736 5.0907 12.6127 4.1771 4.09608
threshold=2.0507186082964575 -0.16458508598253754 -0.14579116734514722 -1.0000000180025095e-35 1.0000000180025095e-35 -0.073332038709768704 -0.47650454712553608 -0.30703731989708632 0.12005820861440565 0.49999996280841635
decision_type=10 8 10 8 10 10 8 8 10 10
left_child=1 -1 -3 5 6 -4 -5 -8 9 -7
right_child=-2 2 3 4 -6 8 7 -9 -10 -11
leaf_value=-0.005367157828304262 0.0083031955831111923 0.0071227669448480808 0.0083180881725734498 0.0038417430848030551 -0.0088083612304268727 -0.0015989997712394937 -0.0080157872158504659 0.00012067187457885786 0.0033240483987114159 0.0030764901210647904
leaf_weight=869 528 594 527 624 896 2256 547 3472 867 586
leaf_count=869 528 594 527 624 896 2256 547 3472 867 586
internal_value=2.45475e-07 -0.000393375 2.58514e-05 -0.00040883 -0.00171808 0.00130315 -0.000341799 -0.000995313 0.000296564 -0.000631237
internal_weight=11766 11238 10369 9775 5539 4236 4643 4019 3709 2842
internal_count=11766 11238 10369 9775 5539 4236 4643 4019 3709 2842
is_linear=0
shrinkage=0.05


Tree=13
num_leaves=19
num_cat=1
split_feature=416 184 25 114 114 184 25 183 177 20 127 113 113 138 127 127 463 109
split_gain=14.4789 9.94933 9.95116 9.41942 21.9508 8.31221 5.16613 4.80186 5.0836 3.62446 3.52904 2.32374 3.27502 2.25946 2.15793 1.80184 0.939703 0.820532
threshold=2.0682701015741931 0.18853979474661847 0.2094453296615448 0.3353313394528899 -1.0000000180025095e-35 -0.092167798500625189 0.72661678978218147 -0.019534121696926279 0.45787430845957683 -0.11868002853356478 -0.38099003079186305 0.033005392935729849 0.36282136601612208 -0.12832914018316741 -0.16083240440921884 0.24406588160556722 0 -1.0000000180025095e-35
decision_type=10 10 10 8 10 10 8 8 10 10 10 8 8 8 10 10 1 10
left_child=1 3 15 4 7 14 11 8 9 -1 -9 13 -13 -5 -6 17 -14 -3
right_child=-2 2 -4 6 5 -7 -8 10 -10 -11 -12 12 16 -15 -16 -17 -18 -19
leaf_value=-0.0058600079326471318 0.0080526982106689515 0.0030048562437151702 0.0075351500995210416 -0.00077061883806498312 -0.0066274777914299325 -0.011505488991535811 0.0053775636674677834 0.0055859338657347846 0.0023482332163859824 -0.0011844491518589993 -0.00031067236566326942 -0.0045935742588798434 0.001564499480130265 0.0032748466196075294 -0.0020696285048802904 -0.0016860221631041315 -0.0012518546299255279 0.0002782240251099375
leaf_weight=620 528 552 685 606 516 665 524 505 657 1241 504 501 607 792 531 632 551 549
leaf_count=620 528 552 685 606 516 665 524 505 657 1241 504 501 607 792 531 632 551 549
internal_value=4.52318e-07 -0.000381283 0.00245691 -0.00116032 -0.0025103 -0.00714672 0.000815437 -0.000252861 -0.00142045 -0.00275366 0.00265354 2.59389e-05 -0.00123785 0.00152474 -0.00433673 0.000433743 0.000227488 0.00165266
internal_weight=11766 11238 2418 8820 5239 1712 3581 3527 2518 1861 1009 3057 1659 1398 1047 1733 1158 1101
internal_count=11766 11238 2418 8820 5239 1712 3581 3527 2518 1861 1009 3057 1659 1398 1047 1733 1158 1101
cat_boundaries=0 1
cat_threshold=672
is_linear=0
shrinkage=0.05


Tree=14
num_leaves=14
num_cat=1
split_feature=416 19 25 177 107 186 463 177 115 189 188 115 370
split_gain=13.08 9.71784 13.1836 6.57093 9.38223 6.75132 4.53354 3.62079 2.81811 2.1847 2.55356 0.964731 0.763816
threshold=2.0682701015741931 -0.15047786366828533 1.2358002239603545 -0.50243681435924514 0.59670634784652143 0.050710177029432833 0 -0.22890114580427892 0.51743836600413873 0.24075147470247146 0.14672794766280101 -0.18963052691797075 0.96539752325568429
decision_type=10 8 8 8 10 10 1 8 10 8 8 10 8
left_child=1 -1 3 4 5 -3 7 -5 -9 10 -8 -11 -6
right_child=-2 2 -4 6 12 -7 9 8 -10 11 -12 -13 -14
leaf_value=-0.0061788108821923815 0.0076538402421398206 -0.0026348638551446351 0.0061595091387493571 0.0046429934927500428 0.0019427196779746082 -0.0099881496273073432 0.00092652302633132477 0.0016856107650920797 -0.0020660987059964745 -0.00088654170202573162 -0.0025560981637541527 -0.0035331621233533634 -0.00072435151976751942
leaf_weight=670 528 772 800 752 562 525 1909 1918 672 586 721 845 506
leaf_count=670 528 772 800 752 562 525 1909 1918 672 586 721 845 506
internal_value=4.67665e-07 -0.000362358 9.14645e-06 -0.000497462 -0.00278887 -0.00563826 0.000235952 0.0015959 0.000710089 -0.000885549 -3.1257e-05 -0.00245622 0.00068162
internal_weight=11766 11238 10568 9768 2365 1297 7403 3342 2590 4061 2630 1431 1068
internal_count=11766 11238 10568 9768 2365 1297 7403 3342 2590 4061 2630 1431 1068
cat_boundaries=0 1
cat_threshold=647
is_linear=0
shrinkage=0.05


Tree=15
num_leaves=18
num_cat=2
split_feature=416 114 114 110 25 191 25 463 178 113 113 382 463 392 138 25 133
split_gain=11.8318 8.279 21.5043 8.5327 10.2389 7.53761 7.26903 3.19684 2.87307 2.6928 3.79528 2.33707 1.74494 1.34242 1.33751 1.38626 0.411477
threshold=1.8659174145569239 0.3353313394528899 -1.0000000180025095e-35 0.50909203271140391 0.33196746726013615 0.15057265758662089 0.83402038136823997 0 1.0000000180025095e-35 0.033005392935729849 0.35596400714716459 0.0080538255754265594 1 -0.1698246773738887 -0.44567796324683845 -0.59562323718499088 -0.51762090473580424
decision_type=10 8 10 10 10 10 8 1 10 8 8 10 1 10 8 10 10
left_child=1 2 3 4 12 8 9 -5 -4 14 -11 -9 -1 -12 -3 -16 -14
right_child=-2 6 5 7 -6 -7 -8 11 -10 10 13 -13 16 -15 15 -17 -18
leaf_value=0.0020638394158514987 0.00671747780526415 -0.00039092836784449414 -0.0058439029103112029 -0.0046298607660415873 0.0075712166994357554 -0.002221890473486512 0.0064707057668958248 0.0017668258400078197 -0.010929003066048236 -0.0042158158948926907 -0.00054951250175089283 -0.0027848383968812414 -0.0019052505175286172 0.0026104735345742489 0.00048583790733619205 0.0037183976629009512 -1.3887269594101048e-06
leaf_weight=889 616 508 574 770 661 848 579 574 582 571 940 545 522 517 513 942 615
leaf_count=889 616 508 574 770 661 848 579 574 582 571 940 545 522 517 513 942 615
internal_value=3.26266e-07 -0.000373618 -0.0015086 0.000384218 0.00219287 -0.00582091 0.00126042 -0.00218749 -0.00844009 0.000497374 -0.000779603 -0.000448562 0.000423822 0.000576866 0.00181526 0.00258424 -0.000872333
internal_weight=11766 11150 6580 4576 2687 2004 4570 1889 1156 3991 2028 1119 2026 1457 1963 1455 1137
internal_count=11766 11150 6580 4576 2687 2004 4570 1889 1156 3991 2028 1119 2026 1457 1963 1455 1137
cat_boundaries=0 1 2
cat_threshold=560 805
is_linear=0
shrinkage=0.05


Tree=16
num_leaves=15
num_cat=2
split_feature=184 134 19 111 179 424 111 181 181 191 463 189 463 188
split_gain=12.1078 16.5101 11.8799 8.61826 11.7201 10.2352 9.72411 6.63951 6.65358 5.36297 3.24189 2.69186 1.93268 2.10671
threshold=0.18853979474661847 0.65311093709056267 1.0000000180025095e-35 -0.5776162498338987 0.42773698076999783 0.23116820595549278 -1.4999999817520606 -0.14719284921711945 -0.19056899759465515 -0.19870757937167205 0 0.01282910466038519 1 0.15322397176424948
decision_type=10 8 8 8 10 10 10 8 10 8 1 8 1 10
left_child=2 12 3 6 7 -6 -1 8 10 -9 -5 -11 -2 -14
right_child=1 -3 -4 4 5 -7 -8 9 -10 11 -12 -13 13 -15
leaf_value=-0.00061471947146689537 0.0028981183716876046 0.010504107814227205 0.0053668964311286852 -0.00037785458859282384 0.00021016712408262244 0.009027193219118974 -0.0099401061480653141 -0.0042244646359027816 -0.0079302698868294295 0.0026298257751907334 -0.0044130928642751241 -0.0005918374394997955 0.00136589033481918 -0.0028181492700929001
leaf_weight=541 720 571 707 1161 939 502 575 659 653 1138 869 1495 733 503
leaf_count=541 720 571 707 1161 939 502 575 659 653 1138 869 1495 733 503
internal_value=1.57033e-07 0.00306354 -0.000838927 -0.00135601 -0.000737822 0.00330234 -0.00544237 -0.00171414 -0.00355791 -0.000208344 -0.0021354 0.000802932 0.000870232 -0.000338603
internal_weight=11766 2527 9239 8532 7416 1441 1116 5975 2683 3292 2030 2633 1956 1236
internal_count=11766 2527 9239 8532 7416 1441 1116 5975 2683 3292 2030 2633 1956 1236
cat_boundaries=0 1 2
cat_threshold=1607 899
is_linear=0
shrinkage=0.05


Tree=17
num_leaves=15
num_cat=1
split_feature=424 19 463 424 20 184 110 110 24 130 138 109 416 125
split_gain=11.0684 7.3131 10.2035 6.41344 5.53772 4.75489 4.82843 7.96733 2.76909 2.67385 2.13108 1.52892 0.934586 0.892237
threshold=2.0507186082964575 -0.15047786366828533 0 0.51268028895461881 -0.14579116734514722 0.1492554423166885 -0.31757370327894197 0.18343515298456978 0.3143093019572612 -0.097939376567935679 -0.5286847648820876 -0.0077256931296684735 -0.34955928816468546 -0.045990609607990847
decision_type=10 8 1 10 8 10 10 10 10 8 8 10 8 10
left_child=1 -1 3 9 -4 6 10 -8 12 13 -6 -11 -7 -3
right_child=-2 2 4 -5 5 8 7 -9 -10 11 -12 -13 -14 -15
leaf_value=-0.0053400663486860324 0.0070403882333140398 -0.002482639946991768 0.0034901110412861101 0.0057951620775429993 -0.0028012814377598263 0.00092813890953056611 -0.0063391483592256589 -0.0011253932845329759 -0.0019623760274894977 0.0042048944709824421 0.00066107911395714728 0.00087139541296512354 0.0039655514734711975 0.00043217945906903158
leaf_weight=680 528 510 604 926 635 510 1362 1585 540 612 1450 785 506 533
leaf_count=680 528 510 604 926 635 510 1362 1585 540 612 1450 785 506 533
internal_value=9.19639e-08 -0.000333669 -8.85155e-06 0.00225734 -0.00107195 -0.00149417 -0.00224061 -0.00354166 0.000919214 0.000914836 -0.000397584 0.00234153 0.00245288 -0.000998136
internal_weight=11766 11238 10558 3366 7192 6588 5032 2947 1556 2440 2085 1397 1016 1043
internal_count=11766 11238 10558 3366 7192 6588 5032 2947 1556 2440 2085 1397 1016 1043
cat_boundaries=0 1
cat_threshold=518
is_linear=0
shrinkage=0.05


Tree=18
num_leaves=14
num_cat=0
split_feature=184 134 19 20 177 177 367 424 134 192 24 189 113
split_gain=10.3266 14.6068 10.173 9.15131 7.68953 10.3795 7.29134 7.30418 4.58568 3.09991 2.00226 1.76864 1.39632
threshold=0.18853979474661847 0.65311093709056267 1.0000000180025095e-35 -0.14579116734514722 -0.5294991483423388 -0.73185338462998673 -1.2820809242261677 0.46763459326204221 -0.59613437773098588 0.14144556709465009 0.41404301065711585 -0.29431432380921146 -0.092986477873645959
decision_type=10 8 8 10 8 10 8 10 10 10 10 8 10
left_child=2 10 3 -1 5 -5 -6 11 -7 -9 12 -8 -2
right_child=1 -3 -4 4 6 8 7 9 -10 -11 -12 -13 -14
leaf_value=-0.0074439820950962677 0.003537710567374377 0.0098278678665085165 0.0049680428024923588 0.00073289848313940929 -0.004598121988523207 -0.0027052571722883381 0.0022296544816690048 0.0017200152405387075 -0.0088958872164894374 0.0071524452293854658 -0.001524977403998695 -0.00063046096748616486 0.00028590585867376526
leaf_weight=553 642 571 707 890 714 518 636 523 723 531 638 3444 676
leaf_count=553 642 571 707 890 714 518 636 523 723 531 638 3444 676
internal_value=2.43215e-07 0.00282934 -0.000774668 -0.00125317 -0.000819706 -0.00338722 0.000117987 0.000777705 -0.00633311 0.00447769 0.000766466 -0.000182436 0.00187725
internal_weight=11766 2527 9239 8532 7979 2131 5848 5134 1241 1054 1956 4080 1318
internal_count=11766 2527 9239 8532 7979 2131 5848 5134 1241 1054 1956 4080 1318
is_linear=0
shrinkage=0.05


Tree=19
num_leaves=17
num_cat=2
split_feature=424 109 178 178 19 189 191 189 180 180 189 463 186 189 423 463
split_gain=9.60828 6.45365 13.4063 9.95646 6.71241 3.64397 3.49548 4.50703 3.47015 11.3859 3.4079 3.37213 2.65546 2.49026 1.85515 1.1739
threshold=2.0507186082964575 -1.0000000180025095e-35 1.0000000180025095e-35 -0.073332038709768704 -1.0000000180025095e-35 -0.3246248283860681 -0.025626640035274238 -0.023374658409430506 0.20862343100864342 0.40878528485483706 0.01282910466038519 0 -0.05032606460686926 0.33934989598407056 0.05730786538953412 1
decision_type=10 8 10 10 8 10 10 10 8 8 10 1 10 10 10 1
left_child=1 3 4 -1 -3 14 7 -7 11 -10 -8 -6 -11 -13 -5 -12
right_child=-2 2 -4 5 8 6 10 -9 9 12 15 13 -14 -15 -16 -17
leaf_value=0.0074581973198217582 0.0065598407104798364 -0.0041591862366616916 -0.0070138335402073612 0.0007157560746778646 -0.00084363213470112816 -0.0051779921455723426 0.0030730355566906896 0.00076687722419637079 -0.0067747783205740503 -0.00044954744756624059 0.00055697123090910267 0.0042149095813176669 0.0042904880543779365 1.4362337825282231e-06 0.0049392461137754357 -0.0025152069025411133
leaf_weight=533 528 980 898 520 919 725 884 564 614 693 615 1153 509 503 519 609
leaf_count=533 528 980 898 520 919 725 884 564 614 693 615 1153 509 503 519 609
internal_value=3.29941e-07 -0.000310639 -0.00137691 0.00103462 -0.000428798 0.000255277 -0.000537992 -0.00258391 0.000407548 -0.00126417 0.0007162 0.00158668 0.00156713 0.00292136 0.00283902 -0.000991536
internal_weight=11766 11238 6269 4969 5371 4436 3397 1289 4391 1816 2108 2575 1202 1656 1039 1224
internal_count=11766 11238 6269 4969 5371 4436 3397 1289 4391 1816 2108 2575 1202 1656 1039 1224
cat_boundaries=0 1 2
cat_threshold=1098 102
is_linear=0
shrinkage=0.05


Tree=20
num_leaves=15
num_cat=1
split_feature=424 109 178 178 19 19 20 110 184 114 463 113 21 25
split_gain=9.02641 8.09934 14.3674 10.2985 6.07259 3.97252 6.02698 3.61436 4.78852 7.13916 2.95456 2.40258 1.6745 1.3428
threshold=2.7946837223073948 -1.0000000180025095e-35 1.0000000180025095e-35 -0.073332038709768704 -1.0000000180025095e-35 -0.14082245092512977 -0.12975125211304417 -0.69911342230320084 -0.1212357128456313 0.31489184913031271 0 0.25746964325478222 -0.092067472365867334 -0.10802099681395615
decision_type=8 10 10 8 10 10 10 10 10 10 1 10 10 10
left_child=1 3 4 -1 -3 -5 -7 13 12 -10 -8 -12 -9 -6
right_child=-2 2 -4 5 7 6 10 8 9 -11 11 -13 -14 -15
leaf_value=0.0075755910670731374 0.0054328766309582922 -0.0040224738500599109 -0.0072325631664495772 -0.0033116142582681734 0.0011490384530583207 0.0050263055071094369 0.0022835597595018417 0.0033198138207445093 0.0011183017909285936 -0.0055317937682333278 0.00094234968957512529 -0.00239707031925682 -0.00031115716245239296 0.0046004410516616188
leaf_weight=545 713 994 947 638 631 725 960 696 757 856 913 1301 579 511
leaf_count=545 713 994 947 638 631 725 960 696 757 856 913 1301 579 511
internal_value=3.1427e-07 -0.000352424 -0.00160048 0.00111409 -0.000532728 0.000330429 0.000929861 0.000331936 -0.000610181 -0.00241701 -1.22762e-05 -0.00101637 0.00167615 0.00270673
internal_weight=11766 11053 5971 5082 5024 4537 3899 4030 2888 1613 3174 2214 1275 1142
internal_count=11766 11053 5971 5082 5024 4537 3899 4030 2888 1613 3174 2214 1275 1142
cat_boundaries=0 1
cat_threshold=70
is_linear=0
shrinkage=0.05


Tree=21
num_leaves=17
num_cat=0
split_feature=416 114 114 19 424 191 131 134 114 177 114 372 191 114 191 409
split_gain=8.71818 6.16103 14.7199 7.01947 6.45425 5.6781 5.49212 2.92617 2.53507 2.10125 2.0462 1.9596 1.66141 1.55331 1.50625 1.11347
threshold=2.0682701015741931 0.3353313394528899 -0.019196032607713815 -1.0000000180025095e-35 0.51268028895461881 0.15057265758662089 0.98851039460050927 -0.26199419272045515 0.66990111329045965 0.49999999449182692 0.8036252626467858 0.4832989443599916 -0.042286134990820352 1.3156544309456999 0.072112141008318462 0.29753640877170778
decision_type=10 8 10 10 10 10 10 10 10 10 10 8 10 10 10 10
left_child=1 2 3 7 9 12 8 -1 11 15 -10 -3 -4 14 -12 -5
right_child=-2 6 5 4 -6 -7 -8 -9 10 -11 13 -13 -14 -15 -16 -17
leaf_value=-0.00074034530549998523 0.0062488723425919764 0.0039324306991155109 -0.005374239281188891 0.0002169972056854222 0.0054982373163423859 -0.0017197790544623574 0.0060166946285095668 -0.0059371676060501425 -0.0024147138476154546 0.0029120423782876322 0.0033211955678807588 0.00044019348025724605 -0.0092857071554313074 -0.0017078438010981276 -0.0003839753508566669 -0.0023483578770971108
leaf_weight=570 528 737 661 1629 742 855 502 514 890 585 593 879 502 508 505 566
leaf_count=570 528 737 661 1629 742 855 502 514 890 585 593 879 502 508 505 566
internal_value=5.79089e-07 -0.000295636 -0.00127233 0.000288844 0.00137197 -0.00482754 0.00110639 -0.00322047 0.000500352 0.000262753 -0.000498619 0.0020401 -0.00709512 0.000567426 0.00162307 -0.000448336
internal_weight=11766 11238 6624 4606 3522 2018 4614 1084 4112 2780 2496 1616 1163 1606 1098 2195
internal_count=11766 11238 6624 4606 3522 2018 4614 1084 4112 2780 2496 1616 1163 1606 1098 2195
is_linear=0
shrinkage=0.05


Tree=22
num_leaves=14
num_cat=1
split_feature=184 134 19 20 177 110 177 367 424 26 463 188 412
split_gain=8.30285 12.4095 8.0006 7.26399 5.84315 8.2254 8.54331 6.06856 5.73016 4.07362 1.68407 1.85113 1.49484
threshold=0.18853979474661847 0.65311093709056267 1.0000000180025095e-35 -0.14579116734514722 -0.5294991483423388 -0.31253267090709419 -0.73185338462998673 -1.2820809242261677 0.41467309000210545 -1.0000000180025095e-35 0 0.15322397176424948 -0.71419379064323063
decision_type=10 8 8 10 10 10 10 8 10 10 1 10 10
left_child=2 10 3 -1 5 -5 -7 -6 12 -10 -2 -12 -9
right_child=1 -3 -4 4 7 6 -8 8 9 -11 11 -13 -14
leaf_value=-0.0066342799383024495 0.0025298773302248408 0.008987929904479745 0.0043984551043598748 0.0011834959244221613 -0.0041903103358272246 -3.4021306967990027e-05 -0.0080685961089055746 -0.002131647468473359 0.0011023533740659179 0.0071673324190393642 0.0011079343677107038 -0.0028143966622115758 0.0003065185073015135
leaf_weight=553 720 571 707 789 714 518 911 780 609 506 733 503 3152
leaf_count=553 720 571 707 789 714 518 911 780 609 506 733 503 3152
internal_value=5.21987e-07 0.0025373 -0.000694321 -0.00111866 -0.000732475 -0.00291 -0.00516641 0.000107675 0.000719257 0.00387442 0.000636105 -0.000489255 -0.000179239
internal_weight=11766 2527 9239 8532 7979 2218 1429 5761 5047 1115 1956 1236 3932
internal_count=11766 2527 9239 8532 7979 2218 1429 5761 5047 1115 1956 1236 3932
cat_boundaries=0 1
cat_threshold=899
is_linear=0
shrinkage=0.05


Tree=23
num_leaves=16
num_cat=2
split_feature=424 109 178 178 113 113 109 183 111 178 463 423 463 183 111
split_gain=7.63852 6.81878 11.0911 8.87117 5.71805 11.1054 4.58718 4.36138 3.94471 3.83633 3.37923 3.28925 2.60964 2.59933 0.611399
threshold=2.7946837223073948 -1.0000000180025095e-35 1.0000000180025095e-35 -0.073332038709768704 -0.47650454712553608 -0.30703731989708632 0.47600129838927752 -0.019534121696926279 0.2475800877984545 -0.47481455992655747 0 0.29825824886602376 1 -0.22175817386658533 -0.30545185640777245
decision_type=8 10 10 10 10 10 10 10 10 10 1 10 1 10 10
left_child=1 3 4 -1 -3 -6 10 8 13 -8 -7 -9 -10 14 -5
right_child=-2 2 -4 7 5 6 9 11 12 -11 -12 -13 -14 -15 -16
leaf_value=0.0070188141335278164 0.0049981530893332664 0.0035584699123753514 -0.0064174357747136691 0.00049532231582460277 -0.0065771260146333778 0.0034891028456118162 3.2383800210905939e-05 0.0007748314847778649 -0.00071263034071638361 -0.004700044849373225 -0.0011322786331458684 0.0056899947211670448 0.0039486198269758762 -0.0044113743434040674 -0.0018842849803360308
leaf_weight=545 713 726 947 570 786 1089 1126 970 645 686 611 521 544 782 505
leaf_count=545 713 726 947 570 786 1089 1126 970 645 686 611 521 544 782 505
internal_value=6.65163e-07 -0.000323824 -0.00146898 0.00102177 -0.000530763 -0.00122483 -1.93181e-05 0.000294455 -0.000790228 -0.00176726 0.0018435 0.00250561 0.00145473 -0.00222767 -0.000626088
internal_weight=11766 11053 5971 5082 5024 4298 3512 4537 3046 1812 1700 1491 1189 1857 1075
internal_count=11766 11053 5971 5082 5024 4298 3512 4537 3046 1812 1700 1491 1189 1857 1075
cat_boundaries=0 1 2
cat_threshold=948 1400
is_linear=0
shrinkage=0.05


Tree=24
num_leaves=17
num_cat=0
split_feature=416 114 114 180 117 114 182 110 114 24 177 110 107 111 185 412
split_gain=7.43171 4.94489 11.6342 9.09498 5.77803 4.0917 4.87537 3.67828 3.40658 2.62231 2.57623 2.46066 2.33792 2.17557 1.68337 0.722321
threshold=2.0682701015741931 0.3353313394528899 -0.019196032607713815 1.0000000180025095e-35 -1.0708303337629592 0.66990111329045965 -0.14931646521117528 0.50909203271140391 0.8036252626467858 -0.22593527671787014 0.50005748294952934 0.8625490207787857 0.12014505489363124 0.084799113973004284 -0.076033174237645842 -0.19460047375610756
decision_type=10 8 10 10 10 8 10 10 8 10 10 10 10 10 10 10
left_child=1 2 4 9 -1 6 -3 10 -7 -4 13 -9 14 -6 15 -10
right_child=-2 5 3 -5 7 8 -8 11 12 -11 -12 -13 -14 -15 -16 -17
leaf_value=0.0049344815146139479 0.005769858127773037 0.0072541950307929114 -0.0045295575751252868 -0.0087146899271539902 0.0016306223224320613 -0.0023480988189763402 0.00062366780915780072 -0.0041033546157183774 -0.00018036556962786854 8.384620383343972e-05 0.0039982945652377831 -0.00032674971887908217 0.0031931494710973288 -0.0018360975403560417 -0.0023414323968859035 0.0023531793128810114
leaf_weight=569 528 500 506 737 949 983 617 839 560 775 509 884 876 856 519 559
leaf_count=569 528 500 506 737 949 983 617 839 560 775 509 884 876 856 519 559
internal_value=9.58051e-07 -0.00027253 -0.00114753 -0.00430821 0.000240412 0.000983527 0.00361078 -0.000426486 0.000140382 -0.00174899 0.000875316 -0.00217229 0.00111613 -1.39593e-05 -9.8843e-07 0.00109011
internal_weight=11766 11238 6624 2018 4606 4614 1117 4037 3497 1281 2314 1723 2514 1805 1638 1119
internal_count=11766 11238 6624 2018 4606 4614 1117 4037 3497 1281 2314 1723 2514 1805 1638 1119
is_linear=0
shrinkage=0.05


Tree=25
num_leaves=18
num_cat=1
split_feature=463 188 398 24 19 184 188 23 177 177 181 422 434 398 381 117 407
split_gain=7.1264 8.10532 12.4356 3.74345 3.76308 3.73784 3.52424 2.37644 2.03504 2.78901 2.67023 1.81434 1.41099 1.33526 1.3164 1.06739 0.973162
threshold=0 -0.32074146496093975 0.88663779118098196 0.43754428921468552 1.0000000180025095e-35 0.13616554298000647 0.13378050569333322 -0.23061487932336783 -0.50243681435924514 -0.65190613035882106 -0.19056988736224822 0.077996607433347118 -0.091260306608988651 -0.1700003100284472 -0.60409807315954611 -0.10998358578815008 -0.24155063966424031
decision_type=1 8 10 8 10 10 8 10 10 10 10 10 8 8 8 10 8
left_child=1 -1 7 4 5 8 12 -3 9 -2 13 16 -5 -10 -12 -7 -9
right_child=3 2 -4 6 -6 15 -8 11 10 -11 14 -13 -14 -15 -16 -17 -18
leaf_value=-0.002389006426142756 -0.00062569794008595638 0.0036491436152097673 0.0092084372071115968 0.0010740371039713603 0.0037771816731248238 0.0031041680920731139 -0.0051300203044698468 0.0006102816528305192 -0.0010689941495071274 -0.0056598176166571812 0.002491685861306455 0.0024697573770252642 -0.0026524020441147014 -0.0044375323034113361 -0.00038834063477103487 0.00016275399256988839 -0.0024187427388647942
leaf_weight=911 539 752 629 504 522 670 873 503 679 560 560 591 503 520 1329 569 552
leaf_count=911 539 752 629 504 522 670 873 503 679 560 560 591 503 520 1329 569 552
internal_value=1.02613e-06 0.0017321 0.00297998 -0.000871465 -0.000257015 -0.000648238 -0.00281427 0.00133049 -0.00136196 -0.00320487 -0.000701953 0.000263331 -0.00079124 -0.00254227 0.000469776 0.00175943 -0.000978506
internal_weight=11766 3938 3027 7828 5948 5426 1880 2398 4187 1099 3088 1646 1007 1199 1889 1239 1055
internal_count=11766 3938 3027 7828 5948 5426 1880 2398 4187 1099 3088 1646 1007 1199 1889 1239 1055
cat_boundaries=0 1
cat_threshold=518
is_linear=0
shrinkage=0.05


Tree=26
num_leaves=15
num_cat=1
split_feature=415 19 463 20 25 134 181 25 181 181 191 130 24 182
split_gain=6.89884 5.61971 6.15478 6.72963 4.91879 5.95323 3.76738 4.78751 3.33535 2.57881 1.77949 1.77044 1.26033 0.346679
threshold=-1.3278522270071866 -0.15047786366828533 0 -0.12975125211304417 1.0682947655987196 0.84079032922752572 0.084654350863032954 0.69209708815689985 0.35515471141528893 -0.14719284921711945 0.048174966355842397 -0.097939376567935679 0.065755003464617712 0.024755504622448226
decision_type=8 8 1 10 10 8 8 10 8 10 10 8 10 10
left_child=-1 -2 3 -3 5 11 7 9 -8 12 -11 -5 -4 -10
right_child=1 2 6 4 -6 -7 8 -9 13 10 -12 -13 -14 -15
leaf_value=0.0052471638028216434 -0.0046935595003051445 0.0067478576247471033 -0.00082078711643505497 -0.0011910240104418841 -0.0035389606507712466 0.0065182722681040237 -0.0047768246404295348 0.0044870185248784746 0.00026345647753998387 0.0024483830685403957 -0.00055563011306263693 0.0018393964773031563 -0.003137826648022958 -0.001591602477230193
leaf_weight=590 672 553 1511 887 539 506 974 501 500 831 1198 1044 960 500
leaf_count=590 672 553 1511 887 539 506 974 501 500 831 1198 1044 960 500
internal_value=1.01256e-06 -0.000278163 6.41318e-06 0.00170375 0.000762421 0.00171907 -0.000854175 -0.000124542 -0.00270198 -0.000642373 0.000677692 0.0004479 -0.00172549 -0.000667377
internal_weight=11766 11176 10504 3529 2976 2437 6975 5001 1974 4500 2029 1931 2471 1000
internal_count=11766 11176 10504 3529 2976 2437 6975 5001 1974 4500 2029 1931 2471 1000
cat_boundaries=0 1
cat_threshold=518
is_linear=0
shrinkage=0.05


Tree=27
num_leaves=15
num_cat=2
split_feature=424 109 178 178 113 180 109 183 25 177 178 463 463 188
split_gain=6.47317 5.75043 9.04057 7.55312 4.71637 8.97094 3.76667 3.49563 3.43553 3.42524 3.17899 2.78236 2.74887 2.50875
threshold=2.7946837223073948 -1.0000000180025095e-35 1.0000000180025095e-35 -0.073332038709768704 -0.47650454712553608 0.28362530308044165 0.47600129838927752 -0.019534121696926279 0.052441571256759273 0.49999998900467735 -0.47481455992655747 0 1 -0.24994268454212495
decision_type=8 10 10 10 10 10 10 10 10 10 10 1 1 10
left_child=1 3 4 -1 -3 6 11 9 -9 12 -8 -6 -5 -14
right_child=-2 2 -4 7 5 -7 10 8 -10 -11 -12 -13 13 -15
leaf_value=0.0064717230095252907 0.0046016214932490165 0.0032117225757013167 -0.0058168910337349005 0.00071654128314038495 -0.0011086086310091272 -0.005913400180516613 1.2733890927155641e-05 0.00037521218570518277 0.0053180675768153994 0.0026807459288758278 -0.0042979517874408742 0.003115594074026578 -0.0052036424495211092 -0.0011350476384814584
leaf_weight=545 713 726 947 876 593 794 1125 930 561 596 685 1101 634 940
leaf_count=545 713 726 947 876 593 794 1125 930 561 596 685 1101 634 940
internal_value=1.11582e-06 -0.000297597 -0.00134922 0.0009381 -0.000502141 -0.00113247 -4.22424e-05 0.00026699 0.00224656 -0.000704091 -0.001626 0.00164978 -0.00153129 -0.00276762
internal_weight=11766 11053 5971 5082 5024 4298 3504 4537 1491 3046 1810 1694 2450 1574
internal_count=11766 11053 5971 5082 5024 4298 3504 4537 1491 3046 1810 1694 2450 1574
cat_boundaries=0 1 2
cat_threshold=1098 1094
is_linear=0
shrinkage=0.05


Tree=28
num_leaves=17
num_cat=1
split_feature=416 117 114 114 179 111 109 177 131 191 111 22 114 178 463 427
split_gain=6.15805 4.26359 5.28695 6.25724 4.58061 4.68194 3.68582 3.087 3.05431 2.295 1.78957 1.30443 1.29962 1.24978 1.06519 0.750043
threshold=2.0682701015741931 -1.3848527514627607 0.3353313394528899 -0.58882319985093334 0.5776162431336116 -0.42585274273067425 0.47600129838927752 0.49999998900467735 0.50000219174585347 0.23055361951469933 -0.32798462062692074 0.33175144254152605 0.66990111329045965 0.32528685153983433 0 -0.016398240227706713
decision_type=10 8 8 10 10 10 8 10 10 10 10 10 8 10 1 8
left_child=1 -1 3 7 5 -5 8 10 12 -7 -3 15 -4 -14 -12 -8
right_child=-2 2 6 4 -6 9 11 -9 -10 -11 14 -13 13 -15 -16 -17
leaf_value=0.0033815310625177281 0.0052525797422877454 0.0013124432678847638 0.0033254340897481459 0.0015405460250787445 -0.0067034330420405255 -0.0043385882824605489 -0.0014588954251124166 0.0037412112273068282 0.0053017325113777691 -0.00095586524989731874 -5.4173852167846648e-06 -0.0032063170137110577 0.0015238502535801139 -0.0011917492618074143 -0.0029176912669228905 0.0012515381841921689
leaf_weight=750 528 837 505 708 623 1400 507 540 531 785 564 507 1074 693 710 504
leaf_count=750 528 837 505 708 623 1400 507 540 531 785 564 507 1074 693 710 504
internal_value=1.24003e-06 -0.000247712 -0.000508728 -0.00144793 -0.00282937 -0.00198497 0.000831839 0.000386135 0.0019053 -0.00312824 -0.000478916 -0.00115007 0.00110161 0.000458461 -0.00165634 -0.00010819
internal_weight=11766 11238 10488 6167 3516 2893 4321 2651 2803 2185 2111 1518 2272 1767 1274 1011
internal_count=11766 11238 10488 6167 3516 2893 4321 2651 2803 2185 2111 1518 2272 1767 1274 1011
cat_boundaries=0 1
cat_threshold=1806
is_linear=0
shrinkage=0.05


Tree=29
num_leaves=18
num_cat=2
split_feature=415 111 111 421 111 179 407 183 463 183 107 24 191 183 119 463 189
split_gain=5.9398 4.90727 6.26719 10.3715 6.80665 5.18023 4.65343 4.47028 3.72361 3.05052 3.18903 2.58827 2.03644 1.70372 1.32918 1.1787 0.550322
threshold=-1.3278522270071866 -0.5776162498338987 -0.15087846750307018 0.85631646478224888 0.2475800877984545 1.3654236666393871 0.13777181345587564 -0.019534121696926279 0 -0.22565565005530205 0.38622499731985899 0.17141414893333901 -0.09218272564370554 -0.26517668238416969 0.2635184455773531 1 0.012899224442300568
decision_type=8 8 10 10 10 10 10 10 1 10 10 10 10 10 10 1 10
left_child=-1 5 3 7 6 -2 12 13 9 -6 -11 -9 -4 -3 16 -15 -10
right_child=1 2 4 -5 8 -7 -8 11 14 10 -12 -13 -14 15 -16 -17 -18
leaf_value=0.0048690445881532339 -0.0062919309767357143 0.0015647671143944244 -0.0042728532517320155 0.0082927587701855914 -0.0012863146957720159 -0.00021797069883896836 -0.0075196965925404223 0.0046344617362224783 -0.0012467395518136531 0.0047078364891899489 -0.00020295415105238136 8.9667591181590559e-05 -0.0001694537103019196 -0.00018645415059485442 -0.0027675461565830305 -0.0031223720976452166 0.00071954104574398822
leaf_weight=590 645 519 503 516 579 764 502 821 697 943 507 505 748 643 830 737 717
leaf_count=590 645 519 503 516 579 764 502 821 697 943 507 505 748 643 830 737 717
internal_value=1.17817e-06 -0.000257867 0.000140622 0.00174681 -0.000857136 -0.00301087 -0.00347594 0.000688242 0.000220034 0.00176512 0.00299596 0.00291044 -0.00182978 -0.000867002 -0.00118044 -0.00178391 -0.000250671
internal_weight=11766 11176 9767 3741 6026 1409 1753 3225 4273 2029 1450 1326 1251 1899 2244 1380 1414
internal_count=11766 11176 9767 3741 6026 1409 1753 3225 4273 2029 1450 1326 1251 1899 2244 1380 1414
cat_boundaries=0 1 2
cat_threshold=647 582
is_linear=0
shrinkage=0.05


Tree=30
num_leaves=11
num_cat=0
split_feature=130 416 22 19 186 183 183 20 183 121
split_gain=5.5337 5.24872 3.54848 3.20182 3.12893 2.80747 3.24003 2.95698 2.59083 1.16644
threshold=-1.3979121600073792 1.8659174145569239 0.97264396553008414 1.0000000180025095e-35 0.25882960122744325 0.23840905608288146 0.10823096325783953 -1.0000000180025095e-35 0.32725573862137131 -0.18925328065576677
decision_type=8 10 10 8 10 10 10 10 10 10
left_child=-1 2 3 5 -4 6 7 -2 -7 -10
right_child=1 -3 4 -5 -6 8 -8 -9 9 -11
leaf_value=0.004930700213165138 -0.0025955572925811863 0.0046537793778999572 -0.0047848388980178819 0.0029219041690274712 0.00020497546532858305 0.0039443070049813003 -0.004152943880967778 6.2308729820465184e-05 -0.0017609338733209714 0.0015626527082797815
leaf_weight=538 1323 518 822 781 506 629 668 4935 525 521
leaf_count=538 1323 518 822 781 506 629 668 4935 525 521
internal_value=9.27621e-07 -0.000237377 -0.000476004 -0.000132956 -0.00288996 -0.000411884 -0.000856157 -0.000501213 0.00142223 -0.000105937
internal_weight=11766 11228 10710 9382 1328 8601 6926 6258 1675 1046
internal_count=11766 11228 10710 9382 1328 8601 6926 6258 1675 1046
is_linear=0
shrinkage=0.05


Tree=31
num_leaves=19
num_cat=3
split_feature=184 134 180 180 25 25 110 184 463 25 463 178 24 121 113 178 463 377
split_gain=5.5277 9.67498 5.42963 5.69107 7.69287 4.64898 3.75253 2.94109 3.57499 2.75635 1.636 2.63631 1.51711 1.27617 0.950873 0.927106 0.648308 0.460693
threshold=0.18853979474661847 0.65311093709056267 -0.3438713697958507 0.41852414215747802 0.9805220361920034 0.62404125918064723 -0.48061602090990935 -0.059544146141966625 0 0.16593322022208845 1 0.39803489955012422 0.41404301065711585 0.19157049649597002 -0.092986477873645959 0.37685026610075134 2 -0.043815665529706178
decision_type=10 8 8 10 10 10 10 10 1 10 1 10 10 10 10 10 1 10
left_child=2 12 5 4 6 10 13 8 -8 15 -1 17 14 16 -2 -5 -4 -12
right_child=1 -3 3 9 -6 -7 7 -9 -10 -11 11 -13 -14 -15 -16 -17 -18 -19
leaf_value=0.0025792502881852131 0.0027301718095113082 0.0077664999735462623 0.00067520322525706114 0.0011684312749427185 -0.0070724878206477647 0.0054131092692314533 -0.004897691592876929 -0.0051419071723018735 -6.1930741786013228e-05 0.0042439192857663946 -0.00093046003693946248 0.0022699207909555584 -0.0016009334216420656 0.0023945062836083749 4.8259876926861896e-05 -0.0017517393676488786 -0.0017615344154259518 -0.0030264004915726318
leaf_weight=551 642 571 546 581 687 547 524 771 1326 514 522 543 638 569 676 502 521 535
leaf_count=551 642 571 546 581 687 547 524 771 1326 514 522 543 638 569 676 502 521 535
internal_value=9.87131e-07 0.00207085 -0.000565964 -0.00134418 -0.00218188 0.00131972 -0.00138526 -0.00255637 -0.00146787 0.00124792 0.000268629 -0.00054532 0.000392599 0.000493024 0.00136 -0.000186977 -0.000527419 -0.00200057
internal_weight=11766 2527 9239 6541 4944 2698 4257 2621 1850 1597 2151 1600 1956 1636 1318 1083 1067 1057
internal_count=11766 2527 9239 6541 4944 2698 4257 2621 1850 1597 2151 1600 1956 1636 1318 1083 1067 1057
cat_boundaries=0 1 2 3
cat_threshold=290 516 668
is_linear=0
shrinkage=0.05


end of trees

feature_importances:
vix_qoq=32
sector=31
treasury_10y_lag8q=30
vix_yoy=24
vix=23
vix_lag4q=19
volatility=17
returns_3m_qoq=17
volatility_mean12q=17
vix_lag8q=16
treasury_10y_lag4q=16
treasury_10y_yoy=16
vix_lag1q=13
returns_1y_std12q=13
treasury_10y=12
treasury_10y_lag1q=12
returns_3m_yoy=12
volume_trend_qoq=12
returns_1m_qoq=10
volatility_qoq=9
returns_1y=7
volatility_lag8q=7
returns_1y_yoy=7
volatility_lag1q=6
volatility_mean8q=6
treasury_10y_qoq=5
returns_1y_lag8q=4
returns_1m_yoy=4
returns_6m_yoy=4
returns_1y_mean12q=4
returns_1m=3
returns_1m_lag4q=3
returns_6m_lag1q=3
returns_1y_lag1q=3
volume_trend_lag8q=3
returns_6m_qoq=3
vix_mean12q=3
returns_3m=2
returns_1m_lag1q=2
returns_3m_lag4q=2
returns_1y_qoq=2
vix_mean8q=2
treasury_10y_slope12q=2
returns_3m_std12q=2
returns_6m_std12q=2
returns_1y_mean8q=2
volatility_slope8q=2
returns_6m=1
volume_trend=1
returns_3m_lag1q=1
returns_3m_lag8q=1
returns_6m_lag4q=1
volatility_lag4q=1
volume_trend_lag1q=1
volume_trend_yoy=1
vix_mean4q=1
vix_std4q=1
vix_slope12q=1
treasury_10y_mean8q=1
treasury_10y_std8q=1
treasury_10y_std12q=1
returns_1m_mean4q=1
returns_1m_mean8q=1
returns_1m_slope8q=1
returns_3m_std4q=1
returns_3m_std8q=1
returns_1y_mean4q=1
returns_1y_std4q=1
volatility_mean4q=1
volatility_std8q=1
volume_trend_mean4q=1
volume_trend_std12q=1

parameters:
[boosting: gbdt]
[objective: regression]
[metric: rmse]
[tree_learner: serial]
[device_type: cpu]
[data_sample_strategy: bagging]
[data: ]
[valid: ]
[num_iterations: 500]
[learning_rate: 0.05]
[num_leaves: 127]
[num_threads: 0]
[seed: 42]
[deterministic: 0]
[force_col_wise: 0]
[force_row_wise: 0]
[histogram_pool_size: -1]
[max_depth: 7]
[min_data_in_leaf: 500]
[min_sum_hessian_in_leaf: 0.001]
[bagging_fraction: 0.8]
[pos_bagging_fraction: 1]
[neg_bagging_fraction: 1]
[bagging_freq: 0]
[bagging_seed: 42]
[bagging_by_query: 0]
[feature_fraction: 0.8]
[feature_fraction_bynode: 1]
[feature_fraction_seed: 42]
[extra_trees: 0]
[extra_seed: 12879]
[early_stopping_round: 0]
[early_stopping_min_delta: 0]
[first_metric_only: 0]
[max_delta_step: 0]
[lambda_l1: 0]
[lambda_l2: 5]
[linear_lambda: 0]
[min_gain_to_split: 0]
[drop_rate: 0.1]
[max_drop: 50]
[skip_drop: 0.5]
[xgboost_dart_mode: 0]
[uniform_drop: 0]
[drop_seed: 17869]
[top_rate: 0.2]
[other_rate: 0.1]
[min_data_per_group: 100]
[max_cat_threshold: 32]
[cat_l2: 10]
[cat_smooth: 10]
[max_cat_to_onehot: 4]
[top_k: 20]
[monotone_constraints: ]
[monotone_constraints_method: basic]
[monotone_penalty: 0]
[feature_contri: ]
[forcedsplits_filename: ]
[refit_decay_rate: 0.9]
[cegb_tradeoff: 1]
[cegb_penalty_split: 0]
[cegb_penalty_feature_lazy: ]
[cegb_penalty_feature_coupled: ]
[path_smooth: 0]
[interaction_constraints: ]
[verbosity: -1]
[saved_feature_importance_type: 0]
[use_quantized_grad: 0]
[num_grad_quant_bins: 4]
[quant_train_renew_leaf: 0]
[stochastic_rounding: 1]
[linear_tree: 0]
[max_bin: 255]
[max_bin_by_feature: ]
[min_data_in_bin: 3]
[bin_construct_sample_cnt: 200000]
[data_random_seed: 175]
[is_enable_sparse: 1]
[enable_bundle: 1]
[use_missing: 1]
[zero_as_missing: 0]
[feature_pre_filter: 1]
[pre_partition: 0]
[two_round: 0]
[header: 0]
[label_column: ]
[weight_column: ]
[group_column: ]
[ignore_column: ]
[categorical_feature: 463]
[forcedbins_filename: ]
[precise_float_parser: 0]
[parser_config_file: ]
[objective_seed: 16083]
[num_class: 1]
[is_unbalance: 0]
[scale_pos_weight: 1]
[sigmoid: 1]
[boost_from_average: 1]
[reg_sqrt: 0]
[alpha: 0.9]
[fair_c: 1]
[poisson_max_delta_step: 0.7]
[tweedie_variance_power: 1.5]
[lambdarank_truncation_level: 30]
[lambdarank_norm: 1]
[label_gain: ]
[lambdarank_position_bias_regularization: 0]
[eval_at: ]
[multi_error_top_k: 1]
[auc_mu_weights: ]
[num_machines: 1]
[local_listen_port: 12400]
[time_out: 120]
[machine_list_filename: ]
[machines: ]
[gpu_platform_id: -1]
[gpu_device_id: -1]
[gpu_use_dp: 0]
[num_gpu: 1]

end of parameters

pandas_categorical:[["Basic Materials", "Communication Services", "Consumer Cyclical", "Consumer Defensive", "Energy", "Financial Services", "Healthcare", "Industrials", "Real Estate", "Technology", "Utilities"]]
