tree
version=v4
num_class=1
num_tree_per_iteration=1
label_index=0
max_feature_idx=463
objective=regression
feature_names=profit_margins operating_margins gross_margins return_on_equity return_on_assets revenue_growth earnings_growth current_ratio quick_ratio debt_to_equity pe_ratio pb_ratio ps_ratio enterprise_to_ebitda enterprise_to_revenue dividend_yield payout_ratio market_cap beta vix treasury_10y returns_1m returns_3m returns_6m returns_1y volatility volume_trend log_market_cap fcf_yield ocf_yield earnings_yield profit_margins_lag1q profit_margins_lag2q profit_margins_lag4q profit_margins_lag8q operating_margins_lag1q operating_margins_lag2q operating_margins_lag4q operating_margins_lag8q gross_margins_lag1q gross_margins_lag2q gross_margins_lag4q gross_margins_lag8q return_on_equity_lag1q return_on_equity_lag2q return_on_equity_lag4q return_on_equity_lag8q return_on_assets_lag1q return_on_assets_lag2q return_on_assets_lag4q return_on_assets_lag8q revenue_growth_lag1q revenue_growth_lag2q revenue_growth_lag4q revenue_growth_lag8q earnings_growth_lag1q earnings_growth_lag2q earnings_growth_lag4q earnings_growth_lag8q current_ratio_lag1q current_ratio_lag2q current_ratio_lag4q current_ratio_lag8q quick_ratio_lag1q quick_ratio_lag2q quick_ratio_lag4q quick_ratio_lag8q debt_to_equity_lag1q debt_to_equity_lag2q debt_to_equity_lag4q debt_to_equity_lag8q pe_ratio_lag1q pe_ratio_lag2q pe_ratio_lag4q pe_ratio_lag8q pb_ratio_lag1q pb_ratio_lag2q pb_ratio_lag4q pb_ratio_lag8q ps_ratio_lag1q ps_ratio_lag2q ps_ratio_lag4q ps_ratio_lag8q enterprise_to_ebitda_lag1q enterprise_to_ebitda_lag2q enterprise_to_ebitda_lag4q enterprise_to_ebitda_lag8q enterprise_to_revenue_lag1q enterprise_to_revenue_lag2q enterprise_to_revenue_lag4q enterprise_to_revenue_lag8q dividend_yield_lag1q dividend_yield_lag2q dividend_yield_lag4q dividend_yield_lag8q payout_ratio_lag1q payout_ratio_lag2q payout_ratio_lag4q payout_ratio_lag8q market_cap_lag1q market_cap_lag2q market_cap_lag4q market_cap_lag8q beta_lag1q beta_lag2q beta_lag4q beta_lag8q vix_lag1q vix_lag2q vix_lag4q vix_lag8q treasury_10y_lag1q treasury_10y_lag2q treasury_10y_lag4q treasury_10y_lag8q returns_1m_lag1q returns_1m_lag2q returns_1m_lag4q returns_1m_lag8q returns_3m_lag1q returns_3m_lag2q returns_3m_lag4q returns_3m_lag8q returns_6m_lag1q returns_6m_lag2q returns_6m_lag4q returns_6m_lag8q returns_1y_lag1q returns_1y_lag2q returns_1y_lag4q returns_1y_lag8q volatility_lag1q volatility_lag2q volatility_lag4q volatility_lag8q volume_trend_lag1q volume_trend_lag2q volume_trend_lag4q volume_trend_lag8q profit_margins_qoq profit_margins_yoy operating_margins_qoq operating_margins_yoy gross_margins_qoq gross_margins_yoy return_on_equity_qoq return_on_equity_yoy return_on_assets_qoq return_on_assets_yoy revenue_growth_qoq revenue_growth_yoy earnings_growth_qoq earnings_growth_yoy current_ratio_qoq current_ratio_yoy quick_ratio_qoq quick_ratio_yoy debt_to_equity_qoq debt_to_equity_yoy pe_ratio_qoq pe_ratio_yoy pb_ratio_qoq pb_ratio_yoy ps_ratio_qoq ps_ratio_yoy enterprise_to_ebitda_qoq enterprise_to_ebitda_yoy enterprise_to_revenue_qoq enterprise_to_revenue_yoy dividend_yield_qoq dividend_yield_yoy payout_ratio_qoq payout_ratio_yoy market_cap_qoq market_cap_yoy beta_qoq beta_yoy vix_qoq vix_yoy treasury_10y_qoq treasury_10y_yoy returns_1m_qoq returns_1m_yoy returns_3m_qoq returns_3m_yoy returns_6m_qoq returns_6m_yoy returns_1y_qoq returns_1y_yoy volatility_qoq volatility_yoy volume_trend_qoq volume_trend_yoy profit_margins_mean4q profit_margins_std4q profit_margins_slope4q profit_margins_mean8q profit_margins_std8q profit_margins_slope8q profit_margins_mean12q profit_margins_std12q profit_margins_slope12q operating_margins_mean4q operating_margins_std4q operating_margins_slope4q operating_margins_mean8q operating_margins_std8q operating_margins_slope8q operating_margins_mean12q operating_margins_std12q operating_margins_slope12q gross_margins_mean4q gross_margins_std4q gross_margins_slope4q gross_margins_mean8q gross_margins_std8q gross_margins_slope8q gross_margins_mean12q gross_margins_std12q gross_margins_slope12q return_on_equity_mean4q return_on_equity_std4q return_on_equity_slope4q return_on_equity_mean8q return_on_equity_std8q return_on_equity_slope8q return_on_equity_mean12q return_on_equity_std12q return_on_equity_slope12q return_on_assets_mean4q return_on_assets_std4q return_on_assets_slope4q return_on_assets_mean8q return_on_assets_std8q return_on_assets_slope8q return_on_assets_mean12q return_on_assets_std12q return_on_assets_slope12q revenue_growth_mean4q revenue_growth_std4q revenue_growth_slope4q revenue_growth_mean8q revenue_growth_std8q revenue_growth_slope8q revenue_growth_mean12q revenue_growth_std12q revenue_growth_slope12q earnings_growth_mean4q earnings_growth_std4q earnings_growth_slope4q earnings_growth_mean8q earnings_growth_std8q earnings_growth_slope8q earnings_growth_mean12q earnings_growth_std12q earnings_growth_slope12q current_ratio_mean4q current_ratio_std4q current_ratio_slope4q current_ratio_mean8q current_ratio_std8q current_ratio_slope8q current_ratio_mean12q current_ratio_std12q current_ratio_slope12q quick_ratio_mean4q quick_ratio_std4q quick_ratio_slope4q quick_ratio_mean8q quick_ratio_std8q quick_ratio_slope8q quick_ratio_mean12q quick_ratio_std12q quick_ratio_slope12q debt_to_equity_mean4q debt_to_equity_std4q debt_to_equity_slope4q debt_to_equity_mean8q debt_to_equity_std8q debt_to_equity_slope8q debt_to_equity_mean12q debt_to_equity_std12q debt_to_equity_slope12q pe_ratio_mean4q pe_ratio_std4q pe_ratio_slope4q pe_ratio_mean8q pe_ratio_std8q pe_ratio_slope8q pe_ratio_mean12q pe_ratio_std12q pe_ratio_slope12q pb_ratio_mean4q pb_ratio_std4q pb_ratio_slope4q pb_ratio_mean8q pb_ratio_std8q pb_ratio_slope8q pb_ratio_mean12q pb_ratio_std12q pb_ratio_slope12q ps_ratio_mean4q ps_ratio_std4q ps_ratio_slope4q ps_ratio_mean8q ps_ratio_std8q ps_ratio_slope8q ps_ratio_mean12q ps_ratio_std12q ps_ratio_slope12q enterprise_to_ebitda_mean4q enterprise_to_ebitda_std4q enterprise_to_ebitda_slope4q enterprise_to_ebitda_mean8q enterprise_to_ebitda_std8q enterprise_to_ebitda_slope8q enterprise_to_ebitda_mean12q enterprise_to_ebitda_std12q enterprise_to_ebitda_slope12q enterprise_to_revenue_mean4q enterprise_to_revenue_std4q enterprise_to_revenue_slope4q enterprise_to_revenue_mean8q enterprise_to_revenue_std8q enterprise_to_revenue_slope8q enterprise_to_revenue_mean12q enterprise_to_revenue_std12q enterprise_to_revenue_slope12q dividend_yield_mean4q dividend_yield_std4q dividend_yield_slope4q dividend_yield_mean8q dividend_yield_std8q dividend_yield_slope8q dividend_yield_mean12q dividend_yield_std12q dividend_yield_slope12q payout_ratio_mean4q payout_ratio_std4q payout_ratio_slope4q payout_ratio_mean8q payout_ratio_std8q payout_ratio_slope8q payout_ratio_mean12q payout_ratio_std12q payout_ratio_slope12q market_cap_mean4q market_cap_std4q market_cap_slope4q market_cap_mean8q market_cap_std8q market_cap_slope8q market_cap_mean12q market_cap_std12q market_cap_slope12q beta_mean4q beta_std4q beta_slope4q beta_mean8q beta_std8q beta_slope8q beta_mean12q beta_std12q beta_slope12q vix_mean4q vix_std4q vix_slope4q vix_mean8q vix_std8q vix_slope8q vix_mean12q vix_std12q vix_slope12q treasury_10y_mean4q treasury_10y_std4q treasury_10y_slope4q treasury_10y_mean8q treasury_10y_std8q treasury_10y_slope8q treasury_10y_mean12q treasury_10y_std12q treasury_10y_slope12q returns_1m_mean4q returns_1m_std4q returns_1m_slope4q returns_1m_mean8q returns_1m_std8q returns_1m_slope8q returns_1m_mean12q returns_1m_std12q returns_1m_slope12q returns_3m_mean4q returns_3m_std4q returns_3m_slope4q returns_3m_mean8q returns_3m_std8q returns_3m_slope8q returns_3m_mean12q returns_3m_std12q returns_3m_slope12q returns_6m_mean4q returns_6m_std4q returns_6m_slope4q returns_6m_mean8q returns_6m_std8q returns_6m_slope8q returns_6m_mean12q returns_6m_std12q returns_6m_slope12q returns_1y_mean4q returns_1y_std4q returns_1y_slope4q returns_1y_mean8q returns_1y_std8q returns_1y_slope8q returns_1y_mean12q returns_1y_std12q returns_1y_slope12q volatility_mean4q volatility_std4q volatility_slope4q volatility_mean8q volatility_std8q volatility_slope8q volatility_mean12q volatility_std12q volatility_slope12q volume_trend_mean4q volume_trend_std4q volume_trend_slope4q volume_trend_mean8q volume_trend_std8q volume_trend_slope8q volume_trend_mean12q volume_trend_std12q volume_trend_slope12q profit_margins_missing operating_margins_missing gross_margins_missing return_on_equity_missing return_on_assets_missing revenue_growth_missing earnings_growth_missing current_ratio_missing quick_ratio_missing debt_to_equity_missing pe_ratio_missing pb_ratio_missing ps_ratio_missing enterprise_to_ebitda_missing enterprise_to_revenue_missing dividend_yield_missing payout_ratio_missing market_cap_missing beta_missing vix_missing treasury_10y_missing returns_1m_missing returns_3m_missing returns_6m_missing returns_1y_missing volatility_missing volume_trend_missing sector
feature_infos=[-2.2897774539239037:3.7703858444514013] [-2.4628511483902291:2.915723499709495] none [-2.1306654618507039:5.8696735912695042] none none none [-1.7731992971809398:4.7127315273740917] none none none none [-1.2893548481825308:2.8778449793942307] none none none none [-1.2639925431603685:3.8349818549353811] none [-6.614588833337443:8.4025463640795763] [-3.6983648342244746:8.4025462332193257] [-4.5621625804103125:5.54222599592722] [-3.5658257639704423:5.450164897771133] [-3.4775186058033647:5.3502640178166834] [-3.0940189050281708:6.728605649040853] [-1.7888541907738389:5.9259882211284962] [-2.2578277503178001:7.7554980407483693] [-2.3791424327751907:3.245615794141484] [-3.8106157135476555:3.4154264192836079] [-3.0261763227305019:4.0839742997396771] none [-3.0136135703143405:4.0520152523729864] [-3.2223022911688668:3.4872977155771485] [-3.2204060955232494:3.4724078452973548] [-3.2223022911688664:3.4872977155771485] [-3.3153078221961327:3.8782121177924966] [-3.126152684645422:3.7552447874784964] [-3.1251922549851838:3.748544035354834] [-3.1251922549851843:3.7552447874784964] none none none none [-1.8459387119419151:6.892800862036629] [-1.8790746659607449:7.1369503216534946] [-1.8620137791104758:7.1685228662543263] [-1.8790746659607449:7.1369503216534955] none none none none none none none none none none none none [-1.3213939615580188:4.0944841399562835] [-1.4711573865529777:4.4470743932468046] [-1.4711573865529777:4.433721120018725] [-1.4711573865529777:4.433721120018725] none none none none none none none none none none none none [-1.5782507720545518:3.9153967115737074] [-1.3526947215840663:4.8118925467229454] [-1.3526947215840663:4.8118925467229454] [-1.3526947215840663:4.8118925467229454] [-1.2893548481825301:3.14944436312078] [-1.3797192416215545:3.3133919764626252] [-1.215811698438068:3.3133919764626252] [-1.2893548481825308:3.3133919764626261] none none none none none none none none none none none none none none none none [-1.5308506009234453:4.364357791253723] [-1.3603885112155256:5.6486703365208033] [-1.3603885112155256:5.6486703365208033] [-1.3603885112155256:5.6486703365208024] none none none none [-6.3264373464506054:7.5177727414751505] [-5.6594533030558649:7.2721735571421444] [-5.5704849842316113:6.7229781883571649] [-5.2946513831294109:5.8350406251906657] [-6.5591325022252525:6.772328793460396] [-5.613859633058305:5.8270996128706889] [-6.671376346797655:8.133851049414325] [-5.7201692005834968:5.6791827586306614] [-4.0224980402714277:6.0553553809745537] [-3.5405564771945555:6.1780490557035046] [-4.5097734106432288:6.2482398976801026] [-4.3618245697429954:6.311862611023983] [-3.3906644045418575:4.8732702237269638] [-3.1552054129794618:4.5604080295661547] [-3.3910785502102718:5.7617181154850385] [-3.4265636070774712:4.887061602113616] [-3.6566168378043971:5.2956884152360546] [-3.1919129625627543:4.7654817328260348] [-3.1608945804728799:5.3919616224447591] [-3.3337494868739261:4.8293180241994307] [-2.7431306290253601:6.1137626307776172] [-2.6188539698524798:5.9222348165113141] [-3.0462868280115289:6.0720114103434097] [-2.9388247701489587:6.1169520334416703] [-2.3091475636515071:6.2373769943808579] [-1.879583456971502:6.5130341304626933] [-1.9001383649815426:6.061064887258091] [-1.7888535876249747:5.8110955318254032] [-2.621518545198982:5.8178888695729327] [-2.423567734248282:5.8070717833901329] [-2.4160576893639987:5.8070717833901329] [-2.2387418028542165:5.6322542240123372] [-5.2016446254178819:5.5679376228552142] none none none none none [-4.2414995932867781:4.4845700527468786] none none none none none none none [-4.0029908278768671:4.4906037265431422] none none none none none none none none none none none none none none none none none none none none none none none [-6.5591320997347218:6.589902910276181] [-5.6950296839745551:7.827656103447195] [-6.7708069454320539:6.701365717200896] [-5.659452325780193:6.9295145785589831] [-6.7954251441511468:8.0554693806586393] [-9.1955264683414892:9.4026363043461014] [-7.7809094933266936:7.4345260026678908] [-9.3745289525663829:9.407591908413087] [-8.1677900920168689:8.0672971165532488] [-9.4075919083840152:8.4306236969780102] [-8.1577260209859368:8.6671895492129991] [-9.2245964372715328:9.1015443638477773] [-4.5699492150142582:6.1695373001936309] [-3.0433729043089413:7.3454781008323842] [-8.5246906902207442:7.9798011860400146] [-9.1572316540008405:7.9095205190605737] [-2.8191040672415055:3.9199895803621576] [-1.4288495153741299:5.218429751025405] none none none none none none none [-2.6469219332364409:3.941327606757639] [-1.154700427337219:5.5813899241637586] none none none none none none none none none none none none none none none none [-1.7619241023066823:6.1135394278292079] [-1.4251178426503353:6.4147892993319529] none none none none none none none none none none none none none none none none none none none none none none none none none none none none none none none none none none [-1.41543080047943:4.4590627536049174] [-1.4322721500095736:5.8980933145969017] none none none none none none none none none none none none none none none none none none none none none none none none none none none none none none none none none none [-1.4562367480588871:3.8600175029891357] [-1.2939295098433297:4.218499156464703] none none none none none none none [-1.5486365957913997:2.9171574645471323] [-1.3226859957782899:3.4689714664185254] none none none none none none none none none none none none none none none none none none none none none none none none none none none none none none none none none none none none none none none none none none none [-1.5830030646278013:3.5405810588826387] [-1.994951764295285:3.800566823711756] none none none none none none none none none none none none none none none none [-5.6594520783730751:5.7354571211958776] [-5.734518566225729:5.6594528731240548] [-5.7062335958616117:5.9721786961031071] [-5.2294268722469077:5.1698271788212313] [-5.1832144842466663:5.6334263385078298] [-5.9075335739395793:5.5941161802667185] [-5.0177195351629331:5.3249857942010381] [-5.1025202717548339:5.576379645364498] [-5.142143285935977:5.5497626258521784] [-5.5386579270582486:5.6594530061357435] [-5.3983019823681353:5.8627538871133806] [-5.6594525191128922:5.4471095864122798] [-5.0367133018918659:4.8084378610100336] [-5.16969890109198:5.1285513180044227] [-4.9809811965560709:5.6141892018280117] [-5.1315292633334737:4.4349758205145786] [-5.5406165252595345:5.1733619174894052] [-5.1025195760364044:5.4041811645391968] [-3.9566738734287581:5.5820328719808154] [-1.7388113190655521:5.6152484899043156] [-5.2806861924253177:5.1884637451357243] [-3.9448546883047686:5.3313001554340431] [-2.2556994743698895:5.7404154600433586] [-4.622028841217527:4.2542049972281468] [-3.5075565286847592:5.1803713376005209] [-2.4134111954735737:5.5473280555392375] [-4.6416683657371536:4.8284815439510531] [-3.6280800430237905:4.8794075883493502] [-1.7569382009165371:4.8737204570657999] [-4.1892630051662936:4.651364504148142] [-3.5649032135329457:5.592952304563493] [-2.0202716777526675:5.3137995030250469] [-3.8617964648822811:4.4902950411280038] [-3.5641685751698695:5.4938404414844619] [-1.9106652560265684:4.9682889339531782] [-4.3364761014138438:4.4644930206248121] [-3.2602706128429828:5.4393468312638884] [-1.8468720510826748:5.6141012458491746] [-4.3251284867213222:5.1474505524062808] [-3.2970304703710305:5.5639781458236808] [-1.7873195960443073:4.9783700696592836] [-3.9681483430388012:4.383707755994779] [-3.4321574792533127:5.7573804327231279] [-1.9746906778883804:5.0410389616287281] [-4.2631544234148731:4.4876324656244613] [-2.9229525998599604:6.1403272000266442] [-1.7641330559287252:5.6404329493443388] [-4.7515335872412905:4.8717463063742263] [-3.0066064689567487:6.1336456338080216] [-1.8800347954790015:6.391060447555315] [-5.1327698307618448:5.0962932993150742] [-3.1103826527882528:6.0595385756269282] [-2.0808437620244415:6.6726523696048181] [-5.583802011785175:5.1141694696406415] [-1.7246993730415012:5.294572862232001] [-2.0496518273384146:7.1202212457706979] [-7.1109431272643322:6.8401661939273799] [-1.8710117321525994:5.4056316319914179] [-1.9649357087827743:6.5175005079071031] [-5.7969563504315369:6.5993161843221957] [-2.0247086358785298:5.5295403040168276] [-1.9089584533015198:6.5965263306933855] [-5.7534519595312457:5.1722986135490308] [-2.3583052719520365:5.8297997015508356] [-1.8006570785959037:6.4815746489743882] [-5.0450830242352103:5.4930214732981852] [-2.4886418955933354:5.5829810010538363] [-2.0070280636529492:7.4486300596365025] [-6.1253820792559353:5.1187063094510536] [-2.3734453235782698:6.582191229262417] [-2.0596337747984608:7.8292150315637752] [-4.8541707071501623:4.8825775559356339] [-1.7888543778331649:6.7838655742988605] [-2.0412414470561568:2.4053511704618189] none [-1.7888543778331649:2.4053511704618189] none none none [-3.7459655567206123:3.2467932782963591] none [-2.3726381378935679:1.4999999969072164] none [-5.2946513483715361:1.1547005363384353] [-5.2946513483715361:1.1547005363384353] none none none none [-5.2946513483715361:1.1547005363384353] none none none none none none none none none -1:9:6:5:7:2:3:1:10:4:0
tree_sizes=1471 1901 1814 1831 1827 1832 1658 1731 1847 1738 1547 1640 1643 1554 1745 1549 1538 1747 1858 1537 1564 1665 1842 1355 1757 1846 1460 1736 1463 1279 1267 1547 1643 1456 1940 1176 1459 1090 1273 1842 1102 1819 1645 1443 1467 1482 1260 1371 1557 1287 1178 1187 989 991 1170 1188 1461 1004 1007 1179 1200 991 1006 1465 1102 1008 1193 1269 1769 1010 893 899 1108 1175 1171 911 1268 884 913 1109 916 993 916 1266 990 1103 1099 1380 1097 1846 1571 1013 1006 1004 912 897 990 1104 1475 1011 1842 1089 1006 1007 920 1086 917 1372 1090 895 1279 1007 914 998 1008 917 914 1096 993 1099 1095 989 1012 994 1091 1090 987 1090 895 920 1106 1547 1100 922 909 987 910 1007 1367 1203 1651 1004 1003 988 1283 1010 1469 1389 1562 1183 1385 1084 1291 894 1108 1197 994 1182 917 1099 1273 1003 994 1009 988 1395 1385 900 1004 1089 913 1005 894 1087 1395 1010 912 1387 1101 1184 1392 913 1178 1181 1192 997 923 913 1102 896 996 1006 1302 989 1006 1086 1293 897 1198 1091 893 1194 1004 1202 1012 902 910 984 1649 1375 989 1000 1384 1082 896 893 917 1003 986 1007 1001 992 1186 1010 1276 1103 1082 1189 1666 985 1108 1472 985 909 1006 896 989 1084 1273 1202 920 994 915 1002 1577 912 916 1193 1094 900 1281 1006 900 1197 1097 1296 1114 1099 901 989 995 1278 1292 911 911 915 1279 910 1301 1089 1390 1383 986 1275 893 1661 898 1007 996 1573 1004 891 998 992 992 1178 1003 991 1086 912 1369 1085 907 1180 896 1082 992 1012 1653 1552 904 1105 1099 1458 1375 991 1002 1012 1081 897 1099 1005 1087 986 1550 1360 1106 898 986 1178 895 898 1842 1002 896 1183 1088 1195 991 1295 1005 1748 1101 1661 1006 1009 1004 1558 896 1271 888 1558 1292 985 1106 1176 914 896 992 1558 1289 1196 1362 894 1370 1009 1110 1098 914 1014 891 899 1007 1183 897 1196 1371 1379 989 1389 918 1004 1579 989 900 1006 1001 1663 988 1084 895 1669 1652 896 990 1202 1170 1196 1097 913 1296 985 897 1087 904 1002 890 1082 1074 896 912 1192 1744 898 993 984 1277 1004 1366 1004 1097 1004 904 989 1097 989 913 1095 1172 1088 988 1006 995 1106 983 1101 1002 889 988 1010 984 1080 1284 1088 1182 896 1387 896 1107 1180 1013 1087 1293 897

Tree=0
num_leaves=15
num_cat=0
split_feature=424 424 374 415 418 418 180 180 187 374 365 374 190 113
split_gain=998.466 178.93 51.9884 50.0653 42.4652 33.1506 26.1911 22.6152 16.0867 15.8134 34.2347 17.0972 13.9341 11.6301
threshold=1.7781189731274618 -0.175577903458739 -1.7174411088201846 1.1595068718027053 0.96229770619065713 0.048968244577068436 -0.111380655509786 0.41852414215747802 -0.049543871853000437 0.45672461744161463 0.55258756256033659 -1.2152134465224809 -0.25512179566082033 1.0000000180025095e-35
decision_type=10 10 10 8 8 10 8 10 10 10 10 10 10 8
left_child=1 2 4 6 -1 9 8 12 -3 11 -11 -4 -8 -13
right_child=-2 3 5 -5 -6 -7 7 -9 -10 10 -12 13 -14 -15
leaf_value=0.71678593894649567 0.80869454282376196 0.74634303277340708 0.74163069059650644 0.76156420008798686 0.73642880821432155 0.74946986249450931 0.73340311753883347 0.74961324022601772 0.75618490341522449 0.7481262295081621 0.73346805913163138 0.72952295960315039 0.74329361363183466 0.73626153498579205
leaf_weight=621 560 915 611 605 500 504 639 738 760 728 869 1549 798 1127
leaf_count=621 560 915 611 605 500 504 639 738 760 728 869 1549 798 1127
internal_value=0.743875 0.740536 0.735255 0.748254 0.725475 0.737304 0.746142 0.742523 0.750832 0.736044 0.740142 0.734062 0.738874 0.732341
internal_weight=11524 10964 6509 4455 1121 5388 3850 2175 1675 4884 1597 3287 1437 2676
internal_count=11524 10964 6509 4455 1121 5388 3850 2175 1675 4884 1597 3287 1437 2676
is_linear=0
shrinkage=1


Tree=1
num_leaves=19
num_cat=3
split_feature=424 20 463 424 415 131 113 113 133 463 113 397 187 463 179 133 125 112
split_gain=901.934 248.263 170.493 116.935 86.077 35.0442 26.6574 60.5477 20.9377 18.717 15.4836 15.3286 14.2352 10.2695 8.11548 6.3307 4.93073 1.74539
threshold=1.7781189731274618 -0.15544655496795753 0 -0.175577903458739 0.46269548237281072 0.68409172776703497 0.023900838005565889 -0.15271489938927318 -0.4382705761352011 1 -0.36873320560494255 -0.33355164821554334 -0.052971715286840255 2 0.028748564191676294 -0.33979158903822609 -0.31135412034491766 0.44650732402291099
decision_type=10 10 9 8 10 8 10 10 10 9 8 8 10 9 10 10 10 8
left_child=1 5 3 8 11 17 7 10 -3 12 13 -5 16 -4 -14 -9 -8 -1
right_child=-2 2 6 4 -6 -7 9 15 -10 -11 -12 -13 14 -15 -16 -17 -18 -19
leaf_value=-0.022099500754387075 0.061607240793929818 -0.0076453240702542141 0.0035784170977700308 0.0050894191456139831 0.035643868001750414 -0.01018629087840638 0.0011290462390076415 -0.021749763445193679 0.0053699667280098446 -0.0092745607448765158 -0.0078569780892986871 0.016690111296078742 0.0008337576704427513 -0.0052466835579586049 0.0096146159588887566 -0.013496530490304658 -0.0050789956321027332 -0.027165355269486709
leaf_weight=500 560 649 874 559 518 598 546 505 581 533 994 589 518 509 532 506 762 691
leaf_count=500 560 649 874 559 518 598 546 505 581 533 994 589 518 509 532 506 762 691
internal_value=7.08229e-07 -0.00317257 0.000153567 0.010159 0.0188068 -0.0201838 -0.0044746 -0.00748785 -0.0015006 -0.000951948 -0.00311384 0.0110879 0.000980033 0.000311204 0.00530721 -0.0177058 -0.00249313 -0.0251399
internal_weight=11524 10964 9175 2896 1666 1789 6279 3388 1230 2891 2377 1148 2358 1383 1050 1011 1308 1191
internal_count=11524 10964 9175 2896 1666 1789 6279 3388 1230 2891 2377 1148 2358 1383 1050 1011 1308 1191
cat_boundaries=0 1 2 3
cat_threshold=518 224 200
is_linear=0
shrinkage=0.05


Tree=2
num_leaves=18
num_cat=2
split_feature=418 20 463 424 397 24 133 131 463 131 107 422 180 127 388 24 371
split_gain=828.924 234.716 171.119 136.646 42.0032 31.5399 38.298 29.0492 26.6917 21.2787 12.8011 12.6682 12.2363 9.0309 7.8353 8.46714 1.52965
threshold=1.9682733275926785 -0.15544655496795753 0 0.23600989335680475 0.14789092650211286 -0.3623749178878804 -0.4452741828872297 0.68409172776703497 1 -0.4991113813332701 0.37773467244856374 0.066474988286384304 -0.0025212824383699789 0.2400317919741882 0.40807534117865757 -0.025670447793779558 1.3227212468695819
decision_type=10 10 9 10 10 8 8 8 9 10 8 10 10 10 8 10 8
left_child=1 7 3 5 -5 -3 -7 16 9 12 13 14 -4 -11 15 -10 -1
right_child=-2 2 8 4 -6 6 -8 -9 11 10 -12 -13 -14 -15 -16 -17 -18
leaf_value=-0.021830779383924123 0.06175168999300297 -0.0083326683464439201 -0.0015557632788482005 0.014688174759478366 0.034468341473943266 -0.004650640776032334 0.012872046179894535 -0.010144880605205093 -0.011146508301950965 0.0064218592200883662 -0.004597392955497488 -0.002951899517485711 -0.012120334413889412 -0.0016480486207964794 -0.01512608222048121 -0.0034996498614047809 -0.026578083741630565
leaf_weight=684 514 529 542 575 521 506 799 571 902 1108 604 941 553 501 545 613 516
leaf_count=684 514 529 542 575 521 506 799 571 902 1108 604 941 553 501 545 613 516
internal_value=4.09879e-07 -0.00290916 0.000290744 0.0102453 0.0242048 0.00191572 0.00608599 -0.0195563 -0.00434612 -0.00123393 0.00158422 -0.00775348 -0.00692195 0.00391178 -0.00997192 -0.00807412 -0.0239739
internal_weight=11524 11010 9239 2930 1096 1834 1305 1771 6309 3308 2213 3001 1095 1609 2060 1515 1200
internal_count=11524 11010 9239 2930 1096 1834 1305 1771 6309 3308 2213 3001 1095 1609 2060 1515 1200
cat_boundaries=0 1 2
cat_threshold=518 192
is_linear=0
shrinkage=0.05


Tree=3
num_leaves=18
num_cat=2
split_feature=424 20 25 463 412 25 397 114 114 463 24 188 109 422 121 178 187
split_gain=757.098 203.536 145.457 122.461 66.074 38.8654 29.4332 22.4121 34.1758 14.0635 13.8023 10.4315 10.076 8.43066 8.37182 5.44043 1.78493
threshold=1.7781189731274618 -0.15544655496795753 -0.22857351006752852 0 0.71181948295501518 0.3649134890637265 -0.41984819857125971 0.3747355818199985 -0.25265691609355256 1 -0.21223882140935327 -0.041253619879574245 -0.09649729204060091 0.066474988286384304 -0.13324385611862613 -5.7245868528262745e-08 -0.091768439038919278
decision_type=10 10 10 9 8 8 10 10 8 9 10 8 10 10 10 10 8
left_child=1 5 7 4 6 16 -4 8 14 11 -9 -5 -10 -11 -3 -14 -1
right_child=-2 2 3 9 -6 -7 -8 10 12 13 -12 -13 15 -15 -16 -17 -18
leaf_value=-0.020062616246355396 0.056444211822575932 0.0010809592757318679 0.0016399075629698206 -0.00060654372424164969 0.031661850322231885 -0.0067895312769720682 0.016644568859576572 -0.0074963572118288552 -0.0080859242005042551 -0.0084889587892417913 0.0026986525003396024 0.0075487294163968828 -0.012978267172572749 -0.00026877295585227729 -0.0065523185570126041 -0.020425504495998923 -0.024885124988866109
leaf_weight=504 560 651 559 934 504 525 786 525 551 605 884 670 574 639 793 500 760
leaf_count=504 560 651 559 934 504 525 786 525 551 605 884 670 574 639 793 500 760
internal_value=5.19917e-07 -0.00290683 0.000104843 0.00624865 0.0162053 -0.0183096 0.0104376 -0.00633921 -0.00873283 -0.000288336 -0.00111313 0.00279546 -0.0136964 -0.00425048 -0.00311914 -0.0165239 -0.0230489
internal_weight=11524 10964 9175 4697 1849 1789 1345 4478 3069 2848 1409 1604 1625 1244 1444 1074 1264
internal_count=11524 10964 9175 4697 1849 1789 1345 4478 3069 2848 1409 1604 1625 1244 1444 1074 1264
cat_boundaries=0 1 2
cat_threshold=518 192
is_linear=0
shrinkage=0.05


Tree=4
num_leaves=18
num_cat=2
split_feature=418 20 463 424 406 25 25 25 110 110 113 424 463 24 395 380 371
split_gain=698.768 191.813 141.201 114.857 36.7805 32.3391 31.0592 27.1905 19.7995 23.819 22.4664 12.5021 11.7306 20.4858 7.31738 5.42018 1.06056
threshold=1.9682733275926785 -0.15544655496795753 0 0.23600989335680475 0.31012587591210622 -1.0000000180025095e-35 0.3649134890637265 -0.15022078431147942 0.28631309790284326 -0.33310291014465748 1.0000000180025095e-35 -0.42798830361825674 1 0.11436231207351859 1.0000000180025095e-35 -0.064647860841547486 1.3227212468695819
decision_type=10 10 9 10 8 10 8 10 10 8 8 10 9 10 8 10 8
left_child=1 6 3 5 -5 11 16 8 9 15 -11 -3 -9 14 -14 -4 -1
right_child=-2 2 7 4 -6 -7 -8 12 -10 10 -12 -13 13 -15 -16 -17 -18
leaf_value=-0.019852806309199032 0.056696859173349295 -0.0075056029191219982 -0.0065539981939951907 0.012890743747432957 0.031368512579972162 0.010837944987534759 -0.0071707611264969278 0.0047315382106405506 -0.00063958784033145226 -0.018005379898968062 -0.0064373190949969716 0.0027268599564330672 0.0052736247635850339 -0.010803234678147731 -0.0024141431994477874 0.00064928435842860459 -0.023831562659387212
leaf_weight=639 514 693 514 558 538 623 507 843 982 893 804 518 560 509 680 524 625
leaf_count=639 514 693 514 558 538 623 507 843 982 893 804 518 560 509 680 524 625
internal_value=5.1729e-07 -0.00267088 0.000221854 0.00926454 0.0220623 0.00162777 -0.0177199 -0.00399008 -0.00673454 -0.00891776 -0.0125597 -0.0031355 -6.44178e-05 -0.00239623 0.00106499 -0.00293198 -0.0219063
internal_weight=11524 11010 9239 2930 1096 1834 1771 6309 3717 2735 1697 1211 2592 1749 1240 1038 1264
internal_count=11524 11010 9239 2930 1096 1834 1771 6309 3717 2735 1697 1211 2592 1749 1240 1038 1264
cat_boundaries=0 1 2
cat_threshold=518 64
is_linear=0
shrinkage=0.05


Tree=5
num_leaves=18
num_cat=0
split_feature=424 20 25 412 25 110 110 26 130 180 134 110 181 188 23 180 187
split_gain=635.35 166.825 118.089 42.977 30.7769 21.2898 30.8215 20.1601 18.2938 15.0056 13.8438 10.3177 9.03168 8.79497 8.61795 6.26424 1.6399
threshold=1.7781189731274618 -0.15544655496795753 -0.22857351006752852 1.3450945292719256 0.3649134890637265 1.0000000180025095e-35 -0.34315856683849716 1.0000000180025095e-35 -0.26117801872726459 -0.0025212824383699789 -0.32991752238024391 -0.34315856683849716 -0.078628986652669056 -0.16049862004509405 0.051425540763011604 -0.0025212824383699789 -0.091768439038919278
decision_type=10 10 10 8 8 10 8 10 8 10 10 8 10 10 10 10 8
left_child=1 4 5 7 16 6 12 8 15 -8 -9 -10 -3 -12 -7 -4 -1
right_child=-2 2 3 -5 -6 14 9 10 11 -11 13 -13 -14 -15 -16 -17 -18
leaf_value=-0.018025572478363183 0.051707744559075321 -0.0059334977013652326 0.0053734557981312131 0.019340108413117257 -0.0063511622588167784 -0.0044430442010118965 -0.0069944154761856399 -0.0073204571917014488 0.015841542435555311 -0.016767225086051045 -0.0018972249942321444 0.0071402737246442196 0.0027045945989742333 0.0074011505845580257 0.0029100136641470385 -0.0021697466638420705 -0.022551089788218688
leaf_weight=504 560 717 538 503 525 873 678 512 507 968 508 1074 517 501 725 554 760
leaf_count=504 560 717 538 503 525 873 678 512 507 968 508 1074 517 501 725 554 760
internal_value=1.17284e-06 -0.00266217 6.44185e-05 0.00560015 -0.0166069 -0.00574182 -0.00830637 0.00393121 0.00654224 -0.0127751 -0.000663808 0.00997177 -0.00231815 0.00273344 -0.00110835 0.00155415 -0.0208247
internal_weight=11524 10964 9175 4697 1789 4478 2880 4194 2673 1646 1521 1581 1234 1009 1598 1092 1264
internal_count=11524 10964 9175 4697 1789 4478 2880 4194 2673 1646 1521 1581 1234 1009 1598 1092 1264
is_linear=0
shrinkage=0.05


Tree=6
num_leaves=16
num_cat=1
split_feature=418 463 424 179 111 423 24 133 177 107 131 111 185 183 422
split_gain=589.648 116.084 114.318 42.4346 44.5824 29.9796 29.4848 34.0748 19.8996 16.9541 16.4274 14.2742 10.9676 5.0542 4.52227
threshold=1.9682733275926785 0 0.23600989335680475 0.5773502646374008 -0.2540805300846346 -0.024844217793474302 -0.3623749178878804 -0.4382705761352011 -0.62186013988894084 0.097722523906532952 -0.1048272070265273 0.44957909567432441 0.044883791189477489 -0.024130614106980836 -0.27548806179643603
decision_type=10 9 10 8 10 10 8 10 10 10 10 10 10 10 10
left_child=1 2 6 4 10 -4 -1 -8 -5 11 13 12 -6 -3 -11
right_child=-2 3 5 8 9 -7 7 -9 -10 14 -12 -13 -14 -15 -16
leaf_value=-0.010289688757042182 0.052083217836256981 -0.0049667625132025044 0.024692280109738934 -0.0057986205645791664 -0.0090142049823011359 0.0085354935830230429 -0.004888951989993188 0.0094027087394373925 -0.017785765344351008 -0.014124467120675381 0.0083771286615562102 0.0012900494802740162 -0.00082692625767710368 0.0020083061903904392 -0.0084168132327471917
leaf_weight=659 514 506 665 551 1460 516 840 819 958 701 724 762 569 524 756
leaf_count=659 514 506 665 551 1460 516 840 819 958 701 724 762 569 524 756
internal_value=1.54719e-06 -0.00245242 0.00505838 -0.00595117 -0.00406805 0.0176988 -0.00138428 0.00217348 -0.0134424 -0.00683472 0.00263292 -0.00453898 -0.00672589 -0.00142572 -0.0112018
internal_weight=11524 11010 3499 7511 6002 1181 2318 1659 1509 4248 1754 2791 2029 1030 1457
internal_count=11524 11010 3499 7511 6002 1181 2318 1659 1509 4248 1754 2791 2029 1030 1457
cat_boundaries=0 1
cat_threshold=518
is_linear=0
shrinkage=0.05


Tree=7
num_leaves=17
num_cat=2
split_feature=418 20 463 415 416 25 463 25 397 184 25 109 178 371 365 187
split_gain=532.683 149.951 112.686 89.5733 44.8236 23.8294 22.1223 20.1072 27.4342 16.2445 17.0344 9.91224 13.6564 9.1145 6.9369 1.48725
threshold=1.9682733275926785 -0.15544655496795753 0 0.91077895368052886 0.38988312405213926 0.3649134890637265 1 -0.36613237647433799 -0.39762646044429795 0.2169018236214961 -0.47345139174062451 -0.34229102068242367 -0.37755141432908385 0.55541320919360049 0.40356288894341869 -0.097224329893084091
decision_type=10 10 9 10 10 8 9 10 10 10 10 8 8 8 8 8
left_child=1 5 3 4 7 15 9 -3 -9 10 -4 -8 -13 -12 -14 -1
right_child=-2 2 6 -5 -6 -7 11 8 -10 -11 13 12 14 -15 -16 -17
leaf_value=-0.016646407546387933 0.04950414474996126 -0.0058406474346401919 -0.0083622562719173968 0.027430054649591952 0.017408139316830783 -0.0063943580876866697 -0.0012814899416759926 -0.003611891992384186 0.011504477137920374 0.0058410898178892137 0.0026545891131971458 -0.0022283209847575015 -0.0084028555122520696 -0.0052303937220768565 -0.015488979477849871 -0.020922583278122641
leaf_weight=500 514 711 847 503 511 507 669 541 664 732 1209 683 1135 520 514 764
leaf_count=500 514 711 847 503 511 507 669 541 664 732 1209 683 1135 520 514 764
internal_value=2.12632e-06 -0.00233029 0.000227356 0.00830546 0.00432775 -0.0156362 -0.0035354 0.000802966 0.00473091 -0.000705099 -0.00257572 -0.00663622 -0.00819475 0.000274922 -0.0106518 -0.0193033
internal_weight=11524 11010 9239 2930 2427 1771 6309 1916 1205 3308 2576 3001 2332 1729 1649 1264
internal_count=11524 11010 9239 2930 2427 1771 6309 1916 1205 3308 2576 3001 2332 1729 1649 1264
cat_boundaries=0 1 2
cat_threshold=518 192
is_linear=0
shrinkage=0.05


Tree=8
num_leaves=18
num_cat=1
split_feature=424 20 25 463 415 25 397 110 110 113 374 203 180 113 187 133 187
split_gain=496.024 131.518 92.0805 80.7116 60.8097 22.6989 19.1419 18.2908 26.2883 12.6731 11.6568 11.5758 9.54685 11.9235 7.01159 2.35621 1.30362
threshold=1.7781189731274618 -0.15544655496795753 -0.22857351006752852 0 0.74061567854266563 0.3649134890637265 -0.41984819857125971 1.0000000180025095e-35 -0.34315856683849716 1.0000000180025095e-35 0.57760200255377081 1.410343681521012 -0.33839152835594988 -0.35736452297917654 0.0089528285612357882 -0.56393382511288381 -0.091768439038919278
decision_type=10 10 10 9 8 8 10 10 8 8 10 8 10 10 10 10 8
left_child=1 5 7 4 6 16 -4 8 14 -10 15 -5 -13 -14 -3 -9 -1
right_child=-2 2 3 11 -6 -7 -8 10 9 -11 -12 12 13 -15 -16 -17 -18
leaf_value=-0.015870014069353053 0.045689249704385891 -0.0051489811252118864 -2.9863886104650655e-05 0.0063992080354364593 0.027590009806074664 -0.0059182370440893865 0.012220817356854402 -0.0064638897252158435 -0.01522902467589345 -0.0062507456700540177 0.0047499608834810289 0.0030815590947764308 0.0020801014539173191 -0.006920755173944847 0.0024405308245479414 -0.001605360087877988 -0.019889108362224173
leaf_weight=504 560 706 525 515 517 525 807 500 968 678 596 688 550 1095 528 502 760
leaf_count=504 560 706 525 515 517 525 807 500 968 678 596 688 550 1095 528 502 760
internal_value=2.45227e-06 -0.00235082 7.00999e-05 0.00495836 0.0130416 -0.0147323 0.00741023 -0.00505703 -0.00743405 -0.0115609 -0.000763229 -0.00034763 -0.00184895 -0.00391417 -0.00190486 -0.00404983 -0.0183554
internal_weight=11524 10964 9175 4697 1849 1789 1332 4478 2880 1646 1598 2848 2333 1645 1234 1002 1264
internal_count=11524 10964 9175 4697 1849 1789 1332 4478 2880 1646 1598 2848 2333 1645 1234 1002 1264
cat_boundaries=0 1
cat_threshold=518
is_linear=0
shrinkage=0.05


Tree=9
num_leaves=17
num_cat=2
split_feature=418 25 463 374 190 463 125 25 130 180 365 24 114 114 388 388
split_gain=448.542 96.8825 61.2413 43.5525 39.0076 24.7392 24.4426 19.4451 19.9017 16.8121 14.7946 11.2027 16.4981 10.9498 4.70344 3.27727
threshold=1.9682733275926785 -1.0000000180025095e-35 0 -1.7174411088201846 -0.24292289218025598 1 -0.37444761921415032 -0.61596119490971823 -0.42989084910463277 -0.088590978946728419 0.37030589333383257 0.18252797219169142 0.31966786880543968 -0.3681507315491821 -0.050302074460145438 -0.115834203045889
decision_type=10 8 9 10 8 9 10 10 10 8 10 10 10 8 8 10
left_child=1 3 4 -1 -3 14 -6 9 -9 -7 -10 12 13 -4 -5 -11
right_child=-2 2 11 5 6 7 -8 8 10 15 -12 -13 -14 -15 -16 -17
leaf_value=-0.018014317968913764 0.04542726723011023 0.021846479203662953 0.0033516300785226176 -0.0073799855104137169 -0.002240290780958248 -0.0012030580107652128 0.011317252215887613 -0.0059024784012584562 0.0069421596782331153 -0.0077161601059329279 -0.003076316568945566 -0.0064245033047775728 0.0081814351963659573 -0.0061249084294333102 -0.013142306435977092 -0.013426257377142221
leaf_weight=674 514 527 500 739 554 837 821 866 1056 523 561 797 516 766 731 542
leaf_count=674 514 527 500 739 554 837 821 866 1056 523 561 797 516 766 731 542
internal_value=2.78342e-06 -0.00213751 0.00352171 -0.00602128 0.0102859 -0.00462651 0.00586647 -0.00271543 0.000194284 -0.00651876 0.00346759 -0.00151105 0.000689869 -0.00238374 -0.0102111 -0.0106713
internal_weight=11524 11010 4481 6529 1902 5855 1375 4385 2483 1902 1617 2579 1782 1266 1470 1065
internal_count=11524 11010 4481 6529 1902 5855 1375 4385 2483 1902 1617 2579 1782 1266 1470 1065
cat_boundaries=0 1 2
cat_threshold=518 1072
is_linear=0
shrinkage=0.05


Tree=10
num_leaves=15
num_cat=0
split_feature=134 20 131 424 430 382 114 114 189 403 107 113 178 434
split_gain=422.318 113.537 53.5534 26.3909 22.8702 19.4255 15.255 21.7329 14.5523 11.7021 9.95055 8.72703 7.45813 1.42739
threshold=1.5254607856011304 -0.15544655496795753 0.48099295478525522 -0.175577903458739 -0.06925760017347625 1.1884663664451107 0.3747355818199985 -0.26533415879993433 0.37747974271093293 -0.17421578247255812 0.15550513472186114 0.023900838005565889 -1.0000000180025095e-35 0.12700707399447297
decision_type=10 10 10 10 10 8 10 10 10 10 10 10 10 8
left_child=1 5 3 6 -4 13 7 12 11 -8 -9 -5 -3 -1
right_child=-2 2 4 8 -6 -7 9 10 -10 -11 -12 -13 -14 -15
leaf_value=-0.014831281012045042 0.038744525343311749 -0.0049911006224445179 0.012893570304525495 -0.0033750854819995686 0.0018611681267674933 -0.0056426902615070232 -0.0049279043741365909 -0.0071741842906668926 0.0094952485504442886 0.0040430837986831451 -0.015526057802232127 0.0034343981456419707 0.0014899994305726466 -0.018896290157558285
leaf_weight=515 658 1093 940 907 938 509 648 933 529 815 591 967 742 739
leaf_count=515 658 1093 940 907 938 509 648 933 529 815 591 967 742 739
internal_value=2.9135e-06 -0.00235986 -0.000107881 -0.00206391 0.00740282 -0.0139544 -0.00419571 -0.00604938 0.00221371 6.63537e-05 -0.0104532 0.000138455 -0.00237348 -0.0172924
internal_weight=11524 10866 9103 7225 1878 1763 4822 3359 2403 1463 1524 1874 1835 1254
internal_count=11524 10866 9103 7225 1878 1763 4822 3359 2403 1463 1524 1874 1835 1254
is_linear=0
shrinkage=0.05


Tree=11
num_leaves=16
num_cat=2
split_feature=424 20 463 412 416 19 424 463 184 25 422 107 130 424 414
split_gain=389.959 104.214 72.7711 65.4066 32.8197 19.6649 19.2406 16.8828 13.1663 12.6468 8.1516 7.85288 6.20356 5.39374 2.73284
threshold=1.7781189731274618 -0.15544655496795753 0 1.0233721464287948 0.41802046736704757 1.0000000180025095e-35 -0.175577903458739 1 0.17039251888438431 -0.43717018535125746 0.066474988286384304 0.15550513472186114 -0.28627356816948929 -0.74036024261516831 1.4611790896435239
decision_type=10 10 9 8 10 8 10 9 10 10 10 10 8 8 8
left_child=1 5 3 4 6 14 -3 8 9 -4 12 -11 -9 -14 -1
right_child=-2 2 7 -5 -6 -7 -8 10 -10 11 -12 -13 13 -15 -16
leaf_value=-0.019289468285437976 0.040511445695270612 -0.0046747035036427574 -0.0071304468128075161 0.022717151530031059 0.014380832794538084 -0.0060159635255131296 0.0054401195681085656 -0.011053228701279305 0.0049752546695144024 0.0027372521525567592 -0.0017764143799929113 -0.0047407314969981108 -0.0012810874224598754 -0.0078779628190882543 -0.013902625392589477
leaf_weight=648 560 998 872 514 504 640 880 753 824 1089 924 512 509 796 501
leaf_count=648 560 998 872 514 504 640 880 753 824 1089 924 512 509 796 501
internal_value=2.69402e-06 -0.00208386 7.11482e-05 0.00660798 0.00311924 -0.0131054 6.67967e-05 -0.00295244 -0.000478659 -0.0023042 -0.00567146 0.000338478 -0.0074392 -0.00531964 -0.017011
internal_weight=11524 10964 9175 2896 2382 1789 1878 6279 3297 2473 2982 1601 2058 1305 1149
internal_count=11524 10964 9175 2896 2382 1789 1878 6279 3297 2473 2982 1601 2058 1305 1149
cat_boundaries=0 1 2
cat_threshold=518 192
is_linear=0
shrinkage=0.05


Tree=12
num_leaves=16
num_cat=0
split_feature=418 20 424 130 19 131 187 107 187 187 109 180 109 109 421
split_gain=362.727 97.02 52.4019 31.4217 17.8222 17.6625 15.3978 12.7037 15.6454 12.5193 11.9689 7.97613 6.99693 8.53768 2.48769
threshold=1.9682733275926785 -0.15544655496795753 0.36210741315462808 0.76120244271762039 1.0000000180025095e-35 -0.4999999492242217 0.0089528285612357882 0.2239427024512364 1.0000000180025095e-35 -0.20648568311962692 -0.34229102068242367 -0.0025212824383699789 0.45510654428683217 -1.0000000180025095e-35 -1.0602210890897441
decision_type=10 10 10 10 8 8 10 10 10 10 8 10 10 10 10
left_child=1 4 5 6 14 10 -4 8 9 -7 -3 -9 13 -12 -1
right_child=-2 2 3 -5 -6 7 -8 11 -10 -11 12 -13 -14 -15 -16
leaf_value=-0.013516825761727948 0.04085158783303635 0.0012046296758270265 -0.00111515490590485 0.017684081319373667 -0.0058843153129572731 0.0037040541418929141 0.0085998993876051002 0.00062618379650026482 0.0072646750170691377 -0.00458811611144828 -0.0046462156768215281 -0.0070377251163752791 -0.0024890227674436828 -0.012030592132768927 -0.018679603455988434
leaf_weight=518 514 631 848 515 639 869 779 594 959 945 779 785 732 803 614
leaf_count=518 514 631 848 515 639 869 779 594 959 945 779 785 732 803 614
internal_value=2.84162e-06 -0.00192185 0.000135467 0.00698035 -0.0126247 -0.0019339 0.00354846 0.000167684 0.00211727 -0.000616474 -0.00489207 -0.00374618 -0.00655358 -0.00842051 -0.016387
internal_weight=11524 11010 9239 2142 1771 7097 1627 4152 2773 1814 2945 1379 2314 1582 1132
internal_count=11524 11010 9239 2142 1771 7097 1627 4152 2773 1814 2945 1379 2314 1582 1132
is_linear=0
shrinkage=0.05


Tree=13
num_leaves=15
num_cat=1
split_feature=134 20 463 416 25 24 124 109 180 180 109 180 110 180
split_gain=339.047 83.8554 64.8887 60.7242 26.11 22.5458 16.9259 16.709 25.6179 26.6346 14.4859 11.2119 7.85885 3.30203
threshold=1.5254607856011304 -0.15544655496795753 0 0.78138348384354417 -0.36613237647433799 -0.24545767465452215 2.6662289620559219 -0.34229102068242367 0.45970977207934 -0.0025212824383699789 -0.47292948118392569 -0.26136527868628173 -0.3160243803431283 0.10644572488083139
decision_type=10 10 9 8 8 10 8 8 10 10 10 10 10 10
left_child=1 6 3 4 -3 -6 13 10 9 11 -4 -9 -11 -1
right_child=-2 2 7 -5 5 -7 -8 8 -10 12 -12 -13 -14 -15
leaf_value=-0.017615822878186378 0.034715586419922805 -0.0050805308098157793 -0.0024822211375258481 0.020880048275091261 -0.00179877204281327 0.010675357860575316 -0.0046289082260675468 -0.0043306431994957033 0.0059424529628643308 -0.0047268579594300815 0.0080355493840761488 0.0031653026329845919 -0.012051737437401311 -0.01202246009461218
leaf_weight=709 658 763 784 551 565 998 538 1768 529 509 555 690 1391 516
leaf_count=709 658 763 784 551 565 998 538 1768 529 509 555 690 1391 516
internal_value=2.91526e-06 -0.00211414 -0.000178736 0.00601298 0.00247972 0.0061748 -0.0120786 -0.00304718 -0.00440697 -0.00566862 0.00189095 -0.00222426 -0.010107 -0.0153182
internal_weight=11524 10866 9103 2877 2326 1563 1763 6226 4887 4358 1339 2458 1900 1225
internal_count=11524 10866 9103 2877 2326 1563 1763 6226 4887 4358 1339 2458 1900 1225
cat_boundaries=0 1
cat_threshold=518
is_linear=0
shrinkage=0.05


Tree=14
num_leaves=17
num_cat=2
split_feature=25 20 463 130 25 19 463 129 184 110 109 109 415 109 365 421
split_gain=313.854 77.7868 65.2978 59.8249 22.075 17.6005 17.4272 15.0493 14.2379 11.2422 18.6626 6.90906 6.71868 6.04241 6.21008 1.2901
threshold=1.7707580294802485 -0.15544655496795753 0 0.66254397869011317 -1.0000000180025095e-35 1.0000000180025095e-35 1 -0.041450943647171536 0.22809189229150351 -0.39570580114678328 -1.0000000180025095e-35 -0.34229102068242367 -0.12998719269238582 0.36326350530820867 0.40356288894341869 -1.0602210890897441
decision_type=10 10 9 10 10 8 9 10 10 8 8 8 10 10 8 10
left_child=1 5 3 4 12 15 8 -6 9 -4 -11 -8 -3 14 -13 -1
right_child=-2 2 6 -5 7 -7 11 -9 -10 10 -12 13 -14 -15 -16 -17
leaf_value=-0.013227555703663836 0.034202110597001512 -0.0066809495131868362 0.0031381438791400172 0.019234910153777041 0.00071870541448277095 -0.0049619508790005656 -0.0012750484027059257 0.012223361647355425 0.0057911759879338415 0.00071121448252693209 -0.0092622701662200789 -0.0065810334488337428 0.001205444484562105 -0.0033343421937378861 -0.013334108199596392 -0.01722633485940072
leaf_weight=502 629 571 710 661 524 631 667 618 705 945 925 1064 506 751 513 602
leaf_count=502 629 571 710 661 524 631 667 618 705 945 925 1064 506 751 513 602
internal_value=3.17447e-06 -0.00198601 -0.000145006 0.00607031 0.00214168 -0.0116773 -0.00300279 0.00697066 -0.000479621 -0.0022029 -0.00423374 -0.00575408 -0.00298729 -0.00705656 -0.00881302 -0.0154759
internal_weight=11524 10895 9160 2880 2219 1735 6280 1142 3285 2580 1870 2995 1077 2328 1577 1104
internal_count=11524 10895 9160 2880 2219 1735 6280 1142 3285 2580 1870 2995 1077 2328 1577 1104
cat_boundaries=0 1 2
cat_threshold=518 192
is_linear=0
shrinkage=0.05


Tree=15
num_leaves=15
num_cat=2
split_feature=421 20 463 415 416 382 129 421 463 203 37 109 130 407
split_gain=290.393 71.8133 55.4316 60.5702 25.0534 15.0926 14.2814 17.936 14.1989 18.5861 15.2142 12.9888 6.02241 1.47883
threshold=1.8616282108501789 -0.15544655496795753 0 1.1131657219019728 0.43295956423431731 1.1884663664451107 -0.36333423279401306 -0.34084329241726391 1 -0.52421550871363887 2.2093000353830767 -1.0000000180025095e-35 -0.20005836839329952 0.25256342579936708
decision_type=10 10 9 8 10 8 10 10 9 10 8 8 10 8
left_child=1 5 3 4 6 13 -3 -8 9 10 -4 -12 -10 -1
right_child=-2 2 8 -5 -6 -7 7 -9 12 -11 11 -13 -14 -15
leaf_value=-0.011592307865474723 0.035662342704271772 -0.0064567459754437048 0.0053570352693045617 0.02099219437957375 0.011994412567454923 -0.0035867387179271595 -0.0036198952921593277 0.0083836605867833106 -0.011935154728191849 0.00635750044340607 -0.00058709104530862543 -0.0062308207162912986 -0.0041644759814029901 -0.015438793966615997
leaf_weight=546 539 634 518 526 518 505 584 656 506 643 1850 2269 503 727
leaf_count=546 539 634 518 526 518 505 584 656 506 643 1850 2269 503 727
internal_value=3.04486e-06 -0.00176208 1.65638e-05 0.00569504 0.00231819 -0.0109466 -0.000381256 0.00273854 -0.00262547 -0.00157442 -0.00268337 -0.00369979 -0.00802189 -0.0138408
internal_weight=11524 10985 9207 2918 2392 1778 1874 1240 6289 5280 4637 4119 1009 1273
internal_count=11524 10985 9207 2918 2392 1778 1874 1240 6289 5280 4637 4119 1009 1273
cat_boundaries=0 1 2
cat_threshold=518 225
is_linear=0
shrinkage=0.05


Tree=16
num_leaves=15
num_cat=2
split_feature=131 20 463 397 424 425 124 463 203 37 409 25 126 110
split_gain=271.79 65.4572 59.3972 55.8863 30.3952 15.3704 14.2554 13.72 15.4986 11.5168 11.4697 14.7068 8.12517 2.58526
threshold=1.8803166961923845 -0.15544655496795753 0 0.82727348856019123 0.31187553733764545 1.1730290841888256 2.6662289620559219 1 -0.52421550871363887 2.2093000353830767 -0.39503279341160452 -0.36613237647433799 -0.10903979532136825 0.61409545650087505
decision_type=10 10 9 10 10 8 8 9 10 8 8 10 8 8
left_child=1 6 3 4 10 7 13 8 9 -4 -3 -12 -9 -1
right_child=-2 2 5 -5 -6 -7 -8 12 -10 -11 11 -13 -14 -15
leaf_value=-0.010625750980267837 0.034669153876507618 -0.0076034868302959913 0.005067850439404731 0.019573930245478644 0.010717461269361838 -0.010309485421920875 -0.0036057320594327191 -0.011657316109801408 0.0066218544246640244 -0.0029186428767382679 -0.0048535875494898515 0.0067044866615502494 -0.0028031513263021375 -0.015547537633415265
leaf_weight=531 534 513 513 588 744 604 527 508 610 3523 503 596 532 698
leaf_count=531 534 513 513 588 744 604 527 508 610 3523 503 596 532 698
internal_value=3.43767e-06 -0.00169596 -1.11993e-05 0.00583301 0.00239413 -0.0027539 -0.0105301 -0.00194779 -0.000772235 -0.0018985 -0.00146867 0.00141646 -0.00709526 -0.0134727
internal_weight=11524 10990 9234 2944 2356 6290 1756 5686 4646 4036 1612 1099 1040 1229
internal_count=11524 10990 9234 2944 2356 6290 1756 5686 4646 4036 1612 1099 1040 1229
cat_boundaries=0 1 2
cat_threshold=518 224
is_linear=0
shrinkage=0.05


Tree=17
num_leaves=17
num_cat=1
split_feature=134 20 463 25 417 24 124 107 388 110 178 178 421 183 379 415
split_gain=265.943 57.3275 43.9053 46.6919 28.6314 18.6373 17.0026 11.368 10.2432 8.55388 12.9714 12.7132 5.13592 4.29432 4.70048 0.0910014
threshold=1.5254607856011304 -0.16458508598253754 0 -0.39657762498493204 -1.156524572153425 -0.22853313356663593 2.6662289620559219 0.2239427024512364 0.60425273607575825 0.28631309790284326 -0.37755141432908385 0.26512563227204 0.12023261793165978 0.10393359222045755 -0.019507561528056903 0.70710677697233881
decision_type=10 10 9 10 10 10 8 10 10 10 8 8 10 8 10 8
left_child=1 6 3 13 -5 12 15 -7 9 10 -4 -12 -6 14 -3 -1
right_child=-2 2 8 4 5 7 -8 -9 -10 -11 11 -13 -14 -15 -16 -17
leaf_value=-0.013348978491648648 0.030746965393807519 -0.0051142392569566509 0.0014101011922377333 0.017186911223940185 -0.0046151370439256566 0.010213576618710255 -0.0035096740898651353 0.0017027278506595894 -0.0093737526720486068 0.0011958131736866551 -0.0094253655020895347 -0.00094223117067803266 0.0024619107561471981 -0.0075448256675593435 0.0012689223572186752 -0.015580283143845009
leaf_weight=510 658 618 706 505 512 1176 538 591 749 921 1272 677 504 546 534 507
leaf_count=510 658 618 706 505 512 1176 538 591 749 921 1272 677 504 546 534 507
internal_value=3.55699e-06 -0.00187142 -0.000384999 0.00280945 0.00628894 0.00428413 -0.010742 0.00737983 -0.00406376 -0.00295138 -0.00438955 -0.00648864 -0.00110961 -0.00391041 -0.00216268 -0.0145321
internal_weight=11524 10866 9311 4986 3288 2783 1555 1767 4325 3576 2655 1949 1016 1698 1152 1017
internal_count=11524 10866 9311 4986 3288 2783 1555 1767 4325 3576 2655 1949 1016 1698 1152 1017
cat_boundaries=0 1
cat_threshold=582
is_linear=0
shrinkage=0.05


Tree=18
num_leaves=18
num_cat=1
split_feature=134 463 424 417 388 113 22 22 409 184 22 22 109 136 364 377 113
split_gain=240.205 36.4876 32.4393 22.3876 11.6213 9.92314 9.76236 14.6162 7.80975 7.76363 6.39131 5.76504 5.55175 5.17131 4.93738 5.87463 3.19069
threshold=1.5254607856011304 0 -0.175577903458739 -0.86192183877473605 0.56919557295489509 0.023900838005565889 -0.10504833166701896 0.03475449143988605 0.091734403716611942 0.29133038909820058 0.024911642135293705 0.65285754629528669 -1.0000000180025095e-35 -0.042687821369233027 -0.4675114954324176 0.24280200642237385 1.0000000180025095e-35
decision_type=10 9 10 10 8 10 8 10 10 10 10 10 8 10 10 10 10
left_child=1 2 6 -4 9 8 12 -8 -5 10 14 -9 -1 -6 -3 -16 -12
right_child=-2 4 3 5 13 -7 7 11 -10 -11 16 -13 -14 -15 15 -17 -18
leaf_value=-0.0017617411281756847 0.029221211176971046 0.001352367717768119 0.014560014544380818 -0.0042806391185059214 -0.0062649193905901781 0.0066411982380444913 0.0071500787197597187 0.00017383508721281575 0.0039466254849320906 0.0019502550478045116 -0.0099231384588780586 -0.0063945657749594877 -0.0084122413235033309 -0.012401895169069409 -0.0067141208415118104 1.5969981421860476e-05 -0.0044296836696126113
leaf_weight=530 658 564 501 591 976 930 502 735 554 589 576 607 776 546 859 519 511
leaf_count=530 658 564 501 591 976 930 502 735 554 589 576 607 776 546 859 519 511
internal_value=3.30829e-06 -0.00177863 0.000968394 0.00512661 -0.00482931 0.00281943 -0.00243177 -8.63961e-05 -0.000300085 -0.00328892 -0.00430923 -0.00280983 -0.00573035 -0.00849989 -0.00257994 -0.00418845 -0.00737277
internal_weight=11524 10866 5726 2576 5140 2075 3150 1844 1145 3618 3029 1342 1306 1522 1942 1378 1087
internal_count=11524 10866 5726 2576 5140 2075 3150 1844 1145 3618 3029 1342 1306 1522 1942 1378 1087
cat_boundaries=0 1
cat_threshold=582
is_linear=0
shrinkage=0.05


Tree=19
num_leaves=15
num_cat=2
split_feature=25 20 463 412 133 425 24 463 114 184 110 422 377 20
split_gain=238.6 79.8774 53.9771 46.8378 27.4038 15.6365 15.5743 11.9146 10.9176 10.7912 9.53526 7.83279 4.7623 1.9772
threshold=2.3309367185008125 -0.15544655496795753 0 1.1439499991350799 0.61515154835046271 1.1730290841888256 -0.38346621199816294 1 0.31966786880543968 0.17039251888438431 -0.39570580114678328 0.32899398605040647 0.19168633805249588 -0.16458508598253754
decision_type=8 10 9 8 10 8 10 9 8 10 8 10 10 8
left_child=1 13 3 4 6 7 -3 9 -8 10 -4 12 -9 -1
right_child=-2 2 5 -5 -6 -7 8 11 -10 -11 -12 -13 -14 -15
leaf_value=-0.014074050966219307 0.032110282614818283 -0.0067376549856220979 0.0037869034776032008 0.019465619677052307 0.013181067029427141 -0.0098785907384851095 -0.0001741239237799734 -0.0072280599732801199 0.0089140203293534177 0.0055399658210516642 -0.0033256446929425215 0.0013714336309766503 -0.0023122798401399971 -0.010279047761114853
leaf_weight=679 546 570 661 505 507 636 952 1351 501 783 1608 525 784 916
leaf_count=679 546 570 661 505 507 636 952 1351 501 783 1608 525 784 916
internal_value=3.2389e-06 -0.00160752 0.000153199 0.0056216 0.0028475 -0.00246859 0.00023161 -0.00163993 0.00297933 0.000496676 -0.00124986 -0.00407431 -0.00543254 -0.0119335
internal_weight=11524 10978 9383 3035 2530 6348 2023 5712 1453 3052 2269 2660 2135 1595
internal_count=11524 10978 9383 3035 2530 6348 2023 5712 1453 3052 2269 2660 2135 1595
cat_boundaries=0 1 2
cat_threshold=518 192
is_linear=0
shrinkage=0.05


Tree=20
num_leaves=15
num_cat=1
split_feature=25 20 463 134 130 25 426 109 113 180 183 109 186 20
split_gain=215.533 72.1447 48.7563 44.3346 25.4362 28.1529 12.6395 12.6058 21.8688 22.4652 12.8661 12.7456 5.09915 1.78691
threshold=2.3309367185008125 -0.15544655496795753 0 0.8631038978411768 -0.26117801872726459 -0.25804932413294329 0.23582103607199509 -0.34229102068242367 -0.44139809909947353 -0.0025212824383699789 -0.037517514916637081 -0.47292948118392569 0.013285558629590839 -0.16458508598253754
decision_type=8 10 9 10 8 10 10 8 8 10 10 10 10 8
left_child=1 13 3 4 -3 -6 -7 11 -9 10 -10 -4 -11 -1
right_child=-2 2 7 -5 5 6 -8 8 9 12 -12 -13 -14 -15
leaf_value=-0.013375492434321207 0.030519337838510571 -0.0047665405082262169 -0.0021428315061258409 0.018413742662884414 -0.0022843936533297987 0.016336293317713413 0.0053901693235514506 0.005958393527361534 -0.0044497371757933439 -0.0066117374209926499 0.0028836553599695123 0.0075447925936129676 -0.011938645532208433 -0.0097678855124984365
leaf_weight=679 546 801 821 531 638 538 527 537 1505 1168 986 572 759 916
leaf_count=679 546 801 821 531 638 538 527 537 1505 1168 986 572 759 916
internal_value=3.73531e-06 -0.00152719 0.000146141 0.00534336 0.00256177 0.00601248 0.0109703 -0.00234564 -0.00352997 -0.00468869 -0.00154704 0.0018479 -0.00873535 -0.0113407
internal_weight=11524 10978 9383 3035 2504 1703 1065 6348 4955 4418 2491 1393 1927 1595
internal_count=11524 10978 9383 3035 2504 1703 1065 6348 4955 4418 2491 1393 1927 1595
cat_boundaries=0 1
cat_threshold=518
is_linear=0
shrinkage=0.05


Tree=21
num_leaves=16
num_cat=1
split_feature=131 20 463 424 425 133 129 124 388 109 109 178 118 177 182
split_gain=201.021 45.6578 37.6715 33.7604 33.9903 12.8563 16.803 10.3134 9.48317 8.72711 6.20843 11.6589 5.21825 4.91826 0.302849
threshold=1.8803166961923845 -0.16458508598253754 0 0.36210741315462808 -0.035612629890616004 -0.29376061165534034 -0.1289308733337016 2.6662289620559219 0.60425273607575825 -1.0000000180025095e-35 -0.34229102068242367 1.0000000180025095e-35 -0.15492971700717487 0.29765040251313124 -0.17844817958102424
decision_type=10 10 9 10 10 10 8 8 10 10 8 10 10 10 10
left_child=1 7 3 5 -5 9 -7 14 10 12 -4 13 -3 -12 -1
right_child=-2 2 8 4 -6 6 -8 -9 -10 -11 11 -13 -14 -15 -16
leaf_value=-0.011102205876461222 0.029817141600580396 -0.003057202550414505 0.0014542710842631226 0.019768695915682647 0.0035028160224192615 -0.0018286436137122612 0.0082412346077281821 -0.0037209625223072079 -0.0085590878938054567 -0.0060520358268533192 -0.0032289042009957824 -0.0081450036240522366 0.0037382300257304451 0.0020489581714203354 -0.01354571565148035
leaf_weight=502 534 529 786 500 890 776 880 527 774 901 1207 926 595 690 507
leaf_count=502 534 529 786 500 890 776 880 527 774 901 1207 926 595 690 507
internal_value=4.23612e-06 -0.00145726 -0.00015634 0.00277444 0.00940374 0.000269281 0.0035312 -0.00943788 -0.0035447 -0.00240037 -0.00246875 -0.00356167 0.000540648 -0.00130884 -0.0123908
internal_weight=11524 10990 9454 5071 1390 3681 1656 1536 4383 2025 3609 2823 1124 1897 1009
internal_count=11524 10990 9454 5071 1390 3681 1656 1536 4383 2025 3609 2823 1124 1897 1009
cat_boundaries=0 1
cat_threshold=582
is_linear=0
shrinkage=0.05


Tree=22
num_leaves=18
num_cat=1
split_feature=134 20 25 463 188 417 21 114 114 415 24 116 121 0 398 114 191
split_gain=191.165 40.8938 30.6505 24.8166 20.9493 12.2539 9.89156 9.63877 13.4003 9.16731 9.12398 8.8811 7.30338 5.1162 4.30486 4.14518 0.341773
threshold=1.5254607856011304 -0.16458508598253754 -0.22857351006752852 0 -0.021060754995781156 -0.31494409929081896 0.052456114917870146 0.3747355818199985 -0.25265691609355256 0.10246003054609056 -0.24545767465452215 1.9062182412514384 -0.13324385611862613 1.0496964601707852 -0.014559918203932629 1.0000000180025095e-35 0.19835931260401268
decision_type=10 10 10 9 8 10 10 10 8 10 10 8 10 8 8 8 10
left_child=1 11 7 4 9 -6 14 8 12 -4 -9 16 -3 -10 -5 -15 -1
right_child=-2 2 3 6 5 -7 -8 10 13 -11 -12 -13 -14 15 -16 -17 -18
leaf_value=-0.013039518101608803 0.026069472510603625 0.0024579584952702542 -0.0026708386639346738 0.0041232660776934658 0.016145203295561468 0.0062257443667575558 -0.0066215595638938578 -0.0052927762551952503 -0.0039688858176773955 0.005117888586093855 0.0029647918516480308 -0.003920582304184266 -0.0045938988037420988 -0.01302211283487981 -0.0018520143450286575 -0.0066903498181646306 -0.010563984277417122
leaf_weight=505 658 670 723 538 500 842 705 509 542 781 953 550 801 550 673 524 500
leaf_count=505 658 670 723 538 500 842 705 509 542 781 953 550 801 550 673 524 500
internal_value=4.22666e-06 -0.00158544 -0.000330017 0.00247258 0.00541937 0.00996773 -0.00192545 -0.00326333 -0.00484509 0.00137726 8.16521e-05 -0.00907749 -0.00138453 -0.00798115 0.000808608 -0.00997819 -0.0118663
internal_weight=11524 10866 9311 4762 2846 1342 1916 4549 3087 1504 1462 1555 1471 1616 1211 1074 1005
internal_count=11524 10866 9311 4762 2846 1342 1916 4549 3087 1504 1462 1555 1471 1616 1211 1074 1005
cat_boundaries=0 1
cat_threshold=582
is_linear=0
shrinkage=0.05


Tree=23
num_leaves=13
num_cat=0
split_feature=25 179 179 187 177 424 189 113 126 25 433 386
split_gain=181.111 34.6461 49.6804 32.5385 31.855 19.3495 19.3111 17.6057 15.647 10.3114 9.72376 6.62417
threshold=2.3309367185008125 0.5773502646374008 0.17149855335746975 0.0089528285612357882 0.49999996597366908 -0.1090383884137779 0.40895683106141228 -0.16248523716775529 -1.0289445401096957 -1.0000000180025095e-35 -1.1860758518180436 0.6955739940957516
decision_type=8 8 10 10 10 10 10 8 8 10 10 8
left_child=1 2 4 9 6 -5 8 -3 -1 -4 -10 -9
right_child=-2 7 3 5 -6 -7 -8 11 10 -11 -12 -13
leaf_value=-0.013281184938226599 0.027976716636340326 0.00099232109315039452 -0.0036127421307354402 0.0058913866613063163 0.0059523004793128513 0.018708278901950343 0.0038193879619554715 -0.012608616609137918 0.0024116058502202317 0.0055170466127626248 -0.0048765097060446336 -0.0061094085598715139
leaf_weight=503 546 507 700 633 979 557 714 879 519 546 3705 736
leaf_count=503 546 507 700 633 979 557 714 879 519 546 3705 736
internal_value=3.81729e-06 -0.00139954 -2.32638e-05 0.00604902 -0.00233024 0.0119437 -0.00382462 -0.00712977 -0.00498204 0.000394012 -0.00397923 -0.00967475
internal_weight=11524 10978 8856 2436 6420 1190 5441 2122 4727 1246 4224 1615
internal_count=11524 10978 8856 2436 6420 1190 5441 2122 4727 1246 4224 1615
is_linear=0
shrinkage=0.05


Tree=24
num_leaves=17
num_cat=1
split_feature=133 20 463 25 415 108 376 19 178 109 185 114 107 368 382 180
split_gain=169.477 36.7402 26.9426 27.0367 26.4539 14.325 10.6202 7.98867 7.70167 10.4267 6.53301 6.30725 5.84254 2.98964 2.82674 2.06629
threshold=1.5267877759127921 -0.14082247539942463 0 -0.38377284165096609 1.1595069614015323 0.866025403396676 -0.37366591364260737 1.0000000180025095e-35 -0.37755141432908385 -1.0000000180025095e-35 0.12098519523952943 0.33085603587532109 -0.42358826023541446 0.085656609618399895 -0.13567266910953749 -0.0025212824383699789
decision_type=10 10 9 10 8 10 10 8 8 10 10 10 10 10 8 10
left_child=1 7 3 11 5 6 -5 14 -4 10 12 15 -10 -11 -1 -3
right_child=-2 2 8 4 -6 -7 -8 -9 9 13 -12 -13 -14 -15 -16 -17
leaf_value=-0.01265662308745732 0.024124742748638971 -0.0023916166522880175 0.00090691831673238581 0.010714253641188711 0.015667782994467559 -0.0041268446838259665 0.0027384964035698216 -0.0034265189141284946 0.00013368366798247389 -0.0055869006662222671 0.0021648074733601544 0.0019580136761399945 -0.0066385318610213719 -0.010847329100690572 -0.007804810500702114 -0.0067571571805949268
leaf_weight=507 680 506 943 595 510 522 1389 839 520 597 625 502 816 525 848 600
leaf_count=507 680 506 943 595 510 522 1389 839 520 597 625 502 816 525 848 600
internal_value=4.2939e-06 -0.00151866 -5.15619e-05 0.00254852 0.00534263 0.00321432 0.00515134 -0.00728953 -0.0030361 -0.0042515 -0.00204284 -0.00267668 -0.00401197 -0.00808554 -0.00966007 -0.00477965
internal_weight=11524 10844 8650 4624 3016 2506 1984 2194 4026 3083 1961 1608 1336 1122 1355 1106
internal_count=11524 10844 8650 4624 3016 2506 1984 2194 4026 3083 1961 1608 1336 1122 1355 1106
cat_boundaries=0 1
cat_threshold=582
is_linear=0
shrinkage=0.05


Tree=25
num_leaves=18
num_cat=1
split_feature=134 20 25 463 182 121 425 110 110 180 181 124 188 110 0 111 415
split_gain=160.321 33.2916 23.4635 20.7814 15.2296 19.7852 12.7773 9.96879 10.1693 11.4339 7.51081 7.3584 6.92612 5.24712 5.23103 3.84756 0.374411
threshold=1.5254607856011304 -0.16458508598253754 -0.22857351006752852 0 -0.21882390340507549 -0.1266779439549385 0.53427665482029751 0.28631309790284326 -0.34315856683849716 -0.31977601145496021 -0.078628986652669056 2.6662289620559219 1.0000000180025095e-35 0.86239447311264328 -1.1597020055380514 -0.2540805300846346 0.70710677697233881
decision_type=10 10 10 9 10 8 10 10 8 8 10 8 10 10 10 10 8
left_child=1 11 7 4 -4 -6 12 8 10 -10 -3 16 15 -9 -11 -5 -1
right_child=-2 2 3 6 5 -7 -8 13 9 14 -12 -13 -14 -15 -16 -17 -18
leaf_value=-0.00944746832310186 0.023874045443773091 -0.003889462370521977 0.012507106153105338 0.0025711043236579345 -0.0046122370641016605 0.0081616800674668612 -0.0061945579455187803 0.0040479556282458458 -5.8472311144187325e-05 -0.010897957152734603 0.0038332061344733027 -0.0034390377227250623 0.0054494193674470585 -0.00271899486821639 -0.0049286930625118235 -0.0026943664260743096 -0.011869753045982635
leaf_weight=510 658 773 634 574 505 744 739 656 531 942 524 538 705 501 622 861 507
leaf_count=510 658 773 634 574 505 744 739 656 531 942 524 538 705 501 622 861 507
internal_value=4.03958e-06 -0.00145174 -0.000318996 0.00213312 0.00619225 0.00299909 -0.000547448 -0.00288545 -0.00425088 -0.00640095 -0.000766694 -0.00821164 0.00140999 0.00111866 -0.00854726 -0.000586564 -0.0107072
internal_weight=11524 10866 9311 4762 1883 1249 2879 4549 3392 2095 1297 1555 2140 1157 1564 1435 1017
internal_count=11524 10866 9311 4762 1883 1249 2879 4549 3392 2095 1297 1555 2140 1157 1564 1435 1017
cat_boundaries=0 1
cat_threshold=518
is_linear=0
shrinkage=0.05


Tree=26
num_leaves=14
num_cat=2
split_feature=25 20 463 134 179 179 187 179 189 463 25 407 187
split_gain=156.021 48.8003 35.4121 86.5378 19.2633 26.13 22.3825 12.4836 11.1617 7.34644 5.10593 2.65989 0.872961
threshold=2.5222565661306366 -0.15544655496795753 0 0.022559309092251529 0.5773502646374008 0.21903367747761884 0.0089528285612357882 1.3811635699080183 0.40895683106141228 1 -0.18178857286194203 -0.38280352558434583 -0.1150850099205864
decision_type=8 10 9 8 10 10 10 10 10 9 10 10 10
left_child=1 11 3 -3 5 8 10 -6 9 -4 -7 12 -1
right_child=-2 2 4 -5 7 6 -8 -9 -10 -11 -12 -13 -14
leaf_value=-0.0063707494748728903 0.027012952239892342 -0.0042097967324126028 -0.0014938003771787329 0.023510634193152396 -0.012361004814357576 -0.0037380745317372242 0.010202230684793531 -0.0015797377013928181 0.0028284177709380701 -0.0058660318793111316 0.0032556140896178171 -0.012350080084890011 -0.0093665112177179575
leaf_weight=573 506 614 2724 513 561 534 970 514 988 1494 501 504 528
leaf_count=573 506 614 2724 513 561 534 970 514 988 1494 501 504 528
internal_value=3.83094e-06 -0.00124825 0.000127562 0.00838235 -0.00100846 -7.69192e-05 0.00476602 -0.00723723 -0.00194487 -0.00306497 -0.000353348 -0.00929244 -0.00784326
internal_weight=11524 11018 9413 1127 8286 7211 2005 1075 5206 4218 1035 1605 1101
internal_count=11524 11018 9413 1127 8286 7211 2005 1075 5206 4218 1035 1605 1101
cat_boundaries=0 1 2
cat_threshold=6 705
is_linear=0
shrinkage=0.05


Tree=27
num_leaves=17
num_cat=0
split_feature=131 25 188 122 397 23 26 25 186 130 374 365 390 428 387 138
split_gain=143.965 23.464 21.4014 20.8283 14.6472 9.10374 10.0831 8.74168 8.55922 7.48815 6.77223 13.7735 5.1971 4.487 1.93087 1.83095
threshold=1.8803166961923845 -0.051858063851571122 -0.030593342286929989 0.42576055070613444 1.9508295725365656 1.0000000180025095e-35 0.43984136708629934 0.40063500190105661 0.62017576598241819 -0.42989084910463277 0.45672461744161463 0.31080453033273336 -0.48525887524226619 -0.86635103021880921 -0.10880658107023065 -0.14408553840736305
decision_type=10 8 10 8 8 10 10 10 10 10 10 10 10 10 10 10
left_child=1 4 5 7 8 6 12 -4 9 14 13 -12 -3 -11 -1 -16
right_child=-2 2 3 -5 -6 -7 -8 -9 -10 10 11 -13 -14 -15 15 -17
leaf_value=-0.0078551232636001889 0.025233172374545962 0.0056494573163377183 0.0052778551654946307 0.01401974825326747 -0.0099662831042880221 -0.0055736073391486028 -0.0052712896572965594 -0.0029357111430726949 0.0034235466721913091 0.00043791889888780136 0.0075897104139094054 -0.003511384848655943 -0.00049573580901231653 -0.0046106873560518161 -0.0021998810492813055 -0.0064487091995010419
leaf_weight=659 534 744 889 518 710 872 527 504 570 603 506 612 635 1616 514 511
leaf_count=659 534 744 889 518 710 872 527 504 570 603 506 612 635 1616 514 511
internal_value=3.52568e-06 -0.00123329 0.00144402 0.00550963 -0.00322523 -0.0013576 0.000580767 0.00230624 -0.00236104 -0.00302048 -0.00164448 0.00152433 0.00282816 -0.00324086 -0.00573421 -0.0043391
internal_weight=11524 10990 4689 1911 6301 2778 1906 1393 5591 5021 3337 1118 1379 2219 1684 1025
internal_count=11524 10990 4689 1911 6301 2778 1906 1393 5591 5021 3337 1118 1379 2219 1684 1025
is_linear=0
shrinkage=0.05


Tree=28
num_leaves=14
num_cat=0
split_feature=133 425 424 425 24 111 177 111 107 177 189 107 109
split_gain=135.567 28.3853 27.3223 28.1381 20.7142 14.0146 18.0946 13.5242 11.915 10.0932 9.07218 5.99736 4.87421
threshold=1.7378049731620318 1.3022090061579288 0.36210741315462808 -0.17657254201115868 0.038981488452494266 -0.57748325875181961 0.49999996597366908 -0.2540805300846346 0.79762794529034831 0.53883158318762547 -0.26383021771712684 0.097722523906532952 -0.067364219350316806
decision_type=10 10 10 10 10 10 10 10 8 10 10 10 10
left_child=1 2 5 -4 -5 8 7 10 12 -8 -7 -9 -1
right_child=-2 -3 3 4 -6 6 9 11 -10 -11 -12 -13 -14
leaf_value=-0.0052239262347555816 0.023821754484425316 -0.012507192620439957 0.014286693731077844 0.0059224767222753475 -0.0068440449850503213 0.0060276406159430439 0.010047489825261397 -0.0018627472959315446 -0.00048428885104283336 0.00043137717660985471 -0.0016975196570112314 -0.0058210213407113923 -0.011592986629285136
leaf_weight=593 563 526 548 793 523 745 529 2434 728 559 767 1580 636
leaf_count=593 563 526 548 793 523 745 529 2434 728 559 767 1580 636
internal_value=3.62613e-06 -0.00123007 -0.000655903 0.00482238 0.00084215 -0.00184942 -0.000747947 -0.00190911 -0.00556065 0.00513143 0.00211618 -0.00342612 -0.00855349
internal_weight=11524 10961 10435 1864 1316 8571 6614 5526 1957 1088 1512 4014 1229
internal_count=11524 10961 10435 1864 1316 8571 6614 5526 1957 1088 1512 4014 1229
is_linear=0
shrinkage=0.05


Tree=29
num_leaves=12
num_cat=1
split_feature=25 20 463 424 425 179 177 111 107 407 25
split_gain=130.139 41.2293 30.2906 69.4787 18.9462 12.711 24.1129 18.6755 14.6696 3.00108 0.988275
threshold=2.5222565661306366 -0.15544655496795753 0 0.23600989335680475 1.2060211674065027 0.5773502646374008 0.49999996597366908 -0.2540805300846346 -0.52920244056154042 -0.38280352558434583 -0.5021035310624552
decision_type=8 10 9 8 10 10 10 8 10 10 10
left_child=1 9 3 -3 5 6 7 -4 -8 10 -1
right_child=-2 2 4 -5 -6 -7 8 -9 -10 -11 -12
leaf_value=-0.0086911054297193601 0.024671179058354663 -0.003264694732388307 0.0033961542458049825 0.021632641069423916 -0.010036711836298484 -0.0055643053194093101 0.0013185365152861106 -0.0028533513219093721 0.012378611479873966 -0.011760382742261009 -0.0055514412645670114
leaf_weight=500 506 627 1731 500 529 994 596 3835 601 504 601
leaf_count=500 506 627 1731 500 529 994 596 3835 601 504 601
internal_value=3.75933e-06 -0.00113977 0.000124823 0.00775937 -0.000925866 -0.000299666 0.00047765 -0.000908481 0.00690007 -0.00853367 -0.00701011
internal_weight=11524 11018 9413 1127 8286 7757 6763 5566 1197 1605 1101
internal_count=11524 11018 9413 1127 8286 7757 6763 5566 1197 1605 1101
cat_boundaries=0 1
cat_threshold=6
is_linear=0
shrinkage=0.05


Tree=30
num_leaves=12
num_cat=0
split_feature=134 20 136 138 114 114 114 433 177 178 21
split_gain=126.597 25.1099 13.9472 12.4349 10.281 17.1361 13.3702 12.5833 11.343 6.24452 4.1628
threshold=1.5254607856011304 -0.16458508598253754 -1.1970592964146001 -1.2019517950042649 0.3747355818199985 -0.31400910981847618 0.70710677942406264 -0.26600055562232577 -0.50220801359383227 -0.4117831992128736 0.55118435199873483
decision_type=10 10 8 8 10 10 10 8 10 10 8
left_child=1 10 -3 -4 5 7 -6 -5 -7 -8 -1
right_child=-2 2 3 4 6 8 9 -9 -10 -11 -12
leaf_value=-0.0090887590627725407 0.021215307126474903 0.0072584571501053867 0.0065285236707579401 0.0048181900613268472 0.0061001316599199364 -0.011062868071616166 0.0026985879102052078 -0.0021434796941582064 -0.0034979113871881438 -0.0037499120802250239 -0.0036457489636996863
leaf_weight=999 658 567 538 982 933 643 586 1891 2145 1026 556
leaf_count=999 658 567 538 982 933 643 586 1891 2145 1026 556
internal_value=3.91126e-06 -0.00128973 -0.000305955 -0.000800333 -0.00128451 -0.00247048 0.00135319 0.000240277 -0.00525931 -0.00140463 -0.0071605
internal_weight=11524 10866 9311 8744 8206 5661 2545 2873 2788 1612 1555
internal_count=11524 10866 9311 8744 8206 5661 2545 2873 2788 1612 1555
is_linear=0
shrinkage=0.05


Tree=31
num_leaves=15
num_cat=0
split_feature=25 425 424 422 25 186 177 177 435 25 371 377 26 397
split_gain=117.55 24.3515 22.5367 24.696 12.0159 14.51 11.1529 16.5441 9.80227 12.976 7.93215 5.82735 3.10629 2.45604
threshold=1.9277952261689217 1.1730290841888256 0.62195350790758197 0.066474988286384304 -0.59774862621949543 0.42844778922287768 0.49999996597366908 0.57735026447490978 0.62683571127015858 0.098301144727533943 0.58452655503751272 0.59185776082884989 0.29454667287250197 -0.27279208082931178
decision_type=10 8 10 10 10 10 10 10 8 8 10 10 10 10
left_child=1 2 4 -4 11 6 10 -8 -3 -10 -6 12 13 -1
right_child=-2 8 3 -5 5 -7 7 -9 9 -11 -12 -13 -14 -15
leaf_value=-0.0035126820293636379 0.023472068264587399 -0.012197423667100547 0.014756545979206677 -5.1708837607178807e-05 -0.00037399329292230992 0.0083224154951480733 0.0099413633562698625 -0.0024672725342940235 -0.0081643747652534373 0.0016580592834709142 -0.0055501080309656751 0.00054844128767030001 -0.0018995515549696488 -0.0079075601909755159
leaf_weight=511 505 504 504 630 2868 515 560 509 796 577 993 598 557 897
leaf_count=511 505 504 504 630 2868 515 560 509 796 577 993 598 557 897
internal_value=4.0503e-06 -0.00108165 -1.54036e-05 0.00656562 -0.000950848 0.000378506 -0.000458926 0.00404906 -0.00626098 -0.00404548 -0.00171068 -0.00377025 -0.00508259 -0.00633062
internal_weight=11524 11019 9142 1134 8008 5445 4930 1069 1877 1373 3861 2563 1965 1408
internal_count=11524 11019 9142 1134 8008 5445 4930 1069 1877 1373 3861 2563 1965 1408
is_linear=0
shrinkage=0.05


Tree=32
num_leaves=16
num_cat=3
split_feature=134 178 109 178 178 463 111 179 187 25 25 463 430 463 415
split_gain=110.91 15.1654 19.1205 26.0341 18.303 15.8251 10.1148 12.096 10.776 9.69627 8.91673 7.58725 6.49009 3.21233 2.18644
threshold=1.5254607856011304 -0.4282516545627168 -1.0000000180025095e-35 1.0000000180025095e-35 -0.46177365012440147 0 0.4999999946165285 0.17149855335746975 -0.011252472680987748 -0.091794339934049882 0.17166737464598789 1 -0.25142084702064421 2 -0.093873485865117429
decision_type=10 8 8 10 10 9 10 10 10 10 10 9 10 9 10
left_child=1 4 6 5 9 -4 7 12 -9 -1 11 -7 14 -14 -3
right_child=-2 2 3 -5 -6 10 -8 8 -10 -11 -12 -13 13 -15 -16
leaf_value=-0.0036384082540224199 0.019857976239585132 -0.0026909791152920121 0.0028098862118844155 -0.013407492012611875 0.010106094483780907 -0.0025514829218108376 0.0059709070154182484 -0.0013274881266840829 0.0066128425030668962 0.00402127773999635 0.0010041816584829206 -0.0089559754889319866 -0.0088452029075966332 -0.0033878224949479446 0.001948345058433652
leaf_weight=918 658 500 909 696 575 813 623 939 777 743 510 1168 500 689 506
leaf_count=918 658 500 909 696 575 813 623 939 777 743 510 1168 500 689 506
internal_value=4.20718e-06 -0.00120664 -0.00215733 -0.00463124 0.00245926 -0.00281764 8.02329e-05 -0.000864544 0.00227664 -0.000210285 -0.00486448 -0.00639856 -0.00331984 -0.00581265 -0.000359387
internal_weight=11524 10866 8630 4096 2236 3400 4534 3911 1716 1661 2491 1981 2195 1189 1006
internal_count=11524 10866 8630 4096 2236 3400 4534 3911 1716 1661 2491 1981 2195 1189 1006
cat_boundaries=0 1 2 3
cat_threshold=513 160 1672
is_linear=0
shrinkage=0.05


Tree=33
num_leaves=14
num_cat=3
split_feature=25 20 463 421 424 25 25 21 463 110 407 388 463
split_gain=106.151 32.6798 26.2426 66.1375 22.4281 11.1589 27.0124 11.3592 10.3171 8.02999 3.46521 2.62904 1.09271
threshold=2.5222565661306366 -0.15544655496795753 0 0.019839545375290573 1.2185589532103964 -0.051858063851571122 0.007767197611480558 0.35253891454297653 1 1.0000000180025095e-35 -0.38280352558434583 -0.050302074460145438 2
decision_type=8 10 9 8 10 10 10 10 9 10 10 10 9
left_child=1 10 3 -3 5 8 -7 -8 11 -10 12 -4 -1
right_child=-2 2 4 -5 -6 6 7 -9 9 -11 -12 -13 -14
leaf_value=-0.0076598524432749705 0.022281513943764292 -0.0043658815704182884 -0.0033589247353390146 0.0197903298422826 -0.011040333475864507 0.011081771786271302 0.0020745459409206189 -0.0053343378830948175 -0.0020408465175961676 0.0030019022313687235 -0.011059232243548984 -0.0078292168246750955 -0.0040868676711665773
leaf_weight=546 506 586 723 541 505 658 1576 764 2222 1218 504 620 555
leaf_count=546 506 586 723 541 505 658 1576 764 2222 1218 504 620 555
internal_value=3.25233e-06 -0.00102952 9.63563e-05 0.00720253 -0.000881557 -0.000216701 0.00217282 -0.000350639 -0.00171516 -0.000252862 -0.00761232 -0.00540395 -0.00599158
internal_weight=11524 11018 9413 1127 8286 7781 2998 2340 4783 3440 1605 1343 1101
internal_count=11524 11018 9413 1127 8286 7781 2998 2340 4783 3440 1605 1343 1101
cat_boundaries=0 1 2 3
cat_threshold=6 1072 1676
is_linear=0
shrinkage=0.05


Tree=34
num_leaves=19
num_cat=2
split_feature=424 130 463 134 188 463 114 398 25 22 407 24 415 121 413 371 114 188
split_gain=100.715 17.8201 21.8468 20.2724 18.7421 8.76422 8.76305 7.35308 9.09577 6.32081 8.92464 5.11632 4.82467 4.81083 4.73239 3.75459 3.42637 2.78795
threshold=1.8497598355796459 -0.26117801872726459 0 -0.46407825482082982 -0.030593342286929989 1 0.12203259623221298 0.25413019230553174 -0.024606758520438855 0.071867423384744833 0.25256342579936708 0.19595283008025263 0.15088585348722452 -0.41393802929314505 -0.056101847513898191 -0.045743186149815047 -0.1720006847436775 -0.18685814862497349
decision_type=10 10 9 10 10 9 10 10 10 10 8 10 10 10 10 10 8 10
left_child=1 5 3 12 14 6 7 8 16 10 -7 13 -3 -4 -5 -8 -1 -15
right_child=-2 2 11 4 -6 9 15 -9 -10 -11 -12 -13 -14 17 -16 -17 -18 -19
leaf_value=-0.00099228651746697118 0.021398062780172387 -0.0045773907239423641 -0.0052263468400141153 -0.00060724181755486464 0.011834419030913585 -0.0081117057822115823 0.0053780405802449378 -0.0084639280840071666 0.0036960146734456877 -0.0094520787782536517 0.00037104902489914837 -0.0066996264813474378 0.0014034770370591955 -0.0020258182303237531 0.0057746207581815673 -0.00058821760148422477 -0.0061958088747186904 0.0031604568776320455
leaf_weight=551 520 616 533 638 921 573 500 516 541 725 668 639 734 506 527 550 745 521
leaf_count=551 520 616 533 638 921 573 500 516 541 725 668 639 734 506 527 550 745 521
internal_value=2.61181e-06 -0.0010177 0.000946063 0.00342942 0.00652334 -0.00307772 -0.00152159 -0.00321894 -0.00172668 -0.00572381 -0.00356248 -0.00293547 -0.00133239 -0.00139589 0.002292 0.00226488 -0.00399582 0.000607759
internal_weight=11524 11004 5635 3436 2086 5369 3403 2353 1837 1966 1241 2199 1350 1560 1165 1050 1296 1027
internal_count=11524 11004 5635 3436 2086 5369 3403 2353 1837 1966 1241 2199 1350 1560 1165 1050 1296 1027
cat_boundaries=0 1 2
cat_threshold=590 229
is_linear=0
shrinkage=0.05


Tree=35
num_leaves=11
num_cat=0
split_feature=134 20 417 425 137 374 374 379 124 25
split_gain=92.7041 20.3752 17.4956 17.5739 10.6897 9.02462 10.4856 9.99824 3.148 0.702321
threshold=1.5877425632867892 -0.16458508598253754 -1.7986171037465823 1.1730290841888256 -0.95193839200544006 0.45672461744161463 0.39811260659046305 0.84967312633049874 2.6662289620559219 -0.28673916783228875
decision_type=10 10 10 10 10 10 10 10 8 10
left_child=1 8 -3 4 -4 6 -6 -7 9 -1
right_child=-2 2 3 -5 5 7 -8 -9 -10 -11
leaf_value=-0.0065573444680205144 0.01871425246975322 0.0082695647944653252 0.0048884948541165095 -0.0096743516220593635 -0.0012245425360900056 -0.00013257816201567933 -0.0084005750793744918 0.0072921711655137451 -0.0032203402342128999 -0.0093968380859702615
leaf_weight=519 621 569 919 513 4238 1947 574 586 538 500
leaf_count=519 621 569 919 513 4238 1947 574 586 538 500
internal_value=2.48283e-06 -0.00107137 -0.00018783 -0.000740507 -0.000180411 -0.000817522 -0.00208837 0.00159609 -0.0063573 -0.0079897
internal_weight=11524 10903 9346 8777 8264 7345 4812 2533 1557 1019
internal_count=11524 10903 9346 8777 8264 7345 4812 2533 1557 1019
is_linear=0
shrinkage=0.05


Tree=36
num_leaves=14
num_cat=0
split_feature=133 425 130 114 132 433 114 114 24 111 425 107 431
split_gain=93.5942 28.4984 20.7275 15.6304 15.6871 13.3089 12.7279 10.0405 7.9347 6.10843 5.99121 5.97699 3.17974
threshold=1.7378049731620318 1.3022090061579288 1.4131066830741981 0.3747355818199985 0.41012278507771888 -0.37552798208147187 -0.58882319985093334 0.90834960694003797 0.12569698145403829 -0.56965637094889576 -0.56117445572813585 0.15550513472186114 -0.42880117084946612
decision_type=10 10 10 10 10 8 8 10 10 10 10 10 10
left_child=1 2 3 5 7 6 -1 10 9 -7 -5 -8 -10
right_child=-2 -3 -4 4 -6 8 11 -9 12 -11 -12 -13 -14
leaf_value=0.005885094493892129 0.019792765413082419 -0.012322180066422144 0.0091962064816752918 0.0071588226328988206 0.0099244775193052318 -0.0055377666191058937 0.00079940368236675367 -0.004257862380099133 -0.0039470556924019046 -0.00084260980462361711 0.0004391154387559585 -0.0054323605506104164 -0.0085957712440749949
leaf_weight=820 563 526 524 510 531 1000 930 758 648 2237 934 650 893
leaf_count=820 563 526 524 510 531 1000 930 758 648 2237 934 650 893
internal_value=2.37081e-06 -0.0010227 -0.000447498 -0.000961746 0.00225343 -0.00218663 0.000850083 0.000385308 -0.00371127 -0.00229938 0.00282893 -0.00177335 -0.00666005
internal_weight=11524 10961 10435 9911 2733 7178 2400 2202 4778 3237 1444 1580 1541
internal_count=11524 10961 10435 9911 2733 7178 2400 2202 4778 3237 1444 1580 1541
is_linear=0
shrinkage=0.05


Tree=37
num_leaves=10
num_cat=0
split_feature=131 425 137 184 184 191 131 401 191
split_gain=87.9479 18.755 15.7532 15.1336 13.7127 11.4481 9.81276 9.74286 7.10476
threshold=1.8803166961923845 1.3462451683152172 -1.1925964383733112 0.27101109772799115 -0.58157285535749481 0.25621203710033508 1.0000000180025095e-35 1.0000000180025095e-35 0.068291562261081809
decision_type=10 10 8 10 8 10 10 10 10
left_child=1 2 -1 4 -4 8 -7 -5 -6
right_child=-2 -3 3 7 5 6 -8 -9 -10
leaf_value=0.0075151565450798392 0.019722018686370711 -0.010186298068612815 0.0046826885184556299 0.00052383681880211993 -0.0022491209313696414 -0.0016404176011093653 0.006122382482657153 0.0086948667971435845 -0.005928540795368315
leaf_weight=574 534 520 735 991 3797 1174 617 573 2009
leaf_count=574 534 520 735 991 3797 1174 617 573 2009
internal_value=2.51816e-06 -0.000964178 -0.000501511 -0.000970064 -0.00181744 -0.00244898 0.00104347 0.00353561 -0.00352628
internal_weight=11524 10990 10470 9896 8332 7597 1791 1564 5806
internal_count=11524 10990 10470 9896 8332 7597 1791 1564 5806
is_linear=0
shrinkage=0.05


Tree=38
num_leaves=12
num_cat=2
split_feature=25 20 463 134 424 183 184 433 179 407 463
split_gain=86.2981 25.2345 21.331 59.5102 24.7335 9.49923 10.3985 12.2861 9.60383 3.83852 1.06778
threshold=2.5222565661306366 -0.15544655496795753 0 0.022559309092251529 1.2185589532103964 -0.48362623181829906 0.22809189229150351 -0.36554919857360096 0.5773502646374008 -0.38280352558434583 1
decision_type=8 10 9 8 10 8 10 8 10 10 9
left_child=1 9 3 -3 5 -4 8 -8 -7 10 -1
right_child=-2 2 4 -5 -6 6 7 -9 -10 -11 -12
leaf_value=-0.0066260786975257495 0.020090209939825777 -0.0039752249397101971 0.0047580652528341899 0.019009802335761775 -0.011488446771080478 -0.00097482310828869798 0.0087394584644026104 -0.00061158223871994122 -0.0073953584033444658 -0.010326995331144935 -0.0032172861108212382
leaf_weight=546 506 614 879 513 505 4761 563 919 659 504 555
leaf_count=546 506 614 879 513 505 4761 563 919 659 504 555
internal_value=2.98327e-06 -0.000928214 6.11404e-05 0.00646796 -0.000820454 -0.000122205 -0.000746723 0.00295825 -0.00176157 -0.00671275 -0.00501906
internal_weight=11524 11018 9413 1127 8286 7781 6902 1482 5420 1605 1101
internal_count=11524 11018 9413 1127 8286 7781 6902 1482 5420 1605 1101
cat_boundaries=0 1 2
cat_threshold=6 1676
is_linear=0
shrinkage=0.05


Tree=39
num_leaves=18
num_cat=2
split_feature=134 20 463 416 388 109 109 410 110 110 401 110 113 114 21 382 463
split_gain=78.2537 15.7296 13.7324 14.1454 8.8303 8.82184 13.3576 6.75075 5.33234 8.52654 5.31606 4.79488 4.37953 4.04279 4.03534 2.83958 3.39333
threshold=1.5254607856011304 -0.14082247539942463 0 0.86471552307680122 0.60425273607575825 -1.0000000180025095e-35 0.33420968903698828 0.053712989752191832 0.28631309790284326 -0.39570580114678328 1.0000000180025095e-35 -0.89218125791321612 0.046001716907863227 0.16073952421054274 0.16417016707607149 -0.4640431715128101 1
decision_type=10 10 9 10 10 10 10 8 10 10 10 10 10 10 10 8 9
left_child=1 15 3 5 8 7 10 14 9 11 -7 -4 -8 -11 -3 -1 -17
right_child=-2 2 4 -5 -6 6 12 -9 -10 13 -12 -13 -14 -15 -16 16 -18
leaf_value=-0.0079955155769949968 0.016679296273717777 -0.001038100751017479 -0.0020395115849455091 0.0090167471003164915 -0.0072412383335502956 -0.0085477743503737259 0.0058077694934935897 0.0075802834091841659 0.0023212984806827166 -0.0072348102410886451 -0.0015553400604346958 0.0044345533217375098 -0.00065417969140760387 -0.0015654403138391064 0.0045731641600106291 -0.0016406913851999445 -0.0062140561069940923
leaf_weight=524 658 802 631 587 709 585 519 598 841 799 509 515 523 522 527 920 755
leaf_count=524 658 802 631 587 709 585 519 598 841 799 509 515 523 522 527 920 755
internal_value=2.58029e-06 -0.0010145 -5.53653e-05 0.0017919 -0.0021923 0.000742704 -0.00146883 0.00319156 -0.00110749 -0.0022787 -0.00531632 0.000876489 0.00257676 -0.00500888 0.00119578 -0.00478607 -0.00376123
internal_weight=11524 10866 8667 4650 4017 4063 2136 1927 3308 2467 1094 1146 1042 1321 1329 2199 1675
internal_count=11524 10866 8667 4650 4017 4063 2136 1927 3308 2467 1094 1146 1042 1321 1329 2199 1675
cat_boundaries=0 1 2
cat_threshold=582 673
is_linear=0
shrinkage=0.05


Tree=40
num_leaves=10
num_cat=1
split_feature=133 130 134 463 20 436 179 382 129
split_gain=76.975 21.1016 18.535 15.0505 11.1778 11.4823 9.85899 3.08642 1.46366
threshold=1.5267877759127921 1.4999997773746416 1.2263775361256009 0 -0.14082247539942463 -1.0000000180025095e-35 0.5773502646374008 0.68097402954492015 -0.30946757726623708
decision_type=10 10 10 9 10 10 10 8 10
left_child=1 2 3 -1 7 -6 -7 8 -5
right_child=-2 -3 -4 4 5 6 -8 -9 -10
leaf_value=-0.0070110573777199666 0.016257867533900527 0.0088346985741346185 -0.010544249682180956 -0.006995732980175114 -0.0063101023372628632 0.0019056479321477257 -0.0036733693600810914 -0.0010677985014817155 -0.0033871752010133415
leaf_weight=932 680 512 534 646 561 5579 918 637 525
leaf_count=932 680 512 534 646 561 5579 918 637 525
internal_value=2.21225e-06 -0.00102416 -0.00151675 -0.00101962 -0.000377869 0.000520898 0.00111514 -0.00388028 -0.00539917
internal_weight=11524 10844 10332 9798 8866 7058 6497 1808 1171
internal_count=11524 10844 10332 9798 8866 7058 6497 1808 1171
cat_boundaries=0 1
cat_threshold=1042
is_linear=0
shrinkage=0.05


Tree=41
num_leaves=18
num_cat=4
split_feature=463 20 463 416 425 22 25 133 463 126 131 388 130 413 397 463 181
split_gain=77.2576 24.2101 33.0488 47.5715 30.192 17.9842 25.3154 9.4163 6.70855 8.07323 6.31584 5.63842 5.5659 5.39562 4.56088 3.15681 1.84028
threshold=0 -0.14082247539942463 1 0.78138348384354417 1.0978561503187938 -1.0000000180025095e-35 -0.024606758520438855 -0.020435796833149646 2 0.085881734118000194 -0.4991113813332701 0.40807534117865757 0.20754099710992088 -0.1384675708416894 -0.39438996842449797 3 -0.15868974898081342
decision_type=9 10 9 10 10 10 10 10 9 8 10 10 10 8 10 9 10
left_child=-1 7 3 5 8 14 -7 15 9 10 -4 12 -10 -11 -3 -2 -17
right_child=1 2 4 -5 -6 6 -8 -9 11 13 -12 -13 -14 -15 -16 16 -18
leaf_value=0.018032927896322135 -0.0063673869099724004 -0.0061226870757211576 -0.00092545434463072286 0.018327590157764591 -0.013429073991087141 -0.0017123103446952685 0.013819023434656115 -0.011134836275583317 -0.0028123418068426199 -0.0054387084904134256 0.005512105773564621 -0.0069475068456200557 0.0032339676919212867 0.00093817687155643692 0.00042164789667746989 0.00019103357037389038 -0.0040037974752299586
leaf_weight=550 648 553 587 526 503 512 531 561 1535 606 1074 566 501 723 508 526 514
leaf_count=550 648 553 587 526 503 512 531 561 1535 606 1074 566 501 723 508 526 514
internal_value=1.53752e-06 -0.000925551 0.000266844 0.00493517 -0.00175515 0.00157495 0.00622303 -0.00554589 -0.000697161 0.000918348 0.00324111 -0.00254553 -0.00132024 -0.00197905 -0.00300202 -0.00366102 -0.00187349
internal_weight=11524 10974 8725 2630 6095 2104 1043 2249 5592 2990 1661 2602 2036 1329 1061 1688 1040
internal_count=11524 10974 8725 2630 6095 2104 1043 2249 5592 2990 1661 2602 2036 1329 1061 1688 1040
cat_boundaries=0 1 2 3 4
cat_threshold=2 516 192 1100
is_linear=0
shrinkage=0.05


Tree=42
num_leaves=16
num_cat=2
split_feature=25 425 20 463 25 130 184 24 389 419 114 463 183 114 407
split_gain=73.3795 21.7917 16.7462 15.5442 18.8873 20.5166 12.5425 7.1413 8.41129 5.681 5.40705 3.86178 3.4126 2.98441 2.10264
threshold=2.5222565661306366 1.5151900274151384 -0.14082247539942463 0 -0.38377284165096609 0.76120244271762039 0.17887514218824155 0.13480827056073602 -0.45062548071936598 0.52202673878536088 -0.3681507315491821 1 0.10393359222045755 0.068946350257121605 0.34062187680633566
decision_type=8 10 10 9 10 10 8 10 8 8 10 9 8 8 8
left_child=1 2 11 4 12 6 -6 9 -9 10 -5 -1 13 -4 -13
right_child=-2 -3 3 7 5 -7 -8 8 -10 -11 -12 14 -14 -15 -16
leaf_value=-0.0016005470321416443 0.018524809180049923 -0.010939922480709378 -0.0026941579663796993 0.0019710332996668539 0.00084718574089609261 0.013140232166229164 0.0093561263882731751 0.00021192564337865194 -0.0081152795545651815 0.0044027400865686971 -0.0032552337492359885 -0.0043756762471187996 -0.0050463129482829008 0.0026088623436960846 -0.0086223447500729349
leaf_weight=745 506 506 554 765 1871 597 559 502 760 521 1383 670 542 500 543
leaf_count=745 506 506 554 765 1871 597 559 502 760 521 1383 670 542 500 543
internal_value=2.0009e-06 -0.000856673 -0.000366341 0.000589115 0.00255017 0.00487355 0.00281978 -0.00171958 -0.00481511 -0.000256069 -0.00139367 -0.00453135 -0.00184191 -0.000178054 -0.00625295
internal_weight=11524 11018 10512 8554 4623 3027 2430 3931 1262 2669 2148 1958 1596 1054 1213
internal_count=11524 11018 10512 8554 4623 3027 2430 3931 1262 2669 2148 1958 1596 1054 1213
cat_boundaries=0 1 2
cat_threshold=582 177
is_linear=0
shrinkage=0.05


Tree=43
num_leaves=14
num_cat=3
split_feature=463 20 463 416 425 425 397 132 113 109 113 463 181
split_gain=68.0629 20.8744 28.0259 41.828 26.3945 17.2975 14.6269 7.93592 6.25149 10.9128 9.31887 2.27331 1.91275
threshold=0 -0.14082247539942463 1 0.78138348384354417 1.0978561503187938 0.2508997054953338 -0.29767989949040169 0.25042694475227739 -0.45546627457667005 -0.34229102068242367 0.023900838005565889 2 -0.15868974898081342
decision_type=9 10 9 10 10 10 8 10 8 8 8 9 10
left_child=-1 7 3 5 8 6 -3 11 -4 -10 -11 -2 -13
right_child=1 2 4 -5 -6 -7 -8 -9 9 10 -12 12 -14
leaf_value=0.016926393154633165 -0.0057554419111256723 -0.0074445746827973315 0.0033977440109373789 0.017095515622911721 -0.012538045435017764 0.0091741326350328212 0.002477302491428007 -0.010618819021453146 0.0040876522861137158 -0.0050219667842867667 -0.00017796424163948259 9.9026772054745381e-05 -0.0041500799583252109
leaf_weight=550 685 589 816 526 503 528 987 510 775 1814 2187 533 521
leaf_count=550 685 589 816 526 503 528 987 510 775 1814 2187 533 521
internal_value=1.9705e-06 -0.000868204 0.000239 0.00453797 -0.00162299 0.00138702 -0.00124263 -0.00515846 -0.000633757 -0.00132539 -0.0023777 -0.00353124 -0.0019922
internal_weight=11524 10974 8725 2630 6095 2104 1576 2249 5592 4776 4001 1739 1054
internal_count=11524 10974 8725 2630 6095 2104 1576 2249 5592 4776 4001 1739 1054
cat_boundaries=0 1 2 3
cat_threshold=2 516 1100
is_linear=0
shrinkage=0.05


Tree=44
num_leaves=14
num_cat=2
split_feature=25 425 137 20 187 107 463 187 179 187 178 463 407
split_gain=64.9306 18.8713 14.4085 11.4111 10.7909 14.8293 20.7807 8.51242 6.54762 6.42077 6.03017 3.37292 1.84737
threshold=2.5222565661306366 1.5151900274151384 -1.2391511431448781 -0.14082247539942463 1.0000000180025095e-35 0.37773467244856374 0 -0.22443901130607599 -0.50544571181656506 0.28844804696933796 0.092439140968497951 1 0.20459732866753241
decision_type=8 10 8 10 8 8 9 8 10 8 8 9 8
left_child=1 2 -1 11 7 6 -6 8 -5 -7 -9 -4 -13
right_child=-2 -3 3 4 5 9 -8 10 -10 -11 -12 12 -14
leaf_value=0.0078156930458652008 0.01742637634959433 -0.010188523992382237 -0.0014857306581165098 0.0056411578354396462 0.013211678939125471 -0.0055434185091235121 0.0018203269289616469 -0.0053584135175371592 -0.00078871158000172524 0.0013211568151676411 -0.00052288770254169104 -0.0040047038256036515 -0.0080508204515580984
leaf_weight=509 506 506 721 536 530 635 1558 1565 1473 725 1096 608 556
leaf_count=509 506 506 721 536 530 635 1558 1565 1473 725 1096 608 556
internal_value=2.52019e-06 -0.000805209 -0.00034891 -0.000768061 4.65515e-05 0.00216635 0.00480828 -0.0015192 0.00093652 -0.00189256 -0.0033715 -0.00426714 -0.00591297
internal_weight=11524 11018 10512 10003 8118 3448 2088 4670 2009 1360 2661 1885 1164
internal_count=11524 11018 10512 10003 8118 3448 2088 4670 2009 1360 2661 1885 1164
cat_boundaries=0 1 2
cat_threshold=514 177
is_linear=0
shrinkage=0.05


Tree=45
num_leaves=14
num_cat=1
split_feature=134 422 136 374 433 116 114 381 135 114 463 25 25
split_gain=64.2163 12.2276 11.6193 7.89875 9.04989 9.72082 7.73727 6.09676 5.5143 4.76116 3.34434 4.00616 3.46938
threshold=1.3699980125133069 1.3287458909240115 -1.2161653304480047 0.57760200255377081 -0.25023689194533755 -0.58658604735021114 0.3747355818199985 -0.31630624854915496 -0.18410986446179059 -0.3681507315491821 0 -0.70710612189746869 -0.55166410412545297
decision_type=10 10 8 10 8 10 10 10 10 10 9 10 10
left_child=1 2 -1 4 5 -4 7 -5 -9 -7 12 -12 -6
right_child=-2 -3 3 6 10 9 -8 8 -10 -11 11 -13 -14
leaf_value=0.0067495162523958548 0.01353332610743101 -0.0083792474806123184 0.0058185976709533155 0.0037795418223539618 -0.004752769546327377 0.0022838886219266521 0.0049546759224323392 0.00083907258566495518 -0.0062823742071358227 -0.0028642284797099032 -0.0015603904001077215 -0.0063337984656463859 -0.00070082710319812518
leaf_weight=501 810 532 631 501 769 651 942 521 561 1422 655 1357 1671
leaf_count=501 810 532 631 501 769 651 942 521 561 1422 655 1357 1671
internal_value=3.22654e-06 -0.00102551 -0.000637362 -0.00102293 -0.00187098 0.000410338 0.00137947 -0.000756942 -0.0028652 -0.00124592 -0.00325549 -0.00476393 -0.00197688
internal_weight=11524 10714 10182 9681 7156 2704 2525 1583 1082 2073 4452 2012 2440
internal_count=11524 10714 10182 9681 7156 2704 2525 1583 1082 2073 4452 2012 2440
cat_boundaries=0 1
cat_threshold=225
is_linear=0
shrinkage=0.05


Tree=46
num_leaves=12
num_cat=3
split_feature=133 130 134 463 130 463 374 25 463 114 407
split_gain=61.9437 16.7915 18.1507 16.2338 9.87738 10.6928 9.4783 6.87438 6.31794 7.1223 6.52071
threshold=1.5267877759127921 1.4999997773746416 1.2263775361256009 0 -0.26117801872726459 1 0.34409168371765048 -0.6362882017403263 2 0.12203259623221298 0.34062187680633566
decision_type=10 10 10 9 10 9 10 10 9 10 8
left_child=1 2 3 -1 8 6 -6 -7 10 -10 -5
right_child=-2 -3 -4 4 5 7 -8 -9 9 -11 -12
leaf_value=-0.0070873207630424082 0.014585593465960374 0.0078770549061219063 -0.010290200657297422 -0.0081456291528955501 0.0014590362750701664 -0.0043819902249971577 0.010006093028316954 0.0011877501046145822 -0.002194998878835324 0.0029114365726899253 -0.0010691360513396721
leaf_weight=932 680 512 534 682 728 722 583 2323 2227 979 622
leaf_count=932 680 512 534 682 728 722 583 2323 2227 979 622
internal_value=3.21886e-06 -0.000917506 -0.00135692 -0.000865045 -0.000199116 0.00149792 0.00524363 -0.000137459 -0.00183849 -0.0006316 -0.00475087
internal_weight=11524 10844 10332 9798 8866 4356 1311 3045 4510 3206 1304
internal_count=11524 10844 10332 9798 8866 4356 1311 3045 4510 3206 1304
cat_boundaries=0 1 2 3
cat_threshold=1042 520 520
is_linear=0
shrinkage=0.05


Tree=47
num_leaves=13
num_cat=1
split_feature=463 417 407 177 177 111 365 426 33 398 435 179
split_gain=60.3085 20.3246 31.3695 15.145 24.0256 13.3733 13.0741 9.94599 6.37191 6.48159 6.27742 4.6685
threshold=0 -1.4709187011166158 1.3529464622568215 0.49999996597366908 0.53883158318762547 -0.2540805300846346 0.45472589574412747 0.30489752605413795 -0.53953312863857306 0.70710676813982387 0.22891040543401583 0.4141608602199302
decision_type=9 8 10 10 10 8 10 10 10 10 10 10
left_child=-1 -2 3 5 -5 7 -6 11 9 -7 -9 -3
right_child=1 2 -4 4 6 8 -8 10 -10 -11 -12 -13
leaf_value=0.01593403115842813 0.0086425206415070635 0.0022739881532401335 -0.012185725470089967 0.011302061592329533 0.0042133156710528379 -0.0017543800318708305 -0.0067041411821746073 0.0013935618545732765 -0.0082223991844483525 -0.0077289156962444296 0.0092779000584522521 -0.0033581013742037709
leaf_weight=550 535 616 618 637 583 4563 509 509 505 500 500 899
leaf_count=550 535 616 618 637 583 4563 509 509 505 500 500 899
internal_value=2.8559e-06 -0.000816253 -0.0013057 -0.00061521 0.00362597 -0.00152309 -0.000882861 0.00149389 -0.00289082 -0.00235144 0.00532705 -0.00106814
internal_weight=11524 10974 10439 9821 1729 8092 1092 2524 5568 5063 1009 1515
internal_count=11524 10974 10439 9821 1729 8092 1092 2524 5568 5063 1009 1515
cat_boundaries=0 1
cat_threshold=2
is_linear=0
shrinkage=0.05


Tree=48
num_leaves=15
num_cat=0
split_feature=131 425 180 180 398 25 180 110 114 114 421 178 385 422
split_gain=57.4854 13.8902 12.0449 16.7549 13.0754 8.73597 10.3124 15.6942 7.20972 7.48521 7.26429 6.82474 2.00745 1.89321
threshold=1.8803166961923845 1.3462451683152172 -0.111380655509786 -2.775557484418026e-08 0.70710676813982387 -0.61596119490971823 0.45970977207934 -0.41593497262386087 0.90834960694003797 0.64849409792141999 -0.31442583700273519 0.080437430818076486 0.14449723327957523 -0.72189296315302831
decision_type=10 10 8 8 10 10 10 8 10 8 10 10 10 10
left_child=1 2 4 -4 8 12 11 -8 9 10 -1 -7 13 -5
right_child=-2 -3 3 5 -6 6 7 -9 -10 -11 -12 -13 -14 -15
leaf_value=-0.0021481809154698939 0.015946397695803569 -0.0087142871846604287 -0.0080827617708729305 -0.0043759084244651509 0.0092954871631393734 -0.0023230844227078921 -0.0018787899870394841 0.0099084447952174845 -0.0047948390115103087 0.0069754124343414173 0.003483752065920491 0.0033118733920304839 -0.0063490967150456688 -0.00026350112677010686
leaf_weight=1243 534 520 878 631 506 2278 512 621 501 536 1053 698 512 501
leaf_count=1243 534 520 878 631 506 2278 512 621 501 536 1053 698 512 501
internal_value=3.68786e-06 -0.000777862 -0.000379722 -0.00166968 0.00184765 -0.000684768 0.000548371 0.00459697 0.00070473 0.00168438 0.000436714 -0.000998106 -0.00375918 -0.002565
internal_weight=11524 10990 10470 6631 3839 5753 4109 1133 3333 2832 2296 2976 1644 1132
internal_count=11524 10990 10470 6631 3839 5753 4109 1133 3333 2832 2296 2976 1644 1132
is_linear=0
shrinkage=0.05


Tree=49
num_leaves=12
num_cat=1
split_feature=134 425 137 374 379 374 463 177 365 110 130
split_gain=55.9586 11.8139 14.7288 8.75681 10.0058 9.00984 10.136 11.7544 5.31054 5.02901 3.85036
threshold=1.5877425632867892 1.3022090061579288 -1.1925964383733112 0.45672461744161463 0.84967312633049874 0.42137217526212573 0 0.49999996597366908 0.38773773652283822 -0.34315856683849716 0.07920697999070557
decision_type=10 10 8 10 8 10 9 10 10 8 8
left_child=1 2 -1 5 8 6 7 -4 -5 -10 -8
right_child=-2 -3 3 4 -6 -7 10 -9 9 -11 -12
leaf_value=0.007542342642792018 0.014541519023723507 -0.0082913971119311838 -0.0011594514987283708 0.0028811299823474014 0.006696009896431248 -0.0082221803228133064 -0.0074995527395815918 0.0061718815421925831 0.0016651595182664285 -0.0045234914805236566 -0.0025686512951507735
leaf_weight=539 621 501 4220 846 677 512 725 623 531 846 883
leaf_count=539 621 501 4220 846 677 512 725 623 531 846 883
internal_value=3.72009e-06 -0.000830592 -0.000467441 -0.000908765 0.00139813 -0.00186987 -0.00135972 -0.000210527 -0.000226716 -0.00213963 -0.00477858
internal_weight=11524 10903 10402 9863 2900 6963 6451 4843 2223 1377 1608
internal_count=11524 10903 10402 9863 2900 6963 6451 4843 2223 1377 1608
cat_boundaries=0 1
cat_threshold=737
is_linear=0
shrinkage=0.05


Tree=50
num_leaves=11
num_cat=0
split_feature=25 425 137 184 184 191 398 401 131 188
split_gain=53.7312 17.3439 10.9615 9.63168 11.3664 8.32642 12.1371 8.12981 7.65249 4.27681
threshold=2.5222565661306366 1.5151900274151384 -1.2391511431448781 0.27101109772799115 -0.58157285535749481 0.25621203710033508 0.85639953871693664 0.068850894352438616 1.0000000180025095e-35 0.064953767994353498
decision_type=8 10 8 10 8 10 10 10 10 10
left_child=1 2 -1 4 -4 6 -6 9 -7 -5
right_child=-2 -3 3 7 5 8 -8 -9 -10 -11
