tree
version=v4
num_class=1
num_tree_per_iteration=1
label_index=0
max_feature_idx=463
objective=regression
feature_names=market_cap pe_ratio pb_ratio ps_ratio profit_margins operating_margins gross_margins return_on_equity return_on_assets revenue_growth earnings_growth debt_to_equity current_ratio quick_ratio dividend_yield payout_ratio enterprise_to_ebitda enterprise_to_revenue beta vix treasury_10y returns_1m returns_3m returns_6m returns_1y volatility volume_trend log_market_cap fcf_yield ocf_yield earnings_yield profit_margins_lag1q profit_margins_lag2q profit_margins_lag4q profit_margins_lag8q operating_margins_lag1q operating_margins_lag2q operating_margins_lag4q operating_margins_lag8q gross_margins_lag1q gross_margins_lag2q gross_margins_lag4q gross_margins_lag8q return_on_equity_lag1q return_on_equity_lag2q return_on_equity_lag4q return_on_equity_lag8q return_on_assets_lag1q return_on_assets_lag2q return_on_assets_lag4q return_on_assets_lag8q revenue_growth_lag1q revenue_growth_lag2q revenue_growth_lag4q revenue_growth_lag8q earnings_growth_lag1q earnings_growth_lag2q earnings_growth_lag4q earnings_growth_lag8q current_ratio_lag1q current_ratio_lag2q current_ratio_lag4q current_ratio_lag8q quick_ratio_lag1q quick_ratio_lag2q quick_ratio_lag4q quick_ratio_lag8q debt_to_equity_lag1q debt_to_equity_lag2q debt_to_equity_lag4q debt_to_equity_lag8q pe_ratio_lag1q pe_ratio_lag2q pe_ratio_lag4q pe_ratio_lag8q pb_ratio_lag1q pb_ratio_lag2q pb_ratio_lag4q pb_ratio_lag8q ps_ratio_lag1q ps_ratio_lag2q ps_ratio_lag4q ps_ratio_lag8q enterprise_to_ebitda_lag1q enterprise_to_ebitda_lag2q enterprise_to_ebitda_lag4q enterprise_to_ebitda_lag8q enterprise_to_revenue_lag1q enterprise_to_revenue_lag2q enterprise_to_revenue_lag4q enterprise_to_revenue_lag8q dividend_yield_lag1q dividend_yield_lag2q dividend_yield_lag4q dividend_yield_lag8q payout_ratio_lag1q payout_ratio_lag2q payout_ratio_lag4q payout_ratio_lag8q market_cap_lag1q market_cap_lag2q market_cap_lag4q market_cap_lag8q beta_lag1q beta_lag2q beta_lag4q beta_lag8q vix_lag1q vix_lag2q vix_lag4q vix_lag8q treasury_10y_lag1q treasury_10y_lag2q treasury_10y_lag4q treasury_10y_lag8q returns_1m_lag1q returns_1m_lag2q returns_1m_lag4q returns_1m_lag8q returns_3m_lag1q returns_3m_lag2q returns_3m_lag4q returns_3m_lag8q returns_6m_lag1q returns_6m_lag2q returns_6m_lag4q returns_6m_lag8q returns_1y_lag1q returns_1y_lag2q returns_1y_lag4q returns_1y_lag8q volatility_lag1q volatility_lag2q volatility_lag4q volatility_lag8q volume_trend_lag1q volume_trend_lag2q volume_trend_lag4q volume_trend_lag8q profit_margins_qoq profit_margins_yoy operating_margins_qoq operating_margins_yoy gross_margins_qoq gross_margins_yoy return_on_equity_qoq return_on_equity_yoy return_on_assets_qoq return_on_assets_yoy revenue_growth_qoq revenue_growth_yoy earnings_growth_qoq earnings_growth_yoy current_ratio_qoq current_ratio_yoy quick_ratio_qoq quick_ratio_yoy debt_to_equity_qoq debt_to_equity_yoy pe_ratio_qoq pe_ratio_yoy pb_ratio_qoq pb_ratio_yoy ps_ratio_qoq ps_ratio_yoy enterprise_to_ebitda_qoq enterprise_to_ebitda_yoy enterprise_to_revenue_qoq enterprise_to_revenue_yoy dividend_yield_qoq dividend_yield_yoy payout_ratio_qoq payout_ratio_yoy market_cap_qoq market_cap_yoy beta_qoq beta_yoy vix_qoq vix_yoy treasury_10y_qoq treasury_10y_yoy returns_1m_qoq returns_1m_yoy returns_3m_qoq returns_3m_yoy returns_6m_qoq returns_6m_yoy returns_1y_qoq returns_1y_yoy volatility_qoq volatility_yoy volume_trend_qoq volume_trend_yoy profit_margins_mean4q profit_margins_std4q profit_margins_slope4q profit_margins_mean8q profit_margins_std8q profit_margins_slope8q profit_margins_mean12q profit_margins_std12q profit_margins_slope12q operating_margins_mean4q operating_margins_std4q operating_margins_slope4q operating_margins_mean8q operating_margins_std8q operating_margins_slope8q operating_margins_mean12q operating_margins_std12q operating_margins_slope12q gross_margins_mean4q gross_margins_std4q gross_margins_slope4q gross_margins_mean8q gross_margins_std8q gross_margins_slope8q gross_margins_mean12q gross_margins_std12q gross_margins_slope12q return_on_equity_mean4q return_on_equity_std4q return_on_equity_slope4q return_on_equity_mean8q return_on_equity_std8q return_on_equity_slope8q return_on_equity_mean12q return_on_equity_std12q return_on_equity_slope12q return_on_assets_mean4q return_on_assets_std4q return_on_assets_slope4q return_on_assets_mean8q return_on_assets_std8q return_on_assets_slope8q return_on_assets_mean12q return_on_assets_std12q return_on_assets_slope12q revenue_growth_mean4q revenue_growth_std4q revenue_growth_slope4q revenue_growth_mean8q revenue_growth_std8q revenue_growth_slope8q revenue_growth_mean12q revenue_growth_std12q revenue_growth_slope12q earnings_growth_mean4q earnings_growth_std4q earnings_growth_slope4q earnings_growth_mean8q earnings_growth_std8q earnings_growth_slope8q earnings_growth_mean12q earnings_growth_std12q earnings_growth_slope12q current_ratio_mean4q current_ratio_std4q current_ratio_slope4q current_ratio_mean8q current_ratio_std8q current_ratio_slope8q current_ratio_mean12q current_ratio_std12q current_ratio_slope12q quick_ratio_mean4q quick_ratio_std4q quick_ratio_slope4q quick_ratio_mean8q quick_ratio_std8q quick_ratio_slope8q quick_ratio_mean12q quick_ratio_std12q quick_ratio_slope12q debt_to_equity_mean4q debt_to_equity_std4q debt_to_equity_slope4q debt_to_equity_mean8q debt_to_equity_std8q debt_to_equity_slope8q debt_to_equity_mean12q debt_to_equity_std12q debt_to_equity_slope12q pe_ratio_mean4q pe_ratio_std4q pe_ratio_slope4q pe_ratio_mean8q pe_ratio_std8q pe_ratio_slope8q pe_ratio_mean12q pe_ratio_std12q pe_ratio_slope12q pb_ratio_mean4q pb_ratio_std4q pb_ratio_slope4q pb_ratio_mean8q pb_ratio_std8q pb_ratio_slope8q pb_ratio_mean12q pb_ratio_std12q pb_ratio_slope12q ps_ratio_mean4q ps_ratio_std4q ps_ratio_slope4q ps_ratio_mean8q ps_ratio_std8q ps_ratio_slope8q ps_ratio_mean12q ps_ratio_std12q ps_ratio_slope12q enterprise_to_ebitda_mean4q enterprise_to_ebitda_std4q enterprise_to_ebitda_slope4q enterprise_to_ebitda_mean8q enterprise_to_ebitda_std8q enterprise_to_ebitda_slope8q enterprise_to_ebitda_mean12q enterprise_to_ebitda_std12q enterprise_to_ebitda_slope12q enterprise_to_revenue_mean4q enterprise_to_revenue_std4q enterprise_to_revenue_slope4q enterprise_to_revenue_mean8q enterprise_to_revenue_std8q enterprise_to_revenue_slope8q enterprise_to_revenue_mean12q enterprise_to_revenue_std12q enterprise_to_revenue_slope12q dividend_yield_mean4q dividend_yield_std4q dividend_yield_slope4q dividend_yield_mean8q dividend_yield_std8q dividend_yield_slope8q dividend_yield_mean12q dividend_yield_std12q dividend_yield_slope12q payout_ratio_mean4q payout_ratio_std4q payout_ratio_slope4q payout_ratio_mean8q payout_ratio_std8q payout_ratio_slope8q payout_ratio_mean12q payout_ratio_std12q payout_ratio_slope12q market_cap_mean4q market_cap_std4q market_cap_slope4q market_cap_mean8q market_cap_std8q market_cap_slope8q market_cap_mean12q market_cap_std12q market_cap_slope12q beta_mean4q beta_std4q beta_slope4q beta_mean8q beta_std8q beta_slope8q beta_mean12q beta_std12q beta_slope12q vix_mean4q vix_std4q vix_slope4q vix_mean8q vix_std8q vix_slope8q vix_mean12q vix_std12q vix_slope12q treasury_10y_mean4q treasury_10y_std4q treasury_10y_slope4q treasury_10y_mean8q treasury_10y_std8q treasury_10y_slope8q treasury_10y_mean12q treasury_10y_std12q treasury_10y_slope12q returns_1m_mean4q returns_1m_std4q returns_1m_slope4q returns_1m_mean8q returns_1m_std8q returns_1m_slope8q returns_1m_mean12q returns_1m_std12q returns_1m_slope12q returns_3m_mean4q returns_3m_std4q returns_3m_slope4q returns_3m_mean8q returns_3m_std8q returns_3m_slope8q returns_3m_mean12q returns_3m_std12q returns_3m_slope12q returns_6m_mean4q returns_6m_std4q returns_6m_slope4q returns_6m_mean8q returns_6m_std8q returns_6m_slope8q returns_6m_mean12q returns_6m_std12q returns_6m_slope12q returns_1y_mean4q returns_1y_std4q returns_1y_slope4q returns_1y_mean8q returns_1y_std8q returns_1y_slope8q returns_1y_mean12q returns_1y_std12q returns_1y_slope12q volatility_mean4q volatility_std4q volatility_slope4q volatility_mean8q volatility_std8q volatility_slope8q volatility_mean12q volatility_std12q volatility_slope12q volume_trend_mean4q volume_trend_std4q volume_trend_slope4q volume_trend_mean8q volume_trend_std8q volume_trend_slope8q volume_trend_mean12q volume_trend_std12q volume_trend_slope12q profit_margins_missing operating_margins_missing gross_margins_missing return_on_equity_missing return_on_assets_missing revenue_growth_missing earnings_growth_missing current_ratio_missing quick_ratio_missing debt_to_equity_missing pe_ratio_missing pb_ratio_missing ps_ratio_missing enterprise_to_ebitda_missing enterprise_to_revenue_missing dividend_yield_missing payout_ratio_missing market_cap_missing beta_missing vix_missing treasury_10y_missing returns_1m_missing returns_3m_missing returns_6m_missing returns_1y_missing volatility_missing volume_trend_missing sector
feature_infos=none none none none none none none none none none none none none none none none none none none [-6.614588833337443:8.4025463640795763] [-0.1935654584581803:8.4025462332193257] [-4.0212734255803815:6.2101265131308701] [-3.5762329913288156:5.4494646449414033] [-3.5237502909138199:4.8493703174677387] [-3.0558022350907481:6.6212923278633911] [-1.6363339050722052:5.833390920448843] [-2.2092632165291861:7.7554980407483693] none none none none [-3.778221328838677:4.0520152523729864] [-4.5292333805876455:3.8900585918071187] [-4.5292333805876455:3.8779834433713751] [-4.5292333805876455:3.4872977155771485] [-3.3153078221961327:3.8782121177924966] [-3.625319814189385:3.7552447874784964] [-3.625319814189385:3.748544035354834] [-3.625319814189385:3.7552447874784964] none none none none [-2.390058783486158:6.892800862036629] [-2.9523046074435002:7.1369503216534946] [-2.9523046074435002:7.1685228662543263] [-2.9523046074435002:7.1369503216534955] none none none none none none none none none none none none [-1.2734449868080693:4.7367256994860059] [-1.4711573865529777:4.8345158929528482] [-1.4711573865529777:4.8338560308472598] [-1.4711573865529777:4.8338560308472598] none none none none none [-1.5281840334549031:3.6507719951276965] [-1.5281840334549031:3.6507719951276965] [-1.5281840334549033:3.6507719951276965] none none none none none [-1.618045052665352:4.8118925467229454] [-1.618045052665352:4.8118925467229454] [-1.618045052665352:4.8118925467229454] none [-1.2171506072785629:3.4347586913394541] [-1.2171506072785629:3.4347586913394541] [-1.2171506072785629:3.4347586913394541] none none none none none none none none none none none none none none none none none [-1.5784913992771905:5.6486703365208033] [-1.5784913992771905:5.6486703365208033] [-1.5784913992771905:5.6486703365208024] none none none none [-4.6623457539643072:7.5177727414751505] [-2.9077200764186468:7.2721735571421444] [-4.2324800652770493:6.7229781883571649] [-3.1280584748129927:5.1066881594049205] [-4.3908526481046497:6.5306861700270353] [-3.8760830613932931:5.4440642532988983] [-6.671376346797655:8.133851049414325] [-3.8676779870152775:5.4034149822500472] [-3.4716913906722491:4.8718262773249652] [-3.3695255924105019:4.4094325094832545] [-3.8727486782709075:6.6780229686105246] [-3.6984250634788194:5.3490378480707852] [-3.3503455035246534:5.767173600110242] [-3.0426257438434132:5.0759288568713501] [-3.3942160832518291:5.293237079799832] [-3.4065549873500069:5.3715608404308695] [-3.7019326773386831:4.7360054533749478] [-3.2237045650702143:4.6951154635759735] [-3.1021441373121514:4.8970326317530182] [-3.3405041410167029:4.5904684318803186] [-2.8480732868128342:5.9909312373799315] [-2.7707304523441887:5.7363170045796803] [-3.1416741111185766:6.0208073846558596] [-3.0031145645767596:4.920725147168282] [-2.2988857691518714:6.5123769272592575] [-1.7445802340502801:6.2409067030826089] [-1.8811240661280191:5.8760672012089916] [-1.7617380023469866:6.8281432319817448] [-2.621518545198982:5.1853079657542942] [-2.423567734248282:5.1858790119483187] [-2.4160576893639987:5.6275442099306971] [-2.2387418028542165:5.6577622701453603] none none none none none none none none none none none none none none none none none none none none none none none none none none none none none none none none none none none none none none [-3.9518538341206324:6.589902910276181] [-4.9928653334070852:7.827656103447195] [-4.6272007951304772:6.701365717200896] [-3.2877460991627401:6.9295145785589831] [-7.7309145759558193:8.055225896752102] [-9.1955278029320002:9.4043159143373014] [-6.9333385962429439:7.4647454779631168] [-9.4072379993043054:9.4075919084103425] [-8.0727276247639601:8.0365776913397315] [-9.4075919083918489:8.4038024540873586] [-7.4381974068942531:8.324758791544097] [-9.2147809429124639:9.1560399051025279] [-4.5363163889458216:5.9300420964125484] [-2.7169369275121551:7.6672008158473028] [-8.5246906902207442:6.9218921573270711] [-9.1758656240802576:7.9095205190605737] [-4.1890870037983747:4.0090947980577836] [-0.96105275531677681:5.2637206298725214] none none none none none none none [-3.5078268394947458:3.941327606757639] [-1.0734027232207404:5.5813899241637586] none none none none none none none none none none none none none none none none [-3.9178219070844111:6.1135394278292079] [-1.4595623199647911:6.4147892993319529] none none none none none none none none none none none none none none none none none none none none none none none none none none none none none none none none none none [-1.2675951743392606:4.6061480507628865] [-0.86602539674531487:5.8980933145969017] none none none none none none none none none none none none none none none none none none none none none none none none none none none none none none none none none none [-1.4562367480588871:3.8600175029891357] [-1.2939295098433297:4.218499156464703] none none none none none none none [-1.5486365957913997:3.2523442531732405] [-1.1334556585821227:3.4689714664185254] none none none none none none none none none none none none none none none none none none none none none none none none none none none none none none none none none none none none none none none none none none none [-1.428490791519416:4.0652688281689384] [-1.5536656190101557:4.0528062926080679] none none none none none none none none none none none none none none none none [-2.2578239721262476:5.1919630478362162] [-1.722696820715486:5.008996499404641] [-4.0959546516165393:5.9721786961031071] [-2.5611117531347705:5.1690562047069673] [-2.7666456730767859:5.6130062686905617] [-4.0164140422174945:5.3254217409109721] [-2.410705037182542:3.9588004333025695] [-3.0945807275393924:4.7634139080749938] [-2.9136644852525082:5.1254459017493641] [-2.546401903031529:4.7279180487069272] [-1.7226968159330081:4.9758755106505443] [-4.0384630918688682:4.5620338376244893] [-2.5297689807124204:4.1816502423048512] [-2.9410917965957024:5.0502983965144956] [-3.892139716303173:4.4319724913380041] [-2.8544806920398922:3.4352272288068924] [-2.9049977361272101:4.4739080773337436] [-3.2405406757076523:4.1449373199371546] [-3.5443748491571507:4.8718265263504401] [-1.4996660804089674:5.5931129565789588] [-5.2779273288886328:3.9340533305309888] [-3.7503932819417565:5.3400651995263377] [-1.6514591027355208:6.4873566389382136] [-5.0122670156981073:3.8154948480241804] [-3.4482379843310396:4.7880048823523538] [-1.7200053544701059:6.3678883259584076] [-5.0333368018214726:4.6381482392888316] [-3.6230335391566637:5.1202745799835085] [-1.499778470412177:5.4211681294001854] [-3.9870652650186056:5.133889189657979] [-3.5676151484523762:5.074700372931658] [-1.9701973309137273:5.5412509968972641] [-3.9088558774475031:4.9521502673322333] [-3.6549510355652024:5.2525879307881773] [-2.2766017562421865:5.2766308861074265] [-4.6322953603930674:4.6987509449395759] [-3.2998319244344776:5.3107911700945181] [-1.4986746649297618:4.9286878247529584] [-4.3116556413135676:4.4118187292667788] [-3.3699956777947078:5.355844177521015] [-2.235401012264763:5.0336482361016355] [-4.1695292396965931:4.3223481074276533] [-3.4174501901437147:5.6131641061246347] [-1.9995720526976095:5.0829065954058512] [-4.2806647506933659:4.5394701323691162] [-2.9827192005082863:5.9783673050589474] [-1.4998822690505966:5.3761210231456236] [-4.9023367389411252:4.8529377669793794] [-2.8865590826297329:5.9542552137832594] [-2.2574056543053733:6.1349473946714959] [-4.741590429848987:5.0509036963656522] [-3.0906378317664642:5.9674789083764956] [-2.0673050621490532:6.6198353156490688] [-5.5422112533332575:5.1427586920856347] [-1.6878341552640583:5.8689895436712618] [-1.4981365772721664:7.0284565475594745] [-6.631421817180958:7.1481477707117502] [-1.8588790579116425:5.3556413778210308] [-2.322546019132707:6.7776141453974965] [-4.1533905301688989:6.3525137030033259] [-1.7470736888934359:5.4082061399971426] [-1.8921329016332149:6.7917104206144732] [-6.4695796208368179:6.2275430964123721] [-2.3583052719520365:5.6920505935858552] [-1.5318547479226317:6.2074302633600276] [-5.0450830242352103:5.4930214732981852] [-2.593843226006916:5.5829810010538363] [-1.9967544863103017:7.4486300596365025] [-6.1253820792559353:4.9588319424466274] [-2.3734453235782698:6.582191229262417] [-2.0596337747984608:7.8292150315637752] [-4.5292278499079774:4.3066631553721111] none none none none none none none none none none none none none none none none none none none none none none none none none none none -1:9:6:5:7:3:2:1:10:0:4:8
tree_sizes=1373 1761 1670 1176 1570 1673 1739 1284 1271 1848 1759 1745 1567 1671 1474 1658 1280 1387 1564 1669 1576 1751 1774 1460 1383 1564 1485 1565 1287 1560 1472 1660 1751 1079 1852 1489 1658 1575 1753 1481 1390 1467 891 1668 1570 1585 1087 1653 1391 1574 1274 887 1294 989 1659 1550 1575 992 1390 895 1277 893 1200 1297 1481 1289 1178 1300 1482 891 990 1581 1089 1848 1295 1275 901 890 1090 1462 1087 1195 1179 991 887 1181 993 989 896 998 1183 1270 1184 1110 1282 898 1182 1199 1090 893 1487 888 998 1111 1087 1578 1198 1108 899 1096 1277 1749 1096 1295 997 893 902 1186 1757 1190 994 987 994 1201 1188 1186 1100 1654 896 1183 1288 995 897 1181 904 1767 1083 896 1085 1018 988 899 1492 1190 899 900 1669 901 1189 1086 1088 896 895 1111 1001 1202 898 1106 1079 990 892 1013 1189 1093 1289 1094 1085 1212 898 1490 1198 894 1382 1177 987 1110 998 1667 1104 990 897 1107 1191 1087 995 1187 1276 1303 1279 906 1381 1302 989 989 1299 1083 1191 1473 897 990 899 994 1192 998 1090 1007 1181 1091 1386 996 900 1089 990 1657 891 992 900 1280 1103 1277 1280 1669 1375 901 1296

Tree=0
num_leaves=14
num_cat=0
split_feature=421 19 177 107 110 424 183 182 376 191 191 185 370
split_gain=36.8087 20.758 19.474 27.4194 26.733 11.48 7.03793 5.39992 3.73084 3.04367 2.96866 2.18358 2.11678
threshold=1.5002893306800884 -0.15047786366828533 -0.5294991483423388 0.59670634784652143 0.020310428637693102 0.39439260625283895 -0.1709420144074924 -0.19525174138665466 1.3059258111892775 0.26981681873313018 -0.075483498221368489 -0.23593156169266741 0.96539752325568429
decision_type=10 8 8 10 8 10 8 10 8 10 10 10 8
left_child=1 -1 3 4 -3 6 9 -7 10 11 -8 -4 -5
right_child=-2 2 5 12 -6 7 8 -9 -10 -11 -12 -13 -14
leaf_value=0.16613532183100274 0.18646190027665474 0.16097929054012786 0.17152097279206657 0.18036763467367053 0.17570314268365905 0.18532961050981342 0.18099240538102704 0.17890183881647848 0.17401182256893913 0.17674876517288607 0.17754520726217335 0.17524395255083164 0.17584832278776846
leaf_weight=543 840 726 901 528 534 553 907 802 511 920 1997 704 502
leaf_count=543 840 726 901 528 534 553 907 802 511 920 1997 704 502
internal_value=0.176436 0.1756 0.176141 0.172124 0.167192 0.177404 0.176456 0.181548 0.177935 0.174456 0.178628 0.173145 0.178173
internal_weight=10968 10128 9585 2290 1260 7295 5940 1355 3415 2525 2904 1605 1030
internal_count=10968 10128 9585 2290 1260 7295 5940 1355 3415 2525 2904 1605 1030
is_linear=0
shrinkage=1


Tree=1
num_leaves=17
num_cat=1
split_feature=424 184 180 114 114 180 19 180 109 114 178 177 433 463 372 420
split_gain=33.4534 20.1407 16.6884 14.0459 34.5989 16.5925 9.91739 9.32908 5.36553 5.26928 4.63402 4.26496 1.71838 1.63472 1.11124 0.670625
threshold=0.55430738234438304 0.15151455239843173 -0.3438713697958507 0.3353313394528899 -1.0000000180025095e-35 1.0000000180025095e-35 -0.11868003337050111 0.065417516913501395 0.47600129838927752 0.66990111329045965 0.31068159663571104 0.49999999449182692 0.20449886146126051 0 -0.52564437134348474 -0.078147226766646441
decision_type=10 10 10 8 10 10 10 10 8 8 10 8 8 1 10 10
left_child=3 2 -2 4 6 -6 -1 -4 9 -5 15 13 -10 -8 -15 -11
right_child=1 -3 7 8 5 -7 11 -9 12 10 -12 -13 -14 14 -16 -17
leaf_value=-0.0057623846746846733 0.0097853996828471349 0.013121808207990415 -0.0049909840808056612 0.0067277691465115726 -0.0053520066257007068 -0.016074951412801856 0.0022290268145617443 0.003815115125594896 -0.0034762192880207184 0.0042995978201354635 -0.0021605080602664782 0.0048357772801823004 9.6829352958755435e-05 -0.0025066132640612551 0.00018986593367607875 0.0017943712412104814
leaf_weight=674 541 604 621 531 985 572 577 574 631 554 681 565 714 615 994 535
leaf_count=674 541 604 621 531 985 572 577 574 631 554 681 565 714 615 994 535
internal_value=-9.83031e-08 0.00529578 0.00254303 -0.00143863 -0.00316319 -0.00933018 -0.000350177 -0.000762837 0.000918969 0.00238353 0.00106497 0.000983873 -0.00158611 -2.04657e-05 -0.000840163 0.00308267
internal_weight=10968 2340 1736 8628 4982 1557 3425 1195 3646 2301 1770 2751 1345 2186 1609 1089
internal_count=10968 2340 1736 8628 4982 1557 3425 1195 3646 2301 1770 2751 1345 2186 1609 1089
cat_boundaries=0 1
cat_threshold=516
is_linear=0
shrinkage=0.05


Tree=2
num_leaves=16
num_cat=1
split_feature=421 19 177 107 110 463 177 123 126 177 177 107 129 370 109
split_gain=31.4689 18.0787 16.7458 23.4446 22.6533 10.121 6.31402 5.35573 5.01111 4.35471 9.25313 5.51093 2.00045 1.84928 1.67605
threshold=1.5002893306800884 -0.15047786366828533 -0.5294991483423388 0.59670634784652143 0.020310428637693102 0 -0.18250242923512983 -0.016341113536278574 0.90704671099488487 0.45787430845957683 0.56056630474259872 -0.34575543933214387 -0.40201307742534159 0.96539752325568429 -1.0000000180025095e-35
decision_type=10 8 8 10 8 1 8 10 8 10 10 8 10 8 10
left_child=1 -1 3 4 -3 8 7 -7 12 11 -11 -8 -4 -5 -14
right_child=-2 2 5 13 -6 6 9 -9 -10 10 -12 -13 14 -15 -16
leaf_value=-0.0096055763330795789 0.0092703749487223382 -0.014272519236625772 6.9969436305017747e-06 0.0036518037006849561 -0.00071820868710522484 0.0058312081639659182 -0.0063054565730510971 -0.00091149117069480416 0.0076816566320834475 0.0035418195551582491 -0.003719736818354523 -0.00087221038939653032 0.0053145547326142158 -0.00057214203347356473 0.0015735061701173739
leaf_weight=543 840 726 630 528 534 644 774 537 562 1001 773 1169 610 502 595
leaf_count=543 840 726 630 528 534 644 774 537 562 1001 773 1169 610 502 595
internal_value=1.57933e-07 -0.000772894 -0.000267766 -0.00399302 -0.00855362 0.000903577 -0.000402277 0.00277439 0.0035541 -0.00141505 0.000376119 -0.00304719 0.00229185 0.00160032 0.00348145
internal_weight=10968 10128 9585 2290 1260 7295 4898 1181 2397 3717 1774 1943 1835 1030 1205
internal_count=10968 10128 9585 2290 1260 7295 4898 1181 2397 3717 1774 1943 1835 1030 1205
cat_boundaries=0 1
cat_threshold=518
is_linear=0
shrinkage=0.05


Tree=3
num_leaves=11
num_cat=0
split_feature=416 19 25 177 107 110 376 189 177 123
split_gain=29.0537 20.5886 22.303 14.366 18.8529 18.7325 8.78893 7.67603 8.89162 4.32962
threshold=1.7434195782186592 -0.15047786366828533 1.2524640175399273 -0.50243681435924514 0.59670634784652143 1.0000000180025095e-35 1.3303792190999524 -0.22782923219351239 0.45787430845957683 0.22471438549333586
decision_type=10 8 8 8 10 8 10 8 10 10
left_child=1 -1 3 4 5 -3 7 9 -9 -5
right_child=-2 2 -4 6 -6 -7 -8 8 -10 -11
leaf_value=-0.0099919025162627136 0.010162282164277982 -0.013805319887120943 0.0085493308440271754 0.0056752889453134158 0.00081808744441174731 -0.0012284909802240511 -0.0050140440133223186 -0.0019905881831715918 0.0025218658245779258 0.00038232155229012176
leaf_weight=553 656 693 685 1094 994 516 682 2648 1850 597
leaf_count=553 656 693 685 1094 994 516 682 2648 1850 597
internal_value=1.47636e-07 -0.00065093 -0.000116773 -0.000775328 -0.00428392 -0.00846471 0.000351903 0.000946776 -0.000133904 0.00381327
internal_weight=10968 10312 9759 9074 2203 1209 6871 6189 4498 1691
internal_count=10968 10312 9759 9074 2203 1209 6871 6189 4498 1691
is_linear=0
shrinkage=0.05


Tree=4
num_leaves=15
num_cat=1
split_feature=421 19 463 424 107 107 183 24 131 130 182 188 191 181
split_gain=26.4037 15.8903 14.2992 9.59767 9.53572 12.7406 6.08877 3.82543 4.7114 3.72177 3.1502 2.54077 2.40837 1.7141
threshold=1.6770084234951483 -0.15047786366828533 0 0.50056179247810395 0.52954170681619039 0.59670634784652143 -0.17094106355629379 0.073770812416757425 -0.59789044709101302 -0.24527668942822614 -0.11038575210248837 0.11800407882494164 0.26385233407805397 -0.14719181662066091
decision_type=10 8 1 8 10 10 10 10 10 8 10 8 8 10
left_child=1 -1 3 9 6 -6 12 8 -8 -3 -11 -9 13 -4
right_child=-2 2 4 -5 5 -7 7 11 -10 10 -12 -13 -14 -15
leaf_value=-0.0088540655775627836 0.0092625701166444106 -0.0018044882015497612 -0.0049170150180014192 0.0067910274032148762 -0.0089009295532978851 8.1018617032224444e-06 -0.00084628023593409792 0.0012644190002569101 0.0046794244333827036 0.0049307848238853138 0.00012100048666145879 -0.0036551337206726432 -0.00019722485063574502 -0.0012796294872549456
leaf_weight=553 714 852 895 945 876 737 605 522 1053 642 719 519 823 513
leaf_count=553 714 852 895 945 876 737 605 522 1053 642 719 519 823 513
internal_value=5.09275e-08 -0.000649111 -0.000177072 0.0025789 -0.00150984 -0.00484284 -0.000418603 0.00117813 0.00266663 0.000780602 0.00239958 -0.00119402 -0.0023486 -0.00360096
internal_weight=10968 10254 9701 3158 6543 1613 4930 2699 1658 2213 1361 1041 2231 1408
internal_count=10968 10254 9701 3158 6543 1613 4930 2699 1658 2213 1361 1041 2231 1408
cat_boundaries=0 1
cat_threshold=518
is_linear=0
shrinkage=0.05


Tree=5
num_leaves=16
num_cat=1
split_feature=421 19 109 178 183 25 179 463 178 183 109 107 130 407 25
split_gain=23.8472 14.3545 13.1896 37.0392 7.07463 7.42883 6.49959 5.5422 3.99563 3.38361 3.30122 3.29755 3.0506 1.16756 0.922192
threshold=1.6770084234951483 -0.15047786366828533 -1.0000000180025095e-35 1.0000000180025095e-35 -0.019534121696926279 0.038073757414290164 -0.29932916592862896 0 -0.34963853455682253 -0.22175848606523613 0.47600129838927752 -0.47413074976782726 0.81385030837898265 -0.42618851569459554 -0.0062960443030756459
decision_type=10 8 8 10 10 10 10 1 10 10 8 10 8 10 10
left_child=1 -1 4 7 6 13 11 12 10 -8 -9 -3 14 -6 -4
right_child=-2 2 3 -5 5 -7 9 8 -10 -11 -12 -13 -14 -15 -16
leaf_value=-0.0084153290878203474 0.0088026621965973176 0.0057429408615334481 -0.00067930671965097354 -0.011490714143938936 0.00030271446799607249 0.009259162523993756 0.00060882429996753063 0.0030373583353721311 -0.0040010447228015639 -0.003933148054630276 -0.001370131399704957 0.00032431181905289683 0.0054437538327754675 0.0037127892837942101 0.0022543471348108412
leaf_weight=553 714 614 530 831 501 546 826 598 942 807 1433 515 525 500 533
leaf_count=553 714 614 530 831 501 546 826 598 942 807 1433 515 525 500 533
internal_value=-2.90347e-08 -0.000616964 -0.000168316 -0.0018157 0.00189283 0.00459403 0.000374319 -4.22935e-05 -0.0013145 -0.00164089 -6.81345e-05 0.00328353 0.00232976 0.00201604 0.000795327
internal_weight=10968 10254 9701 5392 4309 1547 2762 4561 2973 1633 2031 1129 1588 1001 1063
internal_count=10968 10254 9701 5392 4309 1547 2762 4561 2973 1633 2031 1129 1588 1001 1063
cat_boundaries=0 1
cat_threshold=518
is_linear=0
shrinkage=0.05


Tree=6
num_leaves=17
num_cat=0
split_feature=416 184 25 114 114 180 110 114 114 134 110 24 109 107 185 188
split_gain=23.7116 13.8651 13.7064 13.5794 29.9986 16.5583 8.51122 5.49837 5.43324 4.26011 3.98699 2.59848 2.34408 2.19906 2.04725 1.74777
threshold=2.0156728650037583 0.15151455239843173 0.20944209102473874 0.3353313394528899 -1.0000000180025095e-35 1.0000000180025095e-35 0.42565908710816031 0.66990111329045965 0.8036252626467858 0.12882073596502538 0.8625490207787857 0.28635355991419748 -1.0000000180025095e-35 0.12014505489363124 -0.16516868165118961 -0.19054382839366693
decision_type=10 10 10 8 10 10 10 8 8 10 10 10 10 8 10 10
left_child=1 3 11 4 6 -6 9 -5 -9 15 -8 12 -3 14 -10 -1
right_child=-2 2 -4 7 5 -7 10 8 13 -11 -12 -13 -14 -15 -16 -17
leaf_value=-0.0016087280742662976 0.010236611034458012 0.0040697786736246478 0.0085866414027430359 0.0046934925639148181 -0.0047753966808358238 -0.01530293719445815 -0.0055727114371837139 -0.0036826409772567621 0.0021908996005428889 0.0058540215979056729 -0.00041240359261138422 -0.0020501675706258312 -0.0004744791566215362 0.0040133057560888122 -0.0019507818727039644 0.0023510710225263295
leaf_weight=560 533 577 706 745 972 609 785 765 604 510 713 677 552 535 580 545
leaf_count=560 533 577 706 745 972 609 785 765 604 510 713 677 552 535 580 545
internal_value=1.91128e-07 -0.000527318 0.00270608 -0.00155353 -0.00326902 -0.00886606 -0.000416796 0.000941472 -0.000191 0.00209814 -0.00312611 0.000389902 0.00185567 0.00136905 0.000162364 0.000346088
internal_weight=10968 10435 2512 7923 4694 1581 3113 3229 2484 1615 1498 1806 1129 1719 1184 1105
internal_count=10968 10435 2512 7923 4694 1581 3113 3229 2484 1615 1498 1806 1129 1719 1184 1105
is_linear=0
shrinkage=0.05


Tree=7
num_leaves=12
num_cat=1
split_feature=416 19 25 177 107 110 376 189 177 463 389
split_gain=21.4201 16.2798 18.1317 10.726 13.8869 14.9305 7.18019 5.98634 7.66736 3.29683 0.605688
threshold=2.0156728650037583 -0.15047786366828533 1.2524640175399273 -0.50243681435924514 0.59670634784652143 0.020310428637693102 1.3303792190999524 -0.22782923219351239 0.45787430845957683 0 -0.28432051828810673
decision_type=10 8 8 8 10 8 10 8 10 1 10
left_child=1 -1 3 4 5 -3 7 9 -9 -5 -6
right_child=-2 2 -4 6 10 -7 -8 8 -10 -11 -12
leaf_value=-0.0087095222708861095 0.009729537141351826 -0.0119726470417101 0.0075571984100081388 0.0013123792691996344 -0.00052672946073651879 -0.00076842841112650148 -0.0045035965992308441 -0.0017938129337070391 0.0023791193256581921 0.0057673844601448211 0.0019120571699589096
leaf_weight=566 533 699 725 924 509 516 684 2667 1867 777 501
leaf_count=566 533 699 725 924 509 516 684 2667 1867 777 501
internal_value=3.22032e-07 -0.00050105 -2.6111e-05 -0.00063117 -0.00364679 -0.00723696 0.00034052 0.000875118 -7.47647e-05 0.00339982 0.000686465
internal_weight=10968 10435 9869 9144 2225 1215 6919 6235 4534 1701 1010
internal_count=10968 10435 9869 9144 2225 1215 6919 6235 4534 1701 1010
cat_boundaries=0 1
cat_threshold=1146
is_linear=0
shrinkage=0.05


Tree=8
num_leaves=12
num_cat=0
split_feature=416 19 25 177 107 110 376 183 181 185 114
split_gain=19.3491 14.7073 16.3741 9.68992 12.5428 13.4846 6.48649 5.81316 4.09062 3.5389 0.937886
threshold=2.0156728650037583 -0.15047786366828533 1.2524640175399273 -0.50243681435924514 0.59670634784652143 0.020310428637693102 1.3303792190999524 -0.17093957395884257 -0.20727065858228103 -0.31456858549991734 0.032444137728360946
decision_type=10 8 8 8 10 8 10 10 10 8 10
left_child=1 -1 3 4 5 -3 7 9 -9 -5 -6
right_child=-2 2 -4 6 10 -7 -8 8 -10 -11 -12
leaf_value=-0.00827785946001444 0.0092475815119393186 -0.011378266383880229 0.0071819264347639496 0.0022758017616541977 -0.00086755989705330182 -0.00073037569629182174 -0.0042800508574373118 0.0060088334859669818 0.0014251831251496426 -0.0018526173626922716 0.002166128966765588
leaf_weight=566 533 699 725 681 505 516 684 584 2838 2132 505
leaf_count=566 533 699 725 681 505 516 684 584 2838 2132 505
internal_value=6.37252e-07 -0.000475882 -2.44631e-05 -0.000599449 -0.00346572 -0.00687773 0.000324119 0.000832236 0.00221506 -0.000850903 0.000652483
internal_weight=10968 10435 9869 9144 2225 1215 6919 6235 3422 2813 1010
internal_count=10968 10435 9869 9144 2225 1215 6919 6235 3422 2813 1010
is_linear=0
shrinkage=0.05


Tree=9
num_leaves=18
num_cat=1
split_feature=424 180 180 114 114 180 19 109 178 114 178 433 433 463 110 375 420
split_gain=17.68 15.1156 22.986 8.36064 21 9.59778 5.07717 4.52092 4.069 3.68865 3.49998 1.9029 1.27749 1.11236 1.02207 0.711077 0.611948
threshold=0.55430738234438304 -0.29134887841202556 0.40878528485483706 0.3353313394528899 -0.090937659650947619 1.0000000180025095e-35 -0.11868003337050111 0.47600129838927752 1.0000000180025095e-35 0.66990111329045965 0.31068159663571104 -0.36813004473024064 0.17624677746222209 0 0.63272085728903771 0.041482239433674635 -0.078147226766646441
decision_type=10 10 10 8 10 10 10 8 10 8 10 10 8 1 10 10 10
left_child=3 -2 -3 4 6 8 -1 9 -6 -5 16 13 -9 -8 15 -13 -11
right_child=1 2 -4 7 5 -7 11 12 -10 10 -12 14 -14 -15 -16 -17 -18
leaf_value=-0.0041016595166130992 0.0092743709266794091 -0.0035810026000113872 0.0093334270812621516 0.0057530753965856192 -0.00094776124035128063 -0.012203960837910756 0.0041410870449965498 -0.0032020947174244592 -0.0072684439982555185 0.0039292410278723251 -0.0017890559858300464 0.0020718939939345436 -0.00011368845537600493 0.00080549789327592216 -0.0017254467063034095 -0.00053881615594321354 0.0015399502160478194
leaf_weight=649 825 994 521 531 508 580 502 612 509 554 681 516 733 523 676 519 535
leaf_count=649 825 994 521 531 508 580 502 612 509 554 681 516 733 523 676 519 535
internal_value=6.26344e-07 0.00385061 0.00087629 -0.00104515 -0.0023757 -0.00709207 -0.000143392 0.0007737 -0.00413129 0.00211812 0.00101449 0.000801309 -0.00152563 0.00249932 -0.000220228 0.000766459 0.00276784
internal_weight=10968 2340 1515 8628 4982 1597 3385 3646 1017 2301 1770 2736 1345 1025 1711 1035 1089
internal_count=10968 2340 1515 8628 4982 1597 3385 3646 1017 2301 1770 2736 1345 1025 1711 1035 1089
cat_boundaries=0 1
cat_threshold=644
is_linear=0
shrinkage=0.05


Tree=10
num_leaves=17
num_cat=1
split_feature=424 184 113 180 114 114 180 177 109 114 178 185 463 398 430 420
split_gain=15.968 15.6149 15.4773 8.04891 7.55008 18.9891 8.82385 4.62522 4.08399 3.33221 3.16151 2.87641 1.96238 1.61508 1.10219 0.552791
threshold=0.55430738234438304 0.18035311823742464 0.34610518784101735 0.065417516913501395 0.3353313394528899 -1.0000000180025095e-35 1.0000000180025095e-35 0.49999999449182692 0.47600129838927752 0.66990111329045965 0.31068159663571104 0.14366988611678838 0 -0.21989279346635213 0.36235706849366683 -0.078147226766646441
decision_type=10 10 10 10 8 8 10 10 8 8 10 10 1 10 8 10
left_child=4 2 3 -2 5 7 -7 11 9 -6 15 12 -1 -14 -10 -11
right_child=1 -3 -4 -5 8 6 -8 -9 14 10 -12 -13 13 -15 -16 -17
leaf_value=-0.00034045052054153876 -0.0054488893205896366 0.010919398406130609 0.0084441381128650024 0.0025674427123074522 0.005468104931190541 -0.0039248820660680514 -0.011744801232491804 0.003709452211422791 -0.0027568201211714315 0.0037345362105469303 -0.0017002551877005911 0.0016239690772275224 -0.0016738587016412437 -0.0055484593286995072 0.00011099851692931899 0.0014636656395008753
leaf_weight=973 662 558 534 586 531 985 572 622 730 554 681 741 589 500 615 535
leaf_count=973 662 558 534 586 531 985 572 622 730 554 681 741 589 500 615 535
internal_value=8.51785e-07 0.00365968 0.00136225 -0.00168959 -0.000993005 -0.00225741 -0.00682611 -0.000173557 0.000735434 0.00201323 0.000964287 -0.00104029 -0.00199933 -0.00343863 -0.00144996 0.0026307
internal_weight=10968 2340 1782 1248 8628 4982 1557 3425 3646 2301 1770 2803 2062 1089 1345 1089
internal_count=10968 2340 1782 1248 8628 4982 1557 3425 3646 2301 1770 2803 2062 1089 1345 1089
cat_boundaries=0 1
cat_threshold=1358
is_linear=0
shrinkage=0.05


Tree=11
num_leaves=17
num_cat=0
split_feature=416 184 25 114 114 180 110 114 114 187 110 24 107 185 109 364
split_gain=16.1621 9.96963 10.2579 8.98786 20.5743 11.5771 6.25927 4.06464 4.26673 3.5605 2.85742 2.38636 1.81504 1.91678 1.76674 1.50488
threshold=1.7434195782186592 0.15151455239843173 0.20944209102473874 0.3353313394528899 -1.0000000180025095e-35 1.0000000180025095e-35 0.42565908710816031 0.66990111329045965 0.8036252626467858 1.0000000180025095e-35 0.8625490207787857 0.28635355991419748 0.12014505489363124 -0.16516868165118961 -1.0000000180025095e-35 -0.4160147619371527
decision_type=10 10 8 8 10 10 10 8 8 10 10 10 8 10 10 10
left_child=1 3 11 4 6 -6 9 -5 -9 15 -8 14 13 -10 -3 -1
right_child=-2 2 -4 7 5 -7 10 8 12 -11 -12 -13 -14 -15 -16 -17
leaf_value=0.0021591657957981485 0.0075802687402151004 0.0036254125485268972 0.0074767627977662919 0.0039331157191984257 -0.0039729769832681392 -0.012794044585467915 -0.0048085818955813783 -0.0034325682208737698 0.0019698419353129186 0.0051930553390849062 -0.00040893973732578645 -0.0020450959870705015 0.0035135669992565743 -0.0020646542669124873 -0.00032916839419069703 -0.0015558665756161983
leaf_weight=501 656 575 681 736 969 606 773 746 595 514 704 677 527 573 549 586
leaf_count=501 656 575 681 736 969 606 773 746 595 514 704 677 527 573 549 586
internal_value=9.05381e-07 -0.000484697 0.0022737 -0.00135996 -0.00275862 -0.00739673 -0.000377165 0.000689608 -0.000294402 0.00178594 -0.00271998 0.000291043 0.0010928 -9.77409e-06 0.00170096 0.000158444
internal_weight=10968 10312 2482 7830 4653 1575 3078 3177 2441 1601 1477 1801 1695 1168 1124 1087
internal_count=10968 10312 2482 7830 4653 1575 3078 3177 2441 1601 1477 1801 1695 1168 1124 1087
is_linear=0
shrinkage=0.05


Tree=12
num_leaves=15
num_cat=0
split_feature=19 421 109 178 110 25 19 113 113 113 114 21 178 417
split_gain=15.5176 19.5128 7.38699 22.3116 5.23014 5.60996 3.98885 4.53459 10.9434 2.76846 2.77265 2.76288 2.71961 1.16018
threshold=-0.15047786366828533 1.5002893306800884 -1.0000000180025095e-35 1.0000000180025095e-35 -0.018545344324195936 0.0076987508857676414 -1.0000000180025095e-35 -0.20225046154635798 -0.44910966001535807 0.26561102583307267 -0.12853977440394035 -0.40568919930909553 0.39803489955012422 0.0072101766600978405
decision_type=8 10 8 10 10 10 8 10 10 10 10 10 10 8
left_child=-1 2 4 6 5 13 -4 8 -8 10 -6 -9 -11 -2
right_child=1 -3 3 -5 9 -7 7 11 -10 12 -12 -13 -14 -15
leaf_value=-0.0078518316762347246 0.0030612925489105196 0.0079631010849754748 -0.004015934661122887 -0.0089623876928717188 -0.00061192523051988804 0.0074040583768486216 0.0022555521732677357 0.0044412183036754201 -0.0060346879940042647 -0.0032978967932608739 0.0044269359422711811 0.00075868999816776708 0.00099941325176585881 -0.0002187400007614623
leaf_weight=590 519 793 546 822 550 600 867 736 728 842 535 1638 648 554
leaf_count=590 519 793 546 822 550 600 867 736 728 842 535 1638 648 554
internal_value=9.52151e-07 0.000450957 -0.000174376 -0.00141217 0.00138056 0.00355262 -2.91802e-05 0.000523625 -0.00153537 -3.47964e-05 0.00188158 0.0019073 -0.00143191 0.00137462
internal_weight=10968 10378 9585 5337 4248 1673 4515 3969 1595 2575 1085 2374 1490 1073
internal_count=10968 10378 9585 5337 4248 1673 4515 3969 1595 2575 1085 2374 1490 1073
is_linear=0
shrinkage=0.05


Tree=13
num_leaves=16
num_cat=1
split_feature=421 463 182 184 184 177 177 177 114 394 24 181 395 424 181
split_gain=13.1494 7.26495 8.19443 7.42223 4.73518 5.62126 6.28796 5.03894 3.62051 3.31453 3.26028 2.67381 2.5009 1.16951 0.809475
threshold=1.6770084234951483 0 -0.19218267344009402 -0.14679060966573057 0.14669231666668223 -0.5294991483423388 -0.61506067551884425 -0.18250242923512983 -0.58882319985093334 0.25919479879117285 0.31136611045940893 -0.14718704879595063 0.065002436298492602 -0.31547531610423402 -0.066454223991363012
decision_type=10 1 10 10 10 8 10 8 10 10 10 10 10 8 10
left_child=1 2 3 -1 5 6 -3 -7 -4 -10 13 12 -9 -6 -13
right_child=-2 4 8 -5 10 7 -8 11 9 -11 -12 14 -14 -15 -16
leaf_value=0.00143455797641902 0.0065374685766146903 -0.001314087522790375 0.0027041296456372706 0.0090591649764443748 0.00098968639912133519 0.0026552517978561396 -0.0083304519268845769 -0.0020747750192138276 -0.0039790210716245831 0.00093086821085406235 -0.0020811568839395368 0.00086741088725830198 -0.0061393032224872583 0.0042445588860545282 -0.0015204162983006634
leaf_weight=797 714 611 593 530 602 697 669 1297 821 586 592 675 535 511 738
leaf_count=797 714 611 593 530 602 697 669 1297 821 586 592 675 535 511 738
internal_value=9.11765e-07 -0.000457202 0.00145952 0.00450238 -0.0013783 -0.00212677 -0.00499938 -0.00118886 -0.000558334 -0.00193805 0.000905545 -0.00201736 -0.00327522 0.00249636 -0.000380698
internal_weight=10968 10254 3327 1327 6927 5222 1280 3942 2000 1407 1705 3245 1832 1113 1413
internal_count=10968 10254 3327 1327 6927 5222 1280 3942 2000 1407 1705 3245 1832 1113 1413
cat_boundaries=0 1
cat_threshold=518
is_linear=0
shrinkage=0.05


Tree=14
num_leaves=14
num_cat=1
split_feature=19 421 463 134 20 184 110 110 138 177 185 131 24
split_gain=13.7793 16.2971 9.51926 5.13674 4.7768 4.9819 5.18642 9.20179 2.3853 2.08037 1.81861 1.56381 1.38587
threshold=-0.15047786366828533 1.6770084234951483 0 0.97521043447290479 -0.14579116734514722 0.15151455239843173 -0.31757370327894197 0.18343515298456978 -0.52661008249019836 -0.5294991483423388 -0.23473479166159009 -0.16992592742856391 0.28635355991419748
decision_type=8 10 1 8 8 10 10 10 8 8 10 10 10
left_child=-1 2 3 9 -4 6 8 -8 -6 -2 -11 -12 -7
right_child=1 -3 4 -5 5 12 7 -9 -10 10 11 -13 -14
leaf_value=-0.0073989185739353593 -0.0015310921214497732 0.0078960358946996573 0.0033311364829307858 0.0062451773189749682 -0.0030618173150211946 0.0021489022424129476 -0.0069506693213302693 -0.0010940010101504756 0.00078866420195276756 -0.0002365411457990143 0.0011395468361563019 0.004579927963876608 -0.0010988299370687572
leaf_weight=590 557 677 532 613 573 915 1242 1456 1318 657 625 706 507
leaf_count=590 557 677 532 613 573 915 1242 1456 1318 657 625 706 507
internal_value=9.56933e-07 0.000425008 -0.000100169 0.00214835 -0.0011877 -0.00159205 -0.00239272 -0.00379794 -0.000383084 0.00115968 0.00191553 0.00297473 0.000991163
internal_weight=10968 10378 9701 3158 6543 6011 4589 2698 1891 2545 1988 1331 1422
internal_count=10968 10378 9701 3158 6543 6011 4589 2698 1891 2545 1988 1331 1422
cat_boundaries=0 1
cat_threshold=518
is_linear=0
shrinkage=0.05


Tree=15
num_leaves=16
num_cat=2
split_feature=19 424 114 114 107 187 110 177 179 181 187 187 463 463 179
split_gain=12.4472 15.0532 11.3887 9.27586 5.25064 6.26388 7.58603 5.88516 3.51703 3.58945 3.41416 3.14521 2.46378 2.23518 1.00191
threshold=-0.15047786366828533 0.55430738234438304 -0.3745264874149668 0.3353313394528899 0.37773467244856374 0.28179085922378982 -0.31253267090709419 -0.22890114580427892 -0.29932916592862896 -0.23711638020560241 -0.20027842676047519 0.029364892739995405 0 1 0.49999999838908371
decision_type=8 10 10 10 10 10 10 8 10 10 10 10 1 1 10
left_child=-1 4 -3 -4 7 6 -6 -2 9 -9 12 -8 -10 -11 -12
right_child=1 2 3 -5 5 -7 11 8 10 13 14 -13 -14 -15 -16
leaf_value=-0.0070320814540769305 0.004511572251052998 0.0086824485034177907 -0.0034169633938193633 0.0048467753971329179 9.1527770619608564e-05 0.0015518558854955122 -0.0040139421398868976 -0.0021885497566004526 -0.0062121535414812424 -0.00013620841515881289 0.00064015591666116299 -0.0093171786305683655 -0.0013075551352243261 0.0038140766921379585 -0.0019804927018594403
leaf_weight=590 709 828 595 778 707 702 617 574 506 561 1211 528 547 999 516
leaf_count=590 709 828 595 778 707 702 617 574 506 561 1211 528 547 999 516
internal_value=1.01748e-06 0.00040405 0.0040695 0.00126622 -0.000584463 -0.00246205 -0.00398361 0.000269781 -0.000346196 0.00117898 -0.00151698 -0.00648933 -0.00375367 0.0024211 -0.000146309
internal_weight=10968 10378 2201 1373 8177 2554 1852 5623 4914 2134 2780 1145 1053 1560 1727
internal_count=10968 10378 2201 1373 8177 2554 1852 5623 4914 2134 2780 1145 1053 1560 1727
cat_boundaries=0 1 2
cat_threshold=440 1113
is_linear=0
shrinkage=0.05


Tree=16
num_leaves=12
num_cat=0
split_feature=416 19 25 177 107 178 376 189 177 123 114
split_gain=11.917 8.62543 10.5621 5.61421 7.83622 6.48238 4.22996 3.70346 5.69662 3.09615 0.591463
threshold=2.0156728650037583 -0.15047786366828533 1.2524640175399273 -0.50243681435924514 0.59670634784652143 1.0000000180025095e-35 1.2709720143788485 -0.22782923219351239 0.49999999608486162 0.22471438549333586 0.032444137728360946
decision_type=10 8 8 8 10 10 10 8 10 10 10
left_child=1 -1 3 4 5 -3 7 9 -9 -5 -6
right_child=-2 2 -4 6 10 -7 -8 8 -10 -11 -12
leaf_value=-0.0063483083921848779 0.0072574159310270295 -0.0018305690430056043 0.0057600878179531823 0.0041925593943216745 -0.00062402527547936767 -0.0091425196323055603 -0.0034372062908741095 -0.0012762334606738637 0.0025967773210098088 -0.00027378652221928652 0.0017853939844245164
leaf_weight=566 533 631 725 1097 505 584 707 3167 1350 598 505
leaf_count=566 533 631 725 1097 505 584 707 3167 1350 598 505
internal_value=5.30291e-07 -0.000373436 -2.77281e-05 -0.000489524 -0.00267125 -0.00536819 0.000213495 0.000631418 -0.000117112 0.00262065 0.000583545
internal_weight=10968 10435 9869 9144 2225 1215 6919 6212 4517 1695 1010
internal_count=10968 10435 9869 9144 2225 1215 6919 6212 4517 1695 1010
is_linear=0
shrinkage=0.05


Tree=17
num_leaves=13
num_cat=1
split_feature=416 19 463 424 109 180 178 113 178 130 178 109
split_gain=10.7657 7.79151 9.36684 7.86625 4.28408 7.52934 7.48792 5.19661 4.52793 2.6888 2.63555 1.70244
threshold=2.0156728650037583 -0.15047786366828533 0 0.50056179247810395 -0.33928833800664088 0.43894576838373772 1.0000000180025095e-35 -0.29103332547979116 0.64152768282463501 -0.097607342287527141 0.0031500276763100311 -1.0000000180025095e-35
decision_type=10 8 1 10 8 10 10 8 10 8 10 8
left_child=1 -1 3 9 8 6 7 -6 -4 -3 -8 -11
right_child=-2 2 4 -5 5 -7 10 -9 -10 11 -12 -13
leaf_value=-0.0060336724222978602 0.0068979175666998033 -0.001319556462285809 0.0033270905990378631 0.0061345207672997915 -0.0057978660523902333 0.0027434359076678699 -0.0083513608699865745 -0.00032362815034305014 -0.00193526142560218 0.0043694994358353129 -0.0036986606006920116 0.00070114027788560694
leaf_weight=566 533 996 956 901 522 756 585 2448 707 508 659 831
leaf_count=566 533 996 956 901 522 756 585 2448 707 508 659 831
internal_value=4.73236e-07 -0.00035497 -2.63986e-05 0.00217309 -0.00110189 -0.00183815 -0.00266237 -0.00129389 0.00109078 0.000643945 -0.0059113 0.00210395
internal_weight=10968 10435 9869 3236 6633 4970 4214 2970 1663 2335 1244 1339
internal_count=10968 10435 9869 3236 6633 4970 4214 2970 1663 2335 1244 1339
cat_boundaries=0 1
cat_threshold=518
is_linear=0
shrinkage=0.05


Tree=18
num_leaves=15
num_cat=2
split_feature=415 19 109 110 180 421 109 177 107 114 463 24 463 191
split_gain=10.468 9.64803 8.34857 11.4805 11.921 6.66133 2.86932 2.85564 4.58729 2.42852 2.42106 2.26208 1.95179 1.61686
threshold=-1.3371189920805195 -0.15047786366828533 -1.0000000180025095e-35 -0.31757370327894197 1.0000000180025095e-35 0.92813509620038481 0.47600129838927752 0.49999999597680417 -0.34575543933214387 -0.52278968739798426 0 -0.21032524189654511 1 0.22298029811086095
decision_type=8 8 8 10 10 10 8 10 10 10 1 10 1 8
left_child=-1 -2 5 6 9 7 12 8 -3 -5 -10 -11 -4 -8
right_child=1 2 3 4 -6 -7 13 -9 10 11 -12 -13 -14 -15
leaf_value=0.0070025728883501698 -0.0066364190450302609 -0.0039718073853711967 0.0048496105865860331 0.0015089954754301054 -0.0085785813965814674 0.0069197318906348802 -0.0016740747778530352 0.0034736163332584427 0.0028498650557833628 -0.0050450223139242092 -0.00028572536275832172 -0.00077125439363126536 0.00069341374115198119 0.0014186427102317357
leaf_weight=504 570 535 578 522 833 523 999 854 1095 521 1383 758 568 725
leaf_count=504 570 535 578 522 833 523 999 854 1095 521 1383 758 568 725
internal_value=3.74705e-07 -0.00034007 2.58352e-05 -0.0012708 -0.00365129 0.0016511 0.000916493 0.000930518 0.000205146 -0.00135488 0.00111313 -0.00252504 0.00284976 -0.000373142
internal_weight=10968 10464 9894 5504 2634 4390 2870 3867 3013 1801 2478 1279 1146 1724
internal_count=10968 10464 9894 5504 2634 4390 2870 3867 3013 1801 2478 1279 1146 1724
cat_boundaries=0 1 2
cat_threshold=646 646
is_linear=0
shrinkage=0.05


Tree=19
num_leaves=16
num_cat=1
split_feature=415 109 178 183 177 25 178 178 463 177 182 119 188 107 407
split_gain=9.456 7.07632 14.2411 6.42308 7.35323 6.60525 3.86798 14.8309 3.86581 3.23105 2.65458 2.5069 2.47203 0.990771 0.835352
threshold=-1.3371189920805195 -1.0000000180025095e-35 1.0000000180025095e-35 -0.019534121696926279 0.49999998926502348 0.038073757414290164 -0.19481271981368026 -0.31792255790412499 0 0.1671192290381234 -0.34044127998829504 0.500005315909964 -0.17895170901953145 0.49999999980799648 -0.43588322823496589
decision_type=8 8 10 10 10 10 10 10 1 10 8 10 8 10 10
left_child=-1 3 6 4 8 14 7 10 -2 12 -3 -12 -10 -8 -5
right_child=1 2 -4 5 -6 -7 13 -9 9 -11 11 -13 -14 -15 -16
leaf_value=0.0066558836127699073 0.0013647494948212896 0.0034313066687440435 -0.0073912380436258239 -0.00031000487081070274 0.0040773128656327118 0.007689746771861225 0.0006967957687316976 -0.0086666495946989761 -0.0038047459907585312 -0.0060615554589013758 0.00045576291780250085 -0.002818394056479075 0.001124259150773084 0.0037665018710206577 0.0025646711560649489
leaf_weight=504 732 501 864 500 743 621 529 560 501 560 1997 821 508 523 504
leaf_count=504 732 501 864 500 743 621 529 560 501 560 1997 821 508 523 504
internal_value=7.65335e-07 -0.000322805 -0.00148934 0.0011251 -0.000230875 0.00365807 -0.000448778 -0.00117816 -0.00162783 -0.00301341 9.64756e-05 -0.000501437 -0.00132984 0.00223349 0.00113862
internal_weight=10968 10464 5795 4669 3044 1625 4931 3879 2301 1569 3319 2818 1009 1052 1004
internal_count=10968 10464 5795 4669 3044 1625 4931 3879 2301 1569 3319 2818 1009 1052 1004
cat_boundaries=0 1
cat_threshold=70
is_linear=0
shrinkage=0.05


Tree=20
num_leaves=15
num_cat=1
split_feature=416 184 22 25 114 114 25 107 183 177 463 389 114 425
split_gain=9.37095 6.53685 7.64627 6.74748 5.30928 13.7932 5.92866 3.93185 3.24979 3.74004 1.70669 1.39479 0.993386 0.771239
threshold=2.0156728650037583 0.21943443482111732 0.97829279328929475 0.20944209102473874 0.3353313394528899 -1.0000000180025095e-35 0.54670903276645599 0.54382266618802022 -0.019534121696926279 0.45787430845957683 0 -0.026104898703192343 0.66990111329045965 -0.08258820727734198
decision_type=10 10 10 10 8 10 8 10 10 10 1 8 10 8
left_child=1 2 4 13 5 8 10 -7 9 -1 12 -12 -6 -3
right_child=-2 3 -4 -5 6 7 -8 -9 -10 -11 11 -13 -14 -15
leaf_value=-0.0019912430984563036 0.0064360116026120837 -0.00046115857480370602 -0.0057582874510657385 0.0067320024376633751 0.0031864252856142411 -0.0031756333427268115 0.0059481681835266854 -0.0084204452990875259 0.0028256325190850399 0.002665341406149276 0.00014245757729715184 -0.0031241525245202994 0.00027626849587039751 0.0019464152528338935
leaf_weight=1577 533 949 747 582 508 797 522 658 913 588 890 511 687 506
leaf_count=1577 533 949 747 582 508 797 522 658 913 588 890 511 687 506
internal_value=8.52475e-07 -0.000330768 -0.000947231 0.00220684 -0.000474053 -0.00156573 0.00111301 -0.00556823 0.000332252 -0.000723318 0.0001312 -0.00104842 0.00150894 0.000379913
internal_weight=10968 10435 8398 2037 7651 4533 3118 1455 3078 2165 2596 1401 1195 1455
internal_count=10968 10435 8398 2037 7651 4533 3118 1455 3078 2165 2596 1401 1195 1455
cat_boundaries=0 1
cat_threshold=1924
is_linear=0
shrinkage=0.05


Tree=21
num_leaves=17
num_cat=2
split_feature=415 111 179 111 421 187 181 185 110 185 463 187 187 408 463 179
split_gain=8.38448 6.5185 7.86157 7.63307 7.17141 5.63389 5.60293 4.89921 3.92157 3.74807 3.65249 2.44099 2.37476 2.30154 1.92775 1.13045
threshold=-1.3371189920805195 -0.5776162498338987 1.3654236666393871 -0.32798462062692074 0.3392974283817996 -0.24948664796947348 -0.14717529867597737 0.033923417293563733 -0.10053214531096072 0.26310269826760219 0 0.077129664598244524 -0.30633094729477034 0.035375884955763222 1 0.49999999417348462
decision_type=8 8 10 8 10 10 10 10 8 10 1 10 8 8 1 10
left_child=-1 2 -2 4 11 8 10 14 -5 -9 -7 15 -10 -12 -8 -3
right_child=1 3 -4 5 -6 6 7 9 12 -11 13 -13 -14 -15 -16 -17
leaf_value=0.0062676928915650163 -0.0079958346212662904 0.00052212846399625641 -0.00018175144465498602 0.0049487151687479412 0.0061152582976192037 -0.0011528061004908155 0.0037390685628326975 -0.0044792334619685858 -0.0024059119613684416 0.00095453502966152775 -0.0082310658790311041 0.0027469463683242709 0.002334660100816181 -0.0035548692588764207 -1.975149782241636e-07 -0.0025226257568757189
leaf_weight=504 568 748 735 585 851 775 654 834 549 508 501 850 500 577 721 508
leaf_count=504 568 748 735 585 851 775 654 834 549 508 501 850 500 577 721 508
internal_value=9.74524e-07 -0.000303712 -0.00360559 0.000167636 0.00225603 -0.000828766 -0.00172933 -0.000281818 0.00168754 -0.00242643 -0.0038453 0.000685786 -0.000145988 -0.00570343 0.00181253 -0.000714468
internal_weight=10968 10464 1303 9161 2957 6204 4570 2717 1634 1342 1853 2106 1049 1078 1375 1256
internal_count=10968 10464 1303 9161 2957 6204 4570 2717 1634 1342 1853 2106 1049 1078 1375 1256
cat_boundaries=0 1 2
cat_threshold=1117 646
is_linear=0
shrinkage=0.05


Tree=22
num_leaves=17
num_cat=1
split_feature=424 109 178 178 19 183 111 404 184 114 114 463 183 21 182 121
split_gain=8.44743 7.45743 13.8103 12.1594 6.79481 3.89951 3.69387 2.98057 2.90382 4.77205 5.24842 2.41239 2.36726 1.69423 0.664778 0.397069
threshold=2.6687596603209824 -1.0000000180025095e-35 1.0000000180025095e-35 -0.073332038709768704 -0.11868003337050111 -0.019534121696926279 0.2475800877984545 -0.37570850184381288 -0.12215735572794019 0.31489184913031271 0.74550182641674523 0 -0.22175848606523613 -0.090674046844111358 -0.19525174138665466 -0.21001541061539661
decision_type=8 10 10 10 10 10 10 10 10 10 10 1 10 10 10 10
left_child=1 3 4 -1 -3 6 12 -7 13 15 -11 -8 14 -6 -5 -10
right_child=-2 2 -4 5 8 7 11 -9 9 10 -12 -13 -14 -15 -16 -17
leaf_value=0.0082945563807532065 0.0052994910713840167 -0.0047543317698909961 -0.0073338369625969005 0.00058252520746737355 0.0033491039114440708 -0.00030280252395216347 0.0038145028048849998 0.0043681305091377914 0.0026706196631288786 -0.0058989191424501965 0.00082783986257481965 -0.00079930620511630605 -0.0044328050412795568 0.00014511636152437471 -0.001976104130233281 0.00067386588410216176
leaf_weight=516 699 781 881 501 918 596 521 793 500 669 507 596 737 747 506 500
leaf_count=516 699 781 881 501 918 596 521 793 500 669 507 596 737 747 506 500
internal_value=9.77658e-07 -0.00036209 -0.00161536 0.00108515 -0.00051861 0.00020113 -0.000854144 0.00237 0.000347711 -0.000854219 -0.00300764 0.00138699 -0.00228941 0.00191638 -0.000706553 0.00168056
internal_weight=10968 10269 5503 4766 4622 4250 2861 1389 3841 2176 1176 1117 1744 1665 1007 1000
internal_count=10968 10269 5503 4766 4622 4250 2861 1389 3841 2176 1176 1117 1744 1665 1007 1000
cat_boundaries=0 1
cat_threshold=646
is_linear=0
shrinkage=0.05


Tree=23
num_leaves=14
num_cat=0
split_feature=416 19 25 181 181 183 183 424 188 113 180 33 390
split_gain=8.10141 5.3981 7.80551 4.0617 5.79976 5.65837 5.38599 3.25158 2.25174 1.83414 2.76209 1.89378 0.883681
threshold=2.0156728650037583 -0.15047786366828533 1.2524640175399273 0.13260534601637411 0.35336681007675963 0.10823363408210768 -0.019534121696926279 0.11280031275216272 0.087351791700543399 -0.13988766418338988 -0.35846021401769673 2.581285037455713 -0.34788548589468576
decision_type=10 8 8 10 10 10 10 10 8 8 10 8 10
left_child=1 -1 3 6 5 -5 9 8 -8 11 -11 -3 -6
right_child=-2 2 -4 4 12 -7 7 -9 -10 10 -12 -13 -14
leaf_value=-0.0050338808923818855 0.0059845640672179616 -0.0018335766257972837 0.0049418750595961614 -0.0016647946645750957 0.0013835767128180573 -0.0086716053938568158 0.002729798608821549 0.0056471324559379029 -0.0013098001825130744 4.1569107177695736e-05 -0.0030182121819108455 0.0017830078963009229 -0.0011327719781907585
leaf_weight=566 533 529 725 671 665 504 869 551 566 1503 1443 1120 723
leaf_count=566 533 529 725 671 665 504 869 551 566 1503 1443 1120 723
internal_value=1.16932e-06 -0.000307171 -3.36762e-05 -0.000430658 -0.00211718 -0.00469428 0.000227273 0.00239968 0.00113746 -0.000713246 -0.00145974 0.00062077 7.34662e-05
internal_weight=10968 10435 9869 9144 2563 1175 6581 1986 1435 4595 2946 1649 1388
internal_count=10968 10435 9869 9144 2563 1175 6581 1986 1435 4595 2946 1649 1388
is_linear=0
shrinkage=0.05


Tree=24
num_leaves=13
num_cat=0
split_feature=416 184 22 25 19 110 110 177 20 131 20 24
split_gain=7.31868 5.30286 6.71385 5.68925 4.32976 3.54377 6.44226 5.03693 2.60892 2.45896 2.18958 0.772838
threshold=2.0156728650037583 0.21943443482111732 0.97829279328929475 0.20944209102473874 1.0000000180025095e-35 -0.31253267090709419 0.18343515298456978 -0.50243681435924514 -1.0000000180025095e-35 -0.16992592742856391 -1.0000000180025095e-35 0.31136611045940893
decision_type=10 10 10 10 8 10 10 10 10 10 10 10
left_child=1 2 4 11 5 8 7 -7 -1 -10 -8 -3
right_child=-2 3 -4 -5 -6 6 10 -9 9 -11 -12 -13
leaf_value=-0.0024421189698226814 0.005688116810343845 0.0011811045409667637 -0.0053553568709135786 0.0061487864940728693 0.0036523328479678139 -0.0069762751638548677 -0.0024007964649653789 -0.0016603690541915966 -0.00011620949694373311 0.0031786379049460974 0.00098339901343168787 -0.0012081827338214475
leaf_weight=557 533 929 747 582 601 766 656 1066 1263 1021 1721 526
leaf_count=557 533 929 747 582 601 766 656 1066 1263 1021 1721 526
internal_value=1.10738e-06 -0.000291959 -0.000847197 0.00199361 -0.000403836 -0.000751961 -0.00167217 -0.00389601 0.000611897 0.00136039 4.63561e-05 0.000316169
internal_weight=10968 10435 8398 2037 7651 7050 4209 1832 2841 2284 2377 1455
internal_count=10968 10435 8398 2037 7651 7050 4209 1832 2841 2284 2377 1455
is_linear=0
shrinkage=0.05


Tree=25
num_leaves=15
num_cat=0
split_feature=424 109 178 178 180 180 109 178 188 129 25 189 180 107
split_gain=7.08969 6.23448 11.2384 10.7666 3.60077 9.77763 4.29539 3.32418 2.94644 3.49559 3.40462 1.34478 0.994447 0.941904
threshold=2.6687596603209824 -1.0000000180025095e-35 1.0000000180025095e-35 -0.073332038709768704 0.49380991041449562 0.28362530308044165 0.47600129838927752 -0.47856108954647042 -0.22188488689711922 -0.463940262709158 0.12525659489834221 -0.13861428239445742 -0.36433872851520516 0.49999999980799648
decision_type=8 10 10 10 10 10 10 10 8 8 10 10 10 10
left_child=1 3 4 -1 5 6 13 -8 11 -10 12 -5 -11 -3
right_child=-2 2 -4 8 -6 -7 7 -9 9 10 -12 -13 -14 -15
leaf_value=0.0077756465692989237 0.0048551295586962209 0.0009605891938216371 -0.0066360709912260066 -0.0033059508231185566 0.0029478051049638371 -0.0062128349715137197 0.0001472224989062874 -0.0043896047987210017 -0.0015282029356279876 0.0025714921088447742 0.005564626483302788 -0.00035389195637896713 -0.00027801948033831633 0.0034685253301234009
leaf_weight=516 699 861 881 634 650 741 1057 648 815 525 576 977 723 665
leaf_count=516 699 861 881 634 650 741 1057 648 815 525 576 977 723 665
internal_value=1.06734e-06 -0.000331546 -0.00147745 0.000991721 -0.000488057 -0.00105332 0.000137738 -0.00158483 0.000159904 0.00118775 0.00240215 -0.00152229 0.000926171 0.00206126
internal_weight=10968 10269 5503 4766 4622 3972 3231 1705 4250 2639 1824 1611 1248 1526
internal_count=10968 10269 5503 4766 4622 3972 3231 1705 4250 2639 1824 1611 1248 1526
is_linear=0
shrinkage=0.05


Tree=26
num_leaves=14
num_cat=1
split_feature=415 19 463 20 25 397 181 25 186 181 130 187 398
split_gain=7.09918 6.68771 5.6571 7.32368 4.9826 5.83234 3.7891 3.54597 2.71534 2.52671 1.97945 1.15456 0.930616
threshold=-1.2903769128121858 -0.15047786366828533 0 -0.12975125211304417 1.0826367601035449 0.86227183512701577 0.084650441920107233 0.59280060061352124 0.018611468315858231 -0.16300872914181533 -0.097607342287527141 -0.20027842676047519 -0.54228348478996724
decision_type=8 8 1 10 10 8 8 10 10 10 8 10 10
left_child=-1 -2 3 -3 5 10 7 9 -8 11 -5 -4 -11
right_child=1 2 6 4 -6 -7 8 -9 -10 12 -12 -13 -14
leaf_value=0.0055323032617164156 -0.0055520631272097352 0.0067902002734754087 -0.0028062542818522913 -0.0013414011465226253 -0.0037865203549593408 0.0062452328178123611 -0.0010866847079070063 0.0036600122061037502 -0.0050055931295798668 -0.00060494404076918019 0.0018336107841912597 -0.00037366615877284159 0.0016215054806294081
leaf_weight=546 566 567 1242 945 525 518 999 542 793 815 1011 804 1095
leaf_count=546 566 567 1242 945 525 518 999 542 793 815 1011 804 1095
internal_value=1.14124e-06 -0.000291146 1.36347e-05 0.00160067 0.000615186 0.00155501 -0.000887797 -0.000113717 -0.00282999 -0.000634712 0.000300162 -0.00185358 0.000672377
internal_weight=10968 10422 9856 3566 2999 2474 6290 4498 1792 3956 1956 2046 1910
internal_count=10968 10422 9856 3566 2999 2474 6290 4498 1792 3956 1956 2046 1910
cat_boundaries=0 1
cat_threshold=519
is_linear=0
shrinkage=0.05


Tree=27
num_leaves=15
num_cat=2
split_feature=425 371 19 180 25 180 110 177 389 133 185 463 463 385
split_gain=6.47754 4.37516 5.54299 5.89965 7.67447 7.44932 5.87041 5.28314 4.02107 3.93425 2.38244 1.69995 1.0705 0.618292
threshold=1.78628602049022 -1.4518842643586731 -1.0000000180025095e-35 -0.29134887841202556 0.028345653935995214 0.41852414215747802 -0.70766474160103288 -0.50243681435924514 0.33087658091104682 -0.12900715183805939 -0.16173882096388464 0 1 0.060088139055467817
decision_type=10 8 8 8 10 10 10 10 10 10 10 1 1 10
left_child=1 -1 8 4 12 6 11 -8 10 -7 -3 -5 -4 -14
right_child=-2 2 3 5 -6 9 7 -9 -10 -11 -12 -13 13 -15
leaf_value=-0.004814504315975205 0.0053514307098342867 -0.003119661717894278 0.0022436711432158468 0.0033205222877092815 0.0061249950090567808 -2.9978602343509275e-05 -0.0057597300363044475 -0.0012086134012318601 -0.0062111021868095848 0.0049674805949266095 0.0011658930788185598 -0.00043114576742655006 0.00071215653288857997 -0.0016750010750974269
leaf_weight=500 533 659 518 576 927 770 965 1872 524 801 630 617 532 544
leaf_count=500 533 659 518 576 927 770 965 1872 524 801 630 617 532 544
internal_value=1.20097e-06 -0.000274511 -4.3719e-05 0.000514608 0.00252067 -0.000389762 -0.00152802 -0.00276408 -0.00253949 0.00252573 -0.00102868 0.00141064 0.000411963 -0.000492344
internal_weight=10968 10435 9935 8122 2521 5601 4030 2837 1813 1571 1289 1193 1594 1076
internal_count=10968 10435 9935 8122 2521 5601 4030 2837 1813 1571 1289 1193 1594 1076
cat_boundaries=0 1 2
cat_threshold=662 800
is_linear=0
shrinkage=0.05


Tree=28
num_leaves=12
num_cat=1
split_feature=415 19 413 20 110 110 180 25 371 463 122
split_gain=6.2117 5.52198 5.1907 3.5628 3.40194 4.05356 3.92228 2.95407 2.08253 2.11706 1.98185
threshold=-1.3371189920805195 -0.15047786366828533 1.5981030858998151 -0.12975125211304417 -0.72621251851012258 0.20019681307616774 -0.33839152835594988 -0.48968703932899343 0.71207996591591971 0 -0.11115951348279561
decision_type=8 8 10 10 10 10 10 8 8 1 8
left_child=-1 -2 3 7 8 6 -6 -3 9 -5 -7
right_child=1 2 -4 4 5 10 -8 -9 -10 -11 -12
leaf_value=0.0053953423998628954 -0.0050242606304572021 -0.00079050832503737482 0.0043745776828406132 0.0046082321053330343 0.00079636931562697454 -0.001169286861194836 -0.0032648608404436913 0.0037583395762194414 -0.0012046357761408585 0.00049629791833491423 0.0017362394853050397
leaf_weight=504 570 589 634 537 756 1158 2749 895 647 749 1180
leaf_count=504 570 589 634 537 756 1158 2749 895 647 749 1180
internal_value=1.38931e-06 -0.000260864 1.59577e-05 -0.000284662 -0.000713319 -0.00131461 -0.002389 0.00195631 0.00110294 0.00226407 0.000297722
internal_weight=10968 10464 9894 9260 7776 5843 3505 1484 1933 1286 2338
internal_count=10968 10464 9894 9260 7776 5843 3505 1484 1933 1286 2338
cat_boundaries=0 1
cat_threshold=198
is_linear=0
shrinkage=0.05


Tree=29
num_leaves=15
num_cat=2
split_feature=184 424 19 111 179 424 111 111 463 389 110 22 24 463
split_gain=5.9352 9.14047 5.2725 4.76689 8.11647 7.03939 5.30366 3.49866 4.58859 3.79401 3.68594 2.77602 1.69229 0.727197
threshold=0.18699670507534907 0.69637657591175872 1.0000000180025095e-35 -0.5776162498338987 0.42773698076999783 0.17155243323413299 -1.499999983849585 0.2475800877984545 0 0.21616983157069916 -0.86294672132706574 0.012414828564755597 0.31136611045940893 1
decision_type=10 8 8 8 10 10 10 10 1 10 10 10 10 1
left_child=2 12 3 6 7 -6 -1 8 -5 -10 -9 -12 13 -2
right_child=1 -3 -4 4 5 -7 -8 10 9 -11 11 -13 -14 -15
leaf_value=-0.00042610860150769166 0.0028877134447653665 0.008177529263166344 0.0039531338311198563 7.4446646383142579e-05 0.00020671162483397148 0.0076749271656312472 -0.0075036852279291646 0.0033493592173506042 -0.0026403429690492097 -0.0079123892470075226 0.00033474715999408188 -0.0030658360171205265 -0.0013107102087969379 0.00037805860495760839
leaf_weight=515 636 500 584 947 839 501 541 592 1054 506 1501 994 714 544
leaf_count=515 636 500 584 947 839 501 541 592 1054 506 1501 994 714 544
internal_value=1.77371e-06 0.00220029 -0.000613011 -0.000949021 -0.000471081 0.00301708 -0.0040703 -0.00130859 -0.00269416 -0.00434245 -0.000180813 -0.00102346 0.000604969 0.00176476
internal_weight=10968 2394 8574 7990 6934 1340 1056 5594 2507 1560 3087 2495 1894 1180
internal_count=10968 2394 8574 7990 6934 1340 1056 5594 2507 1560 3087 2495 1894 1180
cat_boundaries=0 1 2
cat_threshold=1100 929
is_linear=0
shrinkage=0.05


Tree=30
num_leaves=14
num_cat=2
split_feature=424 111 111 424 177 19 111 463 179 463 115 179 134
split_gain=5.83502 4.4178 5.41354 7.6313 5.02514 3.61521 3.71873 4.14033 4.93151 3.20798 3.44518 1.50823 1.14371
threshold=2.6687596603209824 -0.5776162498338987 -0.42585274273067425 0.39438886114640653 -0.90666768900755834 1.0000000180025095e-35 0.2475800877984545 0 0.028763636964264049 1 0.33858330310221202 0.49999999838908371 0.16885855844381156
decision_type=8 10 10 10 10 10 10 1 10 1 10 10 10
left_child=1 4 3 11 -1 6 7 -4 -9 12 -11 -3 -8
right_child=-2 2 5 -5 -6 -7 9 8 -10 10 -12 -13 -14
leaf_value=0.00082167745245760495 0.0044055837193974932 0.0025906107491578596 0.00052312470481427934 0.0077021622376467385 -0.0056111897583504917 0.0026938905739620402 -0.00066720610795551079 -0.0066370576706137885 -0.0013205906491479515 0.002955272807195724 -0.0013627148370356605 -0.00081612567933688103 -0.0034659992554789058
leaf_weight=501 699 530 837 505 761 768 1259 805 952 1308 709 823 511
leaf_count=501 699 530 837 505 761 768 1259 805 952 1308 709 823 511
internal_value=1.93239e-06 -0.000299818 8.90009e-05 0.00248971 -0.00306425 -0.000536239 -0.000926813 -0.00238327 -0.00374708 7.26505e-05 0.00143076 0.000522993 -0.0014744
internal_weight=10968 10269 9007 1858 1262 7149 6381 2594 1757 3787 2017 1353 1770
internal_count=10968 10269 9007 1858 1262 7149 6381 2594 1757 3787 2017 1353 1770
cat_boundaries=0 1 2
cat_threshold=1096 360
is_linear=0
shrinkage=0.05


Tree=31
num_leaves=16
num_cat=1
split_feature=416 117 114 114 179 131 111 177 109 109 114 111 178 463 430
split_gain=5.3761 4.06126 4.37982 5.20402 3.87133 3.71943 3.4855 3.46778 1.72152 1.57928 1.60232 1.44255 1.25742 1.03175 1.01542
threshold=2.0156728650037583 -1.3848527514627607 0.3353313394528899 -0.58882319985093334 0.5776162431336116 0.81033865894929158 -0.42585274273067425 0.49999999059130623 -0.0086355352949464229 0.47600129838927752 0.66990111329045965 -0.32798462062692074 0.32528685153983433 0 0.1296219882135361
decision_type=10 8 8 10 10 10 10 10 10 8 8 10 10 1 8
left_child=1 -1 3 7 6 9 -5 11 -8 10 -4 -3 -12 -13 -11
right_child=-2 2 5 4 -6 -7 8 -9 -10 14 12 13 -14 -15 -16
leaf_value=0.0034239215205451815 0.0048760770906588046 0.00107212703596014 0.0033767546802100251 0.0011966336660530845 -0.0064733872968008978 0.0047460755360864415 -0.0012855317155559712 0.0040291016528863112 -0.0042298609340360831 -0.0026981328547792927 0.0013011574714911879 -4.591071595475019e-05 -0.001450412881504382 -0.0030010828583557406 0.00014142222841801862
leaf_weight=697 533 767 522 672 561 504 886 500 1142 611 1059 539 676 656 643
leaf_count=697 533 767 522 672 561 504 886 500 1142 611 1059 539 676 656 643
internal_value=1.90089e-06 -0.000249279 -0.000513811 -0.00140148 -0.00271 0.00075164 -0.00191754 0.000333692 -0.00294986 0.00017231 0.000962091 -0.000615902 0.000227989 -0.0016993 -0.00124735
internal_weight=10968 10435 9738 5723 3261 4015 2700 2462 2028 3511 2257 1962 1735 1195 1254
internal_count=10968 10435 9738 5723 3261 4015 2700 2462 2028 3511 2257 1962 1735 1195 1254
cat_boundaries=0 1
cat_threshold=1806
is_linear=0
shrinkage=0.05


Tree=32
num_leaves=17
num_cat=0
split_feature=188 416 25 386 188 23 188 109 185 119 121 126 392 398 133 419
split_gain=5.60472 9.5948 6.02905 3.3753 2.16279 2.17715 1.86813 2.30817 1.7904 1.45151 1.42632 1.21024 1.12751 0.862917 1.14389 0.8541
threshold=-0.36944345608989798 1.7434195782186592 1.2188447474750042 0.7206351551649216 0.13117427796440878 -0.1102456395012157 -0.17508731679703507 -0.33928833800664088 -0.0070231636222894992 0.36347303847151829 -0.14423185544798758 0.18074720906982242 -0.23879046527376108 -0.027816444997484702 -0.30151408624223824 -0.16307960223569476
decision_type=10 10 10 10 10 10 10 10 10 10 10 10 8 10 10 10
left_child=3 2 4 10 6 -6 13 15 -7 -10 12 -9 -1 14 -2 -8
right_child=1 -3 -4 -5 5 8 7 11 9 -11 -12 -13 -14 -15 -16 -17
leaf_value=-0.0040242760509351305 -0.0011033890292439503 0.0071109702670068111 0.0050825401609660963 -0.0057048580625765309 0.00095473575016795853 -0.00049723179019927461 0.0016321234038412528 0.00099236616365013419 -0.0018018671396972889 -0.0055911243008519044 0.00046471617127216903 -0.0018716483841762271 -0.00075426333787618214 -0.0021313061226982443 0.0016708399282164095 0.0045363116441862819
leaf_weight=509 953 525 574 517 689 754 504 1241 511 509 787 519 547 705 602 522
leaf_count=509 953 525 574 517 689 754 504 1241 511 509 787 519 547 705 602 522
internal_value=1.78044e-06 0.000593783 0.000166349 -0.00215421 -0.000212584 -0.00142561 0.000380332 0.00124584 -0.0023502 -0.00371083 -0.00114544 0.000144898 -0.00234197 -0.000687008 -2.74659e-05 0.00312453
internal_weight=10968 8608 8083 2360 7509 2463 5046 2786 1774 1020 1843 1760 1056 2260 1555 1026
internal_count=10968 8608 8083 2360 7509 2463 5046 2786 1774 1020 1843 1760 1056 2260 1555 1026
is_linear=0
shrinkage=0.05


Tree=33
num_leaves=10
num_cat=0
split_feature=415 19 20 425 36 386 134 422 23
split_gain=5.15503 4.26806 4.27676 6.22577 4.87471 4.75995 3.91283 4.32976 1.38092
threshold=-1.2903769128121858 -0.15047786366828533 -0.12975125211304417 0.27597085597958809 -0.25186541524075456 1.8338910863515998 1.4965964403014569 0.93438885861698939 0.1047647078738146
decision_type=8 8 10 8 8 8 8 10 10
left_child=-1 -2 3 8 -4 6 7 -6 -3
right_child=1 2 4 -5 5 -7 -8 -9 -10
leaf_value=0.0047149986620255479 -0.0044501921701653379 0.0018957583361369525 0.0042294378623983046 0.0069019303217578588 -0.00041418933166919886 -0.005290705966184338 0.0031397545397271517 -0.0049618891256379503 -0.0016545906027423233
leaf_weight=546 566 575 514 508 5951 538 687 569 514
leaf_count=546 566 575 514 508 5951 538 687 569 514
internal_value=1.66783e-06 -0.000247402 -3.91475e-06 0.00236049 -0.000462258 -0.000776152 -0.000435708 -0.000814565 0.000220116
internal_weight=10968 10422 9856 1597 8259 7745 7207 6520 1089
internal_count=10968 10422 9856 1597 8259 7745 7207 6520 1089
is_linear=0
shrinkage=0.05


Tree=34
num_leaves=18
num_cat=1
split_feature=184 133 113 401 376 22 110 110 177 19 110 121 388 117 411 463 184
split_gain=5.03954 8.23928 5.64898 7.9133 5.02515 3.91704 3.06084 4.47465 3.55668 2.52379 3.42697 2.27581 2.09639 1.64635 1.112 0.832662 0.577051
threshold=0.21943443482111732 0.61385916650460326 0.34610518784101735 0.73843628650751392 1.2709720143788485 0.53984190197948301 -0.31253267090709419 0.24382373072088015 -0.53722108694842186 -1.0000000180025095e-35 0.020310428637693102 0.25235960319649753 -0.33406360190607537 0.3567069944283045 -0.083411835808209198 0 0.5053662991387603
decision_type=10 8 10 10 10 10 10 10 10 10 10 10 10 10 8 1 10
left_child=2 15 4 9 5 6 13 8 -8 -4 -11 -7 -9 14 -1 -2 -17
right_child=1 -3 3 -5 -6 11 7 12 -10 10 -12 -13 -14 -15 -16 16 -18
leaf_value=-0.001129726179789824 0.0020513912605758487 0.0076394567124183623 -0.0027702201922969474 0.0068003584460631615 -0.0058756057232058866 -0.0055912422999599178 -0.0065726314280087177 0.0026317152100423934 -0.00083640972292625064 0.0037562911967995403 -0.0011003159848641459 -0.0011050076478514074 -0.0011698588174606031 0.0035514671259738537 0.001635016955455615 0.00077533113069101051 -0.0014930089081798851
leaf_weight=679 513 517 578 539 551 607 559 613 522 664 791 531 873 547 772 556 556
leaf_count=679 513 517 578 539 551 607 559 613 522 664 791 531 873 547 772 556 556
internal_value=1.67809e-06 0.00217434 -0.000526543 0.00144411 -0.00133749 -0.000894276 -0.0002386 -0.00137966 -0.00381929 1.08287e-05 0.00112131 -0.00351192 0.000401921 0.0012272 0.00034181 0.000417495 -0.000357247
internal_weight=10968 2142 8826 2572 6254 5703 4565 2567 1081 2033 1455 1138 1486 1998 1451 1625 1112
internal_count=10968 2142 8826 2572 6254 5703 4565 2567 1081 2033 1455 1138 1486 1998 1451 1625 1112
cat_boundaries=0 1
cat_threshold=641
is_linear=0
shrinkage=0.05


Tree=35
num_leaves=14
num_cat=1
split_feature=424 109 178 178 180 180 109 463 178 109 188 410 188
split_gain=5.04789 4.16282 8.85227 7.48096 2.3324 6.4148 3.24371 2.74294 2.45359 2.27417 2.89762 3.7647 2.3275
threshold=2.8483525509515251 -1.0000000180025095e-35 -0.073332038709768704 1.0000000180025095e-35 0.49380991041449562 0.28362530308044165 0.47600129838927752 0 -0.47856108954647042 -0.18324814483655305 -0.36944345608989798 0.19605484115059271 0.14278011916157399
decision_type=8 10 10 10 10 10 10 1 10 10 8 10 10
left_child=1 2 -1 4 5 6 7 -3 -8 10 -4 12 -12
right_child=-2 3 9 -5 -6 -7 8 -9 -10 -11 11 -13 -14
leaf_value=0.0069560267464516476 0.0042307468702199097 -0.0011684038468222321 -0.0022834321569042424 -0.0054030757626712198 0.0023580790145731815 -0.0050169790093657195 0.00010537082378549513 0.0032718642048829962 -0.0037804703978904087 -0.0030312376105803979 0.00095079216869277904 0.0038557818133296167 -0.002943264676980157
leaf_weight=517 658 520 749 885 654 746 1061 1012 653 518 1583 911 501
leaf_count=517 658 520 749 885 654 746 1061 1012 653 518 1583 911 501
internal_value=1.71492e-06 -0.000270108 0.000810297 -0.00120351 -0.000398601 -0.000852606 0.0001107 0.00177951 -0.00138175 5.75151e-05 0.000488331 0.00118415 9.84492e-06
internal_weight=10968 10310 4779 5531 4646 3992 3246 1532 1714 4262 3744 2995 2084
internal_count=10968 10310 4779 5531 4646 3992 3246 1532 1714 4262 3744 2995 2084
cat_boundaries=0 1
cat_threshold=1098
is_linear=0
shrinkage=0.05


Tree=36
num_leaves=16
num_cat=2
split_feature=188 133 130 463 389 23 188 463 114 114 409 26 188 138 409
split_gain=4.65452 8.32703 5.22669 4.0957 5.78393 3.36093 2.17208 2.14172 1.94141 5.82827 1.79789 1.4699 1.44144 1.3856 0.835082
threshold=-0.36944345608989798 1.6214000071367709 1.4609145359473976 0 0.0091836663740374105 -0.21868794006124551 0.12786028968617041 1 0.37394219421447683 -0.38533649644230877 -0.42692562815691054 0.24717805773507728 -0.22188488689711922 -0.30157222777416876 0.19901431923395871
decision_type=10 10 8 1 10 10 10 1 10 10 10 10 10 10 10
left_child=3 2 5 13 -5 8 11 -8 9 10 -2 12 -7 -1 -9
right_child=1 -3 -4 4 -6 6 7 14 -10 -11 -12 -13 -14 -15 -16
leaf_value=-0.0013594157594899034 0.0047108017831914047 0.0063921379992843618 0.0045854105039133605 -0.00087613747090495699 -0.0075572107157960396 -0.0016373773149447116 -0.00053436339979185483 -0.0024296291994745155 0.0030107190394236412 -0.0033400937316523829 0.0004820758371970298 -0.0021410369556134809 0.0012645841102953957 0.0022608700393252435 -0.0053387252219902655
leaf_weight=545 502 563 603 734 577 579 921 501 942 690 501 696 1598 504 512
leaf_count=545 502 563 603 734 577 579 921 501 942 690 501 696 1598 504 512
internal_value=1.68178e-06 0.000541172 0.000127997 -0.00196307 -0.00380525 -0.000236008 -0.00102237 -0.00231546 0.00119776 0.000183122 0.00261142 -0.000149398 0.000490788 0.000378857 -0.00388085
internal_weight=10968 8608 8045 2360 1311 7442 4807 1934 2635 1693 1003 2873 2177 1049 1013
internal_count=10968 8608 8045 2360 1311 7442 4807 1934 2635 1693 1003 2873 2177 1049 1013
cat_boundaries=0 1 2
cat_threshold=1358 647
is_linear=0
shrinkage=0.05


Tree=37
num_leaves=15
num_cat=2
split_feature=424 109 178 178 19 21 118 183 111 367 126 25 463 463
split_gain=4.40456 3.72887 7.95769 6.53423 3.29336 2.35134 2.70896 2.05865 2.52869 2.32802 2.05641 2.04168 2.00749 0.708076
threshold=2.8483525509515251 -1.0000000180025095e-35 -0.073332038709768704 1.0000000180025095e-35 -1.0000000180025095e-35 -0.91499679649480314 0.51303225955509812 -0.019534121696926279 0.2475800877984545 0.32241521549698204 0.24475773744877991 0.20289627659380266 0 1
decision_type=8 10 10 10 8 10 10 10 10 10 10 10 1 1
left_child=1 2 -1 4 -3 -6 10 8 11 -9 -7 13 -10 -4
right_child=-2 3 7 -5 5 6 -8 9 12 -11 -12 -13 -14 -15
leaf_value=0.006597073498760507 0.0039518846182476945 -0.0031359190322145843 0.00053545486821445268 -0.0050606627689067573 0.0031356628653850336 0.0015314006795459276 -0.0026734598401573668 0.0032764030039684855 0.0033354937307694685 -0.00089008903639918591 -0.0017799147781995988 -0.0045586314414233272 -0.00085782223020900513 -0.0018502367444179644
leaf_weight=517 658 876 553 885 593 1673 858 842 527 552 646 506 596 686
leaf_count=517 658 876 553 885 593 1673 858 842 527 552 646 506 596 686
internal_value=1.51621e-06 -0.000252396 0.000770146 -0.00113581 -0.000383541 0.00025931 -0.000281656 5.64105e-05 -0.000709582 0.00162926 0.000607128 -0.00189848 0.00113804 -0.000798133
internal_weight=10968 10310 4779 5531 4646 3770 3177 4262 2868 1394 2319 1745 1123 1239
internal_count=10968 10310 4779 5531 4646 3770 3177 4262 2868 1394 2319 1745 1123 1239
cat_boundaries=0 1 2
cat_threshold=646 580
is_linear=0
shrinkage=0.05


Tree=38
num_leaves=17
num_cat=2
split_feature=188 398 463 25 23 187 187 189 110 463 189 177 189 398 189 138
split_gain=4.25111 7.30834 3.68456 5.6782 2.83281 2.81906 3.59984 2.40994 2.21417 2.02218 2.23525 1.76688 1.6224 1.61769 1.35394 1.29966
threshold=-0.36944345608989798 1.7293374410089488 0 0.22943686382525319 -0.21868794006124551 0.17099161694553508 0.28179085922378982 -0.22782923219351239 -0.030459429327072626 1 0.11836712545862642 0.45787430845957683 0.037572972830842606 -0.027816444997484702 -0.093948300200816695 -0.30157222777416876
decision_type=10 10 1 10 10 10 10 10 10 1 10 10 10 10 10 10
left_child=2 4 15 -4 7 9 -7 8 -2 -6 14 12 -9 -12 -11 -1
right_child=1 -3 3 -5 5 6 -8 11 -10 10 13 -13 -14 -15 -16 -17
leaf_value=-0.0013381537165154112 0.0056224082914025841 0.0062629903820365712 -0.00090493951039031031 -0.0075886493156388131 0.0030164023550737929 -0.0057192731502890351 -0.00042575580586799331 -0.0029133134151029831 0.00097575384529012803 1.5924063936006607e-05 -0.00045577933952951173 0.0024413609508686161 0.00079355761070963148 -0.00386775885824227 0.0030237646481617152 0.0021680115074888357
leaf_weight=545 520 515 776 535 513 526 815 515 506 1420 896 636 679 564 503 504
leaf_count=545 520 515 776 535 513 526 815 515 506 1420 896 636 679 564 503 504
internal_value=1.52886e-06 0.00051711 -0.00187615 -0.0036234 0.000147829 -0.00054293 -0.00251564 0.0014132 0.00334663 0.000138429 -0.000309785 0.000323042 -0.000810784 -0.00178253 0.000808488 0.000345426
internal_weight=10968 8608 2360 1311 8093 5237 1341 2856 1026 3896 3383 1830 1194 1460 1923 1049
internal_count=10968 8608 2360 1311 8093 5237 1341 2856 1026 3896 3383 1830 1194 1460 1923 1049
cat_boundaries=0 1 2
cat_threshold=1358 7
is_linear=0
shrinkage=0.05


Tree=39
num_leaves=14
num_cat=1
split_feature=184 421 113 401 418 376 177 107 181 429 115 424 463
split_gain=4.13463 5.42447 4.82503 6.9199 5.80119 3.21099 2.43269 2.12456 2.58317 1.6515 1.33283 1.30815 0.687135
threshold=0.21943443482111732 0.50484488619622392 0.34610518784101735 0.57350838998606346 1.3692968930941884 1.2454697567293773 0.45787430845957683 -0.42083481029669606 0.17424944164124426 -0.094700779411280425 0.40658103457017436 -0.30546214051462639 0
decision_type=10 10 10 10 10 10 10 8 10 10 10 8 1
left_child=2 12 4 9 5 6 7 -1 -9 -4 -8 -11 -2
right_child=1 -3 3 -5 -6 -7 10 8 -10 11 -12 -13 -14
leaf_value=-0.0039143664211602489 0.0014041186247076326 0.006354152821986577 -0.001837155547685811 0.0058379461488395103 -0.006101970636662621 -0.0045570171201811402 0.0027015468652372599 0.00047501784296305699 -0.0024421071780715907 -0.00063003500036902028 -0.00054851909385690903 0.0027925919518237106 -0.00066486729274918782
leaf_weight=538 927 526 825 638 551 500 821 2177 1159 547 508 562 689
leaf_count=538 927 526 825 638 551 500 821 2177 1159 547 508 562 689
internal_value=1.61507e-06 0.00196957 -0.000476837 0.00134442 -0.00122632 -0.000750321 -0.00038048 -0.00101357 -0.000540594 -0.000149159 0.00146183 0.00110917 0.000527214
internal_weight=10968 2142 8826 2572 6254 5703 5203 3874 3336 1934 1329 1109 1616
internal_count=10968 2142 8826 2572 6254 5703 5203 3874 3336 1934 1329 1109 1616
cat_boundaries=0 1
cat_threshold=1985
is_linear=0
shrinkage=0.05


Tree=40
num_leaves=13
num_cat=1
split_feature=415 188 22 389 21 181 183 177 177 183 463 21
split_gain=4.12683 3.30116 5.49255 3.78399 2.51551 2.43478 3.21939 2.54373 2.5955 2.48662 1.99056 1.63131
threshold=-1.2903769128121858 -0.36944345608989798 -1.1287864057461763 0.0091836663740374105 -0.99139175672108448 0.1326150709464925 0.074451505477080945 0.1671192290381234 0.45787430845957683 0.36501338659473631 0 -0.37032118732194913
decision_type=8 10 10 10 10 10 10 10 10 10 1 8
left_child=-1 3 -3 11 -4 7 -7 10 -9 -8 -6 -2
right_child=1 2 4 -5 5 6 9 8 -10 -11 -12 -13
leaf_value=0.0042187075166400618 -0.0023756940727177305 0.0049521354521252295 0.0027403675024191502 -0.004520053692682522 0.0034807256899400426 0.00038119254528046122 -0.0061826252708796917 -0.0028497098329610926 0.00039482631590113959 -0.0013094900840039008 0.0003780157674022207 0.0010645115001219117
leaf_weight=546 571 572 698 855 734 840 525 1033 1515 524 1702 853
leaf_count=546 571 572 698 855 734 840 525 1033 1515 524 1702 853
internal_value=1.54225e-06 -0.000221309 0.000249719 -0.00190118 -0.000108589 -0.000399702 -0.00192577 0.000180047 -0.000923566 -0.00376614 0.00133393 -0.000318439
internal_weight=10968 10422 8143 2279 7571 6873 1889 4984 2548 1049 2436 1424
internal_count=10968 10422 8143 2279 7571 6873 1889 4984 2548 1049 2436 1424
cat_boundaries=0 1
cat_threshold=516
is_linear=0
shrinkage=0.05


Tree=41
num_leaves=14
num_cat=2
split_feature=424 371 111 183 134 177 395 107 463 111 111 23 463
split_gain=3.95621 3.26053 3.63685 4.25059 6.72053 5.2425 4.42864 3.705 3.24866 2.99913 2.51492 2.06032 1.70687
threshold=2.8483525509515251 -1.4518842643586731 -0.5776162498338987 -0.019534121696926279 0.65263468102096056 0.49999999608486162 0.998274342594068 0.82389029109219858 0 -0.33986509364204026 0.49999999631123421 -0.17378154077248351 1
decision_type=8 10 10 10 10 10 10 10 1 10 10 10 1
left_child=1 -1 7 5 9 6 12 -3 -7 11 -11 -5 -4
right_child=-2 2 3 4 -6 8 -8 -9 -10 10 -12 -13 -14
leaf_value=-0.0041089220734538759 0.0037455639528988743 -0.0048419950616076235 0.00045916092726899001 0.0049668242046704619 0.0068259181981921505 0.005422530008588786 -0.0056763182760410629 0.00072547720769153528 7.7776743888428662e-05 -0.0029998822049771079 0.0013589720591956815 0.00075851588475646056 -0.0016480451356343834
leaf_weight=512 658 727 1730 500 546 507 503 503 636 687 630 691 2138
leaf_count=512 658 727 1730 500 546 507 503 503 636 687 630 691 2138
internal_value=1.64946e-06 -0.000238993 -3.47747e-05 0.000330678 0.00182553 -0.000498167 -0.00128669 -0.0025715 0.00250975 0.000725508 -0.000917527 0.00253861 -0.000709271
internal_weight=10968 10310 9798 8568 3054 5514 4371 1230 1143 2508 1317 1191 3868
internal_count=10968 10310 9798 8568 3054 5514 4371 1230 1143 2508 1317 1191 3868
cat_boundaries=0 1 2
cat_threshold=645 1358
is_linear=0
shrinkage=0.05


Tree=42
num_leaves=8
num_cat=0
split_feature=425 371 20 20 37 36 418
split_gain=3.82943 2.98294 3.12581 3.4525 3.45927 2.60651 2.91043
threshold=1.78628602049022 -1.4518842643586731 -0.16458508598253754 -0.14579116734514722 -0.30009059449684067 -0.38873668889870633 1.335300291630525
decision_type=10 8 8 10 8 8 8
left_child=1 -1 -3 -4 -5 -6 -7
right_child=-2 2 3 4 5 6 -8
leaf_value=-0.0039588107151730858 0.0041155964270931733 -0.003096800257207849 0.0041068393428963729 0.0039305774346230322 0.0031092236228185141 -0.00023247782897389227 -0.0041014863298173328
leaf_weight=500 533 757 537 519 531 7074 517
leaf_count=500 533 757 537 519 531 7074 517
internal_value=1.87885e-06 -0.000210112 -1.95548e-05 0.000235804 -6.99977e-06 -0.000260876 -0.000498511
internal_weight=10968 10435 9935 9178 8641 8122 7591
internal_count=10968 10435 9935 9178 8641 8122 7591
is_linear=0
shrinkage=0.05


Tree=43
num_leaves=16
num_cat=1
split_feature=463 408 182 184 188 23 188 424 131 397 398 415 383 389 424
split_gain=3.69493 5.63521 5.3302 6.01805 4.29483 3.09686 2.5849 2.43706 2.38244 1.88373 1.26546 1.82121 1.18712 1.10177 1.00558
threshold=0 1.098958334142238 -0.21572254571908372 -0.20269268757205519 -0.29304404622087921 -0.23019649986935045 0.3052117172314594 0.22896220625154654 0.95408958285126932 1.0455759172274404 0.58928244943397512 -0.53119400540284201 -0.011307477961031964 0.25192824019348736 -0.34098814496470226
decision_type=1 10 8 10 8 10 8 8 10 10 8 10 10 10 10
left_child=1 2 3 -1 -4 -6 8 -8 9 10 11 14 -7 -13 -2
right_child=6 -3 4 -5 5 12 7 -9 -10 -11 -12 13 -14 -15 -16
leaf_value=-0.00057804477407644498 0.00039125719943170693 0.0061072450700061535 -0.0045440876400583271 0.0065945124497188666 0.0035188323945288449 -0.0026119550554321485 -0.0009516007865476028 -0.0053557875559891799 0.0029906900729258397 -0.0034483073969701081 -0.0025317855764176484 -0.00014246648852826044 0.00058085954231951815 -0.002690402180158162 0.0034394627222096952
leaf_weight=549 582 509 595 619 532 598 805 513 518 501 527 2553 560 504 503
leaf_count=549 582 509 595 619 532 598 805 513 518 501 527 2553 560 504 503
internal_value=1.87314e-06 0.00121956 0.000494817 0.00323507 -0.000909896 0.000379227 -0.000687886 -0.00267959 -0.000225637 -0.00055047 -0.000236166 5.86137e-05 -0.00107208 -0.000566246 0.00181368
internal_weight=10968 3962 3453 1168 2285 1690 7006 1318 5688 5170 4669 4142 1158 3057 1085
internal_count=10968 3962 3453 1168 2285 1690 7006 1318 5688 5170 4669 4142 1158 3057 1085
cat_boundaries=0 1
cat_threshold=519
is_linear=0
shrinkage=0.05


Tree=44
num_leaves=15
num_cat=0
split_feature=117 416 114 398 398 114 177 180 180 184 397 389 135 121
split_gain=3.69477 3.31216 2.64011 3.81014 2.22206 2.05779 2.00637 1.99026 3.48736 1.76951 1.29414 1.25648 0.634636 0.616059
threshold=-1.3848527514627607 1.7434195782186592 0.3353313394528899 1.0371731685995182 0.38230102125037518 -0.58882319985093334 0.49999999697639042 1.0000000180025095e-35 0.38006118438493902 -0.10600176252384351 -0.61988541100419237 -0.019607115606516328 0.038699872090364212 0.095624192799028354
decision_type=8 10 10 10 10 10 10 10 10 10 10 10 10 10
left_child=-1 2 3 5 11 6 10 9 -9 -7 -2 12 13 -4
right_child=1 -3 4 -5 -6 7 -8 8 -10 -11 -12 -13 -14 -15
leaf_value=0.0033439831349663246 -0.0019261868150900691 0.0034333048156440782 -0.0011213218253659136 -0.0052149586060356041 0.0031216350966938263 -0.0021596573421822098 0.0030553482165770166 -0.0063398359339707491 -0.00072932121477133126 0.0009463627358118513 0.00051148430827634009 -0.0017157735269807935 0.0018405410366400773 0.0012170139347002994
leaf_weight=764 850 571 611 505 718 916 516 506 608 909 1495 760 725 514
leaf_count=764 850 571 611 505 718 916 516 506 608 909 1495 760 725 514
internal_value=1.79698e-06 -0.000249956 -0.000469951 -0.00107104 0.000668727 -0.000706051 0.00024849 -0.0016341 -0.00329466 -0.000614245 -0.000374325 -1.07364e-05 0.000692448 -5.23044e-05
internal_weight=10968 10204 9633 6305 3328 5800 2861 2939 1114 1825 2345 2610 1850 1125
internal_count=10968 10204 9633 6305 3328 5800 2861 2939 1114 1825 2345 2610 1850 1125
is_linear=0
shrinkage=0.05


Tree=45
num_leaves=15
num_cat=1
split_feature=424 122 110 134 110 178 114 110 391 182 127 463 187 107
split_gain=3.67214 2.98746 2.66244 4.66366 2.89977 3.34331 2.17305 2.97008 2.49416 2.0398 2.03776 1.63281 1.13189 1.02138
threshold=2.8483525509515251 1.4941697387695767 -0.018545344324195936 0.97521043447290479 0.20019681307616774 9.7144505011612588e-08 -0.17932816467470877 0.50909203271140391 0.32604454316667281 -0.34819029202246521 -0.16086435563459278 0 0.18736259955757248 -0.32329792075774139
decision_type=8 10 10 8 10 10 10 10 10 10 10 1 10 10
left_child=1 2 3 9 5 10 7 -6 -9 -1 -4 -8 13 -11
right_child=-2 -3 4 -5 6 -7 11 8 -10 12 -12 -13 -14 -15
leaf_value=0.0025505721818151464 0.0036086662457012718 -0.0037917250719618871 -0.0029246015614709264 0.0051352518161224955 0.0021071054100720069 -0.0052071367818872435 0.0038482817809607308 -0.00052133388818358746 -0.0046148305826017727 -0.00081217970304375744 0.0014925738974391083 5.763783159449951e-05 -0.0019778445994418112 0.00116558966706649
leaf_weight=779 658 552 512 550 602 678 512 1036 577 1254 523 628 756 1351
leaf_count=779 658 552 512 550 602 678 512 1036 577 1254 523 628 756 1351
internal_value=1.66755e-06 -0.000230174 -2.68623e-05 0.00083122 -0.000820981 -0.00249151 3.43984e-05 -0.000878165 -0.00199539 0.000253924 -0.000696096 0.00180359 -0.000281383 0.000213795
internal_weight=10968 10310 9758 4690 5068 1713 3355 2215 1613 4140 1035 1140 3361 2605
internal_count=10968 10310 9758 4690 5068 1713 3355 2215 1613 4140 1035 1140 3361 2605
cat_boundaries=0 1
cat_threshold=645
is_linear=0
shrinkage=0.05


Tree=46
num_leaves=10
num_cat=0
split_feature=415 188 22 389 21 186 126 188 182
split_gain=3.39815 2.8331 4.66324 3.27512 2.10732 2.04429 2.16407 1.8611 1.63688
threshold=-1.2903769128121858 -0.36944345608989798 -1.1287864057461763 0.0091836663740374105 -0.99139175672108448 -0.43473049738241409 0.87751281776377399 0.33574168620200379 -0.33462640697698315
decision_type=8 10 10 10 10 10 10 10 10
left_child=-1 3 -3 8 -4 -6 7 -7 -2
right_child=1 2 4 -5 5 6 -8 -9 -10
leaf_value=0.0038285444634282005 -0.002013177086069066 0.0045687902920819503 0.0025133254850454 -0.0041931064651167657 0.0026477556044382155 0.00025904320206220852 -0.0029227382056433793 -0.0019364026173855902 0.001366517242991552
leaf_weight=546 695 572 698 855 517 4246 866 1244 729
leaf_count=546 695 572 698 855 517 4246 866 1244 729
internal_value=1.7648e-06 -0.000200457 0.000235899 -0.00175669 -9.42559e-05 -0.000360708 -0.000607307 -0.000239741 -0.000284255
internal_weight=10968 10422 8143 2279 7571 6873 6356 5490 1424
internal_count=10968 10422 8143 2279 7571 6873 6356 5490 1424
is_linear=0
shrinkage=0.05


Tree=47
num_leaves=16
num_cat=3
split_feature=424 109 398 183 404 177 463 111 398 111 463 109 463 137 138
split_gain=3.38019 2.8996 5.04188 3.00165 5.43173 3.83177 2.20046 1.94435 1.93595 1.51611 1.26507 1.32614 1.15323 1.05302 1.00444
threshold=2.8483525509515251 -1.0000000180025095e-35 1.1299055323827796 -0.019534121696926279 0.16990737556181759 0.49999998926502348 0 -0.5776162498338987 -0.013702483146234965 -0.32798462062692074 1 0.45132867167040686 2 -0.28346174625468157 -0.30157222777416876
decision_type=8 10 10 10 10 10 1 10 10 10 1 10 1 10 8
left_child=1 3 7 5 13 6 -1 -3 -8 12 11 -11 -9 -5 -12
right_child=-2 2 -4 4 -6 -7 8 9 -10 10 14 -13 -14 -15 -16
leaf_value=0.00098717180457730085 0.0034624113543341877 -0.0028173131968308707 -0.0057266280841247411 0.0019939340039682317 0.0062773318720156087 0.0028437296095831987 -0.00084058575219633021 0.003144749208845634 -0.0043849211389764093 -0.0037399351873601983 -0.0013632151770271864 -0.00036252003992558461 6.2417383939649925e-05 -0.0010961342836099022 0.001027101669624829
leaf_weight=750 658 772 507 501 579 755 943 513 650 560 706 601 726 601 1146
leaf_count=750 658 772 507 501 579 755 943 513 650 560 706 601 726 601 1146
internal_value=1.77039e-06 -0.000220664 -0.000999677 0.000681032 0.00237879 -0.000242532 -0.00124098 -0.000517434 -0.00228172 -9.70457e-05 -0.000702387 -0.00198363 0.00137193 0.000311358 0.000114059
internal_weight=10968 10310 5531 4779 1681 3098 2343 5024 1593 4252 3013 1161 1239 1102 1852
internal_count=10968 10310 5531 4779 1681 3098 2343 5024 1593 4252 3013 1161 1239 1102 1852
cat_boundaries=0 1 2 3
cat_threshold=70 418 437
is_linear=0
shrinkage=0.05


Tree=48
num_leaves=13
num_cat=1
split_feature=117 102 114 131 114 415 25 113 113 114 463 24
split_gain=3.32814 2.91929 2.52795 5.12677 3.50863 3.11806 3.00366 2.03296 2.06841 2.03177 2.44072 1.70238
threshold=-1.3848527514627607 -0.21951659069600293 0.37394219421447683 1.3362519982296233 0.66990111329045965 0.98656325741188733 -0.3272984126994255 0.033005392935729849 0.35596400714716459 -0.38533649644230877 0 0.44072888346425915
decision_type=8 8 10 10 10 10 10 10 8 10 1 10
left_child=-1 -2 3 5 6 9 -4 -6 -9 11 -11 -3
right_child=1 2 4 -5 7 -7 -8 8 -10 10 -12 -13
leaf_value=0.0031738930084570481 0.0034656583358098391 0.00044090806969716845 0.00038349582833720723 -0.0055665625534247016 0.001328714182639126 0.0031194027667236068 0.0057851751497027025 -0.0039471918137819499 -1.1652082036891409e-05 4.5998952906585862e-05 -0.0035348588360272493 -0.0023571882888736477
leaf_weight=764 501 2530 512 560 994 515 514 563 810 774 1244 687
leaf_count=764 501 2530 512 560 994 515 514 563 810 774 1244 687
internal_value=1.86087e-06 -0.000237076 -0.000429947 -0.00102147 0.000669999 -0.000574366 0.00310453 -0.000389594 -0.00163389 -0.000940375 -0.00218195 -0.000159364
internal_weight=10968 10204 9703 6310 3393 5750 1026 2367 1373 5235 2018 3217
internal_count=10968 10204 9703 6310 3393 5750 1026 2367 1373 5235 2018 3217
cat_boundaries=0 1
cat_threshold=1117
is_linear=0
shrinkage=0.05


Tree=49
num_leaves=15
num_cat=1
split_feature=463 185 408 389 425 130 21 130 423 187 182 124 181 389
split_gain=3.28343 5.40415 3.68883 4.57948 2.24038 2.24728 2.01671 1.5973 1.42687 1.22401 1.08547 0.965097 0.918498 0.852469
threshold=0 0.2358663063289507 1.15668462993557 0.99084152357912914 0.93596626577445829 0.20151859367926181 -1.0618886217095731 -0.097607342287527141 0.38719587007006057 0.17099161694553508 -0.17371951606966576 -0.61754189547793337 -0.22740715707332976 -0.6553059261680122
decision_type=1 8 8 10 8 8 10 8 10 10 10 10 10 10
left_child=1 2 3 7 6 -6 -2 -1 9 11 -9 -8 -13 -10
right_child=4 -3 -4 -5 5 -7 8 10 13 -11 -12 12 -14 -15
leaf_value=-0.0011690259799643987 0.0024066839437958186 0.0047986234544732638 0.0041311094281309664 -0.0047154247153702346 -0.0050944569930766841 -0.00040627760657323709 -0.0025732152817636413 0.0033492707296984081 0.0023589048390676979 -0.0027161537022330189 0.00039581346300253682 -0.0017801444439710995 0.00039011989074741937 -0.00014685629676722994
leaf_weight=856 621 804 501 519 520 500 512 525 513 894 757 663 1800 983
leaf_count=856 621 804 501 519 520 500 512 525 513 894 757 663 1800 983
internal_value=1.66184e-06 0.00114954 0.000218037 -0.00052618 -0.000648555 -0.00280952 -0.000279376 0.00049939 -0.000592239 -0.0010989 0.00161362 -0.000609169 -0.000196503 0.000717401
internal_weight=10968 3962 3158 2657 7006 1020 5986 2138 5365 3869 1282 2975 2463 1496
internal_count=10968 3962 3158 2657 7006 1020 5986 2138 5365 3869 1282 2975 2463 1496
cat_boundaries=0 1
cat_threshold=519
is_linear=0
shrinkage=0.05


Tree=50
num_leaves=12
num_cat=0
split_feature=184 134 22 415 122 180 25 398 178 420 180
split_gain=3.15296 6.32657 3.59041 2.75895 2.20184 1.90017 2.93743 1.88355 1.41276 0.855439 0.701866
threshold=0.21943443482111732 0.63707288368196713 0.95399498235474678 2.0337539715709965 1.3831041853721449 -0.3438713697958507 0.33044109092805385 0.76190525899251527 1.0000000180025095e-35 0.074045671385868497 0.065417516913501395
decision_type=10 8 10 8 8 10 10 10 10 10 10
left_child=2 10 3 4 5 6 9 8 -7 -1 -2
right_child=1 -3 -4 -5 -6 7 -8 -9 -10 -11 -12
leaf_value=-0.00097558655702245981 -0.00071370584357356216 0.0066142920407640639 -0.0033690414032489751 0.0032417035876141018 -0.0034108909760100304 0.00058892280404856316 0.0044411175985433751 -0.0033738319721539618 -0.0012622801537988196 0.001329939312523894 0.0013591682271370392
leaf_weight=859 908 500 917 577 534 2184 509 555 1943 748 734
leaf_count=859 908 500 917 577 534 2184 509 555 1943 748 734
internal_value=1.56118e-06 0.00172009 -0.000416249 -7.19791e-05 -0.000334785 -9.08193e-05 0.001151 -0.000652681 -0.0002831 9.83483e-05 0.000214215
internal_weight=10968 2142 8826 7909 7332 6798 2116 4682 4127 1607 1642
internal_count=10968 2142 8826 7909 7332 6798 2116 4682 4127 1607 1642
is_linear=0
shrinkage=0.05


Tree=51
num_leaves=8
num_cat=0
split_feature=425 117 130 37 126 32 422
split_gain=3.30126 2.89566 2.52068 2.05833 1.6626 1.474 1.66307
threshold=1.78628602049022 1.8694439731190822 1.9318297935597115 -0.50279369425731124 1.2269192304083905 -0.54361033878381237 1.0757676476198308
decision_type=10 8 8 8 10 8 10
left_child=1 2 3 -1 5 -5 -7
right_child=-2 -3 -4 4 -6 6 -8
leaf_value=0.0028646528478778834 0.0038210892817276002 -0.0036539220258164536 0.0030969911547723186 0.0024013264340522027 -0.0030205127031626496 -0.0001724719648658101 -0.0030527828004019396
leaf_weight=512 533 567 613 505 554 7150 534
leaf_count=512 533 567 613 505 554 7150 534
internal_value=1.58496e-06 -0.000195245 5.2354e-06 -0.000201107 -0.000382176 -0.000201954 -0.000374494
internal_weight=10968 10435 9868 9255 8743 8189 7684
internal_count=10968 10435 9868 9255 8743 8189 7684
is_linear=0
shrinkage=0.05


Tree=52
num_leaves=12
num_cat=1
split_feature=415 188 413 121 22 115 463 187 177 127 110
split_gain=3.03175 2.61753 4.42894 2.45697 2.33325 2.06833 1.67424 1.39307 1.75618 1.38736 1.25994
threshold=-1.3371189920805195 -0.36944345608989798 1.5981030858998151 -0.61279761280270173 1.1672013510678463 -1.209452803323684 0 0.17099161694553508 0.1671192290381234 -0.4869130578763316 -0.31757370327894197
decision_type=8 10 10 8 10 10 1 10 10 10 10
left_child=-1 3 4 -2 5 -3 10 8 -7 -9 -5
right_child=1 2 -4 6 -6 7 -8 9 -10 -11 -12
leaf_value=0.0037698833010441214 -0.0047205037329344128 0.0029513163746533191 0.0046392261163568762 -0.00027785452558336227 -0.0027612170131820538 0.0013676685359628052 0.0012337902123885642 0.00035132773856311146 -0.00054226019355835329 -0.0027346645396577767 -0.0036050332245298289
leaf_weight=504 509 622 529 567 724 2257 643 640 2568 837 568
leaf_count=504 509 622 529 567 724 2257 643 640 2568 837 568
internal_value=1.55776e-06 -0.000181658 0.000236781 -0.00167501 -7.05609e-05 0.000212574 -0.000792363 -5.98621e-05 0.000351642 -0.0014008 -0.00193445
internal_weight=10968 10464 8177 2287 7648 6924 1778 6302 4825 1477 1135
internal_count=10968 10464 8177 2287 7648 6924 1778 6302 4825 1477 1135
cat_boundaries=0 1
cat_threshold=697
is_linear=0
shrinkage=0.05


Tree=53
num_leaves=9
num_cat=0
split_feature=193 117 386 416 23 131 182 185
split_gain=2.9685 2.70779 2.75555 4.11367 1.91421 1.35547 2.03903 1.03715
threshold=-0.52072926359914018 -1.3848527514627607 1.2112025559886495 1.2564798641926738 1.167615055704778 0.44364697328371122 -0.23819659403544594 -0.49999807234880705
decision_type=8 8 10 10 10 8 8 10
left_child=-1 -2 3 4 5 7 -7 -3
right_child=1 2 -4 -5 -6 6 -8 -9
leaf_value=0.0037457962620223635 0.0027912434714492591 0.0013663858662832421 -0.0031798186918443497 0.0041646093268710325 -0.0030095996529738898 0.0037529343131422564 -0.00020453757016903544 -0.00071904451298927254
leaf_weight=500 710 661 810 517 648 501 911 5710
leaf_count=500 710 661 810 517 648 501 911 5710
internal_value=1.52861e-06 -0.000179018 -0.000396455 -0.000142862 -0.000409313 -0.000191024 0.00120792 -0.000501776
internal_weight=10968 10468 9758 8948 8431 7783 1412 6371
internal_count=10968 10468 9758 8948 8431 7783 1412 6371
is_linear=0
shrinkage=0.05


Tree=54
num_leaves=16
num_cat=2
split_feature=463 408 182 109 25 398 121 187 187 187 177 463 115 186 386
split_gain=2.87546 4.66603 4.37455 3.78606 3.40865 1.88284 1.69428 1.65398 2.28166 1.9374 1.17463 2.54872 2.19774 1.83303 1.42829
