tree
version=v4
num_class=1
num_tree_per_iteration=1
label_index=0
max_feature_idx=58
objective=regression
feature_names=market_cap pe_ratio pb_ratio ps_ratio profit_margins operating_margins gross_margins return_on_equity return_on_assets revenue_growth earnings_growth debt_to_equity current_ratio quick_ratio dividend_yield payout_ratio enterprise_to_ebitda enterprise_to_revenue beta vix treasury_10y returns_1m returns_3m returns_6m returns_1y volatility volume_trend log_market_cap fcf_yield ocf_yield earnings_yield profit_margins_missing operating_margins_missing gross_margins_missing return_on_equity_missing return_on_assets_missing revenue_growth_missing earnings_growth_missing current_ratio_missing quick_ratio_missing debt_to_equity_missing pe_ratio_missing pb_ratio_missing ps_ratio_missing enterprise_to_ebitda_missing enterprise_to_revenue_missing dividend_yield_missing payout_ratio_missing market_cap_missing beta_missing vix_missing treasury_10y_missing returns_1m_missing returns_3m_missing returns_6m_missing returns_1y_missing volatility_missing volume_trend_missing sector
feature_infos=none none none none none none none none none none none none none none none none none none none [-8.1396378023550877:9.4164945515917537] [-0.16284159169381232:9.4164943370834813] [-4.3206768121078278:5.2660313304200415] [-3.5401341572856566:5.1214175135809192] [-3.3209835172510154:4.6892799890208225] [-2.9134532852072863:6.5034453063543092] [-1.606254683312613:5.662496173630152] [-2.1401220172848299:7.3173600255820253] none none none none none none none none none none none none none none none none none none none none none none none none none none none none none none none -1:9:6:5:7:2:3:1:10:0:4
tree_sizes=1189 1250 1170 1250 1157 1158 1252 1242 1143 1163 1144 1163 1173 1177 1162 1254 1145 1260 1169 1158 1077 1158 1063 1166 1168 1163 1160 1056 1056 976 975 1174 1162 1082 1245 1164 1156 1083 1069 1069 1069 1069 1176 1067 1160 1158 1067 1072 1167 1150 1056 1150 1074 982 1143 1243 1127 1176 1171 1061 1091 1059 994 1163 1153 1001 1264 1086 986 1068 972 899 1001 1055 1073 1169 975 1166 997 908 995 1162 1158 996 890 971 994 903 1069 996 1079 886 1076 1078 887 996 985 1089 1165 1151 993 1001 1158 1075 888 1159 1093 985 1168 1151 1003 1071 1080 1080 1001 1150 898 1163 881 978 903 996 1140 1068 1166 1165 1063 906 1077 909 1169 1074 989 1152 1003 905 1075 1254 893 994 1076 980 889 886 1067 994 977 1071 1061 1068 1271 1069 979 1174 979 1270 904 1085 906 981 886 1063 1087 1162 892 1065 1162 1091 1070 1162 1069 903 1168 989 1073 1166 1157 1067 996 1002 1257 1091 1093 978 1089 1085 1166 1172 966 1151 1062 1157 1075 1073 1063 1242 1159 907 1071 1093 982

Tree=0
num_leaves=12
num_cat=2
split_feature=58 25 24 25 25 24 26 25 58 25 26
split_gain=216.125 213.761 51.7945 30.2415 20.2317 15.9267 9.13771 5.06013 5.40555 4.81702 1.49812
threshold=0 0.90947187297468479 -0.28472100615739609 -0.28261331565191067 -0.049032204730994018 0.18863034672558068 1.0000000180025095e-35 -0.6242741957153114 1 -0.87020606946719992 -0.20765224202458998
decision_type=1 2 2 2 2 2 2 2 1 2 2
left_child=1 2 -1 -4 7 6 -6 9 -9 -2 -10
right_child=4 -3 3 -5 5 -7 -8 8 10 -11 -12
leaf_value=0.60302996787366803 0.60407366701638998 0.65122783892054348 0.61161814828646976 0.62692911189500977 0.617753890829152 0.60321295270640141 0.60880329732540794 0.6013598136260262 0.60591606110444018 0.5978217153542843 0.60976749331815006
leaf_weight=519 726 570 501 897 639 510 507 516 525 579 507
leaf_count=519 726 570 501 897 639 510 507 516 525 579 507
internal_value=0.612648 0.62444 0.616457 0.621458 0.606127 0.610517 0.613795 0.603564 0.605541 0.601254 0.607832
internal_weight=6996 2487 1917 1398 4509 1656 1146 2853 1548 1305 1032
internal_count=6996 2487 1917 1398 4509 1656 1146 2853 1548 1305 1032
cat_boundaries=0 1 2
cat_threshold=518 1072
is_linear=0
shrinkage=1


Tree=1
num_leaves=12
num_cat=2
split_feature=58 25 24 25 25 24 26 25 58 25 21
split_gain=195.24 193.11 46.7817 27.3098 18.2847 14.3877 8.25427 4.5607 4.90125 4.35244 1.5645
threshold=0 0.90947187297468479 -0.28472100615739609 -0.28261331565191067 -0.049032204730994018 0.18863034672558068 1.0000000180025095e-35 -0.6242741957153114 1 -0.87020606946719992 0.11293542564520123
decision_type=1 2 2 2 2 2 2 2 1 2 2
left_child=1 2 -1 -4 7 6 -6 9 -9 -2 -10
right_child=4 -3 3 -5 5 -7 -8 8 10 -11 -12
leaf_value=-0.0091419226597823054 -0.0081487520216300419 0.036667416349174857 -0.00097907144031505826 0.013570811003529179 0.0048523753095831819 -0.0089680784246572061 -0.0036545480572385716 -0.010739924189133773 -0.0026251079749475994 -0.014091520625904559 -0.0065523256025657424
leaf_weight=519 726 570 501 897 639 510 507 516 513 579 519
leaf_count=519 726 570 501 897 639 510 507 516 513 579 519
internal_value=-1.17284e-06 0.0112066 0.00361868 0.00837168 -0.00619962 -0.00202574 0.00108931 -0.00863622 -0.00675861 -0.0108291 -0.00457806
internal_weight=6996 2487 1917 1398 4509 1656 1146 2853 1548 1305 1032
internal_count=6996 2487 1917 1398 4509 1656 1146 2853 1548 1305 1032
cat_boundaries=0 1 2
cat_threshold=518 1072
is_linear=0
shrinkage=0.05


Tree=2
num_leaves=11
num_cat=1
split_feature=58 25 25 23 25 26 21 25 26 21
split_gain=176.374 174.454 19.993 19.9309 16.525 10.338 4.15799 2.44664 1.59405 0.32844
threshold=0 0.90947187297468479 -0.39458099784608852 -8.3266717411796588e-08 -0.049032204730994018 0.080983934269017274 -0.3511606614910926 -0.6242741957153114 -0.44645671456045138 0.34384472772338093
decision_type=1 2 2 2 2 2 2 2 2 2
left_child=1 2 -1 -4 6 8 -2 -8 -6 -9
right_child=4 -3 3 -5 5 -7 7 9 -10 -11
leaf_value=-0.0047483120561993795 -0.0054547697169596773 0.034849988260184941 -0.00096348245176339816 0.011342926067572777 -0.00078824664419872381 -0.0069595755717722267 -0.01159667554689091 -0.0088792321474366036 0.0031320948652850777 -0.0068175138998841471
leaf_weight=534 948 570 534 849 519 627 852 519 510 534
leaf_count=534 948 570 534 849 519 627 852 519 510 534
internal_value=-2.2316e-06 0.0106503 0.00343819 0.00660486 -0.00589358 -0.00192563 -0.00820997 -0.0095632 0.00116053 -0.00787085
internal_weight=6996 2487 1917 1383 4509 1656 2853 1905 1029 1053
internal_count=6996 2487 1917 1383 4509 1656 2853 1905 1029 1053
cat_boundaries=0 1
cat_threshold=518
is_linear=0
shrinkage=0.05


Tree=3
num_leaves=12
num_cat=2
split_feature=25 58 24 25 25 22 58 25 25 21 24
split_gain=160.145 60.2336 27.0865 23.5522 22.1971 12.9914 4.94698 4.03293 3.97813 1.97141 1.51128
threshold=1.3201287114751368 0 -0.18474804942272313 -0.02165316517023191 -0.049032204730994018 0.13865055549544383 1 -0.6242741957153114 0.2265937026230794 0.089682955856635507 -0.087787713323907016
decision_type=2 1 2 2 2 2 1 2 2 2 2
left_child=1 2 -1 -4 6 8 -3 10 -6 -9 -8
right_child=-2 4 3 -5 5 -7 7 9 -10 -11 -12
leaf_value=-0.0028533979621126401 0.024586804723444065 -0.011380675375677538 0.0031653535173973069 0.017478086124356855 0.0050755691513382573 -0.0069397745393183705 -0.010732042132356985 -0.0021124626131268087 -0.00087954710463809143 -0.0063994330909337973 -0.0067322525367312759
leaf_weight=627 600 813 603 549 606 561 528 507 516 582 504
leaf_count=627 600 813 603 549 606 561 528 507 516 582 504
internal_value=-2.00857e-06 -0.00232606 0.00546491 0.0100323 -0.00533099 -0.000761246 -0.00796466 -0.00654726 0.0023451 -0.00442235 -0.00882054
internal_weight=6996 6396 1779 1152 4617 1683 2934 2121 1122 1089 1032
internal_count=6996 6396 1779 1152 4617 1683 2934 2121 1122 1089 1032
cat_boundaries=0 1 2
cat_threshold=516 50
is_linear=0
shrinkage=0.05


Tree=4
num_leaves=11
num_cat=2
split_feature=58 25 24 25 25 24 25 58 25 25
split_gain=147.055 149.555 38.4745 21.2212 12.8806 12.6067 6.1666 3.09201 2.32357 2.30385
threshold=0 0.90947187297468479 -0.28472100615739609 -0.28261331565191067 -0.14928850031475496 0.18863034672558068 0.38991734654044813 1 -0.68904096610961141 -0.59581861655501822
decision_type=1 2 2 2 2 2 2 1 2 2
left_child=1 2 -1 -4 7 6 -6 9 -9 -2
right_child=4 -3 3 -5 5 -7 -8 8 -10 -11
leaf_value=-0.0085247221681865239 -0.0073941231649390943 0.032129875252671213 -0.00088519980420502043 0.011940444304688215 0.0033546210828331322 -0.008391349351275449 -0.003704389574704692 -0.012050958265161671 -0.0077162137063513788 -0.0029683272164586702
leaf_weight=519 738 570 501 897 777 561 507 519 903 504
leaf_count=519 738 570 501 897 777 561 507 519 903 504
internal_value=-2.63966e-06 0.00972426 0.00304652 0.00735736 -0.00538209 -0.00217451 0.000563744 -0.00761549 -0.00927002 -0.00557256
internal_weight=6996 2487 1917 1398 4509 1845 1284 2664 1422 1242
internal_count=6996 2487 1917 1398 4509 1845 1284 2664 1422 1242
cat_boundaries=0 1 2
cat_threshold=518 73
is_linear=0
shrinkage=0.05


Tree=5
num_leaves=11
num_cat=2
split_feature=58 25 22 21 25 22 25 21 58 26
split_gain=132.821 135.106 22.7971 15.9676 11.6661 11.4082 8.12315 3.71321 2.05608 1.27908
threshold=0 0.90947187297468479 -0.11346842915855189 0.012553047767012125 -0.049032204730994018 0.24538621902763208 0.37237798192263433 -0.3511606614910926 1 -0.19451444437228363
decision_type=1 2 2 2 2 2 2 2 1 2
left_child=1 2 -1 -4 7 6 -6 -2 9 -9
right_child=4 -3 3 -5 5 -7 -8 8 -10 -11
leaf_value=-0.0039806612815224086 -0.0044663733778060157 0.030537351403871312 0.012596012228516876 0.00094303321089971807 0.0049894298934263503 -0.0076869620413567881 -0.0035542687554871166 -0.0083207915879534404 -0.010293819103141652 -0.0047163935383138138
leaf_weight=738 948 570 630 549 609 543 504 528 864 513
leaf_count=738 948 570 630 549 609 543 504 528 864 513
internal_value=-2.65801e-06 0.00924151 0.00289452 0.00719671 -0.00511513 -0.0017809 0.00112199 -0.00706186 -0.0083384 -0.00651333
internal_weight=6996 2487 1917 1179 4509 1656 1113 2853 1905 1041
internal_count=6996 2487 1917 1179 4509 1656 1113 2853 1905 1041
cat_boundaries=0 1 2
cat_threshold=518 1097
is_linear=0
shrinkage=0.05


Tree=6
num_leaves=12
num_cat=2
split_feature=25 58 24 25 25 22 58 25 25 21 24
split_gain=120.282 45.3668 21.9463 18.5774 16.3798 9.94865 4.36209 3.34687 2.75739 1.6959 1.39271
threshold=1.3201287114751368 0 -0.18474804942272313 -0.02165316517023191 -0.049032204730994018 0.13865055549544383 1 -0.6242741957153114 0.2265937026230794 0.089682955856635507 -0.087787713323907016
decision_type=2 1 2 2 2 2 1 2 2 2 2
left_child=1 2 -1 -4 6 8 -3 10 -6 -9 -8
right_child=-2 4 3 -5 5 -7 7 9 -10 -11 -12
leaf_value=-0.0027431802503767207 0.021306838970631362 -0.010072104611230457 0.0027565290580050237 0.015467412091057939 0.0042921535709244847 -0.0061061701659185577 -0.0094623897004174513 -0.0015024829769117788 -0.00066623703126157435 -0.0054704038549834959 -0.0056560454481191687
leaf_weight=627 600 813 603 549 606 561 528 507 516 582 504
leaf_count=627 600 813 603 549 606 561 528 507 516 582 504
internal_value=-3.04444e-06 -0.00201718 0.00474427 0.00885472 -0.00462504 -0.000699464 -0.00688754 -0.00557246 0.00201899 -0.00363839 -0.00763971
internal_weight=6996 6396 1779 1152 4617 1683 2934 2121 1122 1089 1032
internal_count=6996 6396 1779 1152 4617 1683 2934 2121 1122 1089 1032
cat_boundaries=0 1 2
cat_threshold=516 50
is_linear=0
shrinkage=0.05


Tree=7
num_leaves=12
num_cat=0
split_feature=25 25 21 21 21 26 20 24 26 21 23
split_gain=108.729 37.0879 16.7737 13.95 7.06379 4.8693 4.48705 4.77318 3.55047 2.67305 1.19236
threshold=1.3578159013602129 -0.41001541957912385 0.070619461326914559 -0.0030773989766512068 -0.38630133348150836 -0.53952991180566745 -0.10580330218331807 -0.18474804942272313 -0.1202401579460441 0.78530674642421239 0.32415836412956806
decision_type=2 2 2 2 2 2 2 2 2 2 2
left_child=1 6 3 4 8 -4 -1 -8 -3 -7 -9
right_child=-2 2 5 -5 -6 9 7 10 -10 -11 -12
leaf_value=-0.010850004322273891 0.020710056155770901 0.0063461453036967805 0.0011306448630241332 0.010435507834248016 -0.0031184785613108295 -0.0024036093474335673 -0.0083920597564669016 -0.0049002341812430968 0.001054769510904811 -0.0074597869219335273 -0.0015805421393473172
leaf_weight=515 576 612 501 582 555 552 844 588 657 504 510
leaf_count=515 576 612 501 582 555 552 844 588 657 504 510
internal_value=-3.53491e-06 -0.00187662 0.00111628 0.00373004 0.00156779 -0.00292173 -0.00669646 -0.00556994 0.00362153 -0.00484057 -0.00337246
internal_weight=6996 6420 3963 2406 1824 1557 2457 1942 1269 1056 1098
internal_count=6996 6420 3963 2406 1824 1557 2457 1942 1269 1056 1098
is_linear=0
shrinkage=0.05


Tree=8
num_leaves=11
num_cat=3
split_feature=58 25 24 25 25 24 58 26 58 25
split_gain=106.4 109.384 30.9521 16.1963 7.8078 10.9557 5.28998 2.87363 2.20862 1.5682
threshold=0 0.90947187297468479 -0.28472100615739609 -0.28261331565191067 -0.41001541957912385 0.38206898314497412 1 0.2516592540688124 2 0.039897077458621109
decision_type=1 2 2 2 2 2 1 2 1 2
left_child=1 2 -1 -4 7 6 9 8 -2 -6
right_child=4 -3 3 -5 5 -7 -8 -9 -10 -11
leaf_value=-0.007818341492995165 -0.0056851089038952654 0.027431925631411697 -0.00077451245753203156 0.010430232026430205 -0.00044174135557568662 -0.0083496314944612807 -0.0036979805402953796 -0.0041339406081521961 -0.010323629018946746 0.0034230004327639773
leaf_weight=519 615 570 501 897 507 651 873 624 702 537
leaf_count=519 615 570 501 897 507 651 873 624 702 537
internal_value=-3.32342e-06 0.00827047 0.0025595 0.00642635 -0.00457913 -0.00277189 -0.000860932 -0.00698043 -0.00830837 0.00153833
internal_weight=6996 2487 1917 1398 4509 2568 1917 1941 1317 1044
internal_count=6996 2487 1917 1398 4509 2568 1917 1941 1317 1044
cat_boundaries=0 1 2 3
cat_threshold=518 193 1161
is_linear=0
shrinkage=0.05


Tree=9
num_leaves=11
num_cat=2
split_feature=58 22 22 24 21 58 24 21 24 26
split_gain=96.1315 11.0414 23.2632 7.7787 7.22611 4.15182 4.60269 3.18442 2.93313 1.55619
threshold=0 -0.64448635166247392 -0.00062841288418515398 1.0000000180025095e-35 1.0148996156436396 1 1.0000000180025095e-35 -0.62610191910687674 0.10120951328555342 -0.41818626141800558
decision_type=1 2 2 2 2 1 2 2 2 2
left_child=1 -1 -3 -4 5 6 -2 -7 9 -9
right_child=4 2 3 -5 -6 7 -8 8 -10 -11
leaf_value=0.014458974446051799 -0.0037197707777744844 -0.0023013224004816979 0.01368158761053123 0.0061565924397055157 -0.0099668825416188156 0.00051943144885382476 -0.0096436829555386801 -0.003052572125781815 -0.001075482640442644 -0.006865900143129754
leaf_weight=507 945 573 642 765 507 684 507 513 765 588
leaf_count=507 945 573 642 765 507 684 507 513 765 588
internal_value=-4.56254e-06 0.00785987 0.00617753 0.00962646 -0.00435396 -0.0036422 -0.00577461 -0.00238711 -0.00346383 -0.00511095
internal_weight=6996 2487 1980 1407 4509 4002 1452 2550 1866 1101
internal_count=6996 2487 1980 1407 4509 4002 1452 2550 1866 1101
cat_boundaries=0 1 2
cat_threshold=518 1072
is_linear=0
shrinkage=0.05


Tree=10
num_leaves=11
num_cat=3
split_feature=25 58 24 25 25 21 58 58 26 25
split_gain=87.2444 34.7797 16.4702 14.3254 12.3018 6.66723 4.55058 3.90752 3.0911 2.66121
threshold=1.475849442796991 0 -0.18474804942272313 -0.02165316517023191 -0.049032204730994018 0.25879062798590896 1 2 0.27020480317148138 -0.47265055750780149
decision_type=2 1 2 2 2 2 1 1 2 2
left_child=1 2 -1 -4 7 6 -6 -3 9 -9
right_child=-2 4 3 -5 5 -7 -8 8 -10 -11
leaf_value=-0.0020471708180953545 0.019929911945406751 -0.0088239104890685729 0.0023880856735846272 0.013428362162447789 0.0049794368835239765 -0.0053176902512670271 -0.0011418519834851433 -0.00749896403257839 -0.0017231841145907171 -0.0030517056434833951
leaf_weight=660 504 813 603 573 516 504 702 936 645 540
leaf_count=660 504 813 603 573 516 504 702 936 645 540
internal_value=-4.39902e-06 -0.00156613 0.00424213 0.00780148 -0.00385941 -0.000510325 0.00149254 -0.00583395 -0.00460664 -0.00588771
internal_weight=6996 6492 1836 1176 4656 1722 1218 2934 2121 1476
internal_count=6996 6492 1836 1176 4656 1722 1218 2934 2121 1476
cat_boundaries=0 1 2 3
cat_threshold=516 192 50
is_linear=0
shrinkage=0.05


Tree=11
num_leaves=11
num_cat=2
split_feature=58 25 24 25 25 24 58 25 26 25
split_gain=80.3969 93.3891 26.4737 13.3996 6.48306 10.0123 5.29284 3.80703 3.55257 1.54975
threshold=0 0.90947187297468479 -0.28472100615739609 -0.28261331565191067 -0.6242741957153114 0.38206898314497412 1 -0.87020606946719992 -0.27455680987364206 -2.6020852047512537e-09
decision_type=1 2 2 2 2 2 1 2 2 2
left_child=1 2 -1 -4 7 6 9 -2 -8 -6
right_child=4 -3 3 -5 5 -7 8 -9 -10 -11
leaf_value=-0.0076853797860680865 -0.00449608073522217 0.024890922330588143 -0.0010588839211180924 0.009129572276179854 -0.0058334982489224654 -0.0076445945053675414 -0.0019911046246154198 -0.0099787696677819063 0.0031516892513012299 -0.0019848994887558011
leaf_weight=519 726 570 501 897 501 789 591 579 765 558
leaf_count=519 726 570 501 897 501 789 591 579 765 558
internal_value=-4.13804e-06 0.00718794 0.00191048 0.00548758 -0.0039817 -0.00277312 -0.00116907 -0.00695743 0.000904524 -0.00378887
internal_weight=6996 2487 1917 1398 4509 3204 2415 1305 1356 1059
internal_count=6996 2487 1917 1398 4509 3204 2415 1305 1356 1059
cat_boundaries=0 1 2
cat_threshold=518 1080
is_linear=0
shrinkage=0.05


Tree=12
num_leaves=11
num_cat=1
split_feature=58 25 25 23 21 25 26 21 26 21
split_gain=72.6145 84.3669 10.6261 10.6386 6.44214 8.24265 9.09256 3.52992 2.319 0.552229
threshold=0 0.90947187297468479 -0.39458099784608852 -8.3266717411796588e-08 1.0148996156436396 -0.13019320161903467 0.080983934269017274 -0.3511606614910926 -0.1202401579460441 -0.010427458944051319
decision_type=1 2 2 2 2 2 2 2 2 2
left_child=1 2 -1 -4 5 7 9 -2 -9 -7
right_child=4 -3 3 -5 -6 6 -8 8 -10 -11
leaf_value=-0.0041497682471343207 -0.0024022516236123573 0.023657198502398707 -0.0013989186625416239 0.0075868635729352783 -0.0090814245660794778 0.0013804617354447545 -0.0053590489982399472 -0.0080590053644806689 -0.0040981897406863156 0.0037441891100876063
leaf_weight=534 894 570 534 849 507 501 558 879 669 501
leaf_count=534 894 570 534 849 507 501 558 879 669 501
internal_value=-4.05615e-06 0.00683107 0.001815 0.00412476 -0.0037842 -0.00311206 -0.000270972 -0.00492275 -0.00636596 0.00257505
internal_weight=6996 2487 1917 1383 4509 4002 1560 2442 1548 1002
internal_count=6996 2487 1917 1383 4509 4002 1560 2442 1548 1002
cat_boundaries=0 1
cat_threshold=518
is_linear=0
shrinkage=0.05


Tree=13
num_leaves=11
num_cat=1
split_feature=58 25 24 25 21 25 26 21 24 24
split_gain=65.5852 76.2147 23.2707 11.1159 5.82124 7.44778 7.59722 3.41093 3.23576 2.12134
threshold=0 0.90947187297468479 -0.28472100615739609 -0.28261331565191067 1.0148996156436396 -0.14928850031475496 0.080983934269017274 -0.3511606614910926 -1.0000000180025095e-35 -0.030868135921705338
decision_type=1 2 2 2 2 2 2 2 2 2
left_child=1 2 -1 -4 5 7 8 -2 -7 -9
right_child=4 -3 3 -5 -6 6 -8 9 -10 -11
leaf_value=-0.007271876939471753 -0.0022015154152203614 0.022484624089136641 -0.00088490729491895188 0.0083955139404177214 -0.0086317875920030925 0.0051242702643795046 -0.004872620373982034 -0.0079298306879909703 -0.0005063108239295775 -0.0041590748797372878
leaf_weight=519 879 570 501 897 507 504 573 792 510 744
leaf_count=519 879 570 501 897 507 504 573 792 510 744
internal_value=-3.78836e-06 0.00649208 0.00172452 0.0050784 -0.00359631 -0.00295738 -0.000294517 -0.00470304 0.00230373 -0.00612279
internal_weight=6996 2487 1917 1398 4509 4002 1587 2415 1014 1536
internal_count=6996 2487 1917 1398 4509 4002 1587 2415 1014 1536
cat_boundaries=0 1
cat_threshold=518
is_linear=0
shrinkage=0.05


Tree=14
num_leaves=11
num_cat=2
split_feature=25 19 58 24 25 25 24 21 58 24
split_gain=59.5691 25.9152 29.2945 14.4247 9.80041 8.46088 9.2105 3.30906 2.26094 0.176119
threshold=1.475849442796991 -0.10580322852451288 0 -0.18474804942272313 -0.02165316517023191 -0.049032204730994018 1.0000000180025095e-35 -0.3511606614910926 1 -0.40715441461461371
decision_type=2 2 1 2 2 2 2 2 1 2
left_child=1 -1 3 -3 -5 7 9 -4 -9 -7
right_child=-2 2 5 4 -6 6 -8 8 -10 -11
leaf_value=-0.010484910266319121 0.016468265951654099 -0.00086824260448924444 -0.0016115094152771897 0.0039822956379171942 0.013574970460392841 0.0039843211983247558 -0.0047199845295462358 -0.0034887464537007168 -0.0072705466853452087 0.00258768945346881
leaf_weight=681 504 591 839 533 539 500 550 885 870 504
leaf_count=681 504 591 839 533 539 500 550 885 870 504
internal_value=-3.61513e-06 -0.00129408 -0.000208908 0.00536936 0.00884611 -0.00245611 0.000455179 -0.00420716 -0.00543995 0.00329952
internal_weight=6996 6492 5811 1663 1072 4148 1554 2594 1755 1004
internal_count=6996 6492 5811 1663 1072 4148 1554 2594 1755 1004
cat_boundaries=0 1 2
cat_threshold=516 1096
is_linear=0
shrinkage=0.05


Tree=15
num_leaves=12
num_cat=2
split_feature=58 25 22 21 21 25 58 22 22 25 25
split_gain=54.4493 65.6717 13.6122 10.8814 5.27473 6.15512 6.86189 4.28643 2.35846 2.32586 3.76325
threshold=0 0.90947187297468479 -0.11346842915855189 0.012553047767012125 1.0148996156436396 -0.41001541957912385 1 0.061867254448434592 -0.55650656904766949 -0.87020606946719992 -0.6242741957153114
decision_type=1 2 2 2 2 2 1 2 2 2 2
left_child=1 2 -1 -4 5 9 -7 8 -8 -2 -11
right_child=4 -3 3 -5 -6 6 7 -9 -10 10 -12
leaf_value=-0.0038202810758965473 -0.0025620265866712838 0.02075970596824039 0.009271964781008309 -0.00033708629217284603 -0.0080693533052908616 0.003474225631386994 -0.0031842948907062326 -0.0061577862177901637 0.0015762914187594582 -0.0093109853055802529 -0.0033956284525552467
leaf_weight=738 693 570 630 549 507 627 501 561 531 528 561
leaf_count=738 693 570 630 549 507 627 501 561 531 528 561
internal_value=-3.76883e-06 0.00591499 0.00148933 0.00481499 -0.00327712 -0.00266888 -0.000908411 -0.00264407 -0.000739017 -0.00485337 -0.00629313
internal_weight=6996 2487 1917 1179 4509 4002 2220 1593 1032 1782 1089
internal_count=6996 2487 1917 1179 4509 4002 2220 1593 1032 1782 1089
cat_boundaries=0 1 2
cat_threshold=518 64
is_linear=0
shrinkage=0.05


Tree=16
num_leaves=11
num_cat=3
split_feature=58 58 21 21 21 58 23 26 22 26
split_gain=49.1825 12.1818 19.1763 9.56636 4.76631 3.36387 2.18597 2.17186 1.87919 1.56749
threshold=0 1 -0.31881733951449126 0.32673825350153862 1.0148996156436396 2 -0.69746096983659667 -0.21553989306255397 0.061867254448434592 -0.7468220868742349
decision_type=1 1 2 2 2 1 2 2 2 2
left_child=1 -1 -3 -4 5 6 -2 9 -7 -8
right_child=4 2 3 -5 -6 8 7 -9 -10 -11
leaf_value=0.0099968857091669253 0.0012873390815071729 -0.005081161266436927 0.011554410239338009 0.0018283575987434126 -0.0076698256622876222 -0.0030851819575864817 -0.0016901349338239941 -0.00041527410690096842 -0.0068445266495283296 -0.0055478552404491649
leaf_weight=966 573 510 510 501 507 921 504 912 531 561
leaf_count=966 573 510 510 501 507 921 504 912 531 561
internal_value=-3.39488e-06 0.00562183 0.0027727 0.00676739 -0.00311441 -0.00253622 -0.00141797 -0.00221048 -0.00444822 -0.00373866
internal_weight=6996 2487 1521 1011 4509 4002 2550 1977 1452 1065
internal_count=6996 2487 1521 1011 4509 4002 2550 1977 1452 1065
cat_boundaries=0 1 2 3
cat_threshold=518 6 201
is_linear=0
shrinkage=0.05


Tree=17
num_leaves=12
num_cat=2
split_feature=25 19 58 24 25 25 24 58 25 25 24
split_gain=48.4371 23.0432 21.9216 12.475 8.19516 6.79898 7.89455 2.64239 2.31573 0.779179 0.259222
threshold=1.475849442796991 -0.10580322852451288 0 -0.18474804942272313 -0.02165316517023191 -0.049032204730994018 1.0000000180025095e-35 1 -0.52252999042587234 -0.71688098202960526 -0.40715441461461371
decision_type=2 2 1 2 2 2 2 1 2 2 2
left_child=1 -1 3 -3 -5 7 10 9 -9 -4 -7
right_child=-2 2 5 4 -6 6 -8 8 -10 -11 -12
leaf_value=-0.0098329720329683352 0.014850534152767662 -0.0011180943626232271 -0.00074968681286951015 0.0034683600407384588 0.012237368199096049 0.0039726388858317739 -0.0042691477236279233 -0.0077629025150401281 -0.0033827679116598779 -0.0031646580995252764 0.0023137553970554517
leaf_weight=681 504 591 612 533 539 500 550 554 687 741 504
leaf_count=681 504 591 612 533 539 500 550 554 687 741 504
internal_value=-2.71356e-06 -0.00116637 -0.00014314 0.00468219 0.00791375 -0.00208725 0.000522455 -0.00365669 -0.00531874 -0.00206388 0.00315548
internal_weight=6996 6492 5811 1663 1072 4148 1554 2594 1241 1353 1004
internal_count=6996 6492 5811 1663 1072 4148 1554 2594 1241 1353 1004
cat_boundaries=0 1 2
cat_threshold=516 1097
is_linear=0
shrinkage=0.05


Tree=18
num_leaves=11
num_cat=1
split_feature=25 19 58 24 25 21 24 25 25 21
split_gain=43.7582 20.813 19.8025 11.2695 7.40326 6.57422 4.82669 7.32918 3.62109 2.76874
threshold=1.475849442796991 -0.10580322852451288 0 -0.18474804942272313 -0.02165316517023191 -0.3511606614910926 0.5183989853552734 -0.14928850031475496 -0.42156240253472127 0.19578204454364859
decision_type=2 2 1 2 2 2 2 2 2 2
left_child=1 -1 3 -3 -5 8 7 9 -4 -7
right_child=-2 2 5 4 -6 6 -8 -9 -10 -11
leaf_value=-0.0093449068915352779 0.014115301359761396 -0.0010626587158869079 -0.0022519203750141345 0.0032965536554755998 0.011631123505332439 -0.0072510554023702423 -0.0071126429305788663 0.0012525608612035978 0.0030709526169694717 -0.0025500980295310154
leaf_weight=681 504 591 531 533 539 561 650 898 787 721
leaf_count=681 504 591 531 533 539 561 650 898 787 721
internal_value=-2.34357e-06 -0.00110837 -0.000135916 0.00445026 0.00752171 -0.00198367 -0.00334504 -0.00220797 0.000926051 -0.0046274
internal_weight=6996 6492 5811 1663 1072 4148 2830 2180 1318 1282
internal_count=6996 6492 5811 1663 1072 4148 2830 2180 1318 1282
cat_boundaries=0 1
cat_threshold=516
is_linear=0
shrinkage=0.05


Tree=19
num_leaves=11
num_cat=2
split_feature=19 58 58 26 24 24 23 26 23 23
split_gain=39.0124 57.449 15.6379 16.8879 7.21157 3.2025 4.40816 5.65734 1.82863 1.32031
threshold=-0.10580322852451288 0 1 -0.0061491089822968926 0.5183989853552734 -0.030868135921705338 -0.44058573513680227 0.23937195628920352 0.071503031169986381 -0.047459665374489639
decision_type=2 1 1 2 2 2 2 2 2 2
left_child=-1 2 -2 -4 5 6 7 -3 -7 -8
right_child=1 4 3 -5 -6 8 9 -9 -10 -11
leaf_value=-0.010690431166978728 0.012925994126034091 0.0029409090456819671 -0.0010476847387385273 0.010052600368212462 -0.006557687809710968 0.0030733255271524268 -0.0065123463083456914 -0.0040880409700167911 -0.0011144366157664494 -0.002890062537141757
leaf_weight=756 870 638 712 654 790 534 505 511 501 525
leaf_count=756 870 638 712 654 790 534 505 511 501 525
internal_value=-2.09089e-06 0.00130037 0.00769124 0.00425306 -0.00228719 -0.00123605 -0.00232209 -0.000189276 0.00105059 -0.00468892
internal_weight=6996 6240 2236 1366 4004 3214 2179 1149 1035 1030
internal_count=6996 6240 2236 1366 4004 3214 2179 1149 1035 1030
cat_boundaries=0 1 2
cat_threshold=518 6
is_linear=0
shrinkage=0.05


Tree=20
num_leaves=10
num_cat=1
split_feature=25 19 58 25 24 25 21 24 24
split_gain=38.688 16.3905 17.1526 15.7892 9.85492 9.21854 7.62894 5.71784 3.79834
threshold=1.475849442796991 -0.10580322852451288 0 -0.42156240253472127 -0.3354404349289693 0.086257100468564787 -0.61554131978731019 0.38919774944172342 -0.022499352978729476
decision_type=2 2 1 2 2 2 2 2 2
left_child=1 -1 3 -3 -5 -6 -4 8 -8
right_child=-2 2 6 4 5 -7 7 -9 -10
leaf_value=-0.00835044148732581 0.013273375549798279 -0.002618029689043374 0.001673390818147151 0.00045919028648570208 0.011669743980663918 0.0027690741204652995 -0.0048927651973592161 -0.0088288996408022388 -0.00017094842515553922
leaf_weight=681 504 959 709 686 698 503 987 522 747
leaf_count=681 504 959 709 686 698 503 987 522 747
internal_value=-1.20276e-06 -0.00104118 -0.000178158 0.00258792 0.00524726 0.00796892 -0.00283228 -0.00426139 -0.00286497
internal_weight=6996 6492 5811 2846 1887 1201 2965 2256 1734
internal_count=6996 6492 5811 2846 1887 1201 2965 2256 1734
cat_boundaries=0 1
cat_threshold=580
is_linear=0
shrinkage=0.05


Tree=21
num_leaves=11
num_cat=2
split_feature=25 25 58 21 22 21 23 58 26 26
split_gain=34.9511 13.5009 14.2378 9.86213 11.2991 6.5028 4.7584 3.2146 2.34781 4.66116
threshold=1.475849442796991 -0.41001541957912385 0 0.35530889733633431 -0.074538807433766299 -0.61554131978731019 1.0000000180025095e-35 1 0.27020480317148138 -0.40189242911174849
decision_type=2 2 1 2 2 2 2 1 2 2
left_child=1 7 3 4 -3 -4 -7 -1 9 -9
right_child=-2 2 5 -5 -6 6 -8 8 -10 -11
leaf_value=-0.0069004121038214253 0.012616226172407683 0.0018004057246516552 0.0025726801284122304 -0.0014249657228214258 0.010701931892301425 -0.0015548458482115832 -0.0073742626773093418 -0.0013110574999410747 -4.9320202329383305e-05 -0.00747648857463521
leaf_weight=654 504 762 507 651 669 846 600 717 552 534
leaf_count=654 504 762 507 651 669 846 600 717 552 534
internal_value=-9.64651e-07 -0.000989443 0.000790061 0.00365247 0.00598469 -0.00227002 -0.00398663 -0.0039075 -0.00275241 -0.00396211
internal_weight=6996 6492 4035 2082 1431 1953 1446 2457 1803 1251
internal_count=6996 6492 4035 2082 1431 1953 1446 2457 1803 1251
cat_boundaries=0 1 2
cat_threshold=580 54
is_linear=0
shrinkage=0.05


Tree=22
num_leaves=10
num_cat=0
split_feature=19 25 25 21 25 24 25 26 26
split_gain=33.0592 55.8259 10.864 5.92292 5.84152 4.37414 3.22673 2.5435 3.5997
threshold=-0.10580322852451288 1.3201287114751368 -0.41001541957912385 0.38083219158840942 -0.02165316517023191 1.0000000180025095e-35 0.016261874072403617 -0.40811922005593643 0.2516592540688124
decision_type=2 2 2 2 2 2 2 2 2
left_child=-1 2 7 4 -4 6 -6 -2 -9
right_child=1 -3 3 -5 5 -7 -8 8 -10
leaf_value=-0.0098404438761411708 -0.00077457936193540435 0.016867035789028231 -0.00061986820630796776 -0.0018824528362389892 0.0090213750641893117 0.00056870963024678372 0.0037533593926958285 -0.0068292166737455064 -0.0016768955173819872
leaf_weight=756 797 516 877 961 516 525 687 698 663
leaf_count=756 797 516 877 961 516 525 687 698 663
internal_value=-1.35214e-06 0.00119762 -0.000228419 0.00146561 0.00270197 0.00438481 0.00604094 -0.00302465 -0.00433463
internal_weight=6996 6240 5724 3566 2605 1728 1203 2158 1361
internal_count=6996 6240 5724 3566 2605 1728 1203 2158 1361
is_linear=0
shrinkage=0.05


Tree=23
num_leaves=11
num_cat=2
split_feature=58 58 20 26 25 25 20 21 24 25
split_gain=32.7549 8.67425 17.3784 14.5406 6.58948 11.8884 5.6788 4.33152 2.67815 2.10062
threshold=0 1 -0.10580330218331807 0.64189828726148523 0.091111800310900493 -0.25444575912704087 -1.0000000180025095e-35 0.46486988315557703 -0.022499352978729476 -0.33145553912306736
decision_type=1 1 2 2 2 2 2 2 2 2
left_child=-1 2 -2 4 5 -4 -3 8 9 -8
right_child=1 6 3 -5 -6 -7 7 -9 -10 -11
leaf_value=0.0084735986852420789 -0.0074302100782899366 0.00082752457654039664 -0.0017270609905845839 0.0097952952100472026 -0.0037066515839824484 0.0079897463028006498 -0.0072175636441801083 -0.0083571856452187981 -0.0010356711831798022 -0.0027035951935847329
leaf_weight=966 553 661 731 512 655 546 502 534 792 544
leaf_count=966 553 661 731 512 655 546 502 534 792 544
internal_value=-9.77884e-07 -0.00137625 0.000532189 0.00234749 0.000353559 0.00244246 -0.00325538 -0.0044062 -0.00323875 -0.00489399
internal_weight=6996 6030 2997 2444 1932 1277 3033 2372 1838 1046
internal_count=6996 6030 2997 2444 1932 1277 3033 2372 1838 1046
cat_boundaries=0 1 2
cat_threshold=6 577
is_linear=0
shrinkage=0.05


Tree=24
num_leaves=11
num_cat=2
split_feature=58 19 20 58 26 25 25 22 24 25
split_gain=29.6058 10.1281 14.7149 14.2785 11.4916 11.6326 13.5887 2.90839 2.90483 0.332448
threshold=0 -0.10580322852451288 -1.0000000180025095e-35 1 0.65956194820811997 0.051567855459644693 -0.25775594997545742 0.045126555507604145 -0.068120251594519177 -0.30705593848004958
decision_type=1 2 2 1 2 2 2 2 2 2
left_child=-1 -2 -3 4 5 6 -4 8 -5 -9
right_child=1 2 3 7 -6 -7 -8 9 -10 -11
leaf_value=0.0080563972943588687 -0.0071310257352538466 0.0064596880722673656 -0.0020868280390587946 -0.004707871063102307 0.0077629221531167192 -0.0058999232363707403 0.0084955474129688527 -0.0053737952996030626 0.00015358099276677951 -0.0073973830422596355
leaf_weight=966 660 646 745 781 508 679 505 501 504 501
leaf_count=966 660 646 745 781 508 679 505 501 504 501
internal_value=-5.05625e-07 -0.001308 -0.000588788 -0.00155847 0.00110703 -0.000655605 0.00220527 -0.00438073 -0.00280792 -0.0064173
internal_weight=6996 6030 5370 4724 2437 1929 1250 2287 1285 1002
internal_count=6996 6030 5370 4724 2437 1929 1250 2287 1285 1002
cat_boundaries=0 1 2
cat_threshold=6 1600
is_linear=0
shrinkage=0.05


Tree=25
num_leaves=11
num_cat=2
split_feature=19 58 20 58 26 24 24 24 26 21
split_gain=27.7234 41.6377 13.2905 12.9544 9.18481 3.91646 5.87264 2.55818 1.79257 1.71222
threshold=-0.10580322852451288 0 -1.0000000180025095e-35 1 -0.02455122297832742 0.38919774944172342 -0.022499352978729476 -0.27133210082863796 0.073540066102826679 0.0049989000430625515
decision_type=2 1 2 1 2 2 2 2 2 2
left_child=-1 -2 -3 4 7 6 8 -4 -5 -6
right_child=1 2 3 5 9 -7 -8 -9 -10 -11
leaf_value=-0.0090101142012503164 0.011145864647123693 0.0061391844362672851 -0.0043524723848384021 -0.0032828713498662359 0.0064769750671755336 -0.0079168121596076575 0.00095158003378881446 0.0002745323355418433 -0.0070791867095660148 0.0024489072956423844
leaf_weight=756 870 646 527 754 565 506 637 680 546 509
leaf_count=756 870 646 527 754 565 506 637 680 546 509
internal_value=3.5422e-08 0.00109799 -0.00055843 -0.00148102 0.0012296 -0.00399793 -0.00297704 -0.00175533 -0.00489834 0.00458815
internal_weight=6996 6240 5370 4724 2281 2443 1937 1207 1300 1074
internal_count=6996 6240 5370 4724 2281 2443 1937 1207 1300 1074
cat_boundaries=0 1 2
cat_threshold=6 576
is_linear=0
shrinkage=0.05


Tree=26
num_leaves=11
num_cat=2
split_feature=25 25 58 21 25 22 58 23 26 25
split_gain=27.1453 9.39059 10.8724 7.78193 4.53144 3.33533 3.05625 2.01009 1.12605 0.95239
threshold=1.3578159013602129 -0.41001541957912385 0 0.78530674642421239 -0.02165316517023191 -0.10153860025056029 1 -0.2826075760971743 -4.163336106467068e-08 -0.70723354916957515
decision_type=2 2 1 2 2 2 1 2 2 2
left_child=1 6 3 4 -3 -6 -1 -8 -4 -9
right_child=-2 2 8 -5 5 -7 7 9 -10 -11
leaf_value=-0.0064003589004296745 0.010350448854661125 0.00078532581010956723 -0.0014630225855517829 -0.0030952708509377784 0.0029211270066973626 0.0079344336000901124 -0.0044660550643011989 -0.0023410374266001023 -0.0045104800602084093 0.00051383599667016808
leaf_weight=612 576 837 522 522 663 678 675 636 741 534
leaf_count=612 576 837 522 522 663 678 675 636 741 534
internal_value=6.79543e-07 -0.00093523 0.00057075 0.00235748 0.00367924 0.00547588 -0.00336052 -0.00229063 -0.00323617 -0.0010414
internal_weight=6996 6420 3963 2700 2178 1341 2457 1845 1263 1170
internal_count=6996 6420 3963 2700 2178 1341 2457 1845 1263 1170
cat_boundaries=0 1 2
cat_threshold=709 38
is_linear=0
shrinkage=0.05


Tree=27
num_leaves=10
num_cat=0
split_feature=19 22 22 21 22 22 26 24 24
split_gain=24.9655 18.0191 11.8929 5.63921 4.97953 5.72408 5.10123 2.6111 4.81796
threshold=-0.10580322852451288 -1.1853089998986313 1.2294140992166696 0.070619461326914559 -0.10153860025056029 0.027650938222130887 0.11598709340296114 -0.21112500843035337 0.44637804462973968
decision_type=2 2 2 2 2 2 2 2 2
left_child=-1 -2 3 4 6 -6 -3 -5 -9
right_child=1 2 -4 7 5 -7 -8 8 -10
leaf_value=-0.0085500625452212143 0.0095084840150047659 -0.003566510015527906 0.0071012259527390128 -0.0050100730361029699 0.0062761923346411567 0.00017197710136309448 0.0024756168194680077 0.001506702750423011 -0.0044378052311040443
leaf_weight=756 566 917 556 715 662 906 558 724 636
leaf_count=756 566 917 556 715 662 906 558 724 636
internal_value=1.96624e-07 0.00104211 0.000189933 -0.000567081 0.000803262 0.0027609 -0.0012801 -0.0025738 -0.0012793
internal_weight=6996 6240 5674 5118 3043 1568 1475 2075 1360
internal_count=6996 6240 5674 5118 3043 1568 1475 2075 1360
is_linear=0
shrinkage=0.05


Tree=28
num_leaves=10
num_cat=0
split_feature=25 19 25 21 25 26 26 26 26
split_gain=24.0365 8.54649 8.04079 6.49601 4.96153 3.33759 4.21064 2.59164 2.7187
threshold=1.475849442796991 -0.10580322852451288 -0.41001541957912385 0.9311913399295072 0.58446448900359638 -0.69122358376664528 0.2516592540688124 -0.40811922005593643 0.2516592540688124
decision_type=2 2 2 2 2 2 2 2 2
left_child=1 -1 7 4 5 -4 -7 -3 -9
right_child=-2 2 3 -5 -6 6 -8 8 -10
leaf_value=-0.006097395281281435 0.010463670328852294 -0.00034451054503788193 -0.0021871092981066514 -0.0040172347479030552 0.0064557004123371193 0.0035544759118660732 -0.0014480092047346555 -0.0061030056054179284 -0.0016232533316735476
leaf_weight=681 504 797 572 503 532 1459 587 698 663
leaf_count=681 504 797 572 503 532 1459 587 698 663
internal_value=3.82303e-07 -0.000819352 -0.0001961 0.00123306 0.00207648 0.00117597 0.00211923 -0.0026126 -0.00393466
internal_weight=6996 6492 5811 3653 3150 2618 2046 2158 1361
internal_count=6996 6492 5811 3653 3150 2618 2046 2158 1361
is_linear=0
shrinkage=0.05


Tree=29
num_leaves=9
num_cat=2
split_feature=58 24 58 21 21 20 22 22
split_gain=22.9949 7.50345 7.12628 9.0345 11.5336 5.03576 2.81395 3.85326
threshold=0 1.1300624546053968 1 -0.20536466401784154 0.25101697997473427 -1.0000000180025095e-35 0.045126555507604145 -0.56715016419339459
decision_type=1 2 1 2 2 2 2 2
left_child=-1 2 3 -2 -5 -4 7 -7
right_child=1 -3 5 4 -6 6 -8 -9
leaf_value=0.0071009236247529216 -0.0024290364643329652 -0.0067162127359330775 0.0016568942696713433 0.0088763013101782473 0.00015198660036822015 -0.0051751283295334875 -0.00541732283100399 0.00028105146571055453
leaf_weight=966 972 546 637 633 933 529 960 820
leaf_count=966 972 546 637 633 933 529 960 820
internal_value=3.15158e-07 -0.00115199 -0.000594492 0.00134449 0.00369551 -0.00226128 -0.00335323 -0.00186976
internal_weight=6996 6030 5484 2538 1566 2946 2309 1349
internal_count=6996 6030 5484 2538 1566 2946 2309 1349
cat_boundaries=0 1 2
cat_threshold=6 576
is_linear=0
shrinkage=0.05


Tree=30
num_leaves=9
num_cat=0
split_feature=25 19 25 21 25 24 23 25
split_gain=21.6925 7.96746 7.29971 5.75875 4.17745 4.09702 3.66239 2.83134
threshold=1.475849442796991 -0.10580322852451288 -0.6242741957153114 0.78530674642421239 0.58446448900359638 -0.56725143251985977 -0.068369809813384669 -0.88108929188436103
decision_type=2 2 2 2 2 2 2 2
left_child=1 -1 7 4 5 -4 -7 -3
right_child=-2 2 3 -5 -6 6 -8 -9
leaf_value=-0.0058741011931779854 0.0099407581298672446 -0.0010203296965254206 -0.0024016499303764218 -0.0031286334422848776 0.0058537420898141651 -0.00067667773800909816 0.0033627569339197954 -0.0055062840676160848
leaf_weight=681 504 695 697 757 504 867 1578 713
leaf_count=681 504 695 697 757 504 867 1578 713
internal_value=7.46858e-07 -0.000777992 -0.000176235 0.000826397 0.00165072 0.000968295 0.00193191 -0.00330343
internal_weight=6996 6492 5811 4403 3646 3142 2445 1408
internal_count=6996 6492 5811 4403 3646 3142 2445 1408
is_linear=0
shrinkage=0.05


Tree=31
num_leaves=11
num_cat=1
split_feature=19 25 58 25 21 22 23 25 21 22
split_gain=20.5364 39.1246 7.98087 7.47597 5.2794 3.79674 2.82625 3.74064 1.60468 1.32375
threshold=-0.10580322852451288 1.3201287114751368 0 -0.22610736033054898 0.38083219158840942 -0.074538807433766299 -0.22172913770122349 -0.65319739414878131 -0.31131934692187491 2.0816681122028501e-08
decision_type=2 2 1 2 2 2 2 2 2 2
left_child=-1 2 8 6 5 -5 -4 -8 -2 -10
right_child=1 -3 3 4 -6 -7 7 -9 9 -11
leaf_value=-0.0077540756045897594 -0.00085434784596361739 0.014063492357072147 -0.003458481032771988 0.002247991363388015 -0.00091319527372133 0.0074166433114738585 -0.002467911957298962 0.0029234102021060814 -0.0026441974575900471 -0.0061222134476986547
leaf_weight=756 500 516 813 749 581 682 621 657 604 517
leaf_count=756 500 516 813 749 581 682 621 657 604 517
internal_value=7.29159e-07 0.00094571 -0.000248058 0.000926769 0.00310118 0.00472857 -0.00116348 0.000304275 -0.00320144 -0.00426831
internal_weight=6996 6240 5724 4103 2012 1431 2091 1278 1621 1121
internal_count=6996 6240 5724 4103 2012 1431 2091 1278 1621 1121
cat_boundaries=0 1
cat_threshold=1074
is_linear=0
shrinkage=0.05


Tree=32
num_leaves=11
num_cat=2
split_feature=58 25 21 25 21 58 26 25 23 21
split_gain=20.1561 8.3789 6.53707 15.129 6.54927 2.88683 2.25934 1.74959 1.23745 0.611641
threshold=0 0.97774704396068046 0.056829111233313079 -0.02165316517023191 -0.17816085235588744 1 0.31849350489634581 -0.68904096610961141 0.027177762472186891 0.63691648034207315
decision_type=1 2 2 2 2 1 2 2 2 2
left_child=-1 2 3 6 -5 8 7 -2 -4 -10
right_child=1 -3 5 4 -6 -7 -8 -9 9 -11
leaf_value=0.0066486501681882323 -0.00047153752693702701 -0.0063876339344144592 -0.0030075884438906866 0.002308061069319153 0.0097530074233995387 -0.0055240739146433446 0.0010988736550565186 -0.0041774071884245227 0.00093232718721321492 -0.0015084192387803343
leaf_weight=966 507 657 705 720 501 561 504 858 510 507
leaf_count=966 507 657 705 720 501 561 504 858 510 507
internal_value=7.79708e-07 -0.00107806 -0.000425484 0.00107307 0.00539018 -0.00245167 -0.00175411 -0.00280769 -0.00139755 -0.000285873
internal_weight=6996 6030 5373 3090 1221 2283 1869 1365 1722 1017
internal_count=6996 6030 5373 3090 1221 2283 1869 1365 1722 1017
cat_boundaries=0 1 2
cat_threshold=6 712
is_linear=0
shrinkage=0.05


Tree=33
num_leaves=10
num_cat=2
split_feature=19 58 20 58 26 26 26 21 23
split_gain=18.3441 30.8725 11.8655 9.06832 9.71004 5.66386 6.08973 2.87978 1.99024
threshold=-0.10580322852451288 0 -1.0000000180025095e-35 1 0.73685082784986589 0.00024439982429597329 -0.31234992133764938 -0.54376934990624182 -0.087539965703948744
decision_type=2 1 2 1 2 2 2 2 2
left_child=-1 -2 -3 4 5 6 -4 -5 -9
right_child=1 2 3 7 -6 -7 -8 8 -10
leaf_value=-0.0073284015497596597 0.0095460113874883401 0.0057962308205643954 -0.0015028766735509782 -0.00095460639713821542 0.0066659606929204002 -0.0052439019347128111 0.0050073477719286951 -0.0076689788104605198 -0.0037353713428312525
leaf_weight=756 870 646 1157 562 508 569 515 516 897
leaf_count=756 870 646 1157 562 508 569 515 516 897
internal_value=8.0907e-07 0.000893928 -0.000532153 -0.00140389 0.000458436 -0.00095838 0.000511317 -0.00397292 -0.00519382
internal_weight=6996 6240 5370 4724 2749 2241 1672 1975 1413
internal_count=6996 6240 5370 4724 2749 2241 1672 1975 1413
cat_boundaries=0 1 2
cat_threshold=6 1608
is_linear=0
shrinkage=0.05


Tree=34
num_leaves=12
num_cat=3
split_feature=25 58 25 26 21 22 58 58 24 25 26
split_gain=17.6414 7.21789 7.90797 7.58203 5.53586 5.8998 4.70373 2.51832 1.98828 1.24022 1.06142
threshold=1.3578159013602129 0 -0.59581861655501822 -0.91164025600126719 0.78530674642421239 -0.10153860025056029 1 2 0.16472315253096351 -0.87020606946719992 -4.163336106467068e-08
decision_type=2 1 2 2 2 2 1 1 2 2 2
left_child=1 8 9 -4 5 6 -5 -7 10 -3 -1
right_child=-2 2 3 4 -6 7 -8 -9 -10 -11 -12
leaf_value=-0.00069712536682038704 0.0083449992037052858 -0.0015355513334592305 0.0070258173905660528 -0.0041526044184203503 -0.0038866529156258104 0.0067041104673009324 0.0021075459891900183 0.0017583692840432649 -0.0060527555757781144 -0.0046897979608680543 -0.003587115830360939
leaf_weight=552 576 651 531 543 561 534 636 540 513 606 753
leaf_count=552 576 651 531 543 561 534 636 540 513 606 753
internal_value=1.47117e-06 -0.000753019 0.000304205 0.00157531 0.000536171 0.00164363 -0.000798261 0.00431553 -0.00340571 -0.00306877 -0.00237201
internal_weight=6996 6420 4602 3345 2814 2253 1179 1074 1818 1257 1305
internal_count=6996 6420 4602 3345 2814 2253 1179 1074 1818 1257 1305
cat_boundaries=0 1 2 3
cat_threshold=1074 524 516
is_linear=0
shrinkage=0.05


Tree=35
num_leaves=11
num_cat=2
split_feature=19 25 58 25 26 26 26 24 58 25
split_gain=16.5847 33.4242 6.36479 5.7236 4.07504 5.60402 3.07213 2.81909 2.56916 2.16865
threshold=-0.10580322852451288 1.3201287114751368 0 -0.2126852349722769 0.080983934269017274 -0.37427416970256205 -0.068598645996203939 -0.56052540071812684 1 -0.59581861655501822
decision_type=2 2 1 2 2 2 2 2 1 2
left_child=-1 2 6 7 5 -5 -2 -4 9 -9
right_child=1 -3 3 4 -6 -7 -8 8 -10 -11
leaf_value=-0.0069669700199338882 -0.00025867921745141402 0.012975679693346748 -0.0041553332993099681 0.0017166659852138047 -0.00051765003992713065 0.0084163007416433611 -0.0049708408517514877 -0.0039651670827246877 0.0022431107352855867 0.00059603396747088828
leaf_weight=756 570 516 531 821 662 502 877 501 725 535
leaf_count=756 570 516 531 821 662 502 877 501 725 535
internal_value=1.90371e-06 0.000851112 -0.000252249 0.000719451 0.0026833 0.0042809 -0.00310056 -0.000980354 -1.39379e-05 -0.00160277
internal_weight=6996 6240 5724 4277 1985 1323 1447 2292 1761 1036
internal_count=6996 6240 5724 4277 1985 1323 1447 2292 1761 1036
cat_boundaries=0 1 2
cat_threshold=50 196
is_linear=0
shrinkage=0.05


Tree=36
num_leaves=11
num_cat=2
split_feature=58 25 21 25 21 25 25 26 23 58
split_gain=16.1038 9.56362 5.68988 12.5212 5.61535 2.20206 3.23244 2.06 1.84594 1.20501
threshold=0 0.97774704396068046 0.056829111233313079 -0.02165316517023191 -0.17816085235588744 -0.02165316517023191 -0.68904096610961141 0.2516592540688124 0.2236990595725997 1
decision_type=1 2 2 2 2 2 2 2 2 1
left_child=-1 2 3 7 -5 6 -4 9 -8 -2
right_child=1 -3 5 4 -6 -7 8 -9 -10 -11
leaf_value=0.0059442945508709774 -0.0043303803618376458 -0.0066343097555647355 -0.0041681174581291239 0.0022058397993888978 0.0091004021465893384 -0.0045123523823927683 -0.0015690354738101889 0.0011176702742008375 0.0026345298913327151 -0.0012043221443179134
leaf_weight=966 528 657 561 720 501 687 519 552 516 789
leaf_count=966 528 657 561 720 501 687 519 552 516 789
internal_value=2.15129e-06 -0.000962166 -0.000264853 0.00113309 0.00506039 -0.00215528 -0.00112976 -0.00143924 0.000529246 -0.0025111
internal_weight=6996 6030 5373 3090 1221 2283 1596 1869 1035 1317
internal_count=6996 6030 5373 3090 1221 2283 1596 1869 1035 1317
cat_boundaries=0 1 2
cat_threshold=6 208
is_linear=0
shrinkage=0.05


Tree=37
num_leaves=10
num_cat=1
split_feature=25 20 58 25 25 21 26 23 25
split_gain=15.3284 4.53461 8.56518 4.74571 7.505 4.1646 2.82263 2.22923 0.730602
threshold=0.87012567497381643 -0.10580330218331807 0 0.11035011085647105 -0.20467732906837857 -0.55122784523486501 0.080983934269017274 -0.15835351933173777 -0.21957214945890596
decision_type=2 2 1 2 2 2 2 2 2
left_child=1 7 3 4 6 -4 -3 -1 -7
right_child=-2 2 5 -5 -6 8 -8 -9 -10
leaf_value=-0.0014006920571462756 0.005853611357984196 -0.0010006127218433606 0.0012194701182250776 -0.0026041657918708903 0.0068446455138651543 -0.0050274876361567373 0.0033756827919429796 -0.0059556105005172779 -0.0028616236955914874
leaf_weight=504 960 994 515 556 694 789 579 580 825
leaf_count=504 960 994 515 556 694 789 579 580 825
internal_value=2.02243e-06 -0.000932722 -0.000290012 0.00151348 0.00253354 -0.0026739 0.000615834 -0.00385398 -0.00393266
internal_weight=6996 6036 4952 2823 2267 2129 1573 1084 1614
internal_count=6996 6036 4952 2823 2267 2129 1573 1084 1614
cat_boundaries=0 1
cat_threshold=1612
is_linear=0
shrinkage=0.05


Tree=38
num_leaves=10
num_cat=0
split_feature=20 25 22 24 24 25 23 21 21
split_gain=14.0031 27.2572 8.44542 6.41038 4.1206 3.67689 3.00913 3.40711 1.93853
threshold=-0.10580330218331807 0.87012567497381643 -0.29911517978729768 -0.36562882517793993 1.0000000180025095e-35 -0.013385490062774471 0.46409627349064286 -0.016084447235312122 -0.3511606614910926
decision_type=2 2 2 2 2 2 2 2 2
left_child=2 3 -1 8 5 -5 7 -6 -2
right_child=1 -3 -4 4 6 -7 -8 -9 -10
leaf_value=0.00027806370338357371 -0.0009999456809462032 0.0099466223681727549 -0.0079446534801290852 0.00060722331847263503 0.00063446096056542093 0.0057807217875782118 0.0015987345572713915 -0.0049157264414832541 -0.0045557377271639382
leaf_weight=518 708 746 780 731 529 645 927 572 840
leaf_count=518 708 746 780 731 529 645 927 572 840
internal_value=1.86576e-06 0.00107035 -0.00467469 -0.000275515 0.000937763 0.00304445 -0.000495598 -0.0022582 -0.0029379
internal_weight=6996 5698 1298 4952 3404 1376 2028 1101 1548
internal_count=6996 5698 1298 4952 3404 1376 2028 1101 1548
is_linear=0
shrinkage=0.05


Tree=39
num_leaves=10
num_cat=2
split_feature=58 25 21 25 21 58 26 25 21
split_gain=14.096 10.7347 4.56241 10.5976 4.76702 2.12303 1.76155 1.87581 1.17744
threshold=0 0.97774704396068046 0.056829111233313079 -0.02165316517023191 -0.17816085235588744 1 0.31849350489634581 -0.68904096610961141 0.55713929094599079
decision_type=1 2 2 2 2 1 2 2 2
left_child=-1 2 3 6 -5 8 7 -2 -4
right_child=1 -3 5 4 -6 -7 -8 -9 -10
leaf_value=0.0055611711552739952 0.00020480586255806622 -0.0069095776886418971 -0.0023660696512815774 0.0020727034840604358 0.008425663530799191 -0.0044859304932331496 0.0012409034179931512 -0.0036251700759281011 0.00025090708156504029
leaf_weight=966 507 657 795 720 501 561 504 858 927
leaf_count=966 507 657 795 720 501 561 504 858 927
internal_value=1.78783e-06 -0.000900412 -0.000161557 0.00109016 0.00470318 -0.00185442 -0.00127644 -0.00220705 -0.000955101
internal_weight=6996 6030 5373 3090 1221 2283 1869 1365 1722
internal_count=6996 6030 5373 3090 1221 2283 1869 1365 1722
cat_boundaries=0 1 2
cat_threshold=6 712
is_linear=0
shrinkage=0.05


Tree=40
num_leaves=10
num_cat=2
split_feature=25 58 25 26 21 22 22 58 26
split_gain=13.3052 5.8018 4.83291 7.14071 5.29626 6.06727 4.59323 2.75356 2.15886
threshold=1.475849442796991 0 -0.59581861655501822 -0.91164025600126719 0.78530674642421239 -0.65703392995680809 0.013981786614127771 1 -0.068598645996203939
decision_type=2 1 2 2 2 2 2 1 2
left_child=1 8 7 -4 5 -5 -7 -3 -1
right_child=-2 2 3 4 -6 6 -8 -9 -10
leaf_value=-0.00099073798134713051 0.0077865158171120351 0.00036514397883528421 0.0064826929846274819 -0.0029835535785372055 -0.0039443077428052819 0.0053004811612497749 0.00015511005835854963 -0.004111201444555959 -0.004696107427225123
leaf_weight=666 504 600 546 597 588 903 831 795 966
leaf_count=666 504 600 546 597 588 903 831 795 966
internal_value=1.78838e-06 -0.000608099 0.000261311 0.00126207 0.000276141 0.00134692 0.00284216 -0.00221822 -0.00317226
internal_weight=6996 6492 4860 3465 2919 2331 1734 1395 1632
internal_count=6996 6492 4860 3465 2919 2331 1734 1395 1632
cat_boundaries=0 1 2
cat_threshold=50 1544
is_linear=0
shrinkage=0.05


Tree=41
num_leaves=10
num_cat=0
split_feature=19 22 22 24 22 24 21 23 24
split_gain=13.1343 13.6285 8.10972 2.59867 4.27466 3.19619 3.75404 2.8385 1.90868
threshold=-0.10580322852451288 -1.1853089998986313 1.2294140992166696 -0.35654149025120446 -0.37453891882183993 1.0000000180025095e-35 -0.38630133348150836 0.10430131984944414 -0.030868135921705338
decision_type=2 2 2 2 2 2 2 2 2
left_child=-1 -2 3 4 -3 8 -7 -8 -5
right_child=1 2 -4 5 -6 6 7 -9 -10
leaf_value=-0.0062001647514262964 0.00812026194446425 0.00047933170661707626 0.0057235236532522165 0.00054068896424723793 -0.0046505204152754755 0.0024706212633375355 -0.0053316573268305046 -0.00080880519956225334 0.0043576688127089395
leaf_weight=756 566 760 556 839 865 553 514 1053 534
leaf_count=756 566 760 556 839 865 553 514 1053 534
internal_value=1.55157e-06 0.000757276 1.62913e-05 -0.000608702 -0.00225722 0.000160345 -0.00105611 -0.00230461 0.00203565
internal_weight=6996 6240 5674 5118 1625 3493 2120 1567 1373
internal_count=6996 6240 5674 5118 1625 3493 2120 1567 1373
is_linear=0
shrinkage=0.05


Tree=42
num_leaves=11
num_cat=1
split_feature=58 25 21 25 21 25 25 23 25 25
split_gain=12.5383 10.7571 3.78583 9.04262 4.16632 2.21158 2.80923 1.59353 1.25549 1.73763
threshold=0 0.97774704396068046 0.056829111233313079 -0.02165316517023191 -0.17816085235588744 -0.02165316517023191 -0.68904096610961141 0.2236990595725997 -0.81866896818807622 -0.50746113782484714
decision_type=1 2 2 2 2 2 2 2 2 2
left_child=-1 2 3 8 -5 6 -4 -8 -2 -10
right_child=1 -3 5 4 -6 -7 7 -9 9 -11
leaf_value=0.0052448637867427107 0.00092808378071162958 -0.0068646082239580035 -0.0034590409308023645 0.0019091226122631083 0.0078479813860467991 -0.0040128905185403416 -0.0010334117421373825 0.0028736773285310494 -0.0041604362729917837 -0.00049856265960176148
leaf_weight=966 519 657 561 720 501 687 519 516 534 816
leaf_count=966 519 657 561 720 501 687 519 516 534 816
internal_value=1.64187e-06 -0.00084925 -0.000109585 0.0010306 0.00436802 -0.00165169 -0.000625946 0.000918921 -0.00115554 -0.00195704
internal_weight=6996 6030 5373 3090 1221 2283 1596 1035 1869 1350
internal_count=6996 6030 5373 3090 1221 2283 1596 1035 1869 1350
cat_boundaries=0 1
cat_threshold=6
is_linear=0
shrinkage=0.05


Tree=43
num_leaves=10
num_cat=2
split_feature=25 58 25 25 23 25 22 22 58
split_gain=12.5983 5.54495 4.35341 4.39403 7.41354 5.35932 5.479 4.04532 2.38554
threshold=0.87012567497381643 0 -0.6242741957153114 0.11035011085647105 -0.16417781648040727 -0.02165316517023191 0.32152459281313017 -0.20560082658404699 1
decision_type=2 1 2 2 2 2 2 2 1
left_child=1 -1 8 5 -5 6 7 -4 -3
right_child=-2 2 3 4 -6 -7 -8 -9 -10
leaf_value=-0.0054987115324241637 0.0053068520438524424 -0.0010050728975853941 0.00075356155278345858 0.0019473563689122895 -0.0059245499103493977 0.005209317856721617 0.0038953064507314464 -0.004652973593006789 -0.0051853983548407435
leaf_weight=564 960 873 822 585 603 738 693 591 567
leaf_count=564 960 873 822 585 603 738 693 591 567
internal_value=1.89056e-06 -0.000845535 -0.000350669 0.00049202 -0.00205632 0.00155826 0.000269515 -0.0015162 -0.00270616
internal_weight=6996 6036 5472 4032 1188 2844 2106 1413 1440
internal_count=6996 6036 5472 4032 1188 2844 2106 1413 1440
cat_boundaries=0 1 2
cat_threshold=1042 585
is_linear=0
shrinkage=0.05


Tree=44
num_leaves=11
num_cat=2
split_feature=58 25 21 25 21 25 25 24 58 23
split_gain=11.6117 10.593 3.33734 7.6435 3.58503 2.01177 2.39083 1.41332 2.20471 1.36645
threshold=0 0.97774704396068046 0.056829111233313079 -0.02165316517023191 -0.17816085235588744 -0.02165316517023191 -0.68904096610961141 -0.45785971998090941 1 0.2236990595725997
decision_type=1 2 2 2 2 2 2 2 1 2
left_child=-1 2 3 7 -5 6 -4 -2 -9 -8
right_child=1 -3 5 4 -6 -7 9 8 -10 -11
leaf_value=0.005046535804573443 -0.0028119622614622458 -0.0067873085822257309 -0.0031674591316175138 0.0017738579416583325 0.0072828952131264672 -0.003783910314221409 -0.00093672116648795478 -0.002276306942346104 0.0020067321233908355 0.0026813740268011796
leaf_weight=966 690 657 561 720 501 687 519 543 636 516
leaf_count=966 690 657 561 720 501 687 519 543 636 516
internal_value=7.77184e-07 -0.000818066 -8.40484e-05 0.000986456 0.00405481 -0.00153195 -0.000553796 -0.00102354 3.05771e-05 0.000871302
internal_weight=6996 6030 5373 3090 1221 2283 1596 1869 1179 1035
internal_count=6996 6030 5373 3090 1221 2283 1596 1869 1179 1035
cat_boundaries=0 1 2
cat_threshold=6 112
is_linear=0
shrinkage=0.05


Tree=45
num_leaves=11
num_cat=3
split_feature=25 58 24 20 58 24 24 24 58 22
split_gain=12.2397 3.01063 5.94071 7.77671 6.81859 4.88699 2.60073 2.40856 2.09584 0.927031
threshold=0.87012567497381643 0 -0.56052540071812684 -0.10580330673459863 1 8.3266717411796614e-08 1.0000000180025095e-35 -0.83536872229973158 2 0.20209902323048087
decision_type=2 1 2 2 1 2 2 2 1 2
left_child=1 6 7 -4 5 -5 -1 -3 -6 -10
right_child=-2 2 3 4 8 -7 -8 -9 9 -11
leaf_value=-0.0012182195102212686 0.0052299502725505461 -0.0012107722412921622 -0.0047303222265327356 0.0082097495958261303 -0.0025443235710612315 0.0018929265969915322 -0.0055520080380338059 -0.0058710368595598084 0.0026391196836272725 -0.00035096387879516471
leaf_weight=969 960 612 523 543 612 703 537 507 506 524
leaf_count=969 960 612 523 543 612 703 537 507 506 524
internal_value=1.04479e-06 -0.000834231 -0.000185666 0.000851629 0.00186892 0.00463056 -0.00275854 -0.00333898 -0.00026093 0.00111285
internal_weight=6996 6036 4530 3411 2888 1246 1506 1119 1642 1030
internal_count=6996 6036 4530 3411 2888 1246 1506 1119 1642 1030
cat_boundaries=0 1 2 3
cat_threshold=50 1540 128
is_linear=0
shrinkage=0.05


Tree=46
num_leaves=10
num_cat=2
split_feature=19 25 58 26 25 23 22 26 58
split_gain=11.1814 25.7404 5.193 3.568 2.88416 6.8097 1.79567 3.49323 1.09959
threshold=-0.10580322852451288 1.3201287114751368 0 -0.068598645996203939 -0.02165316517023191 0.035746289466892206 0.31169870490513901 0.27020480317148138 1
decision_type=2 2 1 2 2 2 2 2 1
left_child=-1 2 3 -2 6 -6 7 8 -4
right_child=1 -3 4 -5 5 -7 -8 -9 -10
leaf_value=-0.0057214258071656039 0.00021878426583767262 0.011338024919105412 -0.00081386007093602704 -0.0048550442069697107 0.0049973754200494866 -0.0018156955609186694 0.0013856922878955522 0.0021760052751433321 -0.003866239571556076
leaf_weight=756 570 516 510 877 935 598 954 513 767
leaf_count=756 570 516 510 877 935 598 954 513 767
internal_value=6.85635e-07 0.000697967 -0.000270258 -0.00284292 0.000607652 0.00234244 -0.000361814 -0.00129443 -0.00269163
internal_weight=6996 6240 5724 1447 4277 1533 2744 1790 1277
internal_count=6996 6240 5724 1447 4277 1533 2744 1790 1277
cat_boundaries=0 1 2
cat_threshold=50 1161
is_linear=0
shrinkage=0.05


Tree=47
num_leaves=10
num_cat=2
split_feature=58 24 58 26 22 26 20 26 22
split_gain=10.3732 7.61047 2.81384 5.87999 6.5102 7.04495 5.59698 2.43006 2.37753
threshold=0 1.1300624546053968 1 0.67050940160990136 -0.074538807433766299 -0.24990531552027034 -1.0000000180025095e-35 0.23937195628920352 0.045126555507604145
decision_type=1 2 1 2 2 2 2 2 2
left_child=-1 2 3 4 -2 -6 -4 8 -8
right_child=1 -3 6 -5 5 -7 7 -9 -10
leaf_value=0.0047695090258217526 -0.0032695719178001529 -0.006376403460943373 0.0029131658120581153 0.0057600188304362731 -0.0014544087428757346 0.0062528743954253915 0.00033393677110015363 -0.0050216130145592968 -0.0035586650711029143
leaf_weight=966 948 546 613 510 609 570 881 652 701
leaf_count=966 948 546 613 510 609 570 881 652 701
internal_value=4.2575e-07 -0.000773517 -0.000211789 0.000962633 -0.000193952 0.00228243 -0.00129819 -0.00246349 -0.00139669
internal_weight=6996 6030 5484 2637 2127 1179 2847 2234 1582
internal_count=6996 6030 5484 2637 2127 1179 2847 2234 1582
cat_boundaries=0 1 2
cat_threshold=6 577
is_linear=0
shrinkage=0.05


Tree=48
num_leaves=11
num_cat=2
split_feature=19 58 20 21 58 26 23 21 23 22
split_gain=10.4234 19.312 12.1273 5.88333 7.89572 3.91982 3.09734 2.43012 1.51973 1.01207
threshold=-0.10580322852451288 0 -1.0000000180025095e-35 -0.91525954949589383 1 -0.24990531552027034 -0.047459665374489639 0.45182191972994595 -0.26377450398598257 0.085821462367350512
decision_type=2 1 2 2 1 2 2 2 2 2
left_child=-1 -2 -3 -4 5 9 -7 8 -6 -5
right_child=1 2 3 4 7 6 -8 -9 -10 -11
leaf_value=-0.0055240078516123683 0.0075170629805659007 0.0059440858033736072 -0.0060291882470632219 0.00072308315240805689 -0.0039119561077012267 0.00049114510409834292 0.0056829297041762613 -0.005886717135816533 -0.00060775599946564325 -0.0024385489112869535
leaf_weight=756 870 646 580 500 568 516 646 518 892 504
leaf_count=756 870 646 580 500 568 516 646 518 892 504
internal_value=7.5759e-07 0.000673991 -0.000453765 -0.00133498 -0.0006715 0.00141193 0.00338944 -0.00294303 -0.00190219 -0.00086825
internal_weight=6996 6240 5370 4724 4144 2166 1162 1978 1460 1004
internal_count=6996 6240 5370 4724 4144 2166 1162 1978 1460 1004
cat_boundaries=0 1 2
cat_threshold=6 1600
is_linear=0
shrinkage=0.05


Tree=49
num_leaves=11
num_cat=3
split_feature=20 58 58 26 25 24 25 24 58 26
split_gain=10.0346 24.6953 14.3418 6.07618 11.0151 8.27651 4.81919 3.46216 1.2569 0.647498
threshold=-0.10580330218331807 0 1 0.9074390843341037 0.15600318322961901 -0.15226045754337711 -0.013385490062774471 -0.21112500843035337 2 -0.30319298049009097
decision_type=2 1 1 2 2 2 2 2 1 2
left_child=2 -2 -1 4 6 -6 7 9 -9 -3
right_child=1 3 -4 -5 5 -7 -8 8 -10 -11
leaf_value=0.0021315566990312497 0.0089751948952817486 -0.0015835278586446664 -0.0084200621209658041 0.0037918202377020802 -0.0011996406698433152 -0.0099272996130634408 0.0040782741939533089 0.0023211479819616877 -0.00067481409656929708 -0.004105381016571789
leaf_weight=556 798 512 742 720 555 530 674 743 644 522
leaf_count=556 798 512 742 720 555 530 674 743 644 522
internal_value=1.11228e-06 0.000905603 -0.00395769 -0.00043381 -0.00116637 -0.0054889 0.000355373 -0.000687342 0.000944488 -0.00287028
internal_weight=6996 5698 1298 4900 4180 1085 3095 2421 1387 1034
internal_count=6996 5698 1298 4900 4180 1085 3095 2421 1387 1034
cat_boundaries=0 1 2 3
cat_threshold=6 185 585
is_linear=0
shrinkage=0.05


Tree=50
num_leaves=10
num_cat=3
split_feature=20 58 58 26 24 24 22 58 26
split_gain=9.07433 22.3299 19.1084 5.48789 4.41497 11.6014 4.35928 3.98303 2.85013
threshold=-0.10580330218331807 0 1 0.9074390843341037 0.038135734958388783 -0.03888807872590281 0.25557669366224561 2 -0.40189242911174849
decision_type=2 1 1 2 2 2 2 1 2
left_child=2 -2 -1 4 5 6 8 -6 -3
right_child=1 3 -4 -5 7 -7 -8 -9 -10
leaf_value=0.0015675075179346866 0.0085347149187188064 -0.0004406774208067962 -0.010580998891478649 0.0036035367650268922 -0.0059388867412124152 0.006902913571389036 0.0025557764254943065 -0.00085929552202793677 -0.0046745976471522059
leaf_weight=738 798 727 560 720 706 507 503 862 875
leaf_count=738 798 727 560 720 706 507 503 862 875
internal_value=1.20141e-06 0.000861328 -0.00376342 -0.000412324 -0.00110851 0.000151473 -0.00148715 -0.00320123 -0.00276056
internal_weight=6996 5698 1298 4900 4180 2612 2105 1568 1602
internal_count=6996 5698 1298 4900 4180 2612 2105 1568 1602
cat_boundaries=0 1 2 3
cat_threshold=6 241 560
is_linear=0
shrinkage=0.05


Tree=51
num_leaves=11
num_cat=3
split_feature=20 58 58 21 58 26 24 22 23 21
split_gain=8.21109 20.1931 12.2333 5.24099 8.39176 4.79283 2.69859 1.61712 2.34745 2.02119
threshold=-0.10580330218331807 0 1 -0.99488402046256863 2 -0.24990531552027034 0.61321966996314548 0.085821462367350512 0.18358144125083461 -0.084965205336329105
decision_type=2 1 1 2 1 2 2 2 2 2
left_child=2 -2 -1 -3 5 -5 7 9 -9 -6
right_child=1 3 -4 4 6 -7 -8 8 -10 -11
leaf_value=0.0020408206311463921 0.0081158525713399821 -0.005025508243618036 -0.007702275919863312 0.00012554882415993649 0.0024476279186588529 0.0063644528632084479 -0.0043273172882372438 -0.0044663539381456221 0.0002339270929834935 -0.0012237898814949221
leaf_weight=556 798 538 742 545 718 703 563 502 557 774
leaf_count=556 798 538 742 545 718 703 563 502 557 774
internal_value=6.45534e-07 0.000818838 -0.00358044 -0.000392341 0.000183306 0.00362239 -0.00120632 -0.00051513 -0.00200468 0.000545292
internal_weight=6996 5698 1298 4900 4362 1248 3114 2551 1059 1492
internal_count=6996 5698 1298 4900 4362 1248 3114 2551 1059 1492
cat_boundaries=0 1 2 3
cat_threshold=6 185 1536
is_linear=0
shrinkage=0.05


Tree=52
num_leaves=10
num_cat=2
split_feature=25 58 21 24 25 25 26 58 26
split_gain=9.92727 4.45001 3.64608 2.3575 3.2405 5.00046 2.70827 4.17589 0.693352
threshold=0.87012567497381643 0 0.85417729622227967 -0.022499352978729476 1.0000000180025095e-35 -0.20467732906837857 0.23937195628920352 1 -0.24990531552027034
decision_type=2 1 2 2 2 2 2 1 2
left_child=1 -1 3 6 5 8 7 -3 -5
right_child=-2 2 -4 4 -6 -7 -8 -9 -10
leaf_value=-0.004033758262155975 0.0047097964420277682 0.0031857017117873001 -0.0034544767264393476 -0.00059313185160382858 -0.0018281212115203436 0.0067395300391464704 -0.003267169228968976 -0.0018854828888667978 0.0019474718708554894
leaf_weight=867 960 723 729 510 525 510 726 888 558
leaf_count=867 960 723 729 510 525 510 726 888 558
internal_value=6.66542e-07 -0.000751579 -0.000189528 0.000349398 0.00156211 0.00269224 -0.000742888 0.000401273 0.000737152
internal_weight=6996 6036 5169 4440 2103 1578 2337 1611 1068
internal_count=6996 6036 5169 4440 2103 1578 2337 1611 1068
cat_boundaries=0 1 2
cat_threshold=22 1184
is_linear=0
shrinkage=0.05


Tree=53
num_leaves=9
num_cat=2
split_feature=25 58 20 23 25 25 21 58
split_gain=8.96482 2.7228 3.33179 4.09563 3.43215 5.51083 2.81977 2.22485
threshold=0.87012567497381643 0 -0.11410193760988814 -0.80493293983614311 0.11035011085647105 -0.16125913750393164 -0.26134176010736115 1
decision_type=2 1 2 2 2 2 2 1
left_child=1 6 -3 -4 5 7 -1 -5
right_child=-2 2 3 4 -6 -7 -8 -9
leaf_value=0.00048741574748190509 0.0044755267633916568 -0.003529709715508777 -0.0034087579193760615 0.0017784668463179086 -0.0022247923806939496 0.0057864747573618145 -0.0040893376989857974 -0.0016574188513352893
leaf_weight=504 960 607 584 1333 622 673 1002 711
leaf_count=504 960 607 584 1333 622 673 1002 711
internal_value=4.92273e-07 -0.000714358 -9.80349e-05 0.000436511 0.00111315 0.00187998 -0.00254429 0.000582766
internal_weight=6996 6036 4530 3923 3339 2717 1506 2044
internal_count=6996 6036 4530 3923 3339 2717 1506 2044
cat_boundaries=0 1 2
cat_threshold=50 1608
is_linear=0
shrinkage=0.05


Tree=54
num_leaves=11
num_cat=3
split_feature=22 20 58 22 58 24 24 24 23 58
split_gain=7.69665 6.82492 13.0397 7.44387 5.5725 8.5201 2.65571 4.99499 2.03277 0.898858
threshold=-1.1853089998986313 -0.10580330218331807 0 1.201566081666914 1 -0.34442231052829658 8.3266717411796614e-08 0.62031969867585313 -0.34269834362808022 2
decision_type=2 2 1 2 1 2 2 2 2 1
left_child=-1 2 -2 4 8 -6 -7 -8 -3 -10
right_child=1 3 -4 -5 5 6 7 -9 9 -11
leaf_value=0.005169536438406906 0.002128291499460689 0.00010919638241856019 -0.0084315441312939037 0.0059320385090070055 -0.0028820186095163888 0.0057046192839035753 -0.001100793796284822 0.0054203895989841985 -0.001994885152664618 -0.0046784288536275732
leaf_weight=648 505 563 671 514 899 619 689 505 663 720
leaf_count=648 505 563 671 514 899 619 689 505 663 720
internal_value=3.91259e-07 -0.000530925 -0.00396048 0.000251953 -0.000380521 0.00108353 0.00305838 0.00166843 -0.0024116 -0.00345186
internal_weight=6996 6348 1176 5172 4658 2712 1813 1194 1946 1383
internal_count=6996 6348 1176 5172 4658 2712 1813 1194 1946 1383
cat_boundaries=0 1 2 3
cat_threshold=185 178 32
is_linear=0
shrinkage=0.05


Tree=55
num_leaves=12
num_cat=3
split_feature=25 58 25 21 24 58 21 58 21 23 22
split_gain=7.92485 4.5298 2.78397 3.48121 4.90134 2.85219 4.16536 2.45017 2.03986 1.09529 0.0871184
threshold=1.475849442796991 0 -0.59581861655501822 0.78530674642421239 0.55784739215985291 1 -0.20536466401784154 2 -0.33217538606200131 -0.2826075760971743 2.0816681122028501e-08
decision_type=2 1 2 2 2 1 2 1 2 2 2
left_child=1 8 7 4 5 9 -7 -3 -1 -4 -10
right_child=-2 2 3 -5 -6 6 -8 -9 10 -11 -12
leaf_value=-0.00011737744624724656 0.0060076095624852013 0.00083416620752115435 0.0039955681208752036 -0.0021632964136952498 0.0060037603971530192 -0.0043133229174800438 0.0018473884184371956 -0.003372824348776636 -0.0034413874228215544 0.00089174934312782807 -0.0044630930989866483
leaf_weight=507 504 600 600 672 558 513 579 795 600 543 525
leaf_count=507 504 600 600 672 558 513 579 795 600 543 525
internal_value=-3.63073e-07 -0.000471051 0.000296854 0.00105652 0.0018337 0.000781505 -0.00104375 -0.00158498 -0.00273684 0.0025095 -0.00393582
internal_weight=6996 6492 4860 3465 2793 2235 1092 1395 1632 1143 1125
internal_count=6996 6492 4860 3465 2793 2235 1092 1395 1632 1143 1125
cat_boundaries=0 1 2 3
cat_threshold=50 193 1544
is_linear=0
shrinkage=0.05


Tree=56
num_leaves=11
num_cat=5
split_feature=25 58 25 25 58 22 58 58 58 25
split_gain=7.23731 5.57021 3.05453 2.79946 6.03403 3.99756 6.14159 2.17102 2.06951 2.00862
threshold=0.87012567497381643 0 -0.6242741957153114 0.11035011085647105 1 -0.053797394507919323 2 3 4 -0.24963326597023008
decision_type=2 1 2 2 1 2 1 1 1 2
left_child=1 -1 8 5 -5 7 -7 -4 -3 -8
right_child=-2 2 3 4 -6 6 9 -9 -10 -11
leaf_value=-0.005306088833356701 0.0040203505564587183 -0.00049669523569146235 0.0016084246696848805 0.0019100421037937039 -0.0051494633795215799 0.0071877706784553453 0.002974629547562399 -0.0026411151012454134 -0.0043484490319837515 -0.0012982266426400687
leaf_weight=564 960 849 522 624 564 558 528 672 591 564
leaf_count=564 960 849 522 624 564 558 528 672 591 564
internal_value=-4.65244e-07 -0.000642757 -0.000147744 0.000558245 -0.00147613 0.00140915 0.00300023 -0.000792929 -0.00212063 0.000764938
internal_weight=6996 6036 5472 4032 1188 2844 1650 1194 1440 1092
internal_count=6996 6036 5472 4032 1188 2844 1650 1194 1440 1092
cat_boundaries=0 1 2 3 4 5
cat_threshold=1042 196 516 97 584
is_linear=0
shrinkage=0.05


Tree=57
num_leaves=11
num_cat=1
split_feature=25 58 26 21 26 26 25 26 25 25
split_gain=6.67079 3.76453 4.46498 3.18158 2.4679 2.2907 3.09988 4.96681 1.52076 0.769415
threshold=1.475849442796991 0 -0.91164025600126719 1.0044222979443844 -0.068598645996203939 -0.33724775202424445 -0.39458099784608852 0.080983934269017274 -0.78010677319417743 -0.43133306788441195
decision_type=2 1 2 2 2 2 2 2 2 2
left_child=1 4 -3 5 -1 9 8 -8 -7 -4
right_child=-2 2 3 -5 -6 6 7 -9 -10 -11
leaf_value=-0.00016823683371947838 0.0055111368012949391 0.0039969902355845672 -0.00024467626833199067 -0.0040271225409329089 -0.0041214989067125301 0.00089391577321293889 0.0061899871159380102 0.00014328113115965916 -0.0029625256745816845 -0.002733050466977284
leaf_weight=666 504 684 585 510 966 507 564 843 507 660
leaf_count=666 504 684 585 510 966 507 564 843 507 660
internal_value=-1.01361e-06 -0.000432856 0.000267199 -0.000347125 -0.0024984 0.00016961 0.00106532 0.00258046 -0.00103938 -0.00156947
internal_weight=6996 6492 4860 4176 1632 3666 2421 1407 1014 1245
internal_count=6996 6492 4860 4176 1632 3666 2421 1407 1014 1245
cat_boundaries=0 1
cat_threshold=50
is_linear=0
shrinkage=0.05


Tree=58
num_leaves=11
num_cat=2
split_feature=19 25 20 58 24 24 24 58 21 21
split_gain=6.99598 17.1714 4.74047 4.55038 4.32884 5.31308 4.6434 4.28044 4.02986 0.840203
threshold=-0.10580322852451288 1.3201287114751368 -1.0000000180025095e-35 0 -0.34442231052829658 8.3266717411796614e-08 0.45889340802160361 1 -0.55122784523486501 0.19578204454364859
decision_type=2 2 2 1 2 2 2 1 2 2
left_child=-1 2 -2 4 7 -6 -7 -4 -5 -10
right_child=1 -3 3 8 5 6 -8 -9 9 -11
leaf_value=-0.0045270674031074242 0.0037225973842291353 0.0092410594756954546 0.0012425022877116318 0.0011941645066026072 0.0057314530739812396 -0.0032935023443463364 0.0027913313420362793 -0.0051505178528087631 -0.0047115910850221666 -0.0023539593710022811
leaf_weight=756 662 516 503 547 619 559 701 525 954 654
leaf_count=756 662 516 503 547 619 559 701 525 954 654
internal_value=-8.74483e-07 0.000550677 -0.000240114 -0.000761513 0.000531112 0.00195837 8.94424e-05 -0.00206937 -0.00249332 -0.00376297
internal_weight=6996 6240 5724 5062 2907 1879 1260 1028 2155 1608
internal_count=6996 6240 5724 5062 2907 1879 1260 1028 2155 1608
cat_boundaries=0 1 2
cat_threshold=1612 1088
is_linear=0
shrinkage=0.05


Tree=59
num_leaves=10
num_cat=3
split_feature=20 58 58 21 26 21 58 22 22
split_gain=6.36567 19.4926 16.0303 5.21394 6.37031 5.06919 3.35871 4.37291 1.32526
threshold=-0.10580330218331807 0 1 -0.91525954949589383 0.9074390843341037 0.91667077266703079 2 -0.074538807433766299 0.061867254448434592
decision_type=2 1 1 2 2 2 1 2 2
left_child=2 -2 -1 -3 5 6 8 -8 -5
right_child=1 3 -4 4 -6 -7 7 -9 -10
leaf_value=0.0017203105619464166 0.0078888998157258857 -0.0047766256572421249 -0.0094002335913398356 -0.00046090271088861708 0.0051397817388592337 -0.005255270075274281 -0.0013700187032440712 0.0034467229917380738 -0.0036813358721930257
leaf_weight=738 798 610 560 753 551 500 800 1134 552
leaf_count=738 798 610 560 753 551 500 800 1134 552
internal_value=-9.71052e-07 0.000719436 -0.00315406 -0.000470139 0.000145958 -0.000595841 0.00013042 0.00144841 -0.00181808
internal_weight=6996 5698 1298 4900 4290 3739 3239 1934 1305
internal_count=6996 5698 1298 4900 4290 3739 3239 1934 1305
cat_boundaries=0 1 2 3
cat_threshold=6 241 176
is_linear=0
shrinkage=0.05


Tree=60
num_leaves=10
num_cat=1
split_feature=22 24 23 19 24 23 23 22 58
split_gain=6.46428 5.71725 6.88449 4.40937 2.64236 7.4372 2.30422 4.47377 1.88061
threshold=-1.1853089998986313 1.2127518706593452 0.91287091753746397 -0.10580322852451288 -0.56725143251985977 -0.64623312775189701 -0.17081367035225029 -0.31076907007029542 0
decision_type=2 2 2 2 2 2 2 2 1
left_child=-1 2 3 -2 5 -5 7 -6 -8
right_child=1 -3 -4 4 6 -7 8 -9 -10
leaf_value=0.0047361193142779982 -0.0047790597903456175 -0.0050369849754422664 0.0053526915221073492 0.0015182785874290408 -0.00070192618599055148 -0.0064683085254622422 0.0012040946912632103 0.0056276064148465116 -0.0015998253068766934
leaf_weight=648 547 618 540 640 548 528 1146 562 1219
leaf_count=648 547 618 540 640 548 528 1146 562 1219
internal_value=-1.14861e-06 -0.000488073 6.50641e-06 -0.00055436 -5.20356e-05 -0.00210428 0.000639787 0.00251362 -0.000243135
internal_weight=6996 6348 5730 5190 4643 1168 3475 1110 2365
internal_count=6996 6348 5730 5190 4643 1168 3475 1110 2365
cat_boundaries=0 1
cat_threshold=1609
is_linear=0
shrinkage=0.05


Tree=61
num_leaves=10
num_cat=3
split_feature=22 20 58 22 58 25 25 58 25
split_gain=5.8388 5.20247 11.4466 5.67191 3.38387 1.53956 4.56644 2.36462 0.85019
threshold=-1.1853089998986313 -0.10580330218331807 0 1.201566081666914 1 0.051567855459644693 -0.17866098268785599 2 -0.077105890068721775
decision_type=2 2 1 2 1 2 2 1 2
left_child=-1 2 -2 4 8 6 7 -6 -3
right_child=1 3 -4 -5 5 -7 -8 -9 -10
leaf_value=0.0045011267532376288 0.0022369940776199937 -0.003976895428175792 -0.0076491970580774456 0.005177781470873625 0.0011974059080073452 -0.0013455823486429918 0.0050352070542252665 -0.0024084616267540751 -0.0013425497228689936
leaf_weight=648 505 574 671 514 1318 857 567 675 667
leaf_count=648 505 574 671 514 1318 857 567 675 667
internal_value=-1.12466e-06 -0.000463893 -0.00345818 0.000219626 -0.000332461 0.000482095 0.00109725 -3.28811e-05 -0.0025516
internal_weight=6996 6348 1176 5172 4658 3417 2560 1993 1241
internal_count=6996 6348 1176 5172 4658 3417 2560 1993 1241
cat_boundaries=0 1 2 3
cat_threshold=185 50 1608
is_linear=0
shrinkage=0.05


Tree=62
num_leaves=9
num_cat=1
split_feature=58 25 19 21 25 25 21 25
split_gain=5.5454 15.9994 4.88445 3.68141 3.05713 3.64655 1.6992 1.36904
threshold=0 0.97774704396068046 -1.0000000180025095e-35 -0.54376934990624182 0.091111800310900493 -0.049032204730994018 0.53660338672227581 -0.23914207133988347
decision_type=1 2 2 2 2 2 2 2
left_child=-1 2 -2 7 5 6 -5 -4
right_child=1 -3 3 4 -6 -7 -8 -9
leaf_value=0.0034854665378483141 0.0041677687110334071 -0.0079027070305127314 0.00044292388609736358 -0.0021966614649567215 -0.003949537161081697 0.0032234203091404908 0.00071078714987379507 0.0039338063784799112
leaf_weight=966 715 657 550 1486 718 577 755 572
leaf_count=966 715 657 550 1486 718 577 755 572
internal_value=-1.49059e-06 -0.000567358 0.000335053 -0.000257105 -0.001049 -0.000304284 -0.00121773 0.00223215
internal_weight=6996 6030 5373 4658 3536 2818 2241 1122
internal_count=6996 6030 5373 4658 3536 2818 2241 1122
cat_boundaries=0 1
cat_threshold=6
is_linear=0
shrinkage=0.05


Tree=63
num_leaves=11
num_cat=0
split_feature=25 26 21 26 21 26 22 21 21 24
split_gain=5.91697 2.1497 2.85717 3.74838 1.89887 1.44198 1.27663 2.49751 2.06534 0.813881
threshold=0.87012567497381643 -0.47534074093079398 0.20165414513033661 -0.85157352346051174 0.00011669801217842447 0.64189828726148523 -0.74372349220552059 -0.55122784523486501 -0.13118085116566683 0.17066295241300866
decision_type=2 2 2 2 2 2 2 2 2 2
left_child=1 2 3 -1 6 9 -3 -8 -9 -6
right_child=-2 4 -4 -5 5 -7 7 8 -10 -11
leaf_value=-0.0037312521176396073 0.0036344960497914202 -0.0023467049572243894 0.0032216002064422381 0.0017879906295517737 -0.0047425022224193373 -0.00026919953514713236 0.00305329855264205 -0.003341969530368727 0.00080094206987142496 -0.0020900390410004666
leaf_weight=555 960 585 738 678 609 501 570 513 714 573
leaf_count=555 960 585 738 678 609 501 570 513 714 573
internal_value=-1.0987e-06 -0.000581854 0.000771936 -0.000701376 -0.00123841 -0.00252142 -0.000328518 0.000333176 -0.000937713 -0.00347088
internal_weight=6996 6036 1971 1233 4065 1683 2382 1797 1227 1182
internal_count=6996 6036 1971 1233 4065 1683 2382 1797 1227 1182
is_linear=0
shrinkage=0.05


Tree=64
num_leaves=11
num_cat=3
split_feature=22 58 20 22 58 22 26 58 25 26
split_gain=5.43121 14.049 6.29918 5.69339 18.2672 6.61505 4.10037 4.61799 2.80291 2.44608
threshold=-0.79954974659879119 0 -0.10580330218331807 0.29741571371425896 1 0.085821462367350512 0.11598709340296114 2 -0.37035213252439886 -0.31912791324224421
decision_type=2 1 2 2 1 2 2 1 2 2
left_child=1 -1 -2 5 -5 6 7 9 -6 -4
right_child=2 -3 3 4 8 -7 -8 -9 -10 -11
leaf_value=0.0084723667323853662 -0.0042587814747130246 -0.0019823171536274883 -0.0019960511703037294 0.0089544537339316423 0.0010682617537531769 -0.0063015179173654262 0.0031921084138072904 -0.0050800856360213344 -0.0037137753517399574 0.0026649013750776299
leaf_weight=591 997 678 536 644 595 531 657 562 623 582
leaf_count=591 997 678 536 644 595 531 657 562 623 582
internal_value=-1.18744e-06 0.00295173 -0.000657506 0.000105275 0.00225479 -0.00129176 -0.000142442 -0.00145209 -0.00137169 0.000427567
internal_weight=6996 1269 5727 4730 1862 2868 2337 1680 1218 1118
internal_count=6996 1269 5727 4730 1862 2868 2337 1680 1218 1118
cat_boundaries=0 1 2 3
cat_threshold=578 518 1704
is_linear=0
shrinkage=0.05


Tree=65
num_leaves=9
num_cat=1
split_feature=19 25 20 26 25 58 22 25
split_gain=5.12126 14.6245 5.03253 3.99706 5.43719 5.95449 4.36483 3.50852
threshold=-0.10580322852451288 1.3201287114751368 -1.0000000180025095e-35 -0.56380709983131749 0.23524509912710273 0 0.31169870490513901 -0.42156240253472127
decision_type=2 2 2 2 2 1 2 2
left_child=-1 2 -2 6 5 -5 -4 -7
right_child=1 -3 3 4 -6 7 -8 -9
leaf_value=-0.0038729031648044444 0.0038247590110304058 0.0084916055145281971 -0.00067204240335767384 -0.0047180810863955841 -0.0058839101792055532 -0.0015135911345709704 0.0051562118779094205 0.0023363825794070745
leaf_weight=756 662 516 854 717 624 1159 509 1199
leaf_count=756 662 516 854 717 624 1159 509 1199
internal_value=-3.51437e-07 0.000471548 -0.000258214 -0.000795426 -0.00164779 -0.000780016 0.00151536 0.000442977
internal_weight=6996 6240 5724 5062 3699 3075 1363 2358
internal_count=6996 6240 5724 5062 3699 3075 1363 2358
cat_boundaries=0 1
cat_threshold=146
is_linear=0
shrinkage=0.05


Tree=66
num_leaves=12
num_cat=1
split_feature=22 21 24 24 26 26 58 24 24 24 21
split_gain=4.94471 14.9982 5.10914 5.85536 4.15579 5.37486 5.184 3.5668 2.04975 1.66818 0.619534
threshold=-0.79954974659879119 -0.42713237605878246 -0.58694271857841718 1.2127518706593452 0.51849786663914599 -0.58630179090812706 0 0.048547619243231928 0.059673221852738191 -0.8709957433089629 0.012553047767012125
decision_type=2 2 2 2 2 2 1 2 2 2 2
left_child=1 -1 9 4 5 8 7 -7 -4 -2 -8
right_child=2 -3 3 -5 -6 6 10 -9 -10 -11 -12
leaf_value=-0.0015769792496476203 -0.0017758769003575229 0.0095017169845629159 0.00077775785318452088 -0.0045288078540412727 0.0041666893924179977 0.0030216075273484765 -0.005151169217806526 -0.0023770329191393105 0.0051819813614493448 -0.005859623663354796 -0.002703819272323407
leaf_weight=768 501 501 537 600 723 756 513 507 519 507 564
leaf_count=768 501 501 537 600 723 756 513 507 519 507 564
internal_value=-5.58409e-07 0.002817 -0.000626792 6.47646e-05 0.000738573 3.68322e-06 -0.00133236 0.00084695 0.00295655 -0.00384869 -0.00385236
internal_weight=6996 1269 5727 4719 4119 3396 2340 1263 1056 1008 1077
internal_count=6996 1269 5727 4719 4119 3396 2340 1263 1056 1008 1077
cat_boundaries=0 1
cat_threshold=1576
is_linear=0
shrinkage=0.05


Tree=67
num_leaves=10
num_cat=1
split_feature=58 26 24 21 21 23 26 24 24
split_gain=5.01636 9.02926 6.14033 3.01068 2.78857 3.81799 2.31691 2.10039 1.68842
threshold=0 -0.062507811312170578 1.2127518706593452 -0.91525954949589383 1.0782946852040787 0.45766817598893711 0.00024439982429597329 -0.32637152226401028 -0.030868135921705338
decision_type=1 2 2 2 2 2 2 2 2
left_child=1 -1 3 -2 5 6 8 -8 -5
right_child=2 -3 -4 4 -6 -7 7 -9 -10
leaf_value=0.0076992208388121973 -0.0030241349078646458 -0.0014629928883129937 -0.0058397159702328616 -0.00020858999208814885 -0.0030598270541929325 0.0037561598635943876 -0.0038651889705617185 0.00040998844440751666 0.002614710643632885
leaf_weight=537 744 531 501 1230 516 870 582 561 924
leaf_count=537 744 531 501 1230 516 870 582 561 924
internal_value=-5.77739e-07 0.0031291 -0.0005709 -8.06263e-05 0.000389743 0.000820059 4.07768e-05 -0.00177423 0.00100577
internal_weight=6996 1068 5928 5427 4683 4167 3297 1143 2154
internal_count=6996 1068 5928 5427 4683 4167 3297 1143 2154
cat_boundaries=0 1
cat_threshold=7
is_linear=0
shrinkage=0.05


Tree=68
num_leaves=9
num_cat=2
split_feature=19 58 20 23 21 58 24 21
split_gain=4.65924 11.2924 12.3126 5.09935 3.84968 2.4847 3.76949 2.31282
threshold=-0.10580322852451288 0 -1.0000000180025095e-35 -0.93470446261248674 0.9311913399295072 1 0.048547619243231928 -0.3511606614910926
decision_type=2 1 2 2 2 1 2 2
left_child=-1 -2 -3 -4 5 6 -5 -7
right_child=1 2 3 4 -6 7 -8 -9
leaf_value=-0.0036943954352000163 0.0056823218366825736 0.0060339217910671122 -0.0055159701325745297 0.0030093155693875252 -0.0044814722341957542 0.0010631779958454779 -0.0013645486731882774 -0.0029758126810739264
leaf_weight=756 870 646 618 1134 563 544 864 1001
leaf_count=756 870 646 618 1134 563 544 864 1001
internal_value=-6.55312e-07 0.000449455 -0.000412629 -0.00130051 -0.000660093 -4.73972e-05 0.00111367 -0.00154486
internal_weight=6996 6240 5370 4724 4106 3543 1998 1545
internal_count=6996 6240 5370 4724 4106 3543 1998 1545
cat_boundaries=0 1 2
cat_threshold=6 1608
is_linear=0
shrinkage=0.05


Tree=69
num_leaves=10
num_cat=2
split_feature=22 24 23 20 22 58 24 22 58
split_gain=4.97481 4.60662 5.47275 3.52265 2.69568 4.23722 2.87871 4.62567 2.87149
threshold=-1.1853089998986313 1.2127518706593452 0.91287091753746397 -0.10580330218331807 0.27048677390909509 0 -0.17483292240434672 -0.37453891882183993 1
decision_type=2 2 2 2 2 1 2 2 1
left_child=-1 2 3 -2 6 -6 7 -5 -8
right_child=1 -3 -4 4 5 -7 8 -9 -10
leaf_value=0.0041555181966993282 -0.0032537185927441824 -0.004510699225556746 0.0047830971894324377 0.00042569836089189185 -0.0011593021128863798 0.0046879998725296813 -0.0020864421966277705 -0.0052108702438489855 0.0023565507951063629
leaf_weight=648 935 618 540 758 555 679 547 694 1022
leaf_count=648 935 618 540 758 555 679 547 694 1022
internal_value=-2.9679e-07 -0.000427457 1.64838e-05 -0.000483591 0.000128226 0.00209255 -0.000676281 -0.002277 0.0008076
internal_weight=6996 6348 5730 5190 4255 1234 3021 1452 1569
internal_count=6996 6348 5730 5190 4255 1234 3021 1452 1569
cat_boundaries=0 1 2
cat_threshold=112 35
is_linear=0
shrinkage=0.05


Tree=70
num_leaves=9
num_cat=3
split_feature=25 58 20 58 25 25 23 58
split_gain=4.72366 4.13518 3.20926 5.88071 4.92014 2.36067 1.13179 1.97778
threshold=0.87012567497381643 0 -1.0000000180025095e-35 1 0.091111800310900493 -0.049032204730994018 0.45766817598893711 2
decision_type=2 1 2 1 2 2 2 1
left_child=1 -1 3 -3 5 6 7 -4
right_child=-2 2 4 -5 -6 -7 -8 -9
leaf_value=-0.0036827203156279383 0.0032483641017973909 0.0060894994632131553 0.0003063855510077859 -0.0012893466440131948 -0.0039169179269508249 0.0029836789202449358 0.00149556032675463 -0.0029194166761547426
leaf_weight=867 960 532 1208 529 879 646 607 768
leaf_count=867 960 532 1208 529 879 646 607 768
internal_value=-3.9433e-09 -0.000518904 2.18866e-05 0.00246675 -0.000611741 0.000292661 -0.000384819 -0.000964762
internal_weight=6996 6036 5169 1061 4108 3229 2583 1976
internal_count=6996 6036 5169 1061 4108 3229 2583 1976
cat_boundaries=0 1 2 3
cat_threshold=22 169 1224
is_linear=0
shrinkage=0.05


Tree=71
num_leaves=8
num_cat=1
split_feature=22 24 24 24 22 58 22
split_gain=4.43644 4.2243 4.07252 2.8881 5.74094 9.34881 2.89595
threshold=-1.1853089998986313 1.2127518706593452 0.75126254258526892 0.38919774944172342 0.79227422665970459 0 0.027650938222130887
decision_type=2 2 2 2 2 1 2
left_child=-1 2 3 4 5 -2 -7
right_child=1 -3 -4 -5 -6 6 -8
leaf_value=0.0039244778202219112 -0.0068442775536920897 -0.0043135418759936983 0.004210428915170341 -0.0034326696897857573 0.0048390719243502772 0.0013747775475160787 -0.0016589092937928937
leaf_weight=648 507 618 522 678 546 2283 1194
leaf_count=648 507 618 522 678 546 2283 1194
internal_value=-2.79102e-08 -0.000403412 2.17013e-05 -0.000401772 5.51432e-05 -0.000605729 0.000331174
internal_weight=6996 6348 5730 5208 4530 3984 3477
internal_count=6996 6348 5730 5208 4530 3984 3477
cat_boundaries=0 1
cat_threshold=6
is_linear=0
shrinkage=0.05


Tree=72
num_leaves=9
num_cat=1
split_feature=58 25 25 19 24 24 25 25
split_gain=4.72258 27.7935 16.2409 4.5019 2.29529 2.0869 2.15571 2.97599
threshold=0 -1.0000000180025095e-35 0.97774704396068046 -1.0000000180025095e-35 -0.89044524744343601 -0.56725143251985977 0.091111800310900493 -0.049032204730994018
decision_type=1 2 2 2 2 2 2 2
left_child=1 -1 3 -2 -5 -6 7 -7
right_child=2 -3 -4 4 5 6 -8 -9
leaf_value=-0.0048041549565803711 0.0040908912647679013 0.011262141797577599 -0.0079366387301012097 0.0028444423191324136 -0.0035055265229419564 -0.00039047795206180409 -0.002548018976680715 0.0035752787332456997
leaf_weight=546 700 522 657 540 535 2153 742 601
leaf_count=546 700 522 657 540 535 2153 742 601
internal_value=-5.83216e-07 0.00303607 -0.000553953 0.000371856 -0.000201522 -0.000612584 -0.000165496 0.000479872
internal_weight=6996 1068 5928 5271 4571 4031 3496 2754
internal_count=6996 1068 5928 5271 4571 4031 3496 2754
cat_boundaries=0 1
cat_threshold=7
is_linear=0
shrinkage=0.05


Tree=73
num_leaves=10
num_cat=3
split_feature=25 58 26 25 22 58 24 58 24
split_gain=4.60483 2.6755 2.48757 2.4091 2.23793 3.96657 3.64849 1.81816 1.51418
threshold=0.87012567497381643 0 -0.1869999243828149 -0.6242741957153114 0.63921660542075298 1 0.18863034672558068 2 -0.51283683568182514
decision_type=2 1 2 2 2 1 2 1 2
left_child=1 2 -1 7 5 6 8 -3 -5
right_child=-2 3 -4 4 -6 -7 -8 -9 -10
leaf_value=0.00010757939116912328 0.0032067872857231014 -0.00011170122593049913 -0.0040298829224886352 0.0043432884351619306 0.0036331491141806203 -0.0035502523136959636 -0.0024325098450803623 -0.0037629759862368504 0.0011277021113275199
leaf_weight=612 960 837 888 627 588 534 501 567 882
leaf_count=612 960 837 888 627 588 534 501 567 882
internal_value=-4.61608e-07 -0.000512793 -0.00233156 9.54796e-05 0.00086699 0.00022177 0.00124167 -0.00162187 0.00247373
internal_weight=6996 6036 1500 4536 3132 2544 2010 1404 1509
internal_count=6996 6036 1500 4536 3132 2544 2010 1404 1509
cat_boundaries=0 1 2 3
cat_threshold=530 224 1097
is_linear=0
shrinkage=0.05


Tree=74
num_leaves=10
num_cat=2
split_feature=20 58 58 21 26 21 23 26 21
split_gain=4.74811 15.9414 13.2784 4.8682 4.45633 4.10124 1.69363 2.77676 2.39775
threshold=-0.10580330218331807 0 1 -0.99488402046256863 0.9074390843341037 0.91667077266703079 -0.047459665374489639 -0.17450004991656026 -0.16388114004422497
decision_type=2 1 1 2 2 2 2 2 2
left_child=2 -2 -1 -3 5 6 7 -5 -8
right_child=1 3 -4 4 -6 -7 8 -9 -10
leaf_value=0.0017080445415908916 0.0071047983700203337 -0.004919956404455075 -0.0084100463649045432 0.00068042983386513533 0.0042187474651002015 -0.0047145025344971234 -0.0017500009411048657 -0.0036964702173971492 0.0022868662907552842
leaf_weight=738 798 538 560 877 566 500 508 611 1300
leaf_count=738 798 538 560 877 566 500 508 611 1300
internal_value=-1.02126e-06 0.000621159 -0.00272419 -0.000454472 0.000100253 -0.000518574 0.000124121 -0.00112317 0.00115092
internal_weight=6996 5698 1298 4900 4362 3796 3296 1488 1808
internal_count=6996 5698 1298 4900 4362 3796 3296 1488 1808
cat_boundaries=0 1 2
cat_threshold=6 241
is_linear=0
shrinkage=0.05


Tree=75
num_leaves=11
num_cat=0
split_feature=20 25 22 24 24 25 24 25 25 25
split_gain=4.29716 12.3416 5.72718 2.97557 2.42658 1.47032 1.91926 3.40222 2.58593 2.42527
threshold=-0.10580330218331807 0.87012567497381643 -0.24660215104149061 -0.56052540071812684 -0.84529366909528203 0.24383320749388229 -4.163336106467068e-08 -0.41412657871500475 -1.0000000180025095e-35 -0.36172707750980077
decision_type=2 2 2 2 2 2 2 2 2 2
left_child=2 3 -1 4 -2 6 7 -5 9 -8
right_child=1 -3 -4 5 -6 -7 8 -9 -10 -11
leaf_value=0.0012945239445653516 -0.00041781016310617853 0.0065634870413216785 -0.0054123570441560048 -0.00019000349930927969 -0.0051137190477937057 -0.0021289719980131412 -0.00051974017263026217 0.0051126965955789671 -0.0027068375677695776 0.0037336045445519545
leaf_weight=547 594 746 751 640 509 516 924 568 681 520
leaf_count=547 594 746 751 640 509 516 924 568 681 520
internal_value=-1.20899e-06 0.000590689 -0.00259184 -0.000314803 -0.00259812 0.000342045 0.000727213 0.00231412 -0.00017821 0.00101953
internal_weight=6996 5698 1298 4952 1103 3849 3333 1208 2125 1444
internal_count=6996 5698 1298 4952 1103 3849 3333 1208 2125 1444
is_linear=0
shrinkage=0.05


Tree=76
num_leaves=9
num_cat=0
split_feature=24 20 25 24 26 26 23 22
split_gain=3.9879 4.4099 8.05917 5.25553 2.39018 1.88286 3.23628 1.66243
threshold=-1.1509612357024672 -0.11410193760988814 0.90947187297468479 -0.58694271857841718 -0.5577002274176921 0.36588785007541968 1.0000000180025095e-35 0.31169870490513901
decision_type=2 2 2 2 2 2 2 2
left_child=-1 -2 3 -3 7 6 -6 -5
right_child=1 2 -4 4 5 -7 -8 -9
leaf_value=0.004106180147575471 -0.0037360041294498682 -0.0039725754065219844 0.0056903040648085433 0.0004826666831411421 0.00057802074345292775 0.001515939212311712 -0.0032722359298301739 0.0043472478793533543
leaf_weight=540 831 887 584 620 1147 851 1034 502
leaf_count=540 831 887 584 620 1147 851 1034 502
internal_value=-1.14089e-06 -0.000347602 0.000155851 -0.000490318 0.000257127 -0.000472943 -0.00125067 0.00222336
internal_weight=6996 6456 5625 5041 4154 3032 2181 1122
internal_count=6996 6456 5625 5041 4154 3032 2181 1122
is_linear=0
shrinkage=0.05


Tree=77
num_leaves=11
num_cat=2
split_feature=22 25 22 20 58 58 24 24 25 25
split_gain=3.96948 9.7102 6.48071 5.30791 4.69491 4.6427 9.13369 4.40532 2.32553 1.40966
threshold=-0.28698911960596751 0.67631941803676432 -0.11346842915855189 -0.10580330673459863 0 1 -4.163336106467068e-08 0.45889340802160361 -0.42156240253472127 -0.50746113782484714
decision_type=2 2 2 2 1 1 2 2 2 2
left_child=1 4 -2 -4 -1 6 -5 -8 -6 -7
right_child=2 -3 3 5 8 9 7 -9 -10 -11
leaf_value=-0.0036603475111354439 -0.0061904394146615792 0.0077924748614850081 -0.0046368627829948888 0.0071536342859237489 -0.00070426918014621477 0.00051037939731887652 -0.0030708257054389869 0.002646297865524708 0.0034640681626629741 -0.0026649302931779878
leaf_weight=588 504 501 574 617 591 539 661 677 762 982
leaf_count=588 504 501 574 617 591 539 661 677 762 982
internal_value=-8.7883e-07 0.00162362 -0.000872812 -0.000204246 1.54195e-05 0.000533331 0.00213663 -0.000178998 0.00163538 -0.00153167
internal_weight=6996 2442 4554 4050 1941 3476 1955 1338 1353 1521
internal_count=6996 2442 4554 4050 1941 3476 1955 1338 1353 1521
cat_boundaries=0 1 2
cat_threshold=534 582
is_linear=0
shrinkage=0.05


Tree=78
num_leaves=9
num_cat=1
split_feature=58 26 19 24 26 24 26 26
split_gain=3.93428 8.22455 5.26735 5.02414 2.11953 3.32075 4.7335 5.89242
threshold=0 -0.062507811312170578 -1.0000000180025095e-35 1.0075840096541178 -0.96746928226650508 -0.92058663182438416 -0.56380709983131749 0.9074390843341037
decision_type=1 2 2 2 2 2 2 2
left_child=1 -1 -2 4 -4 -6 -7 -8
right_child=2 -3 3 -5 5 6 7 -9
leaf_value=0.0071306268760601118 0.0032325407710431086 -0.0016124459217674335 -0.0036129636631125409 -0.0057047287748053163 -0.0035788275164801171 0.0042613891305119224 -0.0015313955370891803 0.0044050871328705074
leaf_weight=537 808 531 503 526 609 644 2334 504
leaf_count=537 808 531 503 526 609 644 2334 504
internal_value=-1.07349e-06 0.00277057 -0.000506149 -0.00109973 -0.000566838 -0.000188355 0.000408918 -0.000471243
internal_weight=6996 1068 5928 5120 4594 4091 3482 2838
internal_count=6996 1068 5928 5120 4594 4091 3482 2838
cat_boundaries=0 1
cat_threshold=7
is_linear=0
shrinkage=0.05


Tree=79
num_leaves=8
num_cat=1
split_feature=19 25 20 26 26 21 58
split_gain=3.90451 10.4876 4.67458 3.46528 2.80494 3.76795 4.10653
threshold=-0.10580322852451288 1.3201287114751368 -1.0000000180025095e-35 1.0826679756004252 0.36588785007541968 -0.62610191910687674 0
decision_type=2 2 2 2 2 2 1
left_child=-1 2 -2 4 5 -4 -7
right_child=1 -3 3 -5 -6 6 -8
leaf_value=-0.003382276125012379 0.0037281731548865719 0.0072027834766900129 0.002472421520154513 -0.0046461553293320719 0.0026876803280233789 2.5416176695152062e-05 -0.0035997960798066658
leaf_weight=756 662 516 712 502 670 1818 1360
leaf_count=756 662 516 712 502 670 1818 1360
internal_value=-9.13084e-07 0.000411132 -0.000206865 -0.000724654 -0.000288329 -0.000803698 -0.00154041
internal_weight=6996 6240 5724 5062 4560 3890 3178
internal_count=6996 6240 5724 5062 4560 3890 3178
cat_boundaries=0 1
cat_threshold=1612
is_linear=0
shrinkage=0.05


Tree=80
num_leaves=9
num_cat=1
split_feature=19 25 26 21 58 22 23 25
split_gain=3.52605 9.47515 4.19007 5.38258 2.4587 1.98695 4.09571 2.33403
threshold=-0.10580322852451288 1.3201287114751368 0.93575102802532617 -0.62610191910687674 0 -0.084628850119907048 1.0000000180025095e-35 -0.27044344698984735
decision_type=2 2 2 2 1 2 2 2
left_child=-1 2 3 -2 -5 7 -7 -6
right_child=1 -3 -4 4 5 6 -8 -9
leaf_value=-0.003214273349047041 0.0036093277046503969 0.0068461005326589282 -0.0038450476641181622 -0.0028132307371996766 0.000595248298719931 0.0037281631625770816 -0.00076528993968997356 -0.0040678656052175926
leaf_weight=756 985 516 687 882 569 844 1256 501
leaf_count=756 985 516 687 882 569 844 1256 501
internal_value=-9.62395e-07 0.000390604 -0.000196805 0.000304101 -0.000502824 0.000151809 0.00104522 -0.0015969
internal_weight=6996 6240 5724 5037 4052 3170 2100 1070
internal_count=6996 6240 5724 5037 4052 3170 2100 1070
cat_boundaries=0 1
cat_threshold=146
is_linear=0
shrinkage=0.05


Tree=81
num_leaves=11
num_cat=0
split_feature=21 25 26 23 23 23 26 23 25 21
split_gain=3.49982 11.6192 1.91884 2.80409 3.39783 3.37388 2.178 1.49258 1.82117 3.04725
threshold=-0.91525954949589383 0.90947187297468479 -0.40811922005593643 -0.41853355704236789 0.053715973720490633 0.54324696589723287 -0.0177179334444106 0.53611535537910637 -1.0000000180025095e-35 1.0000000180025095e-35
decision_type=2 2 2 2 2 2 2 2 2 2
left_child=-1 2 3 -2 -5 -6 -4 8 9 -8
right_child=1 -3 6 4 5 -7 7 -9 -10 -11
leaf_value=-0.0028700148860191402 0.0039694491223874195 0.0065186972744015834 -0.0031591958876266341 -0.0035850731634913648 0.0042794032322550279 -0.001398641381386098 0.0028614392248739822 0.0021140220424338894 -0.0027757939054865004 -0.0023520897709546833
leaf_weight=918 528 690 918 504 510 528 579 501 786 534
leaf_count=918 528 690 918 504 510 528 579 501 786 534
internal_value=-1.11265e-06 0.000434199 -0.000350317 0.000843051 -0.000236836 0.00139829 -0.00109497 -0.00030048 -0.00094136 0.000360737
internal_weight=6996 6078 5388 2070 1542 1038 3318 2400 1899 1113
internal_count=6996 6078 5388 2070 1542 1038 3318 2400 1899 1113
is_linear=0
shrinkage=0.05


Tree=82
num_leaves=11
num_cat=0
split_feature=22 25 22 20 22 23 21 22 22 21
split_gain=3.43185 7.87252 5.82315 4.93109 3.57546 2.68108 2.6574 2.83846 1.3687 1.22314
threshold=-0.28698911960596751 0.67631941803676432 -0.11346842915855189 -0.10580330673459863 1.2294140992166696 -0.75653436588816148 -0.3511606614910926 0.65233781751035869 -0.63512585209061234 0.35530889733633431
decision_type=2 2 2 2 2 2 2 2 2 2
left_child=1 5 -2 -4 6 -1 -5 9 -7 -8
right_child=2 -3 3 4 -6 8 7 -9 -10 -11
leaf_value=-0.0022868253780677803 -0.0058522994012711622 0.007064091450978336 -0.0044503418366695774 0.0030463858942450951 0.0043611485939939474 -0.00035010862286199176 0.0010964602463733907 -0.0037955101071520479 0.0030406763132913672 -0.0016060174042402246
leaf_weight=744 504 501 574 532 514 537 1185 604 660 641
leaf_count=744 504 501 574 532 514 537 1185 604 660 641
internal_value=-9.2833e-07 0.00150956 -0.000811667 -0.000177945 0.000532945 6.13868e-05 -0.000137599 -0.000839493 0.00152437 0.000145986
internal_weight=6996 2442 4554 4050 3476 1941 2962 2430 1197 1826
internal_count=6996 2442 4554 4050 3476 1941 2962 2430 1197 1826
is_linear=0
shrinkage=0.05


Tree=83
num_leaves=9
num_cat=1
split_feature=58 26 19 24 23 23 24 24
split_gain=3.47869 7.10213 5.4301 4.78049 2.06064 3.973 3.59758 4.69904
threshold=0 -0.062507811312170578 -1.0000000180025095e-35 1.0075840096541178 -1.048317030611742 -0.69746096983659667 -0.56725143251985977 0.038135734958388783
decision_type=1 2 2 2 2 2 2 2
left_child=1 -1 -2 4 -4 -6 -7 -8
right_child=2 -3 3 -5 5 6 7 -9
leaf_value=0.0066572288566310216 0.0033202095016335088 -0.0014675619969849907 -0.0033952890334773508 -0.0055704051424927221 0.0038943763713136185 -0.004408651400420501 0.0017875900560384501 -0.002204894968094037
leaf_weight=537 808 531 557 526 520 564 1582 1371
leaf_count=537 808 531 557 526 520 564 1582 1371
internal_value=-8.72381e-07 0.00260536 -0.000475806 -0.00107845 -0.000558634 -0.000163534 -0.000768186 -6.66092e-05
internal_weight=6996 1068 5928 5120 4594 4037 3517 2953
internal_count=6996 1068 5928 5120 4594 4037 3517 2953
cat_boundaries=0 1
cat_threshold=7
is_linear=0
shrinkage=0.05


Tree=84
num_leaves=8
num_cat=0
split_feature=19 25 20 23 23 25 24
split_gain=3.39993 7.63088 4.27309 3.27082 3.54416 4.32876 3.31535
threshold=-0.10580322852451288 1.3201287114751368 -1.0000000180025095e-35 -0.93470446261248674 -0.41853355704236789 0.11035011085647105 -0.22539410181326125
decision_type=2 2 2 2 2 2 2
left_child=-1 2 -2 -4 -5 6 -6
right_child=1 -3 3 4 5 -7 -8
leaf_value=-0.0031562022194436125 0.0036186397616015651 0.0061768849626998648 -0.0043791930332516844 0.0024466006292604499 -0.0032342164994472369 -0.004425047082221723 0.0008450520631130957
leaf_weight=756 662 516 519 981 637 708 2217
leaf_count=756 662 516 519 981 637 708 2217
internal_value=-8.7829e-07 0.000383622 -0.000143557 -0.000638656 -0.000206986 -0.000940207 -6.94863e-05
internal_weight=6996 6240 5724 5062 4543 3562 2854
internal_count=6996 6240 5724 5062 4543 3562 2854
is_linear=0
shrinkage=0.05


Tree=85
num_leaves=9
num_cat=3
split_feature=20 58 58 25 26 26 25 58
split_gain=3.30638 12.7594 9.23652 7.0104 1.8635 3.02612 2.40759 3.22604
threshold=-0.10580330218331807 0 1 0.95309944642279787 -0.85157352346051174 -0.56380709983131749 1.0000000180025095e-35 2
decision_type=2 1 1 2 2 2 2 1
left_child=2 -2 -1 4 -3 -6 7 -7
right_child=1 3 -4 -5 5 6 -8 -9
leaf_value=-0.0061256713594738804 0.0063189340989892387 -0.0022745859912230303 0.002258009488605313 -0.005951717072049412 0.0039416187284415467 0.0024073301376724629 -0.0023689031717220297 -0.0012862147698986894
leaf_weight=696 798 642 602 512 578 1351 786 1031
leaf_count=696 798 642 602 512 578 1351 786 1031
internal_value=-9.09626e-07 0.000518287 -0.00227334 -0.000443846 0.000203855 0.000631083 2.18184e-05 0.000814006
internal_weight=6996 5698 1298 4900 4388 3746 3168 2382
internal_count=6996 5698 1298 4900 4388 3746 3168 2382
cat_boundaries=0 1 2 3
cat_threshold=6 1574 1608
is_linear=0
shrinkage=0.05


Tree=86
num_leaves=9
num_cat=1
split_feature=22 21 25 58 19 21 24 22
split_gain=3.26115 13.1815 4.59249 4.9364 3.68677 4.35977 3.72094 3.04275
threshold=-0.79954974659879119 -0.42713237605878246 1.0240300433350542 0 -1.0000000180025095e-35 -0.54376934990624182 -0.37747439970895147 0.49369275264258428
decision_type=2 2 2 1 2 2 2 2
left_child=1 -1 3 -2 -5 -6 -7 -8
right_child=2 -3 -4 4 5 6 7 -9
leaf_value=-0.0018299047090595091 -0.003743102553808786 0.0085548057467511058 -0.0049432162651001426 0.0044004414453086248 0.0036095064317481201 -0.0038696065877294574 0.0015310897734628107 -0.0020957342382055284
leaf_weight=768 759 501 525 549 697 728 1555 914
leaf_count=768 759 501 525 549 697 728 1555 914
internal_value=-7.19026e-07 0.00228745 -0.00050929 -5.74889e-05 0.000582731 4.1029e-05 -0.000741381 0.000186952
internal_weight=6996 1269 5727 5202 4443 3894 3197 2469
internal_count=6996 1269 5727 5202 4443 3894 3197 2469
cat_boundaries=0 1
cat_threshold=22
is_linear=0
shrinkage=0.05


Tree=87
num_leaves=8
num_cat=1
split_feature=21 25 58 25 26 25 26
split_gain=3.17415 10.4724 3.6272 2.60552 2.37966 2.36993 2.78085
threshold=-0.91525954949589383 0.90947187297468479 0 0.091111800310900493 -0.85157352346051174 -0.085319098090531467 -0.40811922005593643
decision_type=2 2 1 2 2 2 2
left_child=-1 2 -2 4 -4 6 -6
right_child=1 -3 3 -5 5 -7 -8
leaf_value=-0.0027330545866164459 -0.0034636558920067722 0.006190117947504313 -0.0023232244795446323 -0.0021962879900192323 0.0031196308443305772 0.0039835713706518781 -0.00047790675679688195
leaf_weight=918 774 690 522 903 765 651 1773
leaf_count=918 774 690 522 903 765 651 1773
internal_value=-8.92779e-07 0.000413671 -0.000331128 0.000204591 0.000791518 0.0013042 0.000610459
