tree
version=v4
num_class=1
num_tree_per_iteration=1
label_index=0
max_feature_idx=58
objective=regression
feature_names=market_cap pe_ratio pb_ratio ps_ratio profit_margins operating_margins gross_margins return_on_equity return_on_assets revenue_growth earnings_growth debt_to_equity current_ratio quick_ratio dividend_yield payout_ratio enterprise_to_ebitda enterprise_to_revenue beta vix treasury_10y returns_1m returns_3m returns_6m returns_1y volatility volume_trend log_market_cap fcf_yield ocf_yield earnings_yield profit_margins_missing operating_margins_missing gross_margins_missing return_on_equity_missing return_on_assets_missing revenue_growth_missing earnings_growth_missing current_ratio_missing quick_ratio_missing debt_to_equity_missing pe_ratio_missing pb_ratio_missing ps_ratio_missing enterprise_to_ebitda_missing enterprise_to_revenue_missing dividend_yield_missing payout_ratio_missing market_cap_missing beta_missing vix_missing treasury_10y_missing returns_1m_missing returns_3m_missing returns_6m_missing returns_1y_missing volatility_missing volume_trend_missing sector
feature_infos=none none none none none none none none none none none none none none none none none none none [-6.614588833337443:8.4025463640795763] [-3.6983648385694061:8.4025462332193257] [-4.5621625804103125:5.54222599592722] [-3.5658257639704423:5.450164897771133] [-3.4775186058033647:5.1057915512929659] [-2.85584165083496:6.728605649040853] [-1.6102842911520927:5.9259882211284962] [-2.2092632165291861:7.7554980407483693] none none none none none none none none none none none none none none none none none none none none none none none none none none none none none none none -1:9:6:5:7:3:2:1:10:4:0:8
tree_sizes=1566 1454 1534 1516 1647 1461 1469 1741 1626 1371 1824 1199 1193 1542 1284 1288 1440 1192 1277 1665 1383 1394 1647 1004 1085 1380 1012 1092 1664 1183 1467 1471 1192 1582 1087 1830 1178 1012 1369 1897 1365 1088 1280 1280 1273 1196 1092 1196 1167 1272 1079 982 1538 1180 1470 986 1644 1453 1161 1076 1185 1012 1286 1459 1003 1642 1104 1375 1378 1278 1083 1741 1191 1088 1292 1273 1466 1183 1169 1089 1460 1188 1084 1289 1273 1172 1103 1171 986 1093 1279 1009 1737 1462 1083 1749 903 909 1364 1014 1647 1269 997 1079 1264 1086 1007 897 898 1288 1269 899 1278 1396 1283 1184 899 1084 1089 1897 1011 1090 1187 1083 987 1078 1385 1741 1374 1197 1084 1190 997 896 897 898 993 1282 1081 1280 1467 1628 999 1088 993 1182 900 1091 918 902 990 1465 1537 1370 1270 1109 1293 1735 1474 1010 891 901 1460 1187 986 988 1363 892 995 1279 989 902 1101 1099 1285 897 894 1287 904 995 897 900 895 1384 919 1278 1480 1376 1110 1392 1389 901 896 1000 1181 1000 1191 1560 1105 1105 1120 1459 1186 1110 1015 908 918 906 1093 1380 1106 997 918 1376 1014 1533 996 901 921 1858 1089 992 1186 999 1837 1261 1109 1737 1207 1377 1194 896 1113 1457 1173 1013 1001 997 903 1288 1474 991 1088 917 1093 897 1376 899 1105 1009 1276 1010 1014 906 1109 905 1659 992 1106 1665 1565 1011 1088 1290 1568 1471 1290 1185 1206 1095 992 1300 1200 902 1390 1209 1093 1102 1293 1944 921 1745 1101 994 1746 1381 1477 1101 1571 1110 1300 1300 1189 1658 1763 1292 1382 1285 1092 1106 1108 897 896 1007 1011 898 896 1170 906 1478 1754 1563 999 897 1287 1098 1280 1013 1092 898 899 1396

Tree=0
num_leaves=16
num_cat=2
split_feature=25 19 58 24 19 25 25 58 22 24 24 25 23 25 22
split_gain=35.1118 14.9446 15.5542 8.65162 6.48078 3.80284 1.99362 2.85846 1.29963 1.26138 1.22272 1.07329 0.726451 0.570094 0.549513
threshold=1.2415026609989386 -0.15047786366828533 0 -0.33425796371590139 1.0000000180025095e-35 -0.026919969072868349 -0.62142996342136148 1 0.071511864002450312 0.17919310214082632 -0.17973962404044394 0.20878321831427565 -0.1745083851085539 0.047655304839504385 -0.11545105572188299
decision_type=8 10 1 10 10 10 10 1 10 10 10 10 10 10 10
left_child=1 -1 5 -2 6 12 9 11 -9 14 -7 -8 -3 -12 -4
right_child=3 2 4 -5 -6 10 7 8 -10 -11 13 -13 -14 -15 -16
leaf_value=0.16715490311184694 0.18848730581532322 0.17768099940105736 0.17196034274051367 0.17970726442832335 0.17863271155499702 0.1777500527883355 0.17460921077323513 0.17365371036597785 0.17110760468877412 0.17031246035368722 0.17953170119218637 0.1771084566545468 0.17538548880407442 0.18188363138916777 0.17402523788926982
leaf_weight=610 544 559 648 588 645 511 1576 1364 802 672 556 585 884 559 663
leaf_count=610 544 559 648 588 645 511 1576 1364 802 672 556 585 884 559 663
internal_value=0.175613 0.174721 0.175185 0.183965 0.173878 0.178143 0.173387 0.173992 0.172716 0.172075 0.179805 0.175289 0.176279 0.180734 0.172995
internal_weight=11766 10634 10024 1132 6955 3069 6310 4327 2166 1983 1626 2161 1443 1115 1311
internal_count=11766 10634 10024 1132 6955 3069 6310 4327 2166 1983 1626 2161 1443 1115 1311
cat_boundaries=0 1 2
cat_threshold=518 192
is_linear=0
shrinkage=1


Tree=1
num_leaves=14
num_cat=2
split_feature=25 19 58 20 25 24 21 25 58 25 26 25 26
split_gain=31.984 18.1344 15.8101 10.6782 4.50003 3.51642 2.42216 4.79927 1.62448 1.42858 1.25556 1.0747 0.436065
threshold=1.9721361960097452 -0.15047786366828533 0 -0.14579116734514722 -0.026919969072868349 0.33879807640514004 0.69755187877840574 0.047655304839504385 1 -0.37698716230349544 -0.2959737731298398 0.22739705484081077 -0.40451973287961057
decision_type=8 10 1 10 10 10 10 10 1 10 10 10 10
left_child=1 -1 4 -4 12 11 7 10 -9 -8 -5 -6 -3
right_child=-2 2 3 6 5 -7 9 8 -10 -11 -12 -13 -14
leaf_value=-0.0085386641622772746 0.011177832567281838 0.0016972384603281593 0.0049501023849934968 -0.0035234846934363768 0.0043439291461054037 0.0078561788579172721 -0.0020543433007633857 0.0026384410975533058 -0.00081906115428949074 -0.0056271440808436969 -0.0017121081382472101 0.001547125886356317 -7.4123368039727216e-05
leaf_weight=672 602 573 597 1575 721 514 503 710 632 651 2478 668 870
leaf_count=672 602 573 597 1575 721 514 503 710 632 651 2478 668 870
internal_value=1.95e-07 -0.000607275 -9.54533e-05 -0.00142304 0.00273383 0.00433557 -0.00200951 -0.0015621 0.00102668 -0.00408543 -0.00241949 0.00300926 0.000632697
internal_weight=11766 11164 10492 7146 3346 1903 6549 5395 1342 1154 4053 1389 1443
internal_count=11766 11164 10492 7146 3346 1903 6549 5395 1342 1154 4053 1389 1443
cat_boundaries=0 1 2
cat_threshold=518 192
is_linear=0
shrinkage=0.05


Tree=2
num_leaves=15
num_cat=3
split_feature=25 19 58 20 25 20 21 25 58 25 25 23 25 58
split_gain=29.1813 12.0802 12.6657 7.23783 4.78747 3.3535 2.38495 3.42753 2.24639 2.04471 1.26654 0.887453 0.821397 0.813277
threshold=1.2415026609989386 -0.15047786366828533 0 -0.14579116734514722 2.1063403347650449 -0.11868002853356478 0.58188429358229954 -0.053261271069072948 1 -0.026919969072868349 -0.13728997110625116 -0.08009700873750164 0.22739705484081077 2
decision_type=8 10 1 10 8 10 10 10 1 10 10 10 10 1
left_child=1 -1 5 -4 -2 -3 7 13 -9 11 -8 -7 -11 -5
right_child=4 2 3 6 -6 9 10 8 -10 12 -12 -13 -14 -15
leaf_value=-0.0076153083997248577 0.0045481210203493034 0.0059994880028942255 0.0038140199915668764 -0.0033364436252598961 0.011119962806161317 0.0015563556353194096 -0.00270890245365975 0.0022820559267892073 -0.0013291107532454932 0.003936469545566648 -0.0059122794405200426 -0.0012054646210534906 0.0014847819755426069 -0.0017201866379244685
leaf_weight=610 610 502 567 1557 522 512 829 750 971 762 504 660 633 1777
leaf_count=610 610 502 567 1557 522 512 829 750 971 762 504 660 633 1777
internal_value=5.14469e-07 -0.000813165 -0.000395637 -0.0015752 0.00761417 0.00227345 -0.00205862 -0.00155972 0.000252184 0.00154338 -0.00393765 2.55046e-06 0.00283326 -0.002494
internal_weight=11766 10634 10024 6955 1132 3069 6388 5055 1721 2567 1333 1172 1395 3334
internal_count=11766 10634 10024 6955 1132 3069 6388 5055 1721 2567 1333 1172 1395 3334
cat_boundaries=0 1 2 3
cat_threshold=518 192 176
is_linear=0
shrinkage=0.05


Tree=3
num_leaves=15
num_cat=4
split_feature=25 19 58 25 58 24 21 21 25 58 25 22 58 25
split_gain=26.5706 9.66595 9.34611 7.4029 3.38658 2.8448 2.20246 2.06274 1.93517 2.71475 1.90247 1.49567 1.18118 1.03425
threshold=0.83754403783026732 -0.15047786366828533 0 1.9721361960097452 1 0.40233402589211659 -0.1282250435133426 0.099589712035055081 -0.67531381054238937 2 0.035078109907802031 0.085912781408085823 3 -0.43267958198198803
decision_type=8 10 1 8 1 10 10 10 10 1 10 10 1 10
left_child=1 -1 6 4 -2 8 -3 -8 12 10 -10 -11 -4 -7
right_child=3 2 5 -5 -6 13 7 -9 9 11 -12 -13 -14 -15
leaf_value=-0.0072218183542088589 0.0005952607925016753 0.00024021674718447224 -0.004161732279893568 0.010115433211900185 0.0059805734423987039 -0.0047356316190440596 0.0057758476790006306 0.0018416150308093017 -0.00011558541318018599 -0.0009005865507361265 0.0032193496836705505 -0.004062708673116408 -0.001282756123920811 -0.0021477320227721777
leaf_weight=583 602 960 620 602 573 756 536 887 1546 1273 586 527 900 815
leaf_count=583 602 960 620 602 573 756 536 887 1546 1273 586 527 900 815
internal_value=5.46216e-07 -0.00100235 -0.000613225 0.0056251 0.0032914 -0.00153031 0.00208476 0.00333855 -0.000990539 -0.000403594 0.000802684 -0.00182496 -0.00250257 -0.00340416
internal_weight=11766 9989 9406 1777 1175 7023 2383 1423 5452 3932 2132 1800 1520 1571
internal_count=11766 9989 9406 1777 1175 7023 2383 1423 5452 3932 2132 1800 1520 1571
cat_boundaries=0 1 2 3 4
cat_threshold=516 656 195 192
is_linear=0
shrinkage=0.05


Tree=4
num_leaves=16
num_cat=2
split_feature=25 19 20 58 24 20 19 25 24 25 58 23 25 25 24
split_gain=24.0272 10.7684 16.2069 6.91111 5.60514 5.40881 5.13704 1.91153 1.57922 1.59406 2.26125 0.894487 0.83817 0.80184 0.727634
threshold=1.1035630983684399 -0.14082245092512977 -0.12975125211304417 0 0.12646485079411043 -0.14579116734514722 0.15544655505549945 -0.026919969072868349 0.43858453004967485 -0.053261271069072948 1 -0.08009700873750164 0.22739705484081077 -0.26078403623558172 0.83606131928125937
decision_type=8 10 10 1 10 10 10 10 10 10 1 10 10 10 10
left_child=1 5 6 7 -2 -1 -3 11 9 13 -11 -4 -9 -5 -10
right_child=4 2 3 8 -6 -7 -8 12 14 10 -12 -13 -14 -15 -16
leaf_value=-0.0091344166716627526 0.0094731057242884234 0.0089876799333092807 0.0012798017835410026 -0.0018021979313858157 0.0027330065925988399 -0.0021787643503843744 0.0020196934763417273 0.0035423423683400763 -0.0049654862687068578 0.0020734175313546132 -0.0018193589271967047 -0.0014506432310104221 0.001046320709617442 -0.0039566889687214658 -0.0023939884056982407
leaf_weight=516 702 538 524 2575 557 612 523 769 528 629 872 688 605 521 607
leaf_count=516 702 538 524 2575 557 612 523 769 528 629 872 688 605 521 607
internal_value=6.33634e-07 -0.000782532 -0.000226199 -0.000969525 0.00651379 -0.00538687 0.00557853 0.0011733 -0.00193511 -0.00152312 -0.000184921 -0.000269746 0.00245107 -0.00217055 -0.00360678
internal_weight=11766 10507 9379 8318 1259 1128 1061 2586 5732 4597 1501 1212 1374 3096 1135
internal_count=11766 10507 9379 8318 1259 1128 1061 2586 5732 4597 1501 1212 1374 3096 1135
cat_boundaries=0 1 2
cat_threshold=518 192
is_linear=0
shrinkage=0.05


Tree=5
num_leaves=14
num_cat=2
split_feature=25 19 58 19 25 26 21 25 25 58 26 23 25
split_gain=22.2255 12.7781 11.0638 6.00077 3.39102 2.20764 1.87881 3.14312 1.35054 1.26236 1.102 0.554148 0.442791
threshold=1.9721361960097452 -0.15047786366828533 0 1.0000000180025095e-35 -0.026919969072868349 -0.50477205918759416 0.69755187877840574 0.047655304839504385 -0.37698716230349544 1 -0.2959737731298398 -0.1745083851085539 0.22739705484081077
decision_type=8 10 1 10 10 10 10 10 10 1 10 10 10
left_child=1 -1 4 6 11 -6 7 10 -8 -9 -4 -3 -7
right_child=-2 2 3 -5 5 12 8 9 -10 -11 -12 -13 -14
leaf_value=-0.007163512987292584 0.009318406237028478 0.0016916550978265229 -0.0030011507972942807 0.0032745703612556652 0.0063717888426410218 0.0035092179923813744 -0.0015359285025509524 0.0022830107120658579 -0.0050224093835824135 -0.00078068882093690979 -0.0012955019065327457 -0.00031279505072559651 0.0016848581700978059
leaf_weight=672 602 559 1553 677 542 668 501 698 636 628 2453 884 693
leaf_count=672 602 559 1553 677 542 668 501 698 636 628 2453 884 693
internal_value=6.86095e-07 -0.000505703 -7.60692e-05 -0.00118665 0.00229072 0.00368087 -0.00165753 -0.00126182 -0.0034996 0.000845833 -0.00195965 0.000466864 0.00258985
internal_weight=11766 11164 10492 7146 3346 1903 6469 5332 1137 1326 4006 1443 1361
internal_count=11766 11164 10492 7146 3346 1903 6469 5332 1137 1326 4006 1443 1361
cat_boundaries=0 1 2
cat_threshold=518 192
is_linear=0
shrinkage=0.05


Tree=6
num_leaves=14
num_cat=1
split_feature=25 20 58 25 22 20 21 25 23 21 21 24 22
split_gain=20.3584 7.16705 6.72736 5.74589 4.97305 3.23429 2.00479 1.83889 2.24882 2.08695 1.82927 1.30593 0.534346
threshold=0.83754403783026732 -0.16458508598253754 0 2.1063403347650449 0.079242529827172517 -0.14082247539942463 -0.1282250435133426 -0.62142996342136148 0.75439325522396838 0.69755187877840574 0.099589712035055081 0.17919310214082632 -0.11545105572188299
decision_type=8 10 1 8 10 10 10 10 10 10 10 10 10
left_child=1 -1 6 4 -2 -4 -3 11 9 -9 -8 12 -7
right_child=3 2 5 -5 -6 7 10 8 -10 -11 -12 -13 -14
leaf_value=-0.0055711321079372211 0.0058923971843424724 3.7544413879082846e-05 0.0024613190221287468 0.0093128228773039536 -0.00042232050450558082 -0.0029326519983211459 0.0053227258761577335 -0.00095407915996020994 0.0020574884264053599 -0.0042850962953472687 0.0015932500264808911 -0.0046155079208357735 -0.00092700218492914948
leaf_weight=747 692 946 528 522 563 657 529 3281 520 545 873 683 680
leaf_count=747 692 946 528 522 563 657 529 3281 520 545 873 683 680
internal_value=9.07212e-07 -0.000876956 -0.000494735 0.00492423 0.00306915 -0.00128119 0.00180995 -0.00159529 -0.00101396 -0.00143354 0.00301436 -0.00284044 -0.00191983
internal_weight=11766 9989 9242 1777 1255 6894 2348 6366 4346 3826 1402 2020 1337
internal_count=11766 9989 9242 1777 1255 6894 2348 6366 4346 3826 1402 2020 1337
cat_boundaries=0 1
cat_threshold=516
is_linear=0
shrinkage=0.05


Tree=7
num_leaves=17
num_cat=0
split_feature=25 19 20 25 20 25 21 25 26 25 21 25 26 21 23 21
split_gain=18.3886 6.91989 10.3975 5.19151 3.44181 2.96336 2.02409 1.86333 0.804781 0.739883 1.27106 1.01286 0.73768 0.715687 0.648122 0.181176
threshold=0.83754403783026732 -0.14082245092512977 -0.12975125211304417 2.1063403347650449 -0.14579116734514722 -1.0000000180025095e-35 0.119432370110288 0.26884135600883319 -0.34166529314428923 -0.67531381054238937 0.35615748564994459 -0.32791661189064886 -0.18123716703379392 0.13051679114701317 -0.030327686988909097 -0.34859542774833224
decision_type=8 10 10 8 10 10 10 10 10 10 10 10 10 10 10 10
left_child=1 4 -3 6 -1 9 -2 14 -9 10 15 13 -13 -11 -7 -4
right_child=3 2 5 -5 -6 7 -8 8 -10 11 -12 12 -14 -15 -16 -17
leaf_value=-0.0076248156296979249 0.0048372986049588368 0.0044549418648321465 -0.00091978036200938127 0.0088515995039853794 -0.0019559196125751794 0.0028225612630553296 0.00081748180734728896 6.3603749811136365e-05 -0.0027248455950581105 -0.0012784795931895848 -0.0043323061059284572 -0.001081814519550291 -0.0033147234019405888 0.00079100178497943014 0.00070400683856284814 -0.0021077678478921701
leaf_weight=500 652 986 595 522 580 502 603 507 523 957 616 770 720 734 1272 727
leaf_count=500 652 986 595 522 580 502 603 507 523 957 616 770 720 734 1272 727
internal_value=1.00989e-06 -0.000833304 -0.000373939 0.00468009 -0.00460345 -0.000977314 0.00291677 0.000328908 -0.0013586 -0.00169244 -0.00246275 -0.00122 -0.00216828 -0.000380511 0.00130976 -0.00157856
internal_weight=11766 9989 8909 1777 1080 7923 1255 2804 1030 5119 1938 3181 1490 1691 1774 1322
internal_count=11766 9989 8909 1777 1080 7923 1255 2804 1030 5119 1938 3181 1490 1691 1774 1322
is_linear=0
shrinkage=0.05


Tree=8
num_leaves=16
num_cat=4
split_feature=25 19 20 25 58 58 20 24 25 25 58 58 21 25 26
split_gain=16.6112 6.25146 9.38916 4.73873 4.63715 3.17618 3.10963 1.46386 1.3047 0.891575 1.44324 0.794846 0.536801 0.449153 0.304369
threshold=0.83754403783026732 -0.14082245092512977 -0.12975125211304417 1.9721361960097452 0 1 -0.14579116734514722 0.43858453004967485 -0.026919969072868349 -0.053261271069072948 2 3 0.26256113160191868 0.11576501377870076 -0.20740086535415489
decision_type=8 10 8 8 1 1 10 10 10 10 1 1 10 10 10
left_child=1 6 -3 5 8 -2 -1 9 14 11 -11 -6 -9 -10 -4
right_child=3 2 4 -5 7 -7 -8 12 13 10 -12 -13 -14 -15 -16
leaf_value=-0.0072473497443491285 -3.8057395500075106e-06 0.0042333186134192284 0.00052973987482488158 0.0080405212964868716 -0.002708808964323101 0.0051841988231429237 -0.0018589595104687108 -0.0022250494750151186 0.0029214897167050276 0.0016400166127321304 -0.0016266652238370904 -0.0010674482695840325 -0.0044959592341483048 0.00094005382845740353 -0.0010491881078221075
leaf_weight=500 602 986 620 602 1336 573 580 536 681 570 787 1760 539 502 592
leaf_count=500 602 986 620 602 1336 573 580 536 681 570 787 1760 539 502 592
internal_value=9.16948e-07 -0.000792052 -0.000355436 0.00444812 -0.000928807 0.00258132 -0.00437549 -0.00172272 0.000906835 -0.00132335 -0.000253433 -0.00179114 -0.00337922 0.00208817 -0.000242628
internal_weight=11766 9989 8909 1777 7923 1175 1080 5528 2395 4453 1357 3096 1075 1183 1212
internal_count=11766 9989 8909 1777 7923 1175 1080 5528 2395 4453 1357 3096 1075 1183 1212
cat_boundaries=0 1 2 3 4
cat_threshold=518 656 192 160
is_linear=0
shrinkage=0.05


Tree=9
num_leaves=13
num_cat=1
split_feature=19 58 22 22 19 21 22 22 19 22 21 26
split_gain=14.5561 16.0499 11.0079 6.59815 5.22408 2.67124 1.84395 1.36904 1.51654 1.05209 2.70039 0.964448
threshold=-0.15047786366828533 0 1.1724161998033817 -0.94490965662391757 1.0000000180025095e-35 -1.1760118088083225 1.0108727959625525 0.73027855842767397 -0.11868003337050111 0.011300449867836137 -0.1282250435133426 -0.26483363027222867
decision_type=8 1 8 10 10 8 8 10 10 10 10 10
left_child=-1 2 3 -2 5 -3 7 8 -7 10 -5 -11
right_child=1 4 -4 9 -6 6 -8 -9 -10 11 -12 -13
leaf_value=-0.0069286767916729042 0.0072482533020253523 0.0020532341163668473 0.009942827905152803 -0.00063875640750230044 0.0031508451648597068 -0.0040484403508293824 -0.0041460144366802917 0.0011337788077757452 -0.0012788917659882506 0.001276783014211262 0.0034942949158954083 -0.0017160703996759474
leaf_weight=707 506 527 506 656 710 554 653 504 4391 552 984 516
leaf_count=707 506 527 506 656 710 554 653 504 4391 552 984 516
internal_value=9.56942e-07 0.000446898 0.00311523 0.00203622 -0.000909831 -0.00134817 -0.00164337 -0.00133993 -0.00159295 0.00105077 0.00184416 -0.000170461
internal_weight=11766 11059 3720 3214 7339 6629 6102 5449 4945 2708 1640 1068
internal_count=11766 11059 3720 3214 7339 6629 6102 5449 4945 2708 1640 1068
cat_boundaries=0 1
cat_threshold=518
is_linear=0
shrinkage=0.05


Tree=10
num_leaves=18
num_cat=4
split_feature=25 19 58 58 21 25 58 24 58 21 26 21 25 23 21 25 23
split_gain=14.3215 5.12492 4.65291 4.47568 6.2451 4.33997 2.25493 1.78517 1.42844 0.775882 0.733233 0.784204 0.620247 0.595339 0.33044 0.263386 0.169844
threshold=0.81210858511633455 -0.14082245092512977 0 1 -0.17403155792600941 -0.026919969072868349 2 0.29284879993560164 3 -0.74774413691758179 -0.69266082574886567 -0.17403155792600941 -0.43267958198198803 -0.1745083851085539 1.0000000180025095e-35 0.035078109907802031 -0.014438604240732662
decision_type=8 10 1 1 8 10 1 10 1 10 10 10 10 10 10 10 10
left_child=1 14 5 -2 -5 8 -7 9 13 -4 -11 -12 -9 -3 -1 -8 -10
right_child=3 2 7 4 -6 6 15 12 16 10 11 -13 -14 -15 -16 -17 -18
leaf_value=-0.0048458791123127129 0.0076967513702854307 0.0019285800115759156 -0.0023022854144255952 -0.0014102664977566513 0.0056557084703558486 0.0054491448584375974 0.0022644619467108154 -0.0040697610359363545 -0.0025230150877457794 -0.0020577002976056749 0.0014558835385703791 -0.00061030706734256852 -0.0018664915065125171 -0.00023167113146017784 -0.0030114926394126593 0.00071762543187052128 -0.0012110990900216318
leaf_weight=569 571 518 694 588 659 549 572 646 515 560 626 1682 658 815 502 539 503
leaf_count=569 571 518 694 588 659 549 572 646 515 560 626 1682 658 815 502 539 503
internal_value=1.11177e-06 -0.000745133 -0.000349916 0.00407537 0.00231308 0.000909531 0.00286505 -0.00138695 -0.000470513 -0.000808193 -0.000443274 -4.79574e-05 -0.00296936 0.000607327 -0.00400405 0.00150709 -0.00186564
internal_weight=11766 9948 8877 1818 1247 4011 1660 4866 2351 3562 2868 2308 1304 1333 1071 1111 1018
internal_count=11766 9948 8877 1818 1247 4011 1660 4866 2351 3562 2868 2308 1304 1333 1071 1111 1018
cat_boundaries=0 1 2 3 4
cat_threshold=647 326 132 517
is_linear=0
shrinkage=0.05


Tree=11
num_leaves=11
num_cat=1
split_feature=25 20 20 58 24 25 22 20 25 25
split_gain=13.4472 7.81845 11.9383 6.17666 2.32795 5.87826 1.59756 1.62927 2.08743 1.3
threshold=1.9721361960097452 -0.16458508598253754 -0.14579116734514722 0 -0.71408983267558612 0.43592396705301811 0.97347741814330668 -1.0000000180025095e-35 -0.053261271069072948 -0.40292125284455826
decision_type=8 10 10 1 10 10 10 10 10 10
left_child=1 -1 -3 4 -4 9 7 -5 -9 -6
right_child=-2 2 3 6 5 -7 -8 8 -10 -11
leaf_value=-0.0049552075138722075 0.0072493264770374646 0.0069600756354188421 -0.0016579048783886574 -0.0029685830903927921 -0.0011258462977096222 0.0066125815676694568 -0.0036559646359141575 -0.0014315990493462532 0.00068819364510204592 0.0016117564273672631
leaf_weight=861 602 575 511 915 616 545 639 3269 1796 1437
leaf_count=861 602 575 511 915 616 545 639 3269 1796 1437
internal_value=1.63642e-06 -0.000392253 -8.71839e-06 -0.000423992 0.00141051 0.00202148 -0.00128628 -0.00103237 -0.000680004 0.000789603
internal_weight=11766 11164 10303 9728 3109 2598 6619 5980 5065 2053
internal_count=11766 11164 10303 9728 3109 2598 6619 5980 5065 2053
cat_boundaries=0 1
cat_threshold=518
is_linear=0
shrinkage=0.05


Tree=12
num_leaves=11
num_cat=1
split_feature=25 19 20 58 23 23 21 25 25 21
split_gain=12.1461 7.20759 8.18215 5.61755 1.8882 1.71744 1.6565 1.5023 0.942302 0.577081
threshold=1.9721361960097452 -0.15047786366828533 -0.14579116734514722 0 0.80252466994000227 0.029770514086903722 1.003453933360072 0.59828417933943168 -0.62142996342136148 -0.39330914815540963
decision_type=8 10 10 1 10 10 10 10 10 10
left_child=1 -1 -3 4 5 9 7 8 -5 -4
right_child=-2 2 3 6 -6 -7 -8 -9 -10 -11
leaf_value=-0.0053729020813486905 0.0068898458289453545 0.0046083876106927093 0.00015637646626251249 -0.0021856864740768616 0.0039521707779980641 -0.0012586566091548387 -0.0036331060848495602 0.0015059086065111536 -0.00079069094202740729 0.0021436137798584148
leaf_weight=672 602 860 515 1858 544 765 676 529 3486 1259
leaf_count=672 602 860 515 1858 544 765 676 529 3486 1259
internal_value=1.7102e-06 -0.000372639 -4.99715e-05 -0.000468072 0.00128839 0.000716068 -0.00129528 -0.00102553 -0.00127729 0.00156877
internal_weight=11766 11164 10492 9632 3083 2539 6549 5873 5344 1774
internal_count=11766 11164 10492 9632 3083 2539 6549 5873 5344 1774
cat_boundaries=0 1
cat_threshold=518
is_linear=0
shrinkage=0.05


Tree=13
num_leaves=15
num_cat=3
split_feature=25 24 19 58 24 58 24 25 58 24 24 26 21 26
split_gain=11.0564 8.20305 4.53713 3.57619 2.60527 2.05985 1.84163 1.7505 2.37699 1.38174 0.979135 0.876852 0.580935 0.49202
threshold=1.2415026609989386 0.12646485079411043 -0.14082245092512977 0 0.43858453004967485 1 0.58430349343292953 0.047655304839504385 2 1.0000000180025095e-35 -0.2181671176670337 -0.78548931014665879 0.52912869415371144 0.84859326687114911
decision_type=8 10 8 1 10 1 10 10 1 10 10 10 10 10
left_child=2 -2 5 6 7 -1 9 11 -9 10 -4 -5 -6 -13
right_child=1 -3 3 4 12 -7 -8 8 -10 -11 -12 13 -14 -15
leaf_value=-0.0057306214715232978 0.008552689584970798 2.0718678133562207e-05 0.00031089419473386747 -0.0026308947967158425 -0.0018857788629947419 -0.0014187074165825364 0.0037070651398824084 0.0035377724602091267 -0.00093286798873906587 -0.0013902554072115466 0.002721703207904571 -0.00074799081536861076 -0.0040221827598531457 0.0008326102375062277
leaf_weight=523 617 515 948 544 827 627 626 609 562 604 755 2888 532 589
leaf_count=523 617 515 948 544 827 627 626 609 562 604 755 2888 532 589
internal_value=1.75245e-06 0.00468826 -0.000499099 -0.00013869 -0.000787893 -0.00345791 0.00130844 -0.000277934 0.00141948 0.000656622 0.00138453 -0.000773405 -0.00273378 -0.000479428
internal_weight=11766 1132 10634 9484 6551 1150 2933 5192 1171 2307 1703 4021 1359 3477
internal_count=11766 1132 10634 9484 6551 1150 2933 5192 1171 2307 1703 4021 1359 3477
cat_boundaries=0 1 2 3
cat_threshold=518 166 192
is_linear=0
shrinkage=0.05


Tree=14
num_leaves=12
num_cat=1
split_feature=19 25 20 24 58 21 26 25 25 25 24
split_gain=10.5644 16.9943 5.54603 4.20798 3.83649 1.65899 1.4366 1.82968 1.06206 0.392391 0.238282
threshold=-0.15047786366828533 1.2415026609989386 -0.14579116734514722 -0.33425796371590139 0 1.003453933360072 -1.025519335265475 -0.53088612701384708 -0.026919969072868349 0.43592396705301811 0.26245782888355579
decision_type=8 8 10 10 1 10 10 10 10 10 10
left_child=-1 2 -2 -3 8 6 -6 -8 10 -10 -4
right_child=1 3 4 -5 5 -7 7 -9 9 -11 -12
leaf_value=-0.005902005328121203 0.0037093361154763396 0.0096229761455962001 0.00039049824740032893 0.0032147884650979767 -0.0035191336901851302 -0.003661093679571847 -0.0019187619220506998 1.3744541587188173e-05 0.0012154755489742226 0.0029135708447144367 -0.00095397711775149221
leaf_weight=707 808 520 920 515 516 660 2039 3056 994 524 507
leaf_count=707 808 520 920 515 516 660 2039 3056 994 524 507
internal_value=1.4914e-06 0.000381398 -0.000249673 0.00646515 -0.000598597 -0.00129621 -0.00101733 -0.00076076 0.000887944 0.00180928 -8.88446e-05
internal_weight=11766 11059 10024 1035 9216 6271 5611 5095 2945 1518 1427
internal_count=11766 11059 10024 1035 9216 6271 5611 5095 2945 1518 1427
cat_boundaries=0 1
cat_threshold=519
is_linear=0
shrinkage=0.05


Tree=15
num_leaves=12
num_cat=1
split_feature=19 25 20 22 58 21 26 25 26 26 26
split_gain=9.54177 15.3524 5.00845 3.82746 3.46464 1.49859 1.29811 1.65171 0.979987 1.50933 0.307872
threshold=-0.15047786366828533 1.2415026609989386 -0.14579116734514722 -0.01074459740122994 0 1.003453933360072 -1.025519335265475 -0.53088612701384708 -0.5223962344186005 -1.0000000180025095e-35 0.25663401829614246
decision_type=8 8 10 10 1 10 10 10 10 10 10
left_child=-1 2 -2 -3 8 6 -6 -8 -4 -10 -11
right_child=1 3 4 -5 5 -7 7 -9 9 10 -12
leaf_value=-0.0056089773423266022 0.0035250100089371122 0.0092212470815469915 0.0022971970146287704 0.003109328563565392 -0.0033448656304558874 -0.0034794153543049123 -0.0018230585144144034 1.3058443388839888e-05 -0.0016045410091219616 0.0019032438353047167 0.00041884162051371076
leaf_weight=707 808 509 830 526 516 660 2039 3056 707 755 653
leaf_count=707 808 509 830 526 516 660 2039 3056 707 755 653
internal_value=1.52572e-06 0.000362577 -0.000237234 0.00614498 -0.000568816 -0.00123176 -0.000966708 -0.000722816 0.000843848 0.00027341 0.00121873
internal_weight=11766 11059 10024 1035 9216 6271 5611 5095 2945 2115 1408
internal_count=11766 11059 10024 1035 9216 6271 5611 5095 2945 2115 1408
cat_boundaries=0 1
cat_threshold=519
is_linear=0
shrinkage=0.05


Tree=16
num_leaves=14
num_cat=3
split_feature=19 58 20 20 22 22 21 22 58 26 26 21 58
split_gain=8.61813 9.37975 10.557 4.21879 3.83809 2.5003 2.15422 2.03221 1.85419 2.97197 1.88359 0.827517 0.687804
threshold=-0.15047786366828533 0 -0.12975125211304417 -0.14579116734514722 0.91740128456386316 0.085912781408085823 -0.1282250435133426 1.0108727959625525 1 0.40804280747602922 0.44997131049177191 0.119432370110288 2
decision_type=8 1 10 8 10 10 10 8 1 10 10 10 1
left_child=-1 2 -2 -3 5 6 -4 8 9 11 12 -5 -10
right_child=1 3 4 7 -6 -7 -8 -9 10 -11 -12 -13 -14
leaf_value=-0.0053304979381454962 0.0085901662161782504 0.0032062414726611501 -0.00036053343021224963 0.00049214814050381277 0.0050531723933256965 -0.0022115346331031869 0.0029618912062537067 -0.0036531607699169613 -0.00030150066769999676 0.0037744376966846629 -0.0032536403610323029 -0.0020282311308963499 -0.0019273854592485988
leaf_weight=707 575 629 949 684 542 657 997 675 2347 513 984 614 893
leaf_count=707 575 629 949 684 542 657 997 675 2347 513 984 614 893
internal_value=1.5477e-06 0.000344679 0.00238453 -0.000692505 0.00124569 0.00044472 0.00134488 -0.00106112 -0.000768425 0.000568879 -0.00133995 -0.000703289 -0.000758771
internal_weight=11766 11059 3720 7339 3145 2603 1946 6710 6035 1811 4224 1298 3240
internal_count=11766 11059 3720 7339 3145 2603 1946 6710 6035 1811 4224 1298 3240
cat_boundaries=0 1 2 3
cat_threshold=518 65 416
is_linear=0
shrinkage=0.05


Tree=17
num_leaves=11
num_cat=1
split_feature=25 20 20 58 24 25 20 22 25 22
split_gain=8.41844 5.56219 8.06258 3.26516 2.28064 4.80268 1.2986 1.2489 1.0155 0.986603
threshold=1.9721361960097452 -0.16458508598253754 -0.14579116734514722 0 -0.71408983267558612 0.43592396705301811 -0.11868002853356478 0.97347741814330668 -0.40292125284455826 -1.0290843354363377
decision_type=8 10 10 1 8 10 10 10 10 10
left_child=1 -1 -3 4 -4 8 -5 9 -6 -8
right_child=-2 2 3 6 5 -7 7 -9 -10 -11
leaf_value=-0.0041588264324984086 0.0057360353169679306 0.005740262497746354 -0.0020305310118791842 -0.0028003342400310552 -0.0011951732945638964 0.0057594114163128495 0.0014674901713914478 -0.0030060001718943733 0.0012238318811657733 -0.00069932153075401467
leaf_weight=861 602 575 511 830 616 545 587 524 1437 4678
leaf_count=861 602 575 511 830 616 545 587 524 1437 4678
internal_value=1.48207e-06 -0.000310174 1.33116e-05 -0.00032797 0.00100592 0.00160977 -0.000954872 -0.000689738 0.000496872 -0.000456578
internal_weight=11766 11164 10303 9728 3109 2598 6619 5789 2053 5265
internal_count=11766 11164 10303 9728 3109 2598 6619 5789 2053 5265
cat_boundaries=0 1
cat_threshold=518
is_linear=0
shrinkage=0.05


Tree=18
num_leaves=12
num_cat=2
split_feature=25 20 20 58 25 26 25 58 21 25 21
split_gain=7.60387 5.02319 7.28281 3.06007 2.52169 2.17429 2.19696 1.18443 1.32452 0.885886 0.651688
threshold=1.9721361960097452 -0.16458508598253754 -0.14579116734514722 0 0.83754403783026732 0.44997131049177191 -0.3472715224208916 1 0.78242620061068069 0.058708156049567604 -0.17403155792600941
decision_type=8 10 10 1 10 10 10 1 10 10 10
left_child=1 -1 -3 4 7 9 -7 -4 -9 10 -5
right_child=-2 2 3 5 -6 6 -8 8 -10 -11 -12
leaf_value=-0.0039520856840135404 0.0054515961057443598 0.0054557235975717681 0.002180468659097263 -0.0021084820419877809 0.0033812389658695024 -0.00095274901308326518 -0.0054674208592943134 0.00017605139002680023 -0.0023873758660129356 0.00079770734728542853 -0.00049784136312626913
leaf_weight=861 602 575 578 975 670 544 534 3258 591 817 1761
leaf_count=861 602 575 578 975 670 544 534 3258 591 817 1761
internal_value=1.53618e-06 -0.000294658 1.27541e-05 -0.000311605 0.000533438 -0.00123973 -0.00320406 0.000100315 -0.00021957 -0.00064356 -0.00107461
internal_weight=11766 11164 10303 9728 5097 4631 1078 4427 3849 3553 2736
internal_count=11766 11164 10303 9728 5097 4631 1078 4427 3849 3553 2736
cat_boundaries=0 1 2
cat_threshold=583 4
is_linear=0
shrinkage=0.05


Tree=19
num_leaves=16
num_cat=1
split_feature=19 58 20 20 21 24 21 24 24 23 23 21 26 24 24
split_gain=6.88722 7.34829 9.23083 3.23717 2.50816 1.87393 1.77164 1.19779 1.01067 0.730094 1.15658 0.473737 0.719672 0.421106 0.0563946
threshold=-0.15047786366828533 0 -0.12975125211304417 -0.14579116734514722 0.68867506944786439 -0.5721892763680384 -1.2018866881204704 0.15805915113909813 0.13658710247410968 -0.090031722337830869 -0.43105725980443349 0.62807685143323866 0.010508127633262311 -0.084880968024465042 -0.0096999521704371674
decision_type=8 1 10 8 8 10 8 8 10 10 10 8 10 10 10
left_child=-1 2 -2 -3 5 -4 -5 9 14 10 -8 12 -9 -11 -7
right_child=1 3 4 6 -6 8 7 11 -10 13 -12 -13 -14 -15 -16
leaf_value=-0.0047650085938523799 0.0079161292468277935 0.0028054912402169715 -0.0021466943227515193 0.0018874821385133614 0.0039338529719794967 0.0024902938238168301 -0.00044352575614245351 -0.0024368943684634895 -0.00019729587479054724 0.00093911546856278712 -0.002751685713111201 -0.003194240218941281 -8.7809145852836426e-05 -0.00065816351579662212 0.0017253194927208872
leaf_weight=707 575 629 573 510 603 506 1636 904 859 831 809 701 509 810 604
leaf_count=707 575 629 573 510 603 506 1636 904 859 831 809 701 509 810 604
internal_value=1.59611e-06 0.00030834 0.00211383 -0.000609691 0.00104882 0.000358071 -0.000932591 -0.0011659 0.00109058 -0.00066463 -0.00121131 -0.00213091 -0.00159399 0.000151092 0.00208364
internal_weight=11766 11059 3720 7339 3145 2542 6710 6200 1969 4086 2445 2114 1413 1641 1110
internal_count=11766 11059 3720 7339 3145 2542 6710 6200 1969 4086 2445 2114 1413 1641 1110
cat_boundaries=0 1
cat_threshold=518
is_linear=0
shrinkage=0.05


Tree=20
num_leaves=13
num_cat=2
split_feature=25 19 19 58 22 26 25 21 22 25 22 58
split_gain=6.76803 3.30787 2.66177 2.57995 5.07959 1.8447 1.83173 1.62163 3.42403 1.39178 0.932274 0.594835
threshold=2.1063403347650449 1.0000000180025095e-35 -0.15047786366828533 0 -0.95887184082450327 0.44997131049177191 -0.3472715224208916 0.24588288842794423 -0.12984435475149461 0.23570282051718619 -0.63666648985016072 1
decision_type=8 10 10 1 10 10 10 10 10 10 10 1
left_child=1 2 -1 4 -4 10 -7 8 -6 -9 -5 -12
right_child=-2 -3 3 5 7 6 -8 9 -10 -11 11 -13
leaf_value=-0.0035532355894661079 0.0055396324999107361 0.0025116966446991529 0.0046965198573038986 0.0012027001758535161 -0.0016262021018499302 -0.00091943878014988975 -0.0050889939999306634 -0.00035810744890100104 0.0020362243378662164 -0.0034056972786477148 -0.0022962772360253215 -0.00058575413409873913
leaf_weight=672 522 979 618 581 1026 531 523 1198 1671 541 654 2250
leaf_count=672 522 979 618 581 1026 531 523 1198 1671 541 654 2250
internal_value=1.62285e-06 -0.000257826 -0.000523057 -0.000309049 0.000467886 -0.00117215 -0.00300265 -0.000124795 0.000642523 -0.00131325 -0.000618384 -0.000984167
internal_weight=11766 11244 10265 9593 5054 4539 1054 4436 2697 1739 3485 2904
internal_count=11766 11244 10265 9593 5054 4539 1054 4436 2697 1739 3485 2904
cat_boundaries=0 1 2
cat_threshold=583 24
is_linear=0
shrinkage=0.05


Tree=21
num_leaves=13
num_cat=1
split_feature=25 20 20 58 22 26 25 21 22 25 25 21
split_gain=6.11462 4.08813 5.45987 2.32167 4.61596 1.7778 1.7353 1.54989 2.86797 1.03975 0.803197 0.62957
threshold=2.1063403347650449 -0.16458508598253754 -0.14579116734514722 0 -1.092067401316307 0.44997131049177191 -0.3472715224208916 0.24588288842794423 -0.12984435475149461 0.23570282051718619 0.058708156049567604 -0.0037131623762383472
decision_type=8 10 10 1 10 10 10 10 10 10 10 10
left_child=1 -1 -3 4 -4 10 -7 8 -6 -9 11 -5
right_child=-2 2 3 5 7 6 -8 9 -10 -11 -12 -13
leaf_value=-0.0035374850653425217 0.0052652788870708143 0.0047274005920458781 0.0050020896931213636 -0.0017658353346021568 -0.0012125372897754498 -0.00082676823682258614 -0.004831475215302832 -0.00034066073151137514 0.0020161606470465074 -0.0029173924370480293 0.00084842275062473906 -0.00024221343471883582
leaf_weight=865 522 579 504 1233 1149 544 538 1241 1699 568 821 1503
leaf_count=865 522 579 504 1233 1149 544 538 1241 1699 568 821 1503
internal_value=1.38005e-06 -0.000245227 3.07256e-05 -0.000249031 0.000480333 -0.00105886 -0.00283108 -1.28399e-05 0.000713729 -0.00115553 -0.00051953 -0.000930814
internal_weight=11766 11244 10379 9800 5161 4639 1082 4657 2848 1809 3557 2736
internal_count=11766 11244 10379 9800 5161 4639 1082 4657 2848 1809 3557 2736
cat_boundaries=0 1
cat_threshold=583
is_linear=0
shrinkage=0.05


Tree=22
num_leaves=16
num_cat=0
split_feature=25 22 21 19 25 21 24 26 21 22 22 23 23 26 26
split_gain=5.63964 4.85382 1.88314 1.54712 1.73235 1.57328 1.30288 1.09511 1.34049 1.09492 0.832541 0.717606 0.644542 0.629375 0.298125
threshold=0.83754403783026732 -0.46033686930383316 0.35615748564994459 -0.14082245092512977 -0.53088612701384708 0.78242620061068069 0.17919310214082632 -1.0402112379006576 0.036343644822498113 0.14651964608961668 -0.089405879283133247 0.22056112432344957 0.26639847896937313 0.041364786908867822 -0.19273076762253832
decision_type=8 10 10 10 10 10 10 10 10 10 10 10 10 10 10
left_child=3 -2 -3 10 6 7 9 -6 12 13 -1 -10 -9 -5 -8
right_child=1 2 -4 4 5 -7 14 8 11 -11 -12 -13 -14 -15 -16
leaf_value=-0.003669927996970745 0.0057472554881832427 0.0026385661287148736 -0.0015663225126557332 -0.0021825155361479298 -0.0015954329515807332 -0.0016589310880918886 -0.0035351992221512411 0.0006404232874895519 0.0012017791930596915 0.0012964492330880938 -0.00088813766117485206 0.0036771836095593046 -0.0012380965346135676 -4.233902433384542e-05 -0.0017963389901465563
leaf_weight=522 719 502 556 777 504 903 502 2739 684 606 558 517 543 613 521
leaf_count=522 719 502 556 777 504 903 502 2739 684 606 558 517 543 613 521
internal_value=1.35745e-06 0.00259263 0.00043184 -0.000460684 -0.000243438 0.000255806 -0.00121626 0.000603823 0.000852576 -0.000470146 -0.00224339 0.00227821 0.000328216 -0.00124222 -0.00266267
internal_weight=11766 1777 1058 9989 8909 5890 3019 4987 4483 1996 1080 1201 3282 1390 1023
internal_count=11766 1777 1058 9989 8909 5890 3019 4987 4483 1996 1080 1201 3282 1390 1023
is_linear=0
shrinkage=0.05


Tree=23
num_leaves=9
num_cat=1
split_feature=25 20 20 58 25 23 21 26
split_gain=5.26527 3.64259 5.20063 2.06447 2.38225 1.78889 1.92054 1.4119
threshold=1.9721361960097452 -0.16458508598253754 -0.14579116734514722 0 -0.026919969072868349 1.0618359771374817 1.0641440902798476 -1.0402112379006576
decision_type=8 10 10 1 10 10 10 10
left_child=1 -1 -3 4 -4 6 7 -5
right_child=-2 2 3 5 -6 -7 -8 -9
leaf_value=-0.0033597639488437006 0.004536402334640941 0.0046160654706181954 -0.00056419978900389242 -0.0027494710972634814 0.0040748264357950703 0.0018826195932571577 -0.0033539183949472307 -0.00028673295088627173
leaf_weight=861 602 575 545 633 555 707 638 6650
leaf_count=861 602 575 545 633 555 707 638 6650
internal_value=1.22647e-06 -0.000245247 1.65305e-05 -0.000257569 0.00176824 -0.000518167 -0.000734158 -0.000502521
internal_weight=11766 11164 10303 9728 1100 8628 7921 7283
internal_count=11766 11164 10303 9728 1100 8628 7921 7283
cat_boundaries=0 1
cat_threshold=6
is_linear=0
shrinkage=0.05


Tree=24
num_leaves=10
num_cat=2
split_feature=19 25 24 20 58 19 58 22 25
split_gain=4.95399 9.26275 3.87219 2.42196 4.49301 2.70973 1.68919 1.16551 1.2078
threshold=-0.15047786366828533 1.2415026609989386 -0.33425796371590139 -0.12975125211304417 0 -1.0000000180025095e-35 1 0.97347741814330668 -0.53810884935902126
decision_type=8 8 10 10 1 8 1 10 10
left_child=-1 3 -3 4 -2 -5 -7 8 -8
right_child=1 2 -4 5 -6 6 7 -9 -10
leaf_value=-0.0040413693862861241 0.003625806554820941 0.0077767884550571792 0.0016542442150127429 -0.0039220870284050044 -0.0017478121988583177 0.0024184489642882024 -0.0012992617940147445 -0.0025247063265683559 0.00014715522208222785
leaf_weight=707 993 520 515 550 624 516 2098 645 4598
leaf_count=707 993 520 515 550 624 516 2098 645 4598
internal_value=1.267e-06 0.000261422 0.0047529 -0.000204472 0.00156471 -0.000545484 -0.000306774 -0.000502454 -0.000306669
internal_weight=11766 11059 1035 10024 1617 8407 7857 7341 6696
internal_count=11766 11059 1035 10024 1617 8407 7857 7341 6696
cat_boundaries=0 1 2
cat_threshold=933 4
is_linear=0
shrinkage=0.05


Tree=25
num_leaves=13
num_cat=1
split_feature=19 20 58 21 24 24 22 21 22 20 22 24
split_gain=4.50294 8.0618 3.747 4.47327 3.33731 2.36778 1.67256 1.36106 1.53645 1.07258 0.858106 0.816583
threshold=1.0000000180025095e-35 -0.14579116734514722 0 0.68867506944786439 -0.20198243454650397 -0.5721892763680384 1.0108727959625525 -1.2018866881204704 0.73027855842767397 -0.11868002853356478 -0.11545105572188299 0.29284879993560164
decision_type=8 10 1 10 10 10 10 10 10 10 10 10
left_child=1 -1 3 5 -2 -3 7 -4 9 -9 -7 -12
right_child=4 2 6 -5 -6 10 -8 8 -10 -11 11 -13
leaf_value=-0.0058720528507425927 0.0060496553580788349 -0.0022978791203655184 0.002092298772739302 0.0048793952907248304 0.00040176148446388106 -0.00017514420639092878 -0.0030377304332805249 -0.0029510063053423637 0.00198278731209886 -0.00062636515993479244 0.0029276758689021848 0.00044414915737103332
leaf_weight=608 501 605 500 716 543 709 659 554 510 4470 846 545
leaf_count=608 501 605 500 716 543 709 659 554 510 4470 846 545
internal_value=1.43048e-06 -0.000304321 3.31175e-05 0.00137573 0.00312802 0.000446116 -0.000654726 -0.000393252 -0.000619509 -0.000885384 0.00124023 0.00195969
internal_weight=11766 10722 10114 3421 1044 2705 6693 6034 5534 5024 2100 1391
internal_count=11766 10722 10114 3421 1044 2705 6693 6034 5534 5024 2100 1391
cat_boundaries=0 1
cat_threshold=518
is_linear=0
shrinkage=0.05


Tree=26
num_leaves=9
num_cat=1
split_feature=25 20 20 58 20 22 21 21
split_gain=4.31404 2.72516 4.03261 5.46287 5.10819 2.33016 1.98325 1.20684
threshold=2.1063403347650449 -0.16458508598253754 -0.12975125211304417 0 -1.0000000180025095e-35 -1.0290843354363377 -0.95597698754043392 0.22820755003703963
decision_type=8 10 10 1 10 10 10 10
left_child=1 -1 3 -3 -4 -6 -7 -8
right_child=-2 2 4 -5 5 6 7 -9
leaf_value=-0.0028936875979121688 0.0044228882982132274 0.0062298698718254442 -0.0048528488555985719 -3.8285661822358632e-05 0.002434961973222178 0.00234595239834001 -3.5559600922739604e-05 -0.0013833313188716012
leaf_weight=865 522 564 590 879 838 626 4090 2792
leaf_count=865 522 564 590 879 838 626 4090 2792
internal_value=1.44005e-06 -0.000205699 1.96068e-05 0.00246745 -0.000376834 -5.76967e-05 -0.000337348 -0.000582953
internal_weight=11766 11244 10379 1443 8936 8346 7508 6882
internal_count=11766 11244 10379 1443 8936 8346 7508 6882
cat_boundaries=0 1
cat_threshold=800
is_linear=0
shrinkage=0.05


Tree=27
num_leaves=10
num_cat=0
split_feature=19 20 22 23 19 19 22 21 24
split_gain=3.95042 6.95605 3.65158 3.61932 2.38296 4.28141 2.14615 2.2882 1.42698
threshold=1.0000000180025095e-35 -0.14579116734514722 1.3134631671524633 -0.20037565314738362 -0.12975122948124312 -1.0000000180025095e-35 0.079242529827172517 0.50072324596679785 0.15805915113909813
decision_type=8 10 10 10 10 10 10 10 10
left_child=1 -1 4 -2 -3 -6 7 -7 -8
right_child=3 2 -4 -5 5 6 8 -9 -10
leaf_value=-0.0054564377595708504 0.0059553184273160083 0.0021751936922346261 0.0033811052158311452 7.8126204620892987e-05 -0.0047157190609425576 -3.3847963895505838e-06 -0.0002067556281507232 0.0031057021773019198 -0.0024384884502233386
leaf_weight=608 504 916 747 540 558 4349 1472 680 1392
leaf_count=608 504 916 747 540 558 4349 1472 680 1392
internal_value=1.76335e-06 -0.000284616 2.88286e-05 0.00293025 -0.00024017 -0.000503102 -0.000202491 0.00041968 -0.00129381
internal_weight=11766 10722 10114 1044 9367 8451 7893 5029 2864
internal_count=11766 10722 10114 1044 9367 8451 7893 5029 2864
is_linear=0
shrinkage=0.05


Tree=28
num_leaves=16
num_cat=0
split_feature=25 25 19 21 22 25 24 22 25 25 26 26 22 26 21
split_gain=3.75134 1.91885 4.82226 2.07906 2.80051 4.52667 1.18049 1.23907 1.06963 2.60387 1.19993 0.681613 0.728044 0.561839 0.35593
threshold=2.1063403347650449 -1.0000000180025095e-35 -1.0000000180025095e-35 -0.75401515171550126 -0.39625251460248606 0.62806871869848291 0.39018407638827407 0.20661899491504229 -0.32791661189064886 -0.51611051365644733 -0.18123716703379392 0.54230988253445989 -0.11545105572188299 -0.22923805054580934 0.036343644822498113
decision_type=8 10 10 10 10 10 10 10 10 10 10 10 10 10 10
left_child=1 6 -3 -4 -5 14 8 -8 9 11 -10 12 -1 -9 -6
right_child=-2 2 3 4 5 -7 7 13 10 -11 -12 -13 -14 -15 -16
leaf_value=-0.0020152170022917091 0.0041247419829160484 -0.0030525467215579529 0.0034932404531942611 0.0035303410805225689 0.00056963898722492358 -0.0040414138380570662 -0.00015420582697790616 -0.0041373966039785328 -9.4101118110120302e-05 0.0025190122194898991 -0.0029735950477970622 0.00085349990337350845 -0.00015050344708418322 -0.0017692609641679451 0.0020413183345496886
leaf_weight=1027 522 754 844 669 1145 557 637 509 745 852 699 587 1064 514 641
leaf_count=1027 522 754 844 669 1145 557 637 509 745 852 699 587 1064 514 641
internal_value=1.71499e-06 -0.000191444 0.000591729 0.00130736 0.000690074 -0.000126703 -0.00073571 -0.00188821 -0.000349571 0.000119794 -0.00149343 -0.000646784 -0.00106898 -0.00296193 0.00110205
internal_weight=11766 11244 4610 3856 3012 2343 6634 1660 4974 3530 1444 2678 2091 1023 1786
internal_count=11766 11244 4610 3856 3012 2343 6634 1660 4974 3530 1444 2678 2091 1023 1786
is_linear=0
shrinkage=0.05


Tree=29
num_leaves=11
num_cat=2
split_feature=20 20 58 20 22 58 22 22 21 21
split_gain=3.07029 3.93608 6.38121 4.73892 4.36874 2.30107 3.67453 2.41198 2.19739 1.78287
threshold=-0.16458508598253754 -0.12975125211304417 0 -1.0000000180025095e-35 1.3134631671524633 1 0.62326623902880607 -0.93541431823742804 -1.0395984047898761 -0.2136632629034686
decision_type=8 10 1 10 10 1 10 8 10 10
left_child=-1 2 -2 -3 5 7 8 -5 -7 -9
right_child=1 3 -4 4 -6 6 -8 9 -10 -11
leaf_value=-0.0027750070856109033 0.0064307223175013063 -0.0043781247411148177 -0.00010354065424687963 0.0039601893188761514 0.0041805725992069198 -0.0033860430658238308 -0.0045144646528118854 0.0020569555658436246 0.00010721287710140114 -0.00057211380814146202
leaf_weight=913 618 614 920 512 619 512 604 938 3481 2035
leaf_count=913 618 614 920 512 619 512 604 938 3481 2035
internal_value=1.60258e-06 0.000236353 0.0025754 -0.000151021 0.000149614 -0.00016151 -0.000894655 0.000805719 -0.000344382 0.000259435
internal_weight=11766 10853 1538 9315 8701 8082 4597 3485 3993 2973
internal_count=11766 10853 1538 9315 8701 8082 4597 3485 3993 2973
cat_boundaries=0 1 2
cat_threshold=800 198
is_linear=0
shrinkage=0.05


Tree=30
num_leaves=14
num_cat=0
split_feature=25 24 24 24 25 23 26 24 23 21 21 23 21
split_gain=3.46198 2.97079 1.18087 1.06497 0.938903 2.45293 1.54496 0.906526 0.655946 1.19371 0.785424 0.981664 0.425011
threshold=0.83754403783026732 0.41198498523294536 0.15805915113909813 -0.97709931130002869 -0.45920047232392119 0.58792691065551939 -0.40451973287961057 0.016597207011311569 -1.1029991253726912 -0.95597698754043392 -0.63506598681714033 -0.43105725980443349 -0.022265796585044559
decision_type=8 10 10 8 10 10 10 10 10 10 8 10 10
left_child=2 3 7 -2 12 6 -6 8 -1 -10 -11 -12 -4
right_child=1 -3 4 -5 5 -7 -8 -9 9 10 11 -13 -14
leaf_value=-0.0017120968450496838 0.0018827960201036221 -0.00062218759360642092 -0.00093059048379338027 0.0050075623153239416 5.8346386308285437e-05 0.0017037003022118439 -0.0035534055748192728 0.0017872587695477926 0.0021857739009572999 -0.0019915657574590133 0.0011813413551709001 -0.00049691871365066618 -0.0027617774925117072
leaf_weight=610 508 661 500 608 556 805 628 655 560 562 1223 2995 895
leaf_count=610 508 661 500 608 556 805 628 655 560 562 1223 2995 895
internal_value=1.81257e-06 0.00203206 -0.000360196 0.00359992 -0.00111895 -0.000419547 -0.00186423 2.90963e-05 -0.000165787 1.22873e-05 -0.000244365 -9.48827e-06 -0.00211111
internal_weight=11766 1777 9989 1116 3384 1989 1184 6605 5950 5340 4780 4218 1395
internal_count=11766 1777 9989 1116 3384 1989 1184 6605 5950 5340 4780 4218 1395
is_linear=0
shrinkage=0.05


Tree=31
num_leaves=14
num_cat=2
split_feature=19 25 20 25 58 25 23 21 21 58 21 21 25
split_gain=3.41058 7.23399 5.76836 3.25 1.44635 1.37522 2.25169 1.26972 0.897569 0.854713 0.736441 0.462638 0.153097
threshold=1.0000000180025095e-35 -0.14507332021928407 -0.14579116734514722 1.2415026609989386 0 -0.62142996342136148 0.80252466994000227 -0.044654646451909565 0.80371694754181611 1 0.29278223348409455 0.024943320180631941 -0.20650887715371757
decision_type=8 8 10 10 1 10 10 10 10 1 10 10 10
left_child=2 -2 -1 4 7 9 8 12 -7 -6 -9 -11 -4
right_child=1 -3 3 -5 5 6 -8 10 -10 11 -12 -13 -14
leaf_value=-0.0049739815822694615 -0.0013355507497261796 0.006959965208057018 -0.0020208608364149987 0.0028631372238341417 5.3187214756824958e-05 0.00038049591067404692 0.0030776454147543467 0.00097276443964212792 -0.0016785378911271329 -0.00096206359560025887 -0.0016146207024065548 -0.0030724900638765657 -0.0032982526752588152
leaf_weight=608 535 509 502 910 983 3718 732 588 612 529 508 518 514
leaf_count=608 535 509 502 910 983 3718 732 588 612 529 508 518 514
internal_value=1.75886e-06 0.00272281 -0.000264335 2.11018e-05 -0.000261292 8.18319e-05 0.000522825 -0.00140471 8.78728e-05 -0.00101601 -0.000228384 -0.00199685 -0.00268009
internal_weight=11766 1044 10722 10114 9204 7092 5062 2112 4330 2030 1096 1047 1016
internal_count=11766 1044 10722 10114 9204 7092 5062 2112 4330 2030 1096 1047 1016
cat_boundaries=0 1 2
cat_threshold=304 1545
is_linear=0
shrinkage=0.05


Tree=32
num_leaves=11
num_cat=1
split_feature=19 25 19 58 25 23 21 25 26 21
split_gain=3.08147 6.53531 2.17456 2.79199 3.20759 2.19223 2.15935 1.50373 1.42946 1.26953
threshold=1.0000000180025095e-35 -0.14507332021928407 -0.14082245092512977 0 -0.026919969072868349 1.4572923650307537 -0.1945268174981559 0.95273882740385307 -1.025519335265475 1.0641440902798476
decision_type=8 8 10 1 10 10 10 10 10 10
left_child=2 -2 6 4 -4 7 -1 8 -5 -10
right_child=1 -3 3 5 -6 -7 -8 -9 9 -11
leaf_value=-0.0045444809458938173 -0.0012693915210952077 0.0066153522078056569 -0.00058447744163056959 -0.0026592506219147364 0.0047888248257774426 0.0028673966688529621 -0.0004415011490986442 -0.0027212613393951743 0.00013027035268495035 -0.0024076398022410423
leaf_weight=545 535 509 504 580 611 507 772 695 5976 532
leaf_count=545 535 509 504 580 611 507 772 695 5976 532
internal_value=1.57444e-06 0.00258801 -0.000251355 1.55392e-05 0.00234727 -0.000301769 -0.00215016 -0.000510311 -0.000291755 -7.88816e-05
internal_weight=11766 1044 10722 9405 1115 8290 1317 7783 7088 6508
internal_count=11766 1044 10722 9405 1115 8290 1317 7783 7088 6508
cat_boundaries=0 1
cat_threshold=6
is_linear=0
shrinkage=0.05


Tree=33
num_leaves=15
num_cat=1
split_feature=19 20 23 58 26 26 21 20 23 23 26 24 24 26
split_gain=2.78392 4.98795 2.96397 2.86975 3.62122 2.98615 2.0219 1.8813 1.32725 1.30676 0.867156 1.35492 0.549074 0.484834
threshold=1.0000000180025095e-35 -0.14579116734514722 -0.20037565314738362 0 0.64180384906820576 -0.93541433973671639 -0.76785047042117616 -0.11868002853356478 -0.1745083851085539 -0.10281675811862094 -0.45308547363593915 0.3791926617227715 -0.6939266553057718 -0.75989118608058737
decision_type=8 10 10 1 10 10 10 10 10 10 10 10 10 10
left_child=1 -1 -2 4 5 -3 -7 -5 -8 -6 13 12 -12 -9
right_child=2 3 -4 7 9 6 8 10 -10 -11 11 -13 -14 -15
leaf_value=-0.0046184034145636214 0.0051974150161432702 0.0031048899402606536 -0.00011939295514880874 -0.0035397933754531675 0.0017199119985856156 -0.0033347310984264255 0.0015426031097459597 -0.00030459501828782894 -0.00063274537076000049 0.0052770807390684939 -0.0017129062472351468 -0.0032651727078057574 6.1717458921215437e-07 0.0017345476066779105
leaf_weight=608 504 723 540 580 542 501 1028 624 2178 501 634 521 1742 540
leaf_count=608 504 723 540 580 542 501 1028 624 2178 501 634 521 1742 540
internal_value=1.49092e-06 -0.000238917 0.00245988 2.65062e-05 0.000801058 0.000177049 -0.0003974 -0.000886596 6.60934e-05 0.00344561 -0.000505955 -0.000968625 -0.000459248 0.000644772
internal_weight=11766 10722 1044 10114 5473 4430 3707 4641 3206 1043 4061 2897 2376 1164
internal_count=11766 10722 1044 10114 5473 4430 3707 4641 3206 1043 4061 2897 2376 1164
cat_boundaries=0 1
cat_threshold=583
is_linear=0
shrinkage=0.05


Tree=34
num_leaves=10
num_cat=2
split_feature=25 20 20 58 20 22 58 25 21
split_gain=2.75131 1.48603 2.93905 4.42418 3.54453 1.87118 1.66237 3.9596 2.4895
threshold=2.1063403347650449 -0.16458508598253754 -0.12975125211304417 0 -1.0000000180025095e-35 -1.0290843354363377 1 -0.077947880168777905 1.0641440902798476
decision_type=8 10 10 1 10 10 1 10 8
left_child=1 -1 3 -3 -4 -6 7 -7 -8
right_child=-2 2 4 -5 5 6 8 -9 -10
leaf_value=-0.00214891084518863 0.003532394625253594 0.0054781431324992316 -0.004064567715962644 -0.00015929306489941551 0.0021635482108722025 -0.00069819883427689716 -0.00036064938668867202 0.0046733719200960228 -0.0038022628861429058
leaf_weight=865 522 564 590 879 838 987 5424 520 577
leaf_count=865 522 564 590 879 838 987 5424 520 577
internal_value=1.43864e-06 -0.000163982 2.39934e-06 0.00209215 -0.000336039 -7.01837e-05 -0.000320774 0.00115697 -0.000693298
internal_weight=11766 11244 10379 1443 8936 8346 7508 1507 6001
internal_count=11766 11244 10379 1443 8936 8346 7508 1507 6001
cat_boundaries=0 1 2
cat_threshold=800 132
is_linear=0
shrinkage=0.05


Tree=35
num_leaves=18
num_cat=3
split_feature=25 22 58 26 24 22 26 26 22 58 22 26 26 22 26 58 24
split_gain=2.49603 4.09175 1.3261 1.52878 1.28749 2.08521 1.90216 1.22374 1.12527 0.880823 0.957319 0.789649 0.764087 1.52121 0.663463 0.477058 0.873201
threshold=0.83754403783026732 -0.46033686930383316 0 0.50000961667090027 0.19661975589047845 -0.10077819729425573 -0.69857778552873773 0.81170180906349698 0.17993107359528224 1 0.062035590533223862 -0.063209990440400612 -0.25001570944064672 0.20661899491504229 0.24515133001594949 2 -0.47607580434986568
decision_type=8 10 1 10 10 10 10 10 10 1 10 10 10 10 10 1 10
left_child=2 -2 3 9 5 7 -7 15 -8 10 -1 -3 13 -6 -14 16 -4
right_child=1 11 4 -5 12 6 8 -9 -10 -11 -12 -13 14 -15 -16 -17 -18
leaf_value=0.0009685810380555337 0.0046219390327527669 0.0011005866006816001 0.00087970057586941376 -0.0036745259338975748 0.00020770334005646872 0.0042982241356581017 0.0021083760344686635 0.0017246197599266732 -0.00038375550963070873 -0.0024023452777114204 -0.0015039893596355495 -0.0016187948418108931 0.0011748642900429257 -0.0033577963662424666 -0.0011028527808966319 -0.001902736023863043 -0.0018305632743745221
leaf_weight=927 719 531 649 523 535 505 882 504 923 529 670 527 600 672 673 857 540
leaf_count=927 719 531 649 523 535 505 882 504 923 529 670 527 600 672 673 857 540
internal_value=1.69064e-06 0.00172559 -0.000305693 -0.00126107 4.13871e-05 0.00051437 0.00160091 -0.00047111 0.000836467 -0.000666049 -6.97738e-05 -0.000255206 -0.000884511 -0.00178306 -2.89055e-05 -0.00101488 -0.000350775
internal_weight=11766 1777 9989 2649 7340 4860 2310 2550 1805 2126 1597 1058 2480 1207 1273 2046 1189
internal_count=11766 1777 9989 2649 7340 4860 2310 2550 1805 2126 1597 1058 2480 1207 1273 2046 1189
cat_boundaries=0 1 2 3
cat_threshold=306 288 1668
is_linear=0
shrinkage=0.05


Tree=36
num_leaves=11
num_cat=2
split_feature=19 25 19 58 26 23 58 25 26 21
split_gain=2.41969 5.65709 1.72643 2.44064 2.92793 1.97575 1.94466 1.6178 1.37962 1.02065
threshold=1.0000000180025095e-35 -0.14507332021928407 -0.14082245092512977 0 -0.070558795726512538 1.4572923650307537 1 0.95273882740385307 -1.025519335265475 1.0641440902798476
decision_type=8 8 10 1 10 10 1 10 10 10
left_child=2 -2 6 4 -4 7 -1 8 -5 -10
right_child=1 -3 3 5 -6 -7 -8 -9 9 -11
leaf_value=-0.00013476737027449517 -0.0012946475410340269 0.0060405150763436812 0.0049856535823635979 -0.0025787495675249996 -0.00014273519078116925 0.0027270359256363012 -0.0039865157838345922 -0.0027727991327244259 0.00014370830789388027 -0.002131870192932173
leaf_weight=722 535 509 510 580 605 507 595 695 5976 532
leaf_count=722 535 509 510 580 605 507 595 695 5976 532
internal_value=1.40851e-06 0.00229334 -0.000222722 1.50864e-05 0.00219517 -0.000281587 -0.0019146 -0.000479561 -0.000252906 -4.38039e-05
internal_weight=11766 1044 10722 9405 1115 8290 1317 7783 7088 6508
internal_count=11766 1044 10722 9405 1115 8290 1317 7783 7088 6508
cat_boundaries=0 1 2
cat_threshold=6 1865
is_linear=0
shrinkage=0.05


Tree=37
num_leaves=9
num_cat=1
split_feature=25 20 20 19 20 58 21 23
split_gain=2.33543 1.30886 2.66352 4.3609 3.16674 1.33518 1.13012 0.935277
threshold=2.1063403347650449 -0.16458508598253754 -0.12975125211304417 -0.14082245092512977 -1.0000000180025095e-35 0 -1.1760118088083225 -0.69129906664512975
decision_type=8 10 10 10 10 1 10 10
left_child=1 -1 3 -3 -4 -6 -7 -8
right_child=-2 2 4 -5 5 6 7 -9
leaf_value=-0.0020140759381905514 0.0032543434222463865 -0.0013956022207518497 -0.0038414945386099717 0.0042093816790209409 0.0022681972140775777 0.0018829185795679025 0.00087335364268287252 -0.00066016645719619844
leaf_weight=865 522 571 590 872 556 577 1186 6027
leaf_count=865 522 571 590 872 556 577 1186 6027
internal_value=1.1812e-06 -0.000151225 4.92209e-06 0.00199431 -0.000317263 -6.59754e-05 -0.000236528 -0.000407587
internal_weight=11766 11244 10379 1443 8936 8346 7790 7213
internal_count=11766 11244 10379 1443 8936 8346 7790 7213
cat_boundaries=0 1
cat_threshold=4
is_linear=0
shrinkage=0.05


Tree=38
num_leaves=13
num_cat=0
split_feature=25 26 26 26 25 20 26 25 25 25 21 24
split_gain=2.10956 1.2344 2.51405 2.12634 1.2698 1.2979 1.67056 3.38362 0.493038 0.769605 0.929757 0.833205
threshold=2.1063403347650449 1.0330004667388788 1.7188009846776802 0.67625022369813947 -1.0000000180025095e-35 -0.12975125211304417 -0.66673915352849877 0.51051347827319871 -0.15394105833273189 -0.51611051365644733 0.036343644822498113 0.17919310214082632
decision_type=8 10 10 10 10 10 10 10 10 10 10 10
left_child=1 3 -3 4 8 -6 -7 -8 9 11 -11 -1
right_child=-2 2 -4 -5 5 6 7 -9 -10 10 -12 -13
leaf_value=-0.00036719298842101373 0.0030931700003356366 -0.0034234250724327823 0.0010922053744277062 0.002697208430369297 0.0025725573125176967 0.0019745529256258942 0.00067321307839525554 -0.0035090689938327008 -0.0019605248681271062 -0.00079344240744230971 0.001397660068470326 -0.0021435960244177979
leaf_weight=1899 522 760 513 697 648 876 1602 687 626 965 962 1009
leaf_count=1899 522 760 513 697 648 876 1602 687 626 965 962 1009
internal_value=1.31569e-06 -0.000143534 -0.00160654 4.39599e-05 -0.000156794 0.000542965 0.000124025 -0.000586932 -0.000645433 -0.000473315 0.00030119 -0.00098618
internal_weight=11766 11244 1273 9971 9274 3813 3165 2289 5461 4835 1927 2908
internal_count=11766 11244 1273 9971 9274 3813 3165 2289 5461 4835 1927 2908
is_linear=0
shrinkage=0.05


Tree=39
num_leaves=19
num_cat=5
split_feature=25 22 58 58 26 24 22 26 21 26 58 22 26 22 26 58 58 26
split_gain=1.99992 3.8205 1.95782 1.14481 1.34271 1.13318 1.94014 1.70443 1.27075 1.11045 0.841653 0.824458 0.690426 1.32928 0.587999 0.502436 0.418686 0.506591
threshold=0.83754403783026732 -0.46033686930383316 0 1 0.50000961667090027 0.19661975589047845 -0.10077819729425573 -0.69857778552873773 0.1932472866695738 0.81170180906349698 2 0.062035590533223862 -0.25001570944064672 0.20661899491504229 0.24515133001594949 3 4 -0.24239962923783523
decision_type=8 10 1 1 10 10 10 10 10 8 1 10 10 10 10 1 1 10
left_child=3 -2 -3 4 10 6 9 -8 15 16 11 -1 13 -7 -14 -9 -5 -18
right_child=1 2 -4 5 -6 12 7 8 -10 -11 -12 -13 14 -15 -16 -17 17 -19
leaf_value=0.00094197152909181235 0.0043431320099690061 0.001703391639492433 -0.0025416777800198204 1.1530652353527288e-05 -0.0034232472739666158 0.00018681399731172458 0.0040937185006252692 0.00080219289424425836 -0.00077736393755236408 0.0016334124028404594 -0.0023010964992435596 -0.0013526050551553015 0.0011263444877329691 -0.0031462356253345518 -0.0010179239610425721 0.0030176497982235032 -0.00061682661644312908 -0.0025784574760275448
leaf_weight=927 719 544 514 714 523 535 505 553 737 504 529 670 600 672 673 515 734 598
leaf_count=927 719 544 514 714 523 535 505 553 737 504 529 670 600 672 673 515 734 598
internal_value=1.27758e-06 0.00154437 -0.000369098 -0.000273868 -0.00116155 4.85825e-05 0.000492325 0.00154039 0.000816683 -0.000458251 -0.000603889 -2.17686e-05 -0.000820055 -0.00167419 -6.81849e-06 0.00191519 -0.000976226 -0.00149268
internal_weight=11766 1777 1058 9989 2649 7340 4860 2310 1805 2550 2126 1597 2480 1207 1273 1068 2046 1332
internal_count=11766 1777 1058 9989 2649 7340 4860 2310 1805 2550 2126 1597 2480 1207 1273 1068 2046 1332
cat_boundaries=0 1 2 3 4 5
cat_threshold=770 306 288 200 1156
is_linear=0
shrinkage=0.05


Tree=40
num_leaves=13
num_cat=3
split_feature=25 26 58 26 25 58 22 25 25 25 21 58
split_gain=1.8175 1.24261 3.75879 1.69848 1.15314 2.19472 1.57401 0.816302 0.444353 0.685009 0.846305 0.782714
threshold=1.9721361960097452 1.0330004667388788 0 0.67625022369813947 -1.0000000180025095e-35 1 0.389455046797963 0.71970517803418832 -0.15394105833273189 -0.51611051365644733 0.036343644822498113 2
decision_type=8 10 1 10 10 1 10 10 10 10 10 1
left_child=1 3 -3 4 8 -6 7 -7 9 11 -11 -1
right_child=-2 2 -4 -5 5 6 -8 -9 -10 10 -12 -13
leaf_value=-1.0078504521723569e-05 0.0026657778389224114 0.0017085441829513773 -0.0038186290856780641 0.0024449583237180243 0.0030677075366235106 0.0001021823805195222 -0.0020349548980306931 0.0023482350448074825 -0.0018461202323863286 -0.00074801013956192085 0.0013424607703121305 -0.0016580563354250798
leaf_weight=1318 602 504 753 681 684 1824 742 515 626 965 962 1590
leaf_count=1318 602 504 753 681 684 1824 742 515 626 965 962 1590
internal_value=1.24532e-06 -0.000143564 -0.00162121 4.46433e-05 -0.00013376 0.000539042 -3.62201e-05 0.000600671 -0.000597682 -0.000434303 0.000296371 -0.000918165
internal_weight=11766 11164 1257 9907 9226 3765 3081 2339 5461 4835 1927 2908
internal_count=11766 11164 1257 9907 9226 3765 3081 2339 5461 4835 1927 2908
cat_boundaries=0 1 2 3
cat_threshold=1099 388 1805
is_linear=0
shrinkage=0.05


Tree=41
num_leaves=10
num_cat=0
split_feature=20 24 20 22 19 19 22 21 24
split_gain=1.96665 4.26993 4.07332 2.43632 2.2982 2.48532 1.23348 2.16054 1.0097
threshold=-0.15544655496795753 -0.31598120233392774 -0.14082247539942463 1.3134631671524633 -0.12975122948124312 -1.0000000180025095e-35 0.079242529827172517 0.50072324596679785 0.15805915113909813
decision_type=8 10 10 10 10 10 10 10 10
left_child=1 -1 -2 4 -4 -6 7 -7 -8
right_child=2 -3 3 -5 5 6 8 -9 -10
leaf_value=0.0015966783533031049 0.0041196113459706779 -0.0043916604802676368 0.0026146083106230581 0.0027518790282937159 -0.0036759942108318608 -0.00017660306480349035 -0.00015004116652640232 0.0028325391439906582 -0.0020122652626137117
leaf_weight=507 625 709 647 726 558 4399 1493 685 1417
leaf_count=507 625 709 647 726 558 4399 1493 685 1417
internal_value=1.22858e-06 -0.00189856 0.000220996 -2.646e-05 -0.000247107 -0.000465011 -0.000238719 0.000231223 -0.00105873
internal_weight=11766 1216 10550 9925 9199 8552 7994 5084 2910
internal_count=11766 1216 10550 9925 9199 8552 7994 5084 2910
is_linear=0
shrinkage=0.05


Tree=42
num_leaves=12
num_cat=2
split_feature=19 20 58 19 25 20 58 25 21 21 22
split_gain=1.95871 6.18649 5.51222 2.93504 3.01295 2.30706 0.91203 1.51047 1.15422 0.576602 1.30724
threshold=-0.14082245092512977 -0.12975125211304417 0 -1.0000000180025095e-35 1.1512211837983475 -0.14579116734514722 1 -0.6440035683331079 0.78242620061068069 -0.69152706060795432 -0.38539835095532932
decision_type=8 10 1 10 10 10 1 10 10 10 10
left_child=5 2 -2 -3 6 -1 7 -5 -9 -8 -11
right_child=1 3 -4 4 -6 -7 9 8 -10 10 -12
leaf_value=-0.0040584715338291676 -0.00041712806190181279 -0.003540519853566378 0.0063421903640398973 -0.0015903671597645289 0.0029486237957523451 0.0001291777016412394 -0.0024292760751426414 0.0010451206535720692 -0.0012587770098696715 0.001648386604099766 -0.0011678049892051619
leaf_weight=608 520 614 713 959 794 709 529 3026 658 506 2130
leaf_count=608 520 614 713 959 794 709 529 3026 658 506 2130
internal_value=1.24166e-06 0.000230555 0.00354923 -0.000215131 2.41497e-05 -0.00181211 -0.000274938 0.000171764 0.000632473 -0.000927098 -0.000625119
internal_weight=11766 10449 1233 9216 8602 1317 7808 4643 3684 3165 2636
internal_count=11766 10449 1233 9216 8602 1317 7808 4643 3684 3165 2636
cat_boundaries=0 1 2
cat_threshold=1102 708
is_linear=0
shrinkage=0.05


Tree=43
num_leaves=12
num_cat=2
split_feature=19 20 58 19 22 20 58 25 22 21 23
split_gain=1.76968 5.59489 4.98582 2.65107 2.76287 2.0839 1.93103 7.67884 3.11499 2.34568 1.22399
threshold=-0.14082245092512977 -0.12975125211304417 0 -1.0000000180025095e-35 1.3134631671524633 -0.14579116734514722 1 0.20878321831427565 0.62326623902880607 -1.0395984047898761 0.42880321555732837
decision_type=8 10 1 10 10 10 1 10 10 10 10
left_child=5 2 -2 -3 6 -1 7 10 9 -8 -5
right_child=1 3 -4 4 -6 -7 8 -9 -10 -11 -12
leaf_value=-0.0038572030994839068 -0.00039685642538226653 -0.0033649237872496692 0.0060316147466457533 -0.0010931909828950891 0.0032579923106348337 0.00012276410718685857 -0.0035502497074219267 0.0053108616927237447 -0.0042623076254800461 7.6668286028594261e-05 0.0014384170842727997
leaf_weight=608 520 614 713 2134 608 709 507 703 594 3446 610
leaf_count=608 520 614 713 2134 608 709 507 703 594 3446 610
internal_value=1.38137e-06 0.000219349 0.00337536 -0.000204492 2.29188e-05 -0.00172225 -0.000225014 0.000666199 -0.000900103 -0.000392407 -0.000528814
internal_weight=11766 10449 1233 9216 8602 1317 7994 3447 4547 3953 2744
internal_count=11766 10449 1233 9216 8602 1317 7994 3447 4547 3953 2744
cat_boundaries=0 1 2
cat_threshold=1102 198
is_linear=0
shrinkage=0.05


Tree=44
num_leaves=12
num_cat=1
split_feature=24 25 22 23 23 24 22 20 25 25 58
split_gain=1.7414 5.62281 3.43532 1.94884 1.66882 1.48229 2.64066 1.20359 1.05956 1.00442 0.523018
threshold=0.39018407638827407 1.1889771144281169 -1.3205823940609613 0.78011464877177283 0.35847386273772902 1.858997603129861 0.97347741814330668 -0.14579116734514722 0.28698084706068078 0.30637599008085353 0
decision_type=10 8 10 10 10 10 10 10 8 10 1
left_child=1 2 -1 4 7 6 9 -4 -9 10 -2
right_child=5 -3 3 -5 -6 -7 -8 8 -10 -11 -12
leaf_value=-0.0039191473093053803 -0.0002391198639010475 0.0046387363300142382 0.002292840240208253 0.0032607736667309255 -0.0021418337416763121 0.0014534802225363607 -0.0044741823820120602 0.00033461454880241465 -0.0017579373546409258 0.0012730054341285667 -0.0021169875123895599
leaf_weight=521 684 702 681 500 771 505 574 4804 687 508 829
leaf_count=521 684 702 681 500 771 505 574 4804 687 508 829
internal_value=1.54556e-06 0.00036539 -1.39649e-05 0.00026184 4.36808e-05 -0.00101453 -0.00149669 0.000318206 7.14463e-05 -0.000642068 -0.00128714
internal_weight=11766 8666 7964 7443 6943 3100 2595 6172 5491 2021 1513
internal_count=11766 8666 7964 7443 6943 3100 2595 6172 5491 2021 1513
cat_boundaries=0 1
cat_threshold=216
is_linear=0
shrinkage=0.05


Tree=45
num_leaves=11
num_cat=1
split_feature=20 24 20 22 19 58 25 25 21 21
split_gain=1.79964 3.6596 3.28999 1.95805 1.8054 2.02366 5.27601 4.81052 0.85039 0.393451
threshold=-0.15544655496795753 -0.31598120233392774 -0.14082247539942463 1.3134631671524633 -0.12975122948124312 0 0.93541422763432369 0.10425494642231198 0.93541431624923876 -1.0000000180025095e-35
decision_type=8 10 10 10 10 1 10 10 10 10
left_child=1 -1 -2 4 -4 7 8 9 -7 -6
right_child=2 -3 3 -5 5 6 -8 -9 -10 -11
leaf_value=0.0014202392175434399 0.0037153167713023282 -0.0041239416774571267 0.0023277529821094795 0.0024799103461328269 0.00026931868454373284 -0.00022181029129172036 -0.0054926929601081193 0.0042706744679552409 -0.0023507868591269841 -0.0011877384324387322
leaf_weight=507 625 709 647 726 815 4890 563 706 514 1064
leaf_count=507 625 709 647 726 815 4890 563 706 514 1064
internal_value=1.33856e-06 -0.001816 0.000211567 -1.0832e-05 -0.000208646 -0.000401785 -0.000906999 0.000764461 -0.000426293 -0.000556715
internal_weight=11766 1216 10550 9925 9199 8552 5967 2585 5404 1879
internal_count=11766 1216 10550 9925 9199 8552 5967 2585 5404 1879
cat_boundaries=0 1
cat_threshold=70
is_linear=0
shrinkage=0.05


Tree=46
num_leaves=10
num_cat=2
split_feature=19 20 58 19 58 23 20 22 22
split_gain=1.67779 4.8085 4.44977 2.37881 2.44385 1.84976 1.69624 1.39115 0.853055
threshold=-0.14082245092512977 -0.12975125211304417 0 -1.0000000180025095e-35 1 1.3904433685866893 -0.14579116734514722 0.97347741814330668 -1.3465478653958398
decision_type=8 10 1 10 1 10 10 10 10
left_child=6 2 -2 -3 -5 7 -1 8 -6
right_child=1 3 -4 4 5 -7 -8 -9 -10
leaf_value=-0.0036031395937424372 -0.00042216301643263518 -0.0031731515085800088 0.0056488598712478837 0.0022954116283883151 -0.0022555849720232598 0.002642989744848237 -1.1561436403193184e-05 -0.0029631095234570761 -0.00012212141139264057
leaf_weight=608 520 614 713 1036 503 501 709 520 6042
leaf_count=608 520 614 713 1036 503 501 709 520 6042
internal_value=1.29514e-06 0.000213528 0.00313935 -0.000179404 3.60047e-05 -0.000277349 -0.00167699 -0.000486554 -0.00028768
internal_weight=11766 10449 1233 9216 8602 7566 1317 7065 6545
internal_count=11766 10449 1233 9216 8602 7566 1317 7065 6545
cat_boundaries=0 1 2
cat_threshold=1102 6
is_linear=0
shrinkage=0.05


Tree=47
num_leaves=11
num_cat=1
split_feature=20 24 20 22 19 58 22 26 26 22
split_gain=1.60089 3.27427 2.83527 1.75482 1.53017 1.72679 3.19061 2.68993 0.972315 0.946067
threshold=-0.15544655496795753 -0.31598120233392774 -0.14082247539942463 1.3134631671524633 -0.12975122948124312 0 -0.67593511639117099 1.1715795939526501 0.076704783676591407 0.62326623902880607
decision_type=8 10 10 10 10 1 10 10 10 10
left_child=1 -1 -2 4 -4 6 -6 9 -8 -7
right_child=2 -3 3 -5 5 7 8 -9 -10 -11
leaf_value=0.0013485415919603839 0.0034524068695821961 -0.003895613759399342 0.0021411361972168605 0.0023512680755887389 0.0039572463222803216 -0.00024756605541398629 -0.00098013598347389589 -0.0042160866948562628 0.0013882575495384056 -0.0021914466631607157
leaf_weight=507 625 709 647 726 580 4718 1379 532 626 717
leaf_count=507 625 709 647 726 580 4718 1379 532 626 717
internal_value=1.5082e-06 -0.00171254 0.000199789 -6.67154e-06 -0.00019394 -0.000371748 0.000705566 -0.000838435 -0.000239064 -0.000505787
internal_weight=11766 1216 10550 9925 9199 8552 2585 5967 2005 5435
internal_count=11766 1216 10550 9925 9199 8552 2585 5967 2005 5435
cat_boundaries=0 1
cat_threshold=70
is_linear=0
shrinkage=0.05


Tree=48
num_leaves=11
num_cat=3
split_feature=19 20 58 19 58 21 26 58 22 23
split_gain=1.57793 4.24062 4.00416 2.13761 2.12036 1.8728 1.78835 2.99482 1.72124 1.02741
threshold=-0.14082245092512977 -0.12975125211304417 0 -1.0000000180025095e-35 1 -0.1945268174981559 0.67625022369813947 2 0.97347741814330668 0.64353462670972317
decision_type=8 10 1 10 1 10 10 1 10 10
left_child=5 2 -2 -3 -5 -1 8 -8 9 -6
right_child=1 3 -4 4 6 -7 7 -9 -10 -11
leaf_value=-0.0038556817846838384 -0.00042253721131133704 -0.0029996039006958369 0.005335541477818749 0.002147049265884866 -0.00057850518523560582 -3.7383892455952128e-05 0.0037012752530860143 -0.00097039733776492867 -0.0030926001421213035 0.0015097608360335208
leaf_weight=545 520 614 713 1036 4929 772 677 674 622 664
leaf_count=545 520 614 713 1036 4929 772 677 674 622 664
internal_value=1.4988e-06 0.000207319 0.00295494 -0.000161686 4.25064e-05 -0.00162608 -0.000249399 0.00139578 -0.00060826 -0.00032946
internal_weight=11766 10449 1233 9216 8602 1317 7566 1351 6215 5593
internal_count=11766 10449 1233 9216 8602 1317 7566 1351 6215 5593
cat_boundaries=0 1 2 3
cat_threshold=1102 6 576
is_linear=0
shrinkage=0.05


Tree=49
num_leaves=12
num_cat=2
split_feature=24 25 22 22 25 22 26 20 58 58 22
split_gain=1.5786 4.96488 3.05555 1.29296 1.24067 0.881676 1.06143 1.43898 0.796976 0.564194 0.299981
threshold=0.39018407638827407 1.1889771144281169 -1.3205823940609613 0.97347741814330668 0.22739705484081077 0.81369092616523453 -1.065127500915841 -0.14579116734514722 0 1 0.20661899491504229
decision_type=10 8 10 10 10 10 10 10 1 1 10
left_child=1 2 -1 4 9 6 -4 -8 -9 10 -2
right_child=3 -3 5 -5 -6 -7 7 8 -10 -11 -12
leaf_value=-0.0036912095819745111 0.00044310113835504367 0.0043638314105981313 -0.0021251911977599337 -0.0026438775719065657 0.0013850969246746699 0.0019009716751782681 0.0024297395855231081 0.00057624797844992102 -0.0006197156117428099 -0.0024106278761601013 -0.0012669876065780229
leaf_weight=521 506 702 503 833 708 726 671 2809 2734 542 511
leaf_count=521 506 702 503 833 708 726 671 2809 2734 542 511
internal_value=1.85539e-06 0.000348275 -8.1984e-06 -0.000965557 -0.000344404 0.000251912 7.23941e-05 0.000251846 -1.3748e-05 -0.00113175 -0.00041409
internal_weight=11766 8666 7964 3100 2267 7443 6717 6214 5543 1559 1017
internal_count=11766 8666 7964 3100 2267 7443 6717 6214 5543 1559 1017
cat_boundaries=0 1 2
cat_threshold=1573 728
is_linear=0
shrinkage=0.05


Tree=50
num_leaves=10
num_cat=0
split_feature=20 24 20 22 22 23 24 23 23
split_gain=1.57805 2.85125 2.43683 1.64955 1.37329 5.36116 1.32493 2.13691 1.33236
threshold=-0.15544655496795753 -0.31598120233392774 -0.14082247539942463 1.3134631671524633 -1.0290843354363377 -1.0217673288754905 1.0993799192084708 0.81497095936590513 -0.69129906664512975
decision_type=8 10 10 10 10 10 10 10 10
left_child=1 -1 -2 4 5 -4 7 8 -6
right_child=2 -3 3 -5 6 -7 -8 -9 -10
leaf_value=0.0011571063989663343 0.0032139077739760519 -0.0037371497900705883 -0.0017835634029686254 0.0022931852594537789 0.0010807616241272145 0.005089044608410323 -0.002647890237398985 0.0024522001768791067 -0.00079975009693691922
leaf_weight=507 625 709 599 726 1125 531 603 675 5666
leaf_count=507 625 709 599 726 1125 531 603 675 5666
internal_value=1.62315e-06 -0.00170015 0.000198483 7.07258e-06 -0.000174499 0.00145415 -0.000403337 -0.000220402 -0.000487658
internal_weight=11766 1216 10550 9925 9199 1130 8069 7466 6791
internal_count=11766 1216 10550 9925 9199 1130 8069 7466 6791
is_linear=0
shrinkage=0.05


Tree=51
num_leaves=9
num_cat=0
split_feature=20 22 20 22 22 23 22 20
split_gain=1.42535 2.58674 2.20087 1.4896 1.35475 1.04287 4.7635 1.33855
threshold=-0.15544655496795753 0.13735632798386591 -0.14082247539942463 1.3134631671524633 0.93541434127170453 -1.0502047848524854 -0.97102599257719657 -0.11868002853356478
decision_type=8 8 10 10 10 10 10 10
left_child=1 -1 -2 4 5 -4 -7 -8
right_child=2 -3 3 -5 -6 6 7 -9
leaf_value=0.00031495935069823355 0.0030544877329486469 -0.0043560848856981074 -0.0015436573926678402 0.0021793102997160235 -0.0025112799343276135 0.0041761503005065736 -0.0025647833092185416 9.3699184784854517e-07
leaf_weight=716 625 500 976 726 572 677 547 6427
leaf_count=716 625 500 976 726 572 677 547 6427
internal_value=1.67618e-06 -0.00161567 0.00018877 6.86206e-06 -0.000165682 -8.796e-06 0.000187879 -0.000201997
internal_weight=11766 1216 10550 9925 9199 8627 7651 6974
internal_count=11766 1216 10550 9925 9199 8627 7651 6974
is_linear=0
shrinkage=0.05


Tree=52
num_leaves=15
num_cat=4
split_feature=19 25 58 26 58 58 25 58 25 26 25 25 21 21
split_gain=1.40153 2.18982 2.24241 3.3361 1.69116 0.931266 1.16152 1.79327 1.01641 1.37796 0.684194 1.54971 0.547599 0.795545
threshold=-0.14082245092512977 0.83754403783026732 0 -0.0072792336020492442 1 2 -0.026919969072868349 3 0.28698084706068078 -0.77552579826748647 -0.3472715224208916 -0.61621072641640728 -0.74774413691758179 -0.34020520577236368
decision_type=8 8 1 10 1 1 10 1 10 10 10 10 10 10
left_child=4 5 -3 -4 -1 6 10 -8 9 -7 11 -2 -11 -14
right_child=1 2 3 -5 -6 8 7 -9 -10 12 -12 -13 13 -15
leaf_value=0.00011884393029893007 -0.0011036897483811547 0.0045940982513769553 -0.0023595756849292483 0.0033044750315707121 -0.0034644868745626958 -0.0023865865532314403 0.0037874180816237692 0.00017931083231020217 -0.0024700989948326368 -0.0013597229418842796 -0.0013033739236332092 0.0022999868706634736 0.0019981449514133599 -3.4942869136055869e-05
leaf_weight=722 707 509 500 531 595 662 557 882 594 571 866 626 573 2871
leaf_count=722 707 509 500 531 595 662 557 882 594 571 866 626 573 2871
internal_value=1.56583e-06 0.000195541 0.00193328 0.000554123 -0.00153234 -0.000105759 0.000508478 0.00161167 -0.000529741 -0.000282064 -0.000213146 0.000497358 6.74706e-05 0.000305721
internal_weight=11766 10449 1540 1031 1317 8909 3638 1439 5271 4677 2199 1333 4015 3444
internal_count=11766 10449 1540 1031 1317 8909 3638 1439 5271 4677 2199 1333 4015 3444
cat_boundaries=0 1 2 3 4
cat_threshold=326 1865 645 132
is_linear=0
shrinkage=0.05


Tree=53
num_leaves=11
num_cat=3
split_feature=21 25 25 58 21 21 23 58 58 26
split_gain=1.26171 2.12297 3.12189 0.820087 0.662455 2.17283 1.63523 0.929544 0.890348 0.661955
threshold=1.3124089036060818 1.3571034701443538 0.83754403783026732 0 0.22820755003703963 -0.0037131623762383472 -0.38903447408339403 1 2 -0.56504143790778638
decision_type=8 10 10 1 10 10 10 1 1 10
left_child=1 2 3 -1 5 7 -6 -5 -7 -8
right_child=-2 -3 -4 4 6 8 9 -9 -10 -11
leaf_value=-0.0018161209677404996 0.0018030549901255505 -0.0026795072072901328 0.0034199118251894891 0.00074663879775837389 0.0016854843745830056 0.0029435538337429963 -2.3319477988208863e-05 -0.0008020033423073973 0.00049524947657963623 -0.0018793801504491852
leaf_weight=696 893 764 637 1406 574 841 700 3041 687 1527
leaf_count=696 893 764 637 1406 574 841 700 3041 687 1527
internal_value=1.74728e-06 -0.000146955 4.56758e-05 -0.000182929 -5.03192e-05 0.000247057 -0.000684161 -0.000312208 0.00187042 -0.00129733
internal_weight=11766 10873 10109 9472 8776 5975 2801 4447 1528 2227
internal_count=11766 10873 10109 9472 8776 5975 2801 4447 1528 2227
cat_boundaries=0 1 2 3
cat_threshold=274 1161 708
is_linear=0
shrinkage=0.05


Tree=54
num_leaves=14
num_cat=1
split_feature=24 23 19 22 58 22 23 26 22 26 24 26 22
split_gain=1.33407 2.31597 1.91235 1.29481 1.28922 2.97152 2.66033 1.95794 2.0697 1.71833 1.01591 1.44824 0.209923
threshold=0.39018407638827407 0.87950766102802891 1.0000000180025095e-35 0.97347741814330668 0 -1.3205823940609613 -0.93541434155434133 0.15820779334468102 1.0000000180025095e-35 0.30616676648519076 0.58430349343292953 0.1023797897326882 0.13735632798386591
decision_type=10 8 10 10 1 10 10 10 10 10 10 10 10
left_child=1 2 4 10 7 -6 -7 8 -1 -8 -2 12 -12
right_child=3 -3 -4 -5 5 6 9 -9 -10 -11 11 -13 -14
leaf_value=-0.0015296909721217184 -0.0020213874459482175 0.0035132718807187693 0.0026333636884712263 -0.0025669891533646335 -0.0041973940247098116 0.0031764819366277529 -3.8344989200304504e-05 0.0029909337491855811 0.0023433765856044316 -0.0024598908979167286 0.0021993055419229409 -0.0016103388352055712 0.00079240566879485016
leaf_weight=966 600 528 683 833 500 525 3260 734 530 940 505 591 571
leaf_count=966 600 528 683 833 500 525 3260 734 530 940 505 591 571
internal_value=1.8092e-06 0.00032027 0.000111076 -0.000887526 -0.000121617 -0.000550752 -0.000162 0.00088137 -0.000154313 -0.000582591 -0.000266122 0.000369802 0.00145983
internal_weight=11766 8666 8138 3100 7455 5225 4725 2230 1496 4200 2267 1667 1076
internal_count=11766 8666 8138 3100 7455 5225 4725 2230 1496 4200 2267 1667 1076
cat_boundaries=0 1
cat_threshold=71
is_linear=0
shrinkage=0.05


Tree=55
num_leaves=9
num_cat=0
split_feature=20 24 20 22 22 25 25 25
split_gain=1.28016 2.42272 1.96027 1.33411 1.21626 1.25908 1.14932 0.793722
threshold=-0.15544655496795753 -0.31598120233392774 -0.14082247539942463 1.3134631671524633 0.93541434127170453 0.83754403783026732 0.26884135600883319 0.058708156049567604
decision_type=8 10 10 10 10 10 10 10
left_child=1 -1 -2 4 5 6 7 -4
right_child=2 -3 3 -5 -6 -7 -8 -9
leaf_value=0.0011025608421959987 0.0028836394711730206 -0.0034087314898492531 -0.00016992037233814805 0.0020633590901996709 -0.0023783435695804659 0.001678291882877665 -0.0018649067789909199 0.0016889451056012255
leaf_weight=507 625 709 6090 726 572 977 931 629
leaf_count=507 625 709 6090 726 572 977 931 629
internal_value=1.78722e-06 -0.00153098 0.000179096 7.4187e-06 -0.000155872 -7.22238e-06 -0.000223439 5.22405e-06
internal_weight=11766 1216 10550 9925 9199 8627 7650 6719
internal_count=11766 1216 10550 9925 9199 8627 7650 6719
is_linear=0
shrinkage=0.05


Tree=56
num_leaves=16
num_cat=3
split_feature=19 25 21 24 58 25 58 58 22 24 24 22 22 21 25
split_gain=1.24351 1.8198 1.65325 0.964604 1.55519 1.11515 2.34581 0.973691 1.20971 0.920132 1.05263 0.890312 0.631105 0.359677 0.311136
threshold=-0.14082245092512977 1.2415026609989386 -0.1945268174981559 -0.68720023802210817 0 0.047655304839504385 1 2 0.04573048213044608 -0.14039892699905254 0.023141335282846263 -0.11545105572188299 -0.11181778430265869 0.13673727944502098 0.43592396705301811
decision_type=8 8 10 10 1 10 1 1 10 10 10 10 10 10 10
left_child=2 3 -1 4 -2 7 -7 8 12 11 -11 -9 -5 -10 -8
right_child=1 -3 -4 5 -6 6 14 9 13 10 -12 -13 -14 -15 -16
leaf_value=-0.0035379574537192562 -0.0026534407911850185 0.0022472140681689856 4.9010819924499084e-05 0.00058169502935561475 0.00031022269146237816 0.003239425061869302 -0.0011752658946624468 -0.00084241184322580466 -0.0016036689639412482 -0.0030352480149721125 -0.00059377582561279238 0.0019949706715679505 0.0026637631014506699 0.00016660398908085355 0.00054021465421169449
leaf_weight=545 817 965 772 795 946 825 519 598 510 623 1498 506 672 646 529
leaf_count=545 817 965 772 795 946 825 519 598 510 623 1498 506 672 646 529
internal_value=1.73173e-06 0.000184444 -0.00144311 -2.65168e-05 -0.00108006 0.00021459 0.00127463 -0.000125719 0.000588057 -0.000705903 -0.00131636 0.000461186 0.00154125 -0.000617942 -0.000307963
internal_weight=11766 10449 1317 9484 1763 7721 1873 5848 2623 3225 2121 1104 1467 1156 1048
internal_count=11766 10449 1317 9484 1763 7721 1873 5848 2623 3225 2121 1104 1467 1156 1048
cat_boundaries=0 1 2 3
cat_threshold=565 198 549
is_linear=0
shrinkage=0.05


Tree=57
num_leaves=14
num_cat=2
split_feature=24 25 23 25 23 24 26 58 25 26 58 24 23
split_gain=1.20809 4.00051 1.66968 2.23118 1.10196 1.00884 1.31819 0.936752 1.9652 0.9161 0.819154 0.62496 0.30228
threshold=0.39018407638827407 1.2415026609989386 0.78011464877177283 0.51051347827319871 0.35847386273772902 1.858997603129861 0.5721982353106746 0 -0.01817941385096964 0.60051858373306455 1 0.83606131928125937 0.56112862530019758
decision_type=10 8 10 10 10 8 10 1 10 10 1 10 10
left_child=1 2 3 4 7 6 10 8 -1 -9 12 -12 -2
right_child=5 -3 -4 -5 -6 -7 -8 9 -10 -11 11 -13 -14
leaf_value=-3.3016682502265685e-05 -0.00082230725980373212 0.0039922083289826776 0.002763056259248717 -0.0028264619954375572 -0.0017400499758047734 0.0011914425693890628 -0.0035112452679694223 -0.000560844999044201 0.0029753154976754834 0.0014335372462686456 -0.00089304083601439595 0.0015599631725746463 -0.0025210371870517706
leaf_weight=1438 539 673 504 723 731 505 509 3024 867 706 517 512 518
leaf_count=1438 539 673 504 723 731 505 509 3024 867 706 517 512 518
internal_value=1.6482e-06 0.000304699 -8.08552e-06 -0.000196299 8.66343e-05 -0.000844653 -0.00124242 0.000309152 0.00109777 -0.000181456 -0.000681733 0.00032599 -0.00164724
internal_weight=11766 8666 7993 7489 6766 3100 2595 6035 2305 3730 2086 1029 1057
internal_count=11766 8666 7993 7489 6766 3100 2595 6035 2305 3730 2086 1029 1057
cat_boundaries=0 1 2
cat_threshold=645 1145
is_linear=0
shrinkage=0.05


Tree=58
num_leaves=11
num_cat=4
split_feature=19 20 58 19 58 58 26 58 25 21
split_gain=1.1017 3.56875 3.47963 1.8152 1.86359 1.50929 1.49637 2.50149 2.14876 0.961474
threshold=-0.14082245092512977 -0.12975125211304417 0 -1.0000000180025095e-35 1 2 0.67625022369813947 3 0.93541422763432369 0.39545649892088097
decision_type=8 10 1 10 1 1 10 1 10 10
left_child=5 2 -2 -3 -5 -1 8 -8 9 -6
right_child=1 3 -4 4 6 -7 7 -9 -10 -11
leaf_value=0.00019860282026008884 -0.00045174358813005079 -0.0027800946440006066 0.0049135186047031638 0.0019962821634518218 0.00012372462310707987 -0.0031838532540847961 0.0033617416580612744 -0.00090740501829281086 -0.0034468310946589192 -0.0013408501384591495
leaf_weight=722 520 614 713 1036 4091 595 677 674 586 1538
leaf_count=722 520 614 713 1036 4091 595 677 674 586 1538
internal_value=1.58719e-06 0.000173566 0.00269415 -0.000164938 2.32349e-05 -0.00135838 -0.000250377 0.00125452 -0.000578655 -0.000277273
internal_weight=11766 10449 1233 9216 8602 1317 7566 1351 6215 5629
internal_count=11766 10449 1233 9216 8602 1317 7566 1351 6215 5629
cat_boundaries=0 1 2 3 4
cat_threshold=1102 6 1865 576
is_linear=0
shrinkage=0.05


Tree=59
num_leaves=10
num_cat=0
split_feature=20 22 20 22 22 23 24 23 21
split_gain=1.14328 2.26784 1.76424 1.11658 1.13256 4.46756 1.19795 1.87044 1.60659
threshold=-0.15544655496795753 0.13735632798386591 -0.14082247539942463 1.3134631671524633 -1.0290843354363377 -1.0217673288754905 1.0993799192084708 0.80252466994000227 1.0641440902798476
decision_type=8 10 10 10 10 10 8 10 10
left_child=1 -1 -2 4 5 -4 7 8 -6
right_child=2 -3 3 -5 6 -7 -8 -9 -10
leaf_value=0.00036051460601849259 0.0027350385957868729 -0.004012758883666063 -0.0016195931171208917 0.0018872972450406378 -0.00021447312282818021 0.0046541894699617141 -0.0024850534247602093 0.0022533950456935137 -0.0031412233364321953
leaf_weight=716 625 500 599 726 6253 531 603 711 502
leaf_count=716 625 500 599 726 6253 531 603 711 502
internal_value=1.72738e-06 -0.00144677 0.000169289 6.42205e-06 -0.000142964 0.00133605 -0.000350787 -0.000176863 -0.000434138
internal_weight=11766 1216 10550 9925 9199 1130 8069 7466 6755
internal_count=11766 1216 10550 9925 9199 1130 8069 7466 6755
is_linear=0
shrinkage=0.05


Tree=60
num_leaves=11
num_cat=0
split_feature=21 25 25 19 22 23 25 22 25 25
split_gain=1.14756 2.31483 2.78368 0.966073 0.671538 2.1423 1.06535 1.00315 0.974282 0.354144
threshold=1.3124089036060818 1.3571034701443538 0.83754403783026732 0.15544655505549945 -0.10077819729425573 -0.13889099434852356 0.26884135600883319 0.22509802747457283 -0.053261271069072948 -0.35595387760840491
decision_type=8 10 10 10 10 10 10 10 10 10
left_child=1 2 3 4 6 9 8 -7 -1 -6
right_child=-2 -3 -4 -5 5 7 -8 -9 -10 -11
leaf_value=-0.00056160650695313526 0.0017195402238320172 -0.0027846861132620432 0.0032471892130169497 -0.0021674360222794921 0.0014105154412305532 0.00078428194423936113 -0.0024055230742933403 -0.00082682990742323102 0.0016839214117568245 0.0032835590761221413
leaf_weight=2681 893 764 637 556 505 1623 624 2372 584 527
leaf_count=2681 893 764 637 556 505 1623 624 2372 584 527
internal_value=1.64987e-06 -0.000140166 6.09746e-05 -0.000154901 -2.82554e-05 0.00035327 -0.000521243 -0.000172141 -0.000157996 0.00237822
internal_weight=11766 10873 10109 9472 8916 5027 3889 3995 3265 1032
internal_count=11766 10873 10109 9472 8916 5027 3889 3995 3265 1032
is_linear=0
shrinkage=0.05


Tree=61
num_leaves=9
num_cat=1
split_feature=21 25 25 19 58 22 21 25
split_gain=1.03619 2.09071 2.51419 0.872791 0.638612 0.815848 0.876302 0.836258
threshold=1.3124089036060818 1.3571034701443538 0.83754403783026732 0.15544655505549945 0 -0.84611652583678343 -0.90399067603218386 0.0056360324658933404
decision_type=8 10 10 10 1 10 10 10
left_child=1 2 3 4 -1 7 -7 -6
right_child=-2 -3 -4 -5 5 6 -8 -9
leaf_value=-0.0015042703165366184 0.0016340418093379397 -0.0026463569190367693 0.0030860942352499317 -0.0020600301080442294 -1.3089773396181094e-07 0.0021311841685092078 0.00013285012979990103 -0.0026276621575584834
leaf_weight=661 893 764 637 556 735 595 6415 510
leaf_count=661 893 764 637 556 735 595 6415 510
internal_value=1.63923e-06 -0.00013312 5.80358e-05 -0.000147124 -2.67483e-05 9.41071e-05 0.000303864 -0.00108267
internal_weight=11766 10873 10109 9472 8916 8255 7010 1245
internal_count=11766 10873 10109 9472 8916 8255 7010 1245
cat_boundaries=0 1
cat_threshold=274
is_linear=0
shrinkage=0.05


Tree=62
num_leaves=12
num_cat=1
split_feature=19 20 25 58 26 21 25 26 26 21 25
split_gain=0.982329 3.4341 3.22284 1.62368 1.95893 1.47165 1.15449 0.704775 0.87138 1.37171 0.886418
threshold=-0.14082245092512977 -0.12975125211304417 0.0093583957854273606 0 -0.054042510001138459 -0.1945268174981559 0.93541422763432369 -1.025519335265475 -0.56504143790778638 0.78242620061068069 -0.2392616253775369
decision_type=8 10 8 1 10 10 10 10 10 10 10
left_child=5 2 -2 4 -3 -1 7 -5 10 -10 -9
right_child=1 3 -4 6 -6 -7 -8 8 9 -11 -12
leaf_value=-0.0032591871222989129 0.00050819030671529774 0.003893989140117099 0.0056999334061602815 -0.001780937817107271 -0.00032750857346816625 0.00012457055624627163 -0.0020782889405776012 -0.00014096283831510365 1.5107584079353999e-05 -0.0022102182957971263 0.0024712302577518858
leaf_weight=545 731 509 502 637 589 772 918 675 4453 815 620
leaf_count=545 731 509 502 637 589 772 918 675 4453 815 620
internal_value=1.454e-06 0.000163849 0.00263643 -0.000168205 0.00162351 -0.00128272 -0.000412884 -0.000199823 -4.51226e-05 -0.000330937 0.00111436
internal_weight=11766 10449 1233 9216 1098 1317 8118 7200 6563 5268 1295
internal_count=11766 10449 1233 9216 1098 1317 8118 7200 6563 5268 1295
cat_boundaries=0 1
cat_threshold=6
is_linear=0
shrinkage=0.05


Tree=63
num_leaves=14
num_cat=0
split_feature=24 25 22 22 21 24 22 20 24 22 22 25 22
split_gain=1.03288 3.91363 1.95326 1.29351 0.904205 1.68461 0.867543 0.888003 0.774841 0.72516 0.87294 0.652388 0.446522
threshold=0.39018407638827407 1.2415026609989386 -1.3205823940609613 0.97347741814330668 -0.16839800266581365 0.63697597243685278 -0.42680862336710818 -0.12975125211304417 -0.5469324813542128 0.81369092616523453 0.4900089186027789 -0.18344617787816656 -0.71343364593802272
decision_type=10 8 10 10 10 10 10 10 10 10 10 10 10
left_child=1 2 -1 4 -2 -6 8 -8 11 10 -9 -4 -10
right_child=3 -3 6 -5 5 -7 7 9 12 -11 -12 -13 -14
leaf_value=-0.00294610776773123 -0.0014705439135588583 0.0039289082854486188 -0.00091229444638491234 -0.0024596424497717322 -0.001679814929739642 0.0018743499973273969 0.0020131682596092907 0.00029540462508927763 -0.00061847849812527952 0.0018978285477125444 -0.0018738890286647538 0.0015838417147127676 -0.0026463239222666193
leaf_weight=530 829 673 532 833 516 922 836 3395 567 572 532 506 523
leaf_count=530 829 673 532 833 516 922 836 3395 567 572 532 506 523
internal_value=1.44322e-06 0.000281659 -2.7699e-05 -0.000781087 -0.000160253 0.000597601 0.000181391 0.000521764 -0.000671162 0.000242705 -4.83897e-07 0.000306271 -0.00159911
internal_weight=11766 8666 7993 3100 2267 1438 7463 5335 2128 4499 3927 1038 1090
internal_count=11766 8666 7993 3100 2267 1438 7463 5335 2128 4499 3927 1038 1090
is_linear=0
shrinkage=0.05


Tree=64
num_leaves=9
num_cat=1
split_feature=20 58 20 25 24 22 22 22
split_gain=1.0014 2.27106 1.50508 1.06133 0.981394 1.83497 0.765439 1.08956
threshold=-0.15544655496795753 0 -0.14082247539942463 1.2415026609989386 -1.1264587205197991 -1.092067401316307 0.97347741814330668 0.76112973217328006
decision_type=8 1 10 10 10 10 10 10
left_child=1 -1 -2 4 -4 -6 7 -7
right_child=2 -3 3 -5 5 6 -8 -9
leaf_value=-0.0035260011044045514 0.0025279506745689091 0.0007615598923918763 -0.0022718585300252072 0.0016551756559546743 0.0028432416420449535 -0.00021667819072716745 -0.0016265820888106094 0.0021619663043988438
leaf_weight=592 625 624 511 885 518 6646 851 514
leaf_count=592 625 624 511 885 518 6646 851 514
internal_value=1.30705e-06 -0.00135434 0.000158127 7.6961e-06 -0.000154415 -2.62954e-05 -0.000213501 -4.45312e-05
internal_weight=11766 1216 10550 9925 9040 8529 8011 7160
internal_count=11766 1216 10550 9925 9040 8529 8011 7160
cat_boundaries=0 1
cat_threshold=550
is_linear=0
shrinkage=0.05


Tree=65
num_leaves=16
num_cat=3
split_feature=24 25 22 25 58 22 25 20 26 22 22 58 58 25 24
split_gain=0.931548 3.4081 1.82938 1.19336 1.16795 1.12616 0.853508 0.767884 0.723529 2.45792 1.80745 1.17746 0.491689 0.288315 0.273203
threshold=0.39018407638827407 1.2415026609989386 -0.52642087313488239 0.22739705484081077 0 0.97347741814330668 0.22739705484081077 -0.14579116734514722 0.1023797897326882 0.079242529827172517 -0.11545105572188299 1 2 -0.450951484686127 -0.55532717044178004
decision_type=10 8 10 10 1 10 10 10 10 10 10 1 1 10 8
left_child=1 2 3 4 14 6 12 -4 10 -10 -9 -12 13 -2 -1
right_child=5 -3 7 -5 -6 -7 -8 8 9 -11 11 -13 -14 -15 -16
leaf_value=-0.00024496609522883881 0.00067874468836890149 0.0036708366641277517 0.0022108172772845242 -0.002908497595577827 -0.0023425521171285091 -0.0023081999978935234 0.0012714623749581217 -0.0021688048325171987 0.0033648919928953914 -0.00080533338348751961 0.0017412694607143019 -0.00031453542502805779 -0.0020082475566530946 -0.00099694626405835165 0.0013515039814257191
leaf_weight=562 512 673 559 709 524 833 708 817 685 721 1124 1787 542 505 505
leaf_count=562 512 673 559 709 524 833 708 817 685 721 1124 1787 542 505 505
internal_value=1.17332e-06 0.000267288 -2.14018e-05 -0.00120995 -0.000446281 -0.000741979 -0.000162664 0.000459417 0.000266756 0.00123112 -9.811e-05 0.000485773 -0.000815937 -0.000152647 0.000508661
internal_weight=11766 8666 7993 2300 1591 3100 2267 5693 5134 1406 3728 2911 1559 1017 1067
internal_count=11766 8666 7993 2300 1591 3100 2267 5693 5134 1406 3728 2911 1559 1017 1067
cat_boundaries=0 1 2 3
cat_threshold=873 901 728
is_linear=0
shrinkage=0.05


Tree=66
num_leaves=10
num_cat=1
split_feature=21 25 25 24 58 22 25 26 24
split_gain=0.941965 2.29452 2.25819 0.801095 0.815043 0.520116 0.902611 0.571744 0.433537
threshold=1.3124089036060818 1.3571034701443538 0.83754403783026732 0.8132177639833017 0 -0.42680862336710818 0.20878321831427565 0.25663401829614246 1.1471490851789177
decision_type=8 10 10 10 1 10 10 10 10
left_child=1 2 3 4 -1 7 -7 -6 -5
right_child=-2 -3 -4 8 5 6 -8 -9 -10
leaf_value=-0.0016428745870373553 0.001557407068681228 -0.0027603861704615269 0.0029425132247754243 -0.0023923582505854797 0.00017880263224688352 0.00023757797215081001 0.002302910973850041 -0.0013991553673032122 -0.00043133829843924567
leaf_weight=642 893 764 637 536 1538 4660 592 910 594
leaf_count=642 893 764 637 536 1538 4660 592 910 594
internal_value=9.94513e-07 -0.000127491 7.27597e-05 -0.000121684 4.78538e-05 0.000191679 0.000472349 -0.000409431 -0.00136796
internal_weight=11766 10873 10109 9472 8342 7700 5252 2448 1130
internal_count=11766 10873 10109 9472 8342 7700 5252 2448 1130
cat_boundaries=0 1
cat_threshold=274
is_linear=0
shrinkage=0.05


Tree=67
num_leaves=13
num_cat=2
split_feature=20 58 58 21 24 26 23 21 21 23 21 26
split_gain=0.935259 2.04442 1.42488 3.63334 2.41721 1.10709 1.03675 1.33286 1.29861 1.11958 0.854425 0.282806
threshold=-0.15544655496795753 0 1 0.68867506944786439 -0.5721892763680384 0.15820779334468102 -1.1326760072492974 -0.90399067603218386 -0.65673549113776974 -0.60485924786816592 -0.36266192911584649 -0.070558795726512538
decision_type=8 1 1 8 10 8 10 10 10 10 10 10
left_child=1 -1 3 4 -2 11 -4 -8 -9 -10 -11 -6
right_child=2 -3 6 -5 5 -7 7 8 9 10 -12 -13
leaf_value=-0.0033695504188236873 -0.0025376919849437198 0.00069906457512404821 -0.0022187113770263953 0.0038998430641540073 0.00081109886395233264 0.0029016444651819204 0.0019915830641149311 -0.0027439934955379233 0.0017745948387202241 0.001497413401022751 -0.00064765229250452979 -0.00050057366483308597
leaf_weight=592 658 624 618 807 1006 523 686 504 687 523 3850 688
leaf_count=592 658 624 618 807 1006 523 686 504 687 523 3850 688
internal_value=8.45124e-07 -0.00130927 0.000152398 0.000943839 0.000112049 0.000902426 -0.000273255 -7.9705e-05 -0.000336638 -9.43822e-05 -0.000389691 0.000278472
internal_weight=11766 1216 10550 3682 2875 2217 6868 6250 5564 5060 4373 1694
internal_count=11766 1216 10550 3682 2875 2217 6868 6250 5564 5060 4373 1694
cat_boundaries=0 1 2
cat_threshold=550 519
is_linear=0
shrinkage=0.05


Tree=68
num_leaves=13
num_cat=1
split_feature=21 58 23 23 23 24 20 23 26 20 21 23
split_gain=0.875868 1.40479 1.58094 2.30504 2.23257 1.45912 1.39565 1.6036 1.07803 0.783759 0.524698 0.547377
threshold=-1.6078899575570904 0 -0.1745083851085539 1.2468916689443867 -0.59645004712946215 1.111881516661142 -0.14579116734514722 -1.0502047848524854 -1.025519335265475 -0.11868002853356478 0.11182038427833035 0.029770514086903722
decision_type=10 1 10 10 10 8 10 10 10 10 10 10
left_child=-1 2 4 10 -2 6 -3 -8 -9 -10 11 -4
right_child=1 5 3 -5 -6 -7 7 8 9 -11 -12 -13
leaf_value=-0.002017721919191581 0.00058283779219472931 0.0017625093942922492 0.001061052315746568 0.0031247115304277651 0.0048641486993582263 -0.0026894740686998573 -0.0029864871101329951 -0.0022576671394387089 -0.001650599228905484 0.00033204032954248328 -0.0016321282525343568 -0.0010994019049104418
leaf_weight=509 751 876 614 510 509 584 528 526 556 4468 783 552
leaf_count=509 751 876 614 510 509 584 528 526 556 4468 783 552
internal_value=7.22498e-07 9.28444e-05 0.000886002 0.000149161 0.00232474 -0.000299579 -9.75166e-05 -0.000366824 -0.000115138 0.000111201 -0.000635462 3.79373e-05
internal_weight=11766 11257 3719 2459 1260 7538 6954 6078 5550 5024 1949 1166
internal_count=11766 11257 3719 2459 1260 7538 6954 6078 5550 5024 1949 1166
cat_boundaries=0 1
cat_threshold=518
is_linear=0
shrinkage=0.05


Tree=69
num_leaves=12
num_cat=2
split_feature=20 22 20 58 20 22 58 22 21 22 21
split_gain=0.905396 2.12326 1.39431 2.94447 1.64522 1.5995 1.07368 2.18059 1.82269 1.08455 1.11878
threshold=-0.15544655496795753 0.13735632798386591 -0.12975125211304417 0 -1.0000000180025095e-35 1.3134631671524633 1 0.62326623902880607 -1.0395984047898761 -0.93541431823742804 -0.43682438543955932
decision_type=8 10 10 1 10 10 1 10 10 10 10
left_child=1 -1 3 -2 -4 6 9 8 -8 -6 -11
right_child=2 -3 4 -5 5 -7 7 -9 -10 10 -12
leaf_value=0.00045963773857626161 0.0045548153649592263 -0.0037713452783588435 -0.0025505668843264343 -0.00036114411668035644 0.0027049500240297624 0.0025562794181519751 -0.0029182543288610117 -0.0033601358416681416 0.00026312174430938263 0.0020290493819717175 -0.0002962998578623715
leaf_weight=716 513 500 614 722 512 619 512 604 3481 661 2312
leaf_count=716 513 500 614 722 512 619 512 604 3481 661 2312
internal_value=6.31014e-07 -0.0012884 0.000149745 0.00172482 -5.9895e-05 0.000117227 -7.10447e-05 -0.000571947 -0.000147948 0.000589508 0.000223244
internal_weight=11766 1216 10550 1235 9315 8701 8082 4597 3993 3485 2973
internal_count=11766 1216 10550 1235 9315 8701 8082 4597 3993 3485 2973
cat_boundaries=0 1 2
cat_threshold=801 198
is_linear=0
shrinkage=0.05


Tree=70
num_leaves=10
num_cat=3
split_feature=19 20 58 19 58 23 25 58 23
split_gain=0.874107 2.91843 2.99689 1.36997 1.49552 1.36577 1.47862 1.2859 0.497404
threshold=-0.14082245092512977 -0.12975125211304417 0 -1.0000000180025095e-35 1 1.3904433685866893 0.93541422763432369 2 -0.69129906664512975
decision_type=8 10 1 10 1 10 10 1 10
left_child=7 2 -2 -3 -5 6 8 -1 -6
right_child=1 3 -4 4 5 -7 -8 -9 -10
leaf_value=0.00022516353678190767 -0.00048334801273646757 -0.0024240686300907267 0.0044932204765775552 0.0017788431953331308 0.00073794209752442094 0.0022756087997276705 -0.0026745723028242783 -0.0028956994592196877 -0.00039243393301694455
leaf_weight=722 520 614 713 1036 1191 501 651 595 5223
leaf_count=722 520 614 713 1036 1191 501 651 595 5223
internal_value=7.62948e-07 0.000153952 0.00243334 -0.000152159 1.13207e-05 -0.000233759 -0.00041352 -0.00121061 -0.000182126
internal_weight=11766 10449 1233 9216 8602 7566 7065 1317 6414
internal_count=11766 10449 1233 9216 8602 7566 7065 1317 6414
cat_boundaries=0 1 2 3
cat_threshold=1102 6 1865
is_linear=0
shrinkage=0.05


Tree=71
num_leaves=17
num_cat=3
split_feature=24 25 22 22 25 58 24 25 58 19 58 25 26 22 26 25
split_gain=0.83532 3.29774 1.58423 1.14228 1.05312 1.02024 0.863268 2.43048 0.926546 0.626907 0.628455 1.09567 0.913618 0.734077 0.456079 0.213945
threshold=0.39018407638827407 1.2415026609989386 -0.52642087313488239 0.97347741814330668 0.18088893132338954 0 0.58430349343292953 0.25628106682181373 1 -0.12975122948124312 2 -0.026919969072868349 0.15820779334468102 0.11000402078028763 -0.69266082574886567 -0.40292125284455826
decision_type=10 8 10 10 10 1 10 10 1 10 1 10 10 10 10 10
left_child=1 2 4 6 5 15 -2 8 -8 -4 11 13 14 -11 -12 -1
right_child=3 -3 9 -5 -6 -7 7 -9 -10 10 12 -13 -14 -15 -16 -17
leaf_value=-0.00018423473568548847 -0.0017377342575629945 0.0036008519136139457 0.0018831161888198779 -0.0022802237521296898 -0.0026869758329332921 -0.0021754067508662502 0.00055204148519699702 0.0031392123665353482 -0.0023133345161960254 -0.0011034084743175956 -0.0020775828748778669 0.0022651678253650877 0.0013119846950892522 0.0011880905500753968 -0.00036752752280316088 0.0012434477852821147
leaf_weight=536 600 673 641 833 738 519 558 559 550 728 510 848 685 663 1618 507
leaf_count=536 600 673 641 833 738 519 558 559 550 728 510 848 685 663 1618 507
internal_value=8.70853e-07 0.000252867 -3.11042e-05 -0.000702852 -0.00113714 -0.000398655 -0.00011951 0.000466388 -0.00089013 0.000416347 0.000228565 0.000850503 -0.000269159 -1.08552e-05 -0.000781272 0.000507537
internal_weight=11766 8666 7993 3100 2300 1562 2267 1667 1108 5693 5052 2239 2813 1391 2128 1043
internal_count=11766 8666 7993 3100 2300 1562 2267 1667 1108 5693 5052 2239 2813 1391 2128 1043
cat_boundaries=0 1 2 3
cat_threshold=873 600 1669
is_linear=0
shrinkage=0.05


Tree=72
num_leaves=11
num_cat=1
split_feature=20 22 20 19 20 25 25 25 58 26
split_gain=0.875035 1.93602 1.16963 4.46605 1.33651 1.45268 0.503716 0.657621 3.4308 0.663211
