tree
version=v4
num_class=1
num_tree_per_iteration=1
label_index=0
max_feature_idx=247
objective=regression
feature_names=market_cap pe_ratio pb_ratio ps_ratio profit_margins operating_margins gross_margins return_on_equity return_on_assets revenue_growth earnings_growth debt_to_equity current_ratio quick_ratio dividend_yield payout_ratio enterprise_to_ebitda enterprise_to_revenue beta vix treasury_10y returns_1m returns_3m returns_6m returns_1y volatility volume_trend log_market_cap fcf_yield ocf_yield earnings_yield profit_margins_lag1q profit_margins_lag2q operating_margins_lag1q operating_margins_lag2q gross_margins_lag1q gross_margins_lag2q return_on_equity_lag1q return_on_equity_lag2q return_on_assets_lag1q return_on_assets_lag2q revenue_growth_lag1q revenue_growth_lag2q earnings_growth_lag1q earnings_growth_lag2q current_ratio_lag1q current_ratio_lag2q quick_ratio_lag1q quick_ratio_lag2q debt_to_equity_lag1q debt_to_equity_lag2q pe_ratio_lag1q pe_ratio_lag2q pb_ratio_lag1q pb_ratio_lag2q ps_ratio_lag1q ps_ratio_lag2q enterprise_to_ebitda_lag1q enterprise_to_ebitda_lag2q enterprise_to_revenue_lag1q enterprise_to_revenue_lag2q dividend_yield_lag1q dividend_yield_lag2q payout_ratio_lag1q payout_ratio_lag2q market_cap_lag1q market_cap_lag2q beta_lag1q beta_lag2q vix_lag1q vix_lag2q treasury_10y_lag1q treasury_10y_lag2q returns_1m_lag1q returns_1m_lag2q returns_3m_lag1q returns_3m_lag2q returns_6m_lag1q returns_6m_lag2q returns_1y_lag1q returns_1y_lag2q volatility_lag1q volatility_lag2q volume_trend_lag1q volume_trend_lag2q profit_margins_qoq profit_margins_yoy operating_margins_qoq operating_margins_yoy gross_margins_qoq gross_margins_yoy return_on_equity_qoq return_on_equity_yoy return_on_assets_qoq return_on_assets_yoy revenue_growth_qoq revenue_growth_yoy earnings_growth_qoq earnings_growth_yoy current_ratio_qoq current_ratio_yoy quick_ratio_qoq quick_ratio_yoy debt_to_equity_qoq debt_to_equity_yoy pe_ratio_qoq pe_ratio_yoy pb_ratio_qoq pb_ratio_yoy ps_ratio_qoq ps_ratio_yoy enterprise_to_ebitda_qoq enterprise_to_ebitda_yoy enterprise_to_revenue_qoq enterprise_to_revenue_yoy dividend_yield_qoq dividend_yield_yoy payout_ratio_qoq payout_ratio_yoy market_cap_qoq market_cap_yoy beta_qoq beta_yoy vix_qoq vix_yoy treasury_10y_qoq treasury_10y_yoy returns_1m_qoq returns_1m_yoy returns_3m_qoq returns_3m_yoy returns_6m_qoq returns_6m_yoy returns_1y_qoq returns_1y_yoy volatility_qoq volatility_yoy volume_trend_qoq volume_trend_yoy profit_margins_mean4q profit_margins_std4q profit_margins_slope4q operating_margins_mean4q operating_margins_std4q operating_margins_slope4q gross_margins_mean4q gross_margins_std4q gross_margins_slope4q return_on_equity_mean4q return_on_equity_std4q return_on_equity_slope4q return_on_assets_mean4q return_on_assets_std4q return_on_assets_slope4q revenue_growth_mean4q revenue_growth_std4q revenue_growth_slope4q earnings_growth_mean4q earnings_growth_std4q earnings_growth_slope4q current_ratio_mean4q current_ratio_std4q current_ratio_slope4q quick_ratio_mean4q quick_ratio_std4q quick_ratio_slope4q debt_to_equity_mean4q debt_to_equity_std4q debt_to_equity_slope4q pe_ratio_mean4q pe_ratio_std4q pe_ratio_slope4q pb_ratio_mean4q pb_ratio_std4q pb_ratio_slope4q ps_ratio_mean4q ps_ratio_std4q ps_ratio_slope4q enterprise_to_ebitda_mean4q enterprise_to_ebitda_std4q enterprise_to_ebitda_slope4q enterprise_to_revenue_mean4q enterprise_to_revenue_std4q enterprise_to_revenue_slope4q dividend_yield_mean4q dividend_yield_std4q dividend_yield_slope4q payout_ratio_mean4q payout_ratio_std4q payout_ratio_slope4q market_cap_mean4q market_cap_std4q market_cap_slope4q beta_mean4q beta_std4q beta_slope4q vix_mean4q vix_std4q vix_slope4q treasury_10y_mean4q treasury_10y_std4q treasury_10y_slope4q returns_1m_mean4q returns_1m_std4q returns_1m_slope4q returns_3m_mean4q returns_3m_std4q returns_3m_slope4q returns_6m_mean4q returns_6m_std4q returns_6m_slope4q returns_1y_mean4q returns_1y_std4q returns_1y_slope4q volatility_mean4q volatility_std4q volatility_slope4q volume_trend_mean4q volume_trend_std4q volume_trend_slope4q profit_margins_missing operating_margins_missing gross_margins_missing return_on_equity_missing return_on_assets_missing revenue_growth_missing earnings_growth_missing current_ratio_missing quick_ratio_missing debt_to_equity_missing pe_ratio_missing pb_ratio_missing ps_ratio_missing enterprise_to_ebitda_missing enterprise_to_revenue_missing dividend_yield_missing payout_ratio_missing market_cap_missing beta_missing vix_missing treasury_10y_missing returns_1m_missing returns_3m_missing returns_6m_missing returns_1y_missing volatility_missing volume_trend_missing sector
feature_infos=none none none none none none none none none none none none none none none none none none none [-8.1396378023550877:9.4164945515917537] [-0.16284159169381232:9.4164943370834813] [-3.7086807025157054:5.5428888787695527] [-3.5505782896392022:5.4260187033056893] [-3.3660385259322414:4.6105890471477533] [-3.0797487342476861:6.3965725500174688] [-1.6314152215977735:5.833255623080662] [-2.1401220172848299:7.3173600255820253] none none none none none [-3.0221292742043691:4.0723666459821901] none [-3.3424178350775406:3.905542283412359] none none none [-1.840561936313827:6.9513881604467311] none none none none none none none [-1.2734449868080693:4.0944841399562826] none none none none none none none none none none none none none none none none none none none none none none [-5.7107573445071997:9.416494557828587] [-4.0340241720869052:8.8707533460377412] [-0.22449120142759302:9.416494130512179] [-3.4338266708950385:5.7838546562755706] [-3.7099521274810998:5.5423987572476268] [-3.500030257710629:3.8309083295266149] [-3.5486790908673527:5.4236915676936182] [-3.2471431014531595:5.9574074052143517] [-3.3647894209394433:4.6085384713930262] [-3.5849531587713352:4.3709608966607387] [-3.0769824215536703:6.3973906997551344] [-2.8779538993913776:6.1502776265671848] [-1.6794844106980755:5.8339115019468144] [-1.9348508527797506:6.8094607829912075] [-2.2626038697179469:7.3155795824489189] [-2.4663031061019041:5.2226815381321856] none none none none none none none none none none none none none none none none none none none none none none none none none none none none none none none none none none none none none none [-9.4164939396398051:5.2726094095317517] [-8.0891795162255367:4.6590321908415504] [-9.416493210807003:7.8086360675563764] [-5.1997068334242513:6.011216834765519] [-8.7765158132104446:7.844109616993852] [-9.2215611231971906:7.9341074078538414] [-9.4153766524990221:7.0583691450456669] [-6.6770203717440655:9.1218508322722265] [-8.0790604035165661:7.4597052570879816] [-7.6462791199445048:8.848699086349372] [-7.3469226580351048:9.3306102258852288] [-7.5587690378240211:8.3841577916343315] [-3.4084657903514763:3.5362122302937258] [-3.9319081880754574:5.5115353783257195] none [-8.1983360109323851:6.9014014759911344] [-2.8723732707775618:3.4950873367963533] [-0.98103351194893196:4.9038919823810474] none [-2.5753076341508447:3.5749644869407895] [-1.0575374456047149:5.3067501513927144] none none none none [-1.5785381624439243:5.8376241287524877] [-1.4379944707639394:6.1978419719759863] none none none none none none none none none none [-1.2585916680043323:4.006168625555401] [-0.82417273935249169:5.5998069490900599] none none none none none none none none none none none none none none none none none none none none none none none none none none none none none none none none none none [-2.7550389281523646:5.0600234210131916] [-1.4124285936350462:5.0682494589459752] [-6.098984108732143:3.0043015110683249] [-2.6259484997662854:4.9406104337957624] [-1.412428590113163:4.8750954166010745] [-5.3845704710842046:4.3653612158414097] [-3.6013997594842464:4.0238188035751081] [-1.3255615805816616:5.7119848961200272] [-5.3313837145745175:4.0978501232107734] [-3.836247652982772:5.2595070583547745] [-1.3515241234014601:5.7751035933300701] [-4.3250243400232753:5.3813524005581437] [-3.6328686675534354:5.0035039918562383] [-1.3312823754858134:4.9241641586669376] [-4.444870323898753:4.9171682909503769] [-2.9839841821072772:6.2138911768458662] [-1.348101151978381:5.4844923887617751] [-5.333353632531046:5.1631575964003718] [-1.7487262208252632:5.8443786397288084] [-1.3734382468442135:7.4265767952758424] [-7.0433621786094784:7.416766025044585] [-2.4702280573619011:6.5735432775865483] [-1.2459662351705034:5.3730562946320637] [-4.7414736167886566:5.0429249622269481] none none none none none none none none none none none none none none none none none none none none none none none none none none none -1:9:6:5:7:2:3:1:10:0:4
tree_sizes=1211 1076 1177 1160 991 1269 999 1082 1058 1167 1171 1249 1171 1269 1270 1066 1177 1175 1255 1082 1176 1077 1072 991 1169 1089 1075 1271 980 1090 1160 994 973 1173 1184 1180 1180 1173 981 981 1167 974 895 1171 1165 1183 983 1071 1087 1258 1188 1172 1183 1187 996 1174 1072 1158 982 1001 1166 1000 1092 900 1095 1169 1184 1002 1090 1176 1053 1180 1086 995 1074 886 1270 1152 889 1081 975 1189 1185 1092 1094 1076 1077 977 1264 995 1260 1092 1186 1092 1171 1155 1180 888 1096 1184 981 1184 996 1258 1187 1174 1065 988 1070 1266 994 1276 1078 1174 986 893 899 904 1179 1173 1087 1056 1081 1000 1099 990 1175 977 1185 975 1258 1089 1078 881 1175 991 1072 996 1176 996 985 998 1170 1174 1065 1095 1195 979 1171 1181 987 994 1070 979 898 905 990 1094 1276 886 1175 1074 899 1185 1070 982 1189 976 1091 905 1180 1078 884 912 997 1189 1174 1000 907 905 1095 1080 992 980 1160 998 997 1164 890 1073 1180 910 996 1172 973 1073 979 1277 998 1097 1276 1196 1070 1096 1167 1176 1080 978 900 892 1076 1006 1172 1160 980 1170 1006 1288 1095 982 982 998 979 1164 904 1167 981 904 1093 1170 1186 1073 1170 990 1184 1182 1077 1095 1194 1174 1276 902 1180 1004 1091 1085 1191 1192 1091 1189 1094 905 1079 1081 1174 893 999 999 904 1068 1085 1266 884 1261 1276 1073 1089 1184 1094 1185 1166 884 1066 887 1162 1000 988 1073 999 995 1160 1089 996 993 904 996 1085 881 1092 1096 996 991 1093 904 994 904 888 908 1070 979 1097 1095 1189 1079 999 1077 1178 1000 1093 1164 1168 892 1196 1078 1082 905 1196 1173 1198 1272 903 1178 983 906 1086 1074 1191 1262 1189 973 1170 1096 1075 1078 994 1265 890 992 1094 1267 1188 1079 1068 881 876 1084 908 999 892 996 907 1089 1165 1181 907 1079 904 1072 1091 903 1179 1006 1001 890 979 983 1079 1172 1076 998 1166 1093 1003 986 1159 997 1073 1078 972 1178 985 1284 977 905 885 879 988 908 979 904 1097 1184 1162 1090 993 1183 1095 998 1175 1102 1167 1071 1196 1079 890 1165 895 1076 987 1096 987 1169 983 1262 903 1169 1102 905 1187 986 1181 1176 1169 887 1285 997 1097 903 1188 976 978 984 1274 1178 1079 1091 1185 978 988

Tree=0
num_leaves=12
num_cat=1
split_feature=214 247 124 124 126 126 80 134 126 74 25
split_gain=228.373 88.4476 47.2175 38.21 30.6156 29.878 23.733 24.2921 19.9593 13.8953 6.61767
threshold=1.4776080183134637 0 -0.65654150795161381 -1.0302727922760864 0.68506890208150895 0.32112870853390718 0.40530901773477263 -0.061514588801848881 -0.36035581284629931 -0.084472638642053108 -0.25422687781178238
decision_type=2 1 10 8 10 10 10 10 10 10 2
left_child=1 6 3 -3 5 8 7 -1 9 -4 -7
right_child=-2 2 4 -5 -6 10 -8 -9 -10 -11 -12
leaf_value=0.60767405408568365 0.64462989607871879 0.60661284944569005 0.61635506638911175 0.58719936162056408 0.59767935087464807 0.61399722952145031 0.62740770806655444 0.62179096543317669 0.60032874357644905 0.60650717439132806 0.62199230487590584
leaf_weight=556 512 514 634 503 500 535 612 663 656 811 500
leaf_count=556 512 514 634 503 500 535 612 663 656 811 500
internal_value=0.612648 0.6101 0.606445 0.596934 0.609106 0.610949 0.619378 0.615358 0.607527 0.610826 0.617886
internal_weight=6996 6484 4653 1017 3636 3136 1831 1219 2101 1445 1035
internal_count=6996 6484 4653 1017 3636 3136 1831 1219 2101 1445 1035
cat_boundaries=0 1
cat_threshold=516
is_linear=0
shrinkage=1


Tree=1
num_leaves=10
num_cat=2
split_feature=82 247 124 124 211 72 219 128 247
split_gain=211.067 61.5609 44.3393 27.0123 21.2783 16.4459 14.0704 11.3875 4.93129
threshold=1.1546922913224043 0 -0.65654150795161381 -0.24988391703187465 -0.21298320547408223 0.26758919774980483 -0.18229517695076697 -0.15661715081991656 1
decision_type=10 1 10 10 2 10 2 10 1
left_child=1 4 -3 -4 -1 6 -5 -6 -7
right_child=-2 2 3 5 7 8 -8 -9 -10
leaf_value=-0.0022137222110028948 0.023935850896569869 -0.015946893925462963 0.0036809366545639934 -0.0038609881914402435 0.0038719264430791692 0.00074505535530069002 -0.014148369980407284 0.014276948614529323 -0.0055162297746716507
leaf_weight=642 809 925 921 564 511 697 822 548 557
leaf_count=642 809 925 921 564 511 697 822 548 557
internal_value=1.40989e-08 -0.00314659 -0.0062085 -0.00367747 0.00493053 -0.00624666 -0.00999109 0.00929799 -0.00208483
internal_weight=6996 6187 4486 3561 1701 2640 1386 1059 1254
internal_count=6996 6187 4486 3561 1701 2640 1386 1059 1254
cat_boundaries=0 1 2
cat_threshold=516 194
is_linear=0
shrinkage=0.05


Tree=2
num_leaves=11
num_cat=1
split_feature=25 247 124 124 124 80 134 126 70 74
split_gain=193.587 66.4133 38.4059 36.503 23.5382 20.1765 18.2198 13.0617 13.4496 9.0892
threshold=1.3559318219780401 0 -0.65654150795161381 -1.0302727922760864 -0.24988391703187465 0.40530901773477263 -0.061514588801848881 0.577350259081578 -0.28770338869562218 -0.059646805933951476
decision_type=2 1 10 8 10 10 10 10 10 10
left_child=1 5 3 -3 -4 6 -1 8 9 -6
right_child=-2 2 4 -5 7 -7 -8 -9 -10 -11
leaf_value=-0.004977337631164991 0.027407963161861872 -0.0048666931668429544 0.0034846222727115284 -0.023808249871841273 0.0023939711280152242 0.013179614918213659 0.0074265261419831701 -0.012912930573445128 -0.010649317522211115 -0.0051259695877417001
leaf_weight=529 585 519 951 500 747 593 660 500 553 859
leaf_count=529 585 519 951 500 747 593 660 500 553 859
internal_value=-1.55048e-07 -0.00252054 -0.00567053 -0.0142318 -0.00325328 0.00565506 0.00191017 -0.00566514 -0.00396067 -0.00163164
internal_weight=6996 6411 4629 1019 3610 1782 1189 2659 2159 1606
internal_count=6996 6411 4629 1019 3610 1782 1189 2659 2159 1606
cat_boundaries=0 1
cat_threshold=516
is_linear=0
shrinkage=0.05


Tree=3
num_leaves=11
num_cat=0
split_feature=82 124 124 126 20 138 219 214 197 214
split_gain=176.358 45.4212 83.3905 40.0762 43.2279 19.8712 12.4893 11.4621 10.7567 7.21944
threshold=1.1546922913224043 -0.65654150795161381 -0.71244012955568892 0.7018007074085324 -0.10580330218331807 0.23068307237008681 -0.15488531383913887 -0.21796514324143351 0.010896070978997205 -0.27315991056026051
decision_type=10 10 8 10 2 10 2 2 2 2
left_child=1 2 -1 4 -3 6 9 -7 -8 -6
right_child=-2 3 -4 -5 5 7 8 -9 -10 -11
leaf_value=-0.0006234808187434496 0.021878943544613994 -0.0086834222353791984 -0.026719402190861302 -0.013185783521794373 0.00078861998905087642 0.0041441872273315934 -0.0063539750512870688 0.014672573852989049 0.0030324232222162673 0.0086919658223572199
leaf_weight=747 809 919 514 564 581 541 732 500 517 572
leaf_count=747 809 919 514 564 581 541 732 500 517 572
internal_value=-4.48981e-07 -0.00287671 -0.011324 -0.000705004 0.000921991 0.00349473 0.00098772 0.00924701 -0.00247205 0.00473005
internal_weight=6996 6187 1261 4926 4362 3443 2402 1041 1249 1153
internal_count=6996 6187 1261 4926 4362 3443 2402 1041 1249 1153
is_linear=0
shrinkage=0.05


Tree=4
num_leaves=9
num_cat=1
split_feature=247 81 124 79 124 25 132 134
split_gain=166.866 163.784 30.0333 26.5202 20.9651 15.9163 12.3482 9.74775
threshold=0 0.90860152586583576 -0.65654150795161381 -0.27204375921997853 -0.24988391703187465 -0.28896183830415662 -0.21558039271419299 -0.15875187570743979
decision_type=1 2 10 2 10 2 10 10
left_child=1 3 -2 -1 -4 -5 -6 -8
right_child=2 -3 4 5 6 -7 7 -9
leaf_value=-0.00513687577142045 -0.013421655900342567 0.032277830351675252 0.0028767934780033703 0.00078881268627176919 -0.001248628820244716 0.012402144071128038 -0.0049581699923719781 -0.012686382618212763
leaf_weight=660 989 632 926 526 930 669 919 745
leaf_count=660 989 632 926 526 930 669 919 745
internal_value=-5.10646e-07 0.0103609 -0.00573087 0.00288273 -0.0035703 0.00731492 -0.00587288 -0.00844586
internal_weight=6996 2487 4509 1855 3520 1195 2594 1664
internal_count=6996 2487 4509 1855 3520 1195 2594 1664
cat_boundaries=0 1
cat_threshold=518
is_linear=0
shrinkage=0.05


Tree=5
num_leaves=12
num_cat=1
split_feature=214 247 124 124 126 72 72 132 78 74 25
split_gain=150.787 58.1269 30.0853 26.2015 23.1628 23.4266 23.3289 17.1331 20.8851 11.1009 5.34468
threshold=1.4776080183134637 0 -0.65654150795161381 -1.0302727922760864 0.68506890208150895 -0.3622741497103496 0.26758919774980483 0.040789438308529012 0.3795287853036195 -0.11093793006973121 -0.25422687781178238
decision_type=2 1 10 8 10 10 10 10 10 10 2
left_child=1 7 3 -3 5 10 -7 8 -1 -8 -4
right_child=-2 2 4 -5 -6 6 9 -9 -10 -11 -12
leaf_value=-0.0042736913105730417 0.025987198435101569 -0.0046158285523869771 0.0013395820774623002 -0.020685854251542329 -0.012848442805156408 -0.012647331677412747 0.0039033649069210872 0.011861127732269069 0.0091045750246740113 -0.0047433932940095297 0.0085230035202042888
leaf_weight=637 512 514 536 503 500 598 650 664 530 852 500
leaf_count=637 512 514 536 503 500 598 650 664 530 852 500
internal_value=-9.61424e-08 -0.00207059 -0.00503393 -0.0126263 -0.00290974 -0.00130719 -0.00433954 0.00545088 0.00181505 -0.00100092 0.00483077
internal_weight=6996 6484 4653 1017 3636 3136 2100 1831 1167 1502 1036
internal_count=6996 6484 4653 1017 3636 3136 2100 1831 1167 1502 1036
cat_boundaries=0 1
cat_threshold=516
is_linear=0
shrinkage=0.05


Tree=6
num_leaves=9
num_cat=1
split_feature=247 82 124 124 205 82 132 134
split_gain=139.387 146.014 24.4941 17.5492 15.3999 11.2614 11.1715 8.51434
threshold=0 1.1547001591847266 -0.65654150795161381 -0.24988391703187465 -0.0074520278587755793 -0.17831140391510394 -0.21558039271419299 -0.15875187570743979
decision_type=1 10 10 10 2 10 10 10
left_child=1 4 -2 -4 -1 -6 -5 -8
right_child=2 -3 3 6 5 -7 7 -9
leaf_value=-0.0011975454843316889 -0.012183067765841365 0.033428112092871574 0.0026123911681950208 -0.00099565043077162307 0.0024293845250501892 0.012895094691478995 -0.0045809998776982835 -0.011803044547544172
leaf_weight=955 989 503 926 930 524 505 919 745
leaf_count=955 989 503 926 930 524 505 919 745
internal_value=-5.90841e-08 0.00946982 -0.00523738 -0.00328622 0.00337456 0.00760314 -0.00539287 -0.0078401
internal_weight=6996 2487 4509 3520 1984 1029 2594 1664
internal_count=6996 2487 4509 3520 1984 1029 2594 1664
cat_boundaries=0 1
cat_threshold=518
is_linear=0
shrinkage=0.05


Tree=7
num_leaves=10
num_cat=1
split_feature=247 82 124 126 72 72 211 130 74
split_gain=125.909 131.913 22.1164 17.9486 26.5871 17.2999 14.8457 11.0434 9.62755
threshold=0 1.1547001591847266 -0.65654150795161381 0.63188553601251785 -0.3622741497103496 0.22918221795979429 -0.20475145721439025 -0.17644885592685342 0.0096393177082961124
decision_type=1 10 10 10 10 10 2 8 10
left_child=1 6 -2 4 -4 -6 -1 -8 -7
right_child=2 -3 3 -5 5 8 7 -9 -10
leaf_value=-0.0023310148261876051 -0.011576978590659624 0.031773157701937581 0.0061095772521963651 -0.010522857600173352 -0.011983797437549773 0.0025441795506944455 0.011727782588975456 0.0022292340168959513 -0.0055129127232910495
leaf_weight=750 989 503 831 660 553 710 560 674 766
leaf_count=750 989 503 831 660 553 710 560 674 766
internal_value=6.79651e-07 0.00900108 -0.004977 -0.00312296 -0.0013999 -0.00448295 0.00320761 0.00656969 -0.00164171
internal_weight=6996 2487 4509 3520 2860 2029 1984 1234 1476
internal_count=6996 2487 4509 3520 2860 2029 1984 1234 1476
cat_boundaries=0 1
cat_threshold=518
is_linear=0
shrinkage=0.05


Tree=8
num_leaves=10
num_cat=0
split_feature=25 25 200 72 72 70 70 202 217
split_gain=114.415 30.6648 14.5539 23.049 18.988 18.8494 14.5217 12.4886 8.37783
threshold=1.3559318219780401 -0.1566544899550186 0.84832417588773124 -0.67828245964487743 -0.40308960808669947 -0.01651228093035928 0.68664442398528169 0.32277527062434369 -0.33349350870804634
decision_type=2 2 2 10 10 10 8 2 2
left_child=1 2 3 -1 -5 -6 7 8 -3
right_child=-2 6 -4 4 5 -7 -8 -9 -10
leaf_value=-0.015890622213118651 0.021071962049286182 0.010890757388153163 0.0013558230489153452 0.0022546627218778576 -0.0029689756521391417 -0.013876762609814351 -0.0054349865579834764 -0.0012673782987707885 0.0032038699676402403
leaf_weight=532 585 623 731 737 984 662 523 791 828
leaf_count=532 585 623 731 737 984 662 523 791 828
internal_value=1.09052e-06 -0.00193654 -0.00494509 -0.0065248 -0.00440501 -0.00738469 0.00203239 0.00378255 0.00653037
internal_weight=6996 6411 3646 2915 2383 1646 2765 2242 1451
internal_count=6996 6411 3646 2915 2383 1646 2765 2242 1451
is_linear=0
shrinkage=0.05


Tree=9
num_leaves=11
num_cat=1
split_feature=247 82 72 126 72 72 80 79 124 198
split_gain=110.299 112.553 19.5532 18.9701 15.847 15.8925 13.7338 12.1673 4.37642 4.0447
threshold=0 1.1547001591847266 0.71047989883683405 0.7018007074085324 -0.3622741497103496 0.31717109672831051 0.39195093822083643 -0.27204375921997853 -0.288970275315234 0.41271734863651077
decision_type=1 10 8 10 10 10 10 2 10 2
left_child=1 6 3 4 8 9 7 -1 -2 -6
right_child=2 -3 -4 -5 5 -7 -8 -9 -10 -11
leaf_value=-0.004893961416160897 -6.7382908771418008e-05 0.029460299895986031 -0.012050100839267844 -0.010225709600553292 -0.011625945556259855 0.0007099100348638166 0.0086993112150143392 0.0047922966474421942 0.0062179517999035039 -0.005215896056680676
leaf_weight=636 512 503 744 760 503 886 697 651 598 506
leaf_count=636 512 503 744 760 503 886 697 651 598 506
internal_value=1.01234e-06 0.00842505 -0.00465791 -0.00319545 -0.00140338 -0.0041783 0.00307372 5.19917e-06 0.00333147 -0.00845296
internal_weight=6996 2487 4509 3765 3005 1895 1984 1287 1110 1009
internal_count=6996 2487 4509 3765 3005 1895 1984 1287 1110 1009
cat_boundaries=0 1
cat_threshold=518
is_linear=0
shrinkage=0.05


Tree=10
num_leaves=11
num_cat=1
split_feature=247 81 79 72 126 72 72 25 76 25
split_gain=99.6348 106.751 19.5705 17.658 17.1308 14.3159 14.4536 12.737 6.49491 4.21855
threshold=0 0.90860152586583576 -0.27204375921997853 0.71047989883683405 0.7018007074085324 -0.3622741497103496 0.21758757618381216 -0.28896183830415662 0.0088099828386558384 -0.20154498334419388
decision_type=1 2 2 8 10 10 10 2 10 2
left_child=1 2 -1 4 5 9 -7 -4 -8 -2
right_child=3 -3 7 -5 -6 6 8 -9 -10 -11
leaf_value=-0.004917084109180625 0.0003548242299107996 0.025700104916371404 -5.2335528687972103e-05 -0.011451617927172841 -0.0097177658398982653 -0.0097009195280401642 0.0027926791497102726 0.010328919546102114 -0.0045392129595973737 0.0065342977884856081
leaf_weight=660 608 632 526 744 760 692 639 669 564 502
leaf_count=660 608 632 526 744 760 692 639 669 564 502
internal_value=1.16888e-06 0.0080076 0.00196991 -0.0044268 -0.00303702 -0.00133404 -0.00397151 0.00577825 -0.000649277 0.00316627
internal_weight=6996 2487 1855 4509 3765 3005 1895 1195 1203 1110
internal_count=6996 2487 1855 4509 3765 3005 1895 1195 1203 1110
cat_boundaries=0 1
cat_threshold=518
is_linear=0
shrinkage=0.05


Tree=11
num_leaves=12
num_cat=0
split_feature=82 25 136 126 72 20 72 73 81 124 80
split_gain=88.0265 32.0559 27.6534 32.3009 20.9764 20.5522 14.9711 7.48319 6.82602 6.20017 5.60114
threshold=0.53334222231449901 1.3559318219780401 0.44618061455459312 -0.69896516276456044 -0.70095450987327035 -0.10580330218331807 -0.056514960576593963 -0.071198396367497585 -0.40937992682037155 0.57735026255235788 -0.19806655488267408
decision_type=10 2 10 10 10 2 10 2 2 10 10
left_child=2 7 3 -1 -5 -6 8 -2 -7 -4 -8
right_child=1 -3 9 4 5 6 10 -9 -10 -11 -12
leaf_value=-0.016137371171789712 0.0095742825093344808 0.020026129049502992 0.0073009357246535999 -0.011964452893218298 -0.0087003120343342628 0.00069479390333442807 -0.006943766773825368 0.0012223632475573717 0.0085760307707015912 -3.159565548912317e-05 -0.00014007622843605481
leaf_weight=555 502 545 596 575 762 510 524 573 593 554 707
leaf_count=555 502 545 596 575 762 510 524 573 593 554 707
internal_value=1.30082e-06 0.0102 -0.0030786 -0.00494827 -0.003237 -0.00159943 0.000732492 0.00514878 0.00495152 0.00378372 -0.00305258
internal_weight=6996 1620 5376 4226 3671 3096 2334 1075 1103 1150 1231
internal_count=6996 1620 5376 4226 3671 3096 2334 1075 1103 1150 1231
is_linear=0
shrinkage=0.05


Tree=12
num_leaves=11
num_cat=1
split_feature=247 81 79 72 126 72 72 214 124 196
split_gain=86.7408 90.0757 17.4016 14.5694 14.4631 11.8501 12.8385 8.42012 3.81651 1.95123
threshold=0 0.90860152586583576 -0.27204375921997853 0.71047989883683405 0.7018007074085324 -0.3622741497103496 0.31717109672831051 -0.20697534746539473 -0.288970275315234 -0.34917723419261265
decision_type=1 2 2 8 10 10 10 2 10 2
left_child=1 2 -1 4 5 8 9 -4 -2 -7
right_child=3 -3 7 -5 -6 6 -8 -9 -10 -11
leaf_value=-0.0045686564264342863 -0.00037925110270162936 0.023724348427022566 0.0011395815663453159 -0.010511626560623025 -0.0090064679279092553 -0.0052590761500437566 0.00069083534210133044 0.0095346890329010784 0.005487390955263142 -0.009760202612993589
leaf_weight=660 512 632 575 744 760 505 886 620 598 504
leaf_count=660 512 632 575 744 760 505 886 620 598 504
internal_value=1.36e-06 0.00747178 0.0019258 -0.00413017 -0.00286781 -0.00130289 -0.00370239 0.00551678 0.00279177 -0.00754445
internal_weight=6996 2487 1855 4509 3765 3005 1895 1195 1110 1009
internal_count=6996 2487 1855 4509 3765 3005 1895 1195 1110 1009
cat_boundaries=0 1
cat_threshold=518
is_linear=0
shrinkage=0.05


Tree=13
num_leaves=12
num_cat=1
split_feature=247 82 200 126 126 74 72 126 128 74 79
split_gain=78.3485 81.6589 18.5587 27.5058 21.5646 11.7831 10.6388 9.84114 7.48357 3.51456 2.43552
threshold=0 1.1547001591847266 0.89744022556904057 0.7018007074085324 -0.6583835622036337 -0.57217457945013661 -0.3622741497103496 -0.24078047999072585 -0.20867106682324327 0.028361563802814207 -0.12995408784375903
decision_type=1 10 2 8 10 8 10 10 8 10 2
left_child=1 5 3 4 -2 -1 10 9 -7 -8 -6
right_child=2 -3 -4 -5 6 8 7 -9 -10 -11 -12
leaf_value=0.0086150452540625765 -0.01302290436972132 0.025018051477271964 0.0030164485970369521 -0.015502347574093855 0.0047287299331406707 0.00397601824281066 0.0012517276718662467 -0.0096649504458449931 -0.0032773855116433764 -0.0044056103243050497 -0.00016823319673031859
leaf_weight=565 502 503 789 567 500 661 566 550 758 525 510
leaf_count=565 502 503 789 567 500 661 566 550 758 525 510
internal_value=1.33093e-06 0.00710117 -0.00392525 -0.00541017 -0.00357363 0.00254297 -0.00176315 -0.00424319 0.000103499 -0.00147832 0.00226736
internal_weight=6996 2487 4509 3720 3153 1984 2651 1641 1419 1091 1010
internal_count=6996 2487 4509 3720 3153 1984 2651 1641 1419 1091 1010
cat_boundaries=0 1
cat_threshold=518
is_linear=0
shrinkage=0.05


Tree=14
num_leaves=12
num_cat=1
split_feature=247 81 200 126 126 79 25 72 126 134 79
split_gain=70.781 75.4354 16.7635 24.8463 19.4826 15.8009 10.2877 9.61105 8.88993 3.99935 2.20035
threshold=0 0.90860152586583576 0.89744022556904057 0.7018007074085324 -0.6583835622036337 -0.27204375921997853 -0.28896183830415662 -0.3622741497103496 -0.24078047999072585 -0.17307640078561234 -0.12995408784375903
decision_type=1 2 2 8 10 2 2 10 10 10 2
left_child=1 5 3 4 -2 -1 -7 10 9 -9 -6
right_child=2 -3 -4 -5 7 6 -8 8 -10 -11 -12
leaf_value=-0.0045137498940031016 -0.012378180777576901 0.02162237040303959 0.0028665759247787515 -0.014734005725025069 0.0044946343856310418 -0.00014290543083560157 0.0091861009721620739 -0.004443993979761667 -0.0091860564837026679 0.0015862646065241987 -0.00015990315267400257
leaf_weight=660 502 632 789 567 500 526 669 540 550 551 510
leaf_count=660 502 632 789 567 500 526 669 540 550 551 510
internal_value=1.28456e-06 0.00674954 -0.00373085 -0.00514213 -0.00339663 0.00167414 0.00509629 -0.00167577 -0.00403297 -0.00140512 0.00215511
internal_weight=6996 2487 4509 3720 3153 1855 1195 2651 1641 1091 1010
internal_count=6996 2487 4509 3720 3153 1855 1195 2651 1641 1091 1010
cat_boundaries=0 1
cat_threshold=518
is_linear=0
shrinkage=0.05


Tree=15
num_leaves=10
num_cat=0
split_feature=214 130 130 70 128 128 25 217 130
split_gain=61.2205 26.1795 29.6393 43.7759 14.322 23.9222 11.6935 8.1994 8.09183
threshold=1.4776080183134637 0.32859249694508946 -0.17644885592685342 0.68664442398528169 -0.1377078052403892 -0.25094569116752535 -0.52911079806759054 -0.33349350870804634 0.57736945863128097
decision_type=2 10 8 8 10 10 2 2 10
left_child=1 2 4 6 5 -1 -4 -8 -3
right_child=-2 8 3 -5 -6 -7 7 -9 -10
leaf_value=0.0031728401233577399 0.016559741634747639 0.010099614145959059 -0.0081913002480185279 -0.018425567243473547 0.0059754408761166292 -0.0091851524149465201 0.0036611768077368257 -0.0038024303312748004 0.0015156466570882014
leaf_weight=983 512 532 741 584 951 644 653 830 566
leaf_count=983 512 532 741 584 951 644 653 830 566
internal_value=1.01314e-06 -0.00131828 -0.00275333 -0.00630265 0.00111735 -0.00173186 -0.0030851 -0.000514768 0.00570166
internal_weight=6996 6484 5386 2808 2578 1627 2224 1483 1098
internal_count=6996 6484 5386 2808 2578 1627 2224 1483 1098
is_linear=0
shrinkage=0.05


Tree=16
num_leaves=11
num_cat=1
split_feature=247 81 200 70 79 200 25 128 70 200
split_gain=61.8155 64.5585 14.5416 14.3419 14.0159 13.6658 9.02787 6.06724 4.92426 6.84393
threshold=0 0.90860152586583576 0.89744022556904057 0.68664442398528169 -0.27204375921997853 -0.67574772592996679 -0.28896183830415662 -0.1377078052403892 -0.57735026906538134 0.046939291539159024
decision_type=1 2 2 8 2 2 2 10 10 2
left_child=1 4 3 5 -1 7 -6 -2 -7 -10
right_child=2 -3 -4 -5 6 8 -8 -9 9 -11
leaf_value=-0.0042158105381794233 -0.0027892063368047037 0.020066590362282918 0.0026579175122606103 -0.011887454592234767 -7.3267564675402386e-05 -0.0107000596883427 0.0086664221257466041 0.0036220327518028416 -0.0083063081086429593 -0.00053639907135056588
leaf_weight=660 832 632 789 595 526 501 669 655 610 527
leaf_count=660 832 632 789 595 526 501 669 655 610 527
internal_value=1.01173e-06 0.00630742 -0.00348676 -0.0048012 0.00161223 -0.00343514 0.00483522 3.75174e-05 -0.00657819 -0.00472307
internal_weight=6996 2487 4509 3720 1855 3125 1195 1487 1638 1137
internal_count=6996 2487 4509 3720 1855 3125 1195 1487 1638 1137
cat_boundaries=0 1
cat_threshold=518
is_linear=0
shrinkage=0.05


Tree=17
num_leaves=11
num_cat=1
split_feature=247 82 200 126 72 132 132 72 72 24
split_gain=55.8363 60.2016 13.1345 20.5863 15.7657 11.9819 13.5712 7.7464 7.49842 1.80153
threshold=0 1.1547001591847266 0.89744022556904057 0.7018007074085324 0.66025003227341772 0.040789438308529012 -0.21558039271419299 -0.3622741497103496 0.31717109672831051 -0.14891727891181886
decision_type=1 10 2 8 10 10 8 10 10 2
left_child=1 5 3 4 7 6 -1 9 -9 -2
right_child=2 -3 -4 -5 -6 -7 -8 8 -10 -11
leaf_value=0.00443629057018063 0.0041473852482365754 0.021377802058650131 0.0025258585418749284 -0.013293845298243585 -0.010905353248054358 0.0071828641739930532 -0.0059048774595540122 -0.0064695305251032485 0.00038016369569504604 -6.4973747117647807e-05
leaf_weight=614 501 503 789 567 518 724 646 926 699 509
leaf_count=614 501 503 789 567 518 724 646 926 699 509
internal_value=8.36343e-07 0.00599449 -0.00331396 -0.00456319 -0.00297461 0.00208059 -0.000867993 -0.00139785 -0.00353098 0.00203466
internal_weight=6996 2487 4509 3720 3153 1984 1260 2635 1625 1010
internal_count=6996 2487 4509 3720 3153 1984 1260 2635 1625 1010
cat_boundaries=0 1
cat_threshold=518
is_linear=0
shrinkage=0.05


Tree=18
num_leaves=12
num_cat=0
split_feature=82 132 136 126 126 20 133 72 25 129 80
split_gain=51.017 25.3215 20.3091 23.0364 13.7445 16.3363 10.7126 9.86405 5.5528 5.46017 4.4856
threshold=0.53334222231449901 0.11364082362482722 0.44618061455459312 -0.69896516276456044 0.7018007074085324 -0.10580330218331807 0.0023245966139666973 -0.056514960576593963 -0.41105715282431893 -0.0033529405471768151 -0.19806655488267408
decision_type=10 10 10 10 10 2 2 10 2 2 10
left_child=2 6 3 -1 5 -5 -2 8 -7 -4 -9
right_child=1 -3 9 4 -6 7 -8 10 -10 -11 -12
leaf_value=-0.013394911257178463 0.0080028671885416097 0.015766308131415729 0.0071233230578477552 -0.0074881193628433115 -0.0095085582311909018 0.0005095669230537899 -0.0022532479703351637 -0.0056340124912925074 0.0076323539264423843 0.00023944004718899918 0.0004581081510482338
leaf_weight=555 504 610 548 763 583 508 506 524 590 602 703
leaf_count=555 504 610 548 763 583 508 506 524 590 602 703
internal_value=9.16314e-07 0.00776513 -0.00234379 -0.00394622 -0.00250144 -0.0011653 0.00287887 0.00092129 0.00435418 0.0035364 -0.00215589
internal_weight=6996 1620 5376 4226 3671 3088 1010 2325 1098 1150 1227
internal_count=6996 1620 5376 4226 3671 3088 1010 2325 1098 1150 1227
is_linear=0
shrinkage=0.05


Tree=19
num_leaves=10
num_cat=1
split_feature=247 82 200 126 72 72 72 201 79
split_gain=48.9915 52.5441 11.8156 17.9323 13.257 10.4585 6.2573 6.88312 1.76597
threshold=0 0.57730465808325437 0.89744022556904057 0.7018007074085324 0.66025003227341772 0.18942612905796161 -0.3622741497103496 -0.28001529019804511 -0.12995408784375903
decision_type=1 10 2 8 10 10 10 2 2
left_child=1 5 3 4 6 -1 8 -8 -2
right_child=2 -3 -4 -5 -6 -7 7 -9 -10
leaf_value=-0.0033980093560491914 0.0038212850013123086 0.015472886607989107 0.0024347419728174857 -0.012437390745943086 -0.010078690982345595 0.0046608037850672046 -0.00010226035515746686 -0.006602938786591725 -0.00034683030178782857
leaf_weight=878 500 874 789 567 518 735 834 791 510
leaf_count=878 500 874 789 567 518 735 834 791 510
internal_value=9.22399e-07 0.0056152 -0.00310406 -0.00428884 -0.00280613 0.000277227 -0.00136008 -0.00327714 0.00172525
internal_weight=6996 2487 4509 3720 3153 1613 2635 1625 1010
internal_count=6996 2487 4509 3720 3153 1613 2635 1625 1010
cat_boundaries=0 1
cat_threshold=518
is_linear=0
shrinkage=0.05


Tree=20
num_leaves=11
num_cat=1
split_feature=247 81 22 197 70 72 72 79 126 76
split_gain=44.2464 48.8364 12.3026 11.2571 19.9914 13.0423 11.6102 10.6236 9.15936 6.77534
threshold=0 0.90860152586583576 0.30655235040846845 0.87539170575192982 0.68664442398528169 -0.61245610396046501 -0.3622741497103496 -0.25988859345783993 -0.24078047999072585 -0.15136387006225335
decision_type=1 2 2 2 8 10 10 2 10 10
left_child=1 2 7 4 5 -2 -7 -1 9 -8
right_child=3 -3 -4 -5 -6 6 8 -9 -10 -11
leaf_value=-0.006879617336256182 -0.0090957445475745892 0.017302457725724609 0.0067821819090357859 0.0024150562639011128 -0.013302822852703842 0.0043032475760696326 0.0030037093512073625 0.0025111117474589701 -0.0087673775206378313 -0.0041236183829734246
leaf_weight=544 625 632 648 799 506 720 595 663 518 746
leaf_count=544 625 632 648 799 506 720 595 663 518 746
internal_value=6.41485e-07 0.00533611 0.0012523 -0.00295014 -0.00411525 -0.00264581 -0.00106815 -0.00173225 -0.00315448 -0.000961822
internal_weight=6996 2487 1855 4509 3710 3204 2579 1207 1859 1341
internal_count=6996 2487 1855 4509 3710 3204 2579 1207 1859 1341
cat_boundaries=0 1
cat_threshold=518
is_linear=0
shrinkage=0.05


Tree=21
num_leaves=10
num_cat=2
split_feature=247 197 130 130 197 199 247 136 77
split_gain=41.4011 26.5486 17.7026 20.6905 16.9947 20.993 13.1446 17.8571 3.64569
threshold=0 -1.2226326547333157 0.32861988331425834 -0.17644885592685342 -1.0000000180025095e-35 0.015480044882637977 1 0.15791634299139082 -0.20448681050674758
decision_type=1 2 10 8 2 2 1 10 2
left_child=-1 -2 3 6 -5 -6 7 -3 -8
right_child=1 2 -4 4 5 -7 8 -9 -10
leaf_value=0.0095280467562865664 -0.012052698516007258 0.01160437580507083 0.0059684262838749598 -0.0001363159935479501 -0.014371329604691613 -0.0015872951907213017 0.00072334042709679949 -0.0010091912344244247 -0.004767912879640724
leaf_weight=966 542 574 882 981 738 568 594 543 608
leaf_count=966 542 574 882 981 738 568 594 543 608
internal_value=4.00428e-07 -0.00154578 -0.000500889 -0.00174482 -0.00511423 -0.00883861 0.00158195 0.00544691 -0.00204556
internal_weight=6996 6030 5488 4606 2287 1306 2319 1117 1202
internal_count=6996 6030 5488 4606 2287 1306 2319 1117 1202
cat_boundaries=0 1 2
cat_threshold=6 576
is_linear=0
shrinkage=0.05


Tree=22
num_leaves=10
num_cat=2
split_feature=82 247 196 199 196 196 71 247 201
split_gain=37.6397 35.8694 12.1791 26.6717 16.1151 12.5126 10.9761 10.2182 4.35695
threshold=0.53334222231449901 0 -0.03465680569247967 -0.012593177761370112 0.1392940539105896 -1.2055537432289742 -0.13710595159521616 1 0.7596041693549842
decision_type=10 1 2 2 2 2 2 1 2
left_child=2 -2 5 8 -5 -1 -7 -8 -4
right_child=1 -3 3 4 -6 6 7 -9 -10
leaf_value=-0.0063718054132009651 -0.0018919139432379793 0.013070785933279504 -0.0023574874980493328 -0.016176361978357701 -0.0049380286470491128 -0.0038372292919061756 0.0080576950875038168 0.00024282272061321321 0.0037437666126151473
leaf_weight=570 702 918 531 521 828 611 785 890 640
leaf_count=570 702 918 531 521 828 611 785 890 640
internal_value=8.43045e-07 0.00666987 -0.00201313 -0.00454298 -0.00932212 0.000223135 0.00187786 0.0039678 0.00097884
internal_weight=6996 1620 5376 2520 1349 2856 2286 1675 1171
internal_count=6996 1620 5376 2520 1349 2856 2286 1675 1171
cat_boundaries=0 1 2
cat_threshold=240 580
is_linear=0
shrinkage=0.05


Tree=23
num_leaves=9
num_cat=2
split_feature=247 197 130 130 197 201 247 124
split_gain=36.0352 24.0372 15.6698 18.2773 14.4912 12.9206 11.3099 6.76012
threshold=0 -1.2226326547333157 0.32861988331425834 -0.17644885592685342 -1.0000000180025095e-35 -1.0000000180025095e-35 1 0.53506924221171215
decision_type=1 2 10 8 2 2 1 10
left_child=-1 -2 3 6 -5 -6 -3 -8
right_child=1 2 -4 4 5 -7 7 -9
leaf_value=0.0088906061995910265 -0.011438244613784773 0.0072933777035617715 0.005640108564170603 -0.00018663790676123288 -0.0026331342301864273 -0.012653454226953589 0.0022787335482219967 -0.0040080048118869933
leaf_weight=966 542 605 882 981 581 725 933 781
leaf_count=966 542 605 882 981 581 725 933 781
internal_value=1.81866e-06 -0.00144069 -0.000446429 -0.00161679 -0.00478362 -0.00822276 0.00150992 -0.000585795
internal_weight=6996 6030 5488 4606 2287 1306 2319 1714
internal_count=6996 6030 5488 4606 2287 1306 2319 1714
cat_boundaries=0 1 2
cat_threshold=6 512
is_linear=0
shrinkage=0.05


Tree=24
num_leaves=11
num_cat=0
split_feature=214 130 138 130 128 128 138 25 130 131
split_gain=33.9429 16.0723 20.2077 24.3796 13.8191 17.5594 9.53266 9.33338 6.07953 1.99331
threshold=1.4776080183134637 0.32859249694508946 0.23068307237008681 0.14187625281567434 -0.099573184407162105 -0.21291024345012502 0.021085462539851611 -0.076129336041027854 0.57736945863128097 -0.0095507662174969653
decision_type=2 10 10 8 10 10 10 2 10 2
left_child=1 2 3 4 5 -1 -6 -4 -3 -7
right_child=-2 8 7 -5 6 9 -8 -9 -10 -11
leaf_value=0.00013010817663483345 0.01233235865323775 0.0083320739196847127 -0.00071867594987177108 -0.014117786635895392 -0.0023857174335916971 -0.011554312879874462 0.006478231828223476 0.0067886690039148925 0.00089643866994219216 -0.0070787787997033686
leaf_weight=879 512 532 993 524 659 544 554 704 566 529
leaf_count=879 512 532 993 524 659 544 554 704 566 529
internal_value=2.64011e-06 -0.000979711 -0.00210416 -0.00417961 -0.00251456 -0.00511414 0.00167259 0.00240654 0.00452057 -0.0093909
internal_weight=6996 6484 5386 3689 3165 1952 1213 1697 1098 1073
internal_count=6996 6484 5386 3689 3165 1952 1213 1697 1098 1073
is_linear=0
shrinkage=0.05


Tree=25
num_leaves=10
num_cat=1
split_feature=247 123 82 79 218 218 199 198 208
split_gain=32.0111 25.7058 19.3111 13.7055 9.19094 9.63505 7.55066 5.11454 3.28459
threshold=0 0.13800809199256261 1.2598702652243703 -0.86223766588988304 0.38769020041012453 -0.77730493425645431 -0.016741931877474144 0.32025630741244465 0.046296296284028905
decision_type=1 2 8 2 2 2 2 2 2
left_child=-1 2 3 -2 5 8 -7 -6 -5
right_child=1 -3 -4 4 7 6 -8 -9 -10
leaf_value=0.0083802710474901419 0.005058224105460727 0.0092367164353182509 -0.011642452444897668 0.0029691803216083845 0.0042191836617233199 -0.0027211090157368738 -0.0087015488330347453 -0.0024453763510260333 -0.0026597438302484412
leaf_weight=966 698 518 504 504 657 1036 1085 505 523
leaf_count=966 698 518 504 504 657 1036 1085 505 523
internal_value=2.47605e-06 -0.00135711 -0.00236261 -0.00141801 -0.00247148 -0.00387263 -0.00579368 0.00132473 0.000103651
internal_weight=6996 6030 5512 5008 4310 3148 2121 1162 1027
internal_count=6996 6030 5512 5008 4310 3148 2121 1162 1027
cat_boundaries=0 1
cat_threshold=6
is_linear=0
shrinkage=0.05


Tree=26
num_leaves=10
num_cat=2
split_feature=214 130 138 130 138 247 25 26 247
split_gain=31.7569 14.1977 17.772 21.4035 11.9337 9.66077 8.32314 6.90811 6.42478
threshold=1.4776080183134637 0.32859249694508946 0.23068307237008681 0.14187625281567434 0.15571534037965262 0 -0.076129336041027854 -0.58630179090812706 1
decision_type=2 10 10 8 10 1 2 2 1
left_child=1 2 3 4 5 7 -4 -1 -3
right_child=-2 8 6 -5 -6 -7 -8 -9 -10
leaf_value=0.0066046318467867324 0.011929092518763475 0.0081195576401875812 -0.0007248461505986268 -0.013262250694978387 -0.0072661644136562927 -0.004787870811798464 0.0063643942287254802 -0.00056375400087869682 0.00046391132016243341
leaf_weight=516 512 525 993 524 894 810 704 945 573
leaf_count=516 512 525 993 524 894 810 704 945 573
internal_value=3.01127e-06 -0.000947181 -0.00200401 -0.00395034 -0.00239017 -0.00045894 0.00222618 0.00196846 0.00422243
internal_weight=6996 6484 5386 3689 3165 2271 1697 1461 1098
internal_count=6996 6484 5386 3689 3165 2271 1697 1461 1098
cat_boundaries=0 1 2
cat_threshold=708 580
is_linear=0
shrinkage=0.05


Tree=27
num_leaves=12
num_cat=1
split_feature=19 25 247 69 138 138 70 71 138 138 70
split_gain=31.7026 51.2145 15.3118 14.2048 14.2849 12.2492 14.6167 9.46259 6.02479 7.111 8.02821
threshold=-0.10580322852451288 1.3559318219780401 0 -1.0000000180025095e-35 0.28218455979965146 -0.2290962033581441 -0.080218557248531178 -0.1058033053558793 0.23778525861495317 -0.23213329383914835 -0.15898503436024278
decision_type=2 2 1 2 10 8 8 2 10 8 8
left_child=-1 2 3 -2 5 -5 -7 -4 9 -9 -11
right_child=1 -3 7 4 -6 6 -8 8 -10 10 -12
leaf_value=-0.0096317298736371404 0.0099586018486370609 0.016377579115460627 0.003006961120333853 0.0050253857104958386 0.0082001408490428411 0.00090753059273875601 -0.009977537061914829 -0.00075528090781521037 0.0001696545361237747 -0.0035521548100083244 -0.011686604417731283
leaf_weight=756 514 504 584 526 500 676 561 536 618 608 613
leaf_count=756 514 504 584 526 500 676 561 536 618 608 613
internal_value=3.3773e-06 0.00117748 -0.000171189 0.00248883 0.000784962 -0.00133528 -0.00404932 -0.00266698 -0.00407677 -0.00556663 -0.00766704
internal_weight=6996 6240 5736 2777 2263 1763 1237 2959 2375 1757 1221
internal_count=6996 6240 5736 2777 2263 1763 1237 2959 2375 1757 1221
cat_boundaries=0 1
cat_threshold=580
is_linear=0
shrinkage=0.05


Tree=28
num_leaves=9
num_cat=2
split_feature=247 123 82 196 138 196 196 247
split_gain=27.6782 21.0497 20.0757 12.9331 17.4045 13.5186 19.452 5.18926
threshold=0 0.13800809199256261 1.2598702652243703 -1.2055537432289742 0.30650159906235197 -0.012677978472799788 0.2085965598013956 1
decision_type=1 2 8 2 10 2 2 1
left_child=-1 2 3 -2 5 7 -7 -5
right_child=1 -3 -4 4 -6 6 -8 -9
leaf_value=0.0077936880656664723 -0.0087625052046227687 0.0083257698083125473 -0.01163212113749796 0.0034244343008985271 0.0063669712423251347 -0.012969430569287625 -0.001648053460724129 -0.0021176781292669201
leaf_weight=966 504 518 504 1113 789 513 1425 664
leaf_count=966 504 518 504 1113 789 513 1425 664
internal_value=3.49563e-06 -0.00126073 -0.00217066 -0.00120781 -0.000353659 -0.00178764 -0.00467055 0.00136075
internal_weight=6996 6030 5512 5008 4504 3715 1938 1777
internal_count=6996 6030 5512 5008 4504 3715 1938 1777
cat_boundaries=0 1 2
cat_threshold=6 704
is_linear=0
shrinkage=0.05


Tree=29
num_leaves=10
num_cat=1
split_feature=82 247 200 72 126 70 132 209 134
split_gain=27.9294 27.4421 15.4857 18.4318 12.5303 11.7486 12.8267 7.5956 7.21044
threshold=0.53334222231449901 0 0.84832417588773124 -0.70095450987327035 0.44506328710141901 -0.068412346587062536 0.10002979828152254 0.40311343704455321 -0.22068193467150751
decision_type=10 1 2 10 10 10 10 2 10
left_child=2 -2 3 -1 5 8 -7 -4 -5
right_child=1 -3 7 4 -6 6 -8 -9 -10
leaf_value=-0.010793931769641336 -0.0017378696400170168 0.011347321960339517 -0.00026583578037033586 -0.0031502104740523001 0.0032205270399023773 -0.012150206557059236 -0.001398664253900168 0.0079989275189846533 0.0039785357477386809
leaf_weight=654 702 918 609 991 950 616 504 506 546
leaf_count=654 702 918 609 991 950 616 504 506 546
internal_value=3.57022e-06 0.00574831 -0.00173128 -0.00310366 -0.0016963 -0.00345704 -0.00733973 0.00350378 -0.000613123
internal_weight=6996 1620 5376 4261 3607 2657 1120 1115 1537
internal_count=6996 1620 5376 4261 3607 2657 1120 1115 1537
cat_boundaries=0 1
cat_threshold=240
is_linear=0
shrinkage=0.05


Tree=30
num_leaves=11
num_cat=0
split_feature=19 82 199 138 196 196 202 126 218 74
split_gain=27.649 42.9165 12.5377 17.2162 16.3037 33.1973 8.86861 8.07259 6.01748 3.74422
threshold=-0.10580322852451288 1.3394152346518984 -1.2113096177646248 0.28745572419876869 -0.012677978472799788 0.10601327556090316 0.38928735493823591 -0.41668642086590818 -0.76239533022653017 -0.021360694208037236
decision_type=2 10 2 10 2 2 2 8 2 10
left_child=-1 2 -2 4 6 -6 8 -7 -4 -5
right_child=1 -3 3 9 5 7 -8 -9 -10 -11
leaf_value=-0.0089940865695906091 -0.0069926770666546264 0.014796220168439345 0.00064767566863835129 0.009431342507359157 -0.0146754315525203 -0.0049159861653825174 -0.0022706229837673965 0.0026242955197226022 0.0074644250942622024 0.0034448864434196377
leaf_weight=756 595 519 546 501 531 561 687 947 794 559
leaf_count=756 595 519 546 501 531 561 687 947 794 559
internal_value=3.9726e-06 0.00110045 -0.000153843 0.000646014 -0.000835293 -0.00398735 0.00233744 -0.000187785 0.00469959 0.00630533
internal_weight=6996 6240 5721 5126 4066 2039 2027 1508 1340 1060
internal_count=6996 6240 5721 5126 4066 2039 2027 1508 1340 1060
is_linear=0
shrinkage=0.05


Tree=31
num_leaves=9
num_cat=1
split_feature=247 123 25 73 25 124 130 124
split_gain=23.7841 17.8413 22.722 14.6403 8.71182 6.60676 10.8424 4.74442
threshold=0 0.13800809199256261 1.0718512211710514 -0.62894544213671211 -0.10736336645850274 0.69404218985308697 -0.2692351912932564 -0.65654150795161381
decision_type=1 2 2 2 2 8 10 10
left_child=-1 2 3 4 -2 6 -5 -8
right_child=1 -3 -4 5 -6 -7 7 -9
leaf_value=0.0072252007664627823 -0.00029886260824175221 0.0076576184054716325 -0.011600749529950606 0.0051908215433010135 0.0083764233630894969 -0.0072575906549004754 -0.0064261448983764253 -0.0015759420675272328
leaf_weight=966 584 518 550 502 568 592 666 2050
leaf_count=966 584 518 550 502 568 592 666 2050
internal_value=3.79398e-06 -0.00116813 -0.00200585 -0.000931725 0.00399625 -0.00242504 -0.00152614 -0.0027749
internal_weight=6996 6030 5512 4962 1152 3810 3218 2716
internal_count=6996 6030 5512 4962 1152 3810 3218 2716
cat_boundaries=0 1
cat_threshold=6
is_linear=0
shrinkage=0.05


Tree=32
num_leaves=9
num_cat=0
split_feature=19 25 200 72 72 138 124 212
split_gain=24.8056 43.3903 13.1861 20.8325 19.1726 13.753 6.23671 4.91852
threshold=-0.10580322852451288 1.3559318219780401 0.89744022556904057 -0.70095450987327035 0.71047989883683405 0.28745572419876869 0.61397593757388658 0.36722011639017255
decision_type=2 2 2 10 10 10 10 2
left_child=-1 2 3 -2 5 6 -5 -4
right_child=1 -3 7 4 -6 -7 -8 -9
leaf_value=-0.0085186675300179693 -0.0092378067306766263 0.015033644291047147 0.0015088915837774646 -0.0010664082476741176 -0.0082492947220181769 0.008356879684138915 0.0049930005846866923 0.0084377042562067076
leaf_weight=756 701 504 523 2311 585 599 515 502
leaf_count=756 701 504 523 2311 585 599 515 502
internal_value=4.16633e-06 0.00104273 -0.000198615 -0.00131782 7.64708e-05 0.00150849 4.47046e-05 0.00492681
internal_weight=6996 6240 5736 4711 4010 3425 2826 1025
internal_count=6996 6240 5736 4711 4010 3425 2826 1025
is_linear=0
shrinkage=0.05


Tree=33
num_leaves=11
num_cat=2
split_feature=82 247 129 200 70 196 72 71 247 136
split_gain=22.4855 38.5916 17.4205 12.7587 14.1253 8.77198 14.787 7.60483 6.16508 5.23066
threshold=0.53334222231449901 0 0.0087291905241933723 0.89744022556904057 -0.70249941218119771 -1.0000000180025095e-35 -0.40308960808669947 -0.13710595159521616 1 -0.10809929701509517
decision_type=10 1 2 2 10 2 10 2 1 10
left_child=3 -2 -3 4 -1 7 -7 -6 -9 -8
right_child=1 2 -4 -5 5 6 9 8 -10 -11
leaf_value=-0.0099252633914396916 0.015814182971016669 0.0061795702295796458 -0.0064899326389680203 0.0037054691646766919 -0.0041587382194282129 0.00084192876514522369 -0.011506656634602109 0.0064026013045759391 -0.00034182123745416236 -0.0044675077113091729
leaf_weight=579 543 517 560 946 535 894 510 629 720 563
leaf_count=579 543 517 560 946 535 894 510 629 720 563
internal_value=4.36003e-06 0.00515892 -0.000403916 -0.00155226 -0.00267793 -0.00157683 -0.003908 0.000860941 0.0028597 -0.00785109
internal_weight=6996 1620 1077 5376 4430 3851 1967 1884 1349 1073
internal_count=6996 1620 1077 5376 4430 3851 1967 1884 1349 1073
cat_boundaries=0 1 2
cat_threshold=70 580
is_linear=0
shrinkage=0.05


Tree=34
num_leaves=11
num_cat=1
split_feature=132 247 132 196 216 134 136 197 72 76
split_gain=21.3933 33.5364 27.6121 10.0235 8.86362 8.66849 6.61879 4.94182 6.9833 1.67598
threshold=0.013530827521906451 0 -0.21558039271419299 -0.012677978472799788 -0.15819147448930426 0.20660017982602288 0.024421500560435714 0.75308243612733827 -0.3622741497103496 -0.16677691240174011
decision_type=10 1 8 2 2 10 10 2 10 10
left_child=2 -2 7 6 -5 9 -4 8 -1 -3
right_child=1 5 3 4 -6 -7 -8 -9 -10 -11
leaf_value=0.0085321969268278026 0.010904218766058675 0.004290723674066162 0.00054118353468027671 -0.0045510193785231953 -0.013843886013449592 -0.0049705266560416796 -0.0063483312526998285 -0.0013054038887735774 0.001036320375213651 0.00020483867813934488
leaf_weight=522 962 500 697 501 537 701 691 624 761 500
leaf_count=522 962 500 697 501 537 701 691 624 761 500
internal_value=5.56339e-06 0.00352867 -0.00216126 -0.00569508 -0.00940192 -0.000721989 -0.00289916 0.00233744 0.00410737 0.00225896
internal_weight=6996 2663 4333 2426 1038 1701 1388 1907 1283 1000
internal_count=6996 2663 4333 2426 1038 1701 1388 1907 1283 1000
cat_boundaries=0 1
cat_threshold=518
is_linear=0
shrinkage=0.05


Tree=35
num_leaves=11
num_cat=1
split_feature=19 25 247 197 212 200 124 124 126 25
split_gain=21.2364 37.5721 11.4369 8.75966 8.73899 9.86612 6.66783 8.65132 6.25796 5.98333
threshold=-0.10580322852451288 1.3559318219780401 0 0.85098635845068193 0.44847832071067656 -0.11572088212847068 -0.65536457136411719 -0.17161661847496171 -0.36035581284629931 -0.19113307857652076
decision_type=2 2 1 2 2 2 10 10 10 2
left_child=-1 2 4 6 5 9 -4 -8 -9 -2
right_child=1 -3 3 -5 -6 -7 7 8 -10 -11
leaf_value=-0.0078800009405339475 3.2087195715753411e-05 0.013985958396345526 -0.0086454358909647377 0.0034606605414261847 0.0069514844147530053 -0.0034453112837759081 0.00295931425750713 -0.000665317454446678 -0.0074837427741355437 0.0071317374224896994
leaf_weight=756 610 504 515 528 695 899 560 615 741 573
leaf_count=756 610 504 515 528 695 899 560 615 741 573
internal_value=5.86726e-06 0.000966815 -0.000188311 -0.00234514 0.0021108 0.000492246 -0.00362027 -0.00225058 -0.00440512 0.00348643
internal_weight=6996 6240 5736 2959 2777 2082 2431 1916 1356 1183
internal_count=6996 6240 5736 2959 2777 2082 2431 1916 1356 1183
cat_boundaries=0 1
cat_threshold=580
is_linear=0
shrinkage=0.05


Tree=36
num_leaves=11
num_cat=1
split_feature=19 81 247 81 204 129 219 138 196 138
split_gain=19.1803 33.9433 10.6311 10.619 8.69422 7.2153 3.70779 3.5144 3.34345 3.19799
threshold=-0.10580322852451288 1.355201113516264 0 -0.64258096439397494 -0.66302590105863002 0.0087291905241933723 -0.065072478559198801 0.23778525861495317 -0.017423075308857585 -0.23213329383914835
decision_type=2 2 1 2 2 2 2 10 2 8
left_child=-1 2 7 -4 -5 6 -6 9 -7 -2
right_child=1 -3 3 4 5 8 -8 -9 -10 -11
leaf_value=-0.0074885895930392162 -0.0014074448271620254 0.013293530112923779 -0.0034601990512813652 0.0084831311466110979 0.0072116337865250901 0.0016128201200659492 0.0015923996884619773 -4.042889697531763e-05 -0.0037716081955156498 -0.0064218187340086405
leaf_weight=756 511 504 862 549 554 529 626 630 623 852
leaf_count=756 511 504 862 549 554 529 626 630 623 852
internal_value=5.80248e-06 0.000919046 -0.000178883 0.00139128 0.00285116 0.00150996 0.00424988 -0.00311525 -0.00130279 -0.0045539
internal_weight=6996 6240 5736 3743 2881 2332 1180 1993 1152 1363
internal_count=6996 6240 5736 3743 2881 2332 1180 1993 1152 1363
cat_boundaries=0 1
cat_threshold=1082
is_linear=0
shrinkage=0.05


Tree=37
num_leaves=11
num_cat=2
split_feature=132 247 132 123 247 134 84 197 126 76
split_gain=18.4302 28.4622 24.2166 12.5828 15.7479 7.59872 6.88613 4.71758 6.48104 1.52068
threshold=0.013530827521906451 0 -0.21558039271419299 0.087522380320290652 1 0.20660017982602288 -0.18856912498933734 0.75308243612733827 0.32112870853390718 -0.16677691240174011
decision_type=10 1 8 2 1 10 8 2 10 10
left_child=2 -2 7 4 -4 9 -6 8 -1 -3
right_child=1 5 3 -5 6 -7 -8 -9 -10 -11
leaf_value=0.00098335826846120112 0.010070538554414955 0.0040860133947306634 -0.013226921060489318 0.00091382558923595132 0.00033287018344882956 -0.0046179898948995489 -0.0074779905102013008 -0.0013511094666679875 0.0082066210240108843 0.00019405652843830685
leaf_weight=762 962 500 696 607 558 701 565 624 521 500
leaf_count=762 962 500 696 607 558 701 565 624 521 500
internal_value=5.85529e-06 0.00327588 -0.00200532 -0.00531474 -0.00739002 -0.000640365 -0.00358089 0.00220767 0.00393705 0.00215068
internal_weight=6996 2663 4333 2426 1819 1701 1123 1907 1283 1000
internal_count=6996 2663 4333 2426 1819 1701 1123 1907 1283 1000
cat_boundaries=0 1 2
cat_threshold=518 544
is_linear=0
shrinkage=0.05


Tree=38
num_leaves=9
num_cat=0
split_feature=19 82 46 124 124 196 138 74
split_gain=17.0008 29.2776 10.7597 13.5068 20.1053 12.8939 10.8146 7.23729
threshold=-0.10580322852451288 1.3394152346518984 -0.71484938690160293 -0.65654150795161381 -0.71244012955568892 -1.2055537432289742 0.30650159906235197 -0.56267584650026714
decision_type=2 10 10 10 8 2 8 10
left_child=-1 2 3 4 -2 -5 7 -7
right_child=1 -3 -4 5 -6 6 -8 -9
leaf_value=-0.0070504907856092014 0.00084033766043562766 0.012177128686255489 0.0067986578296828463 -0.0069275456482700663 -0.012850796911760609 0.0042561012057197329 0.0072036179139889928 -0.0013001160704146746
leaf_weight=756 548 519 500 514 519 797 671 2172
leaf_count=756 548 519 500 514 519 797 671 2172
internal_value=5.26972e-06 0.000865063 -0.000170887 -0.000844206 -0.00584805 0.000446571 0.00149594 0.000196046
internal_weight=6996 6240 5721 5221 1067 4154 3640 2969
internal_count=6996 6240 5721 5221 1067 4154 3640 2969
is_linear=0
shrinkage=0.05


Tree=39
num_leaves=9
num_cat=2
split_feature=247 123 25 247 79 197 126 126
split_gain=16.4556 14.6635 32.507 26.9211 17.8098 6.56448 8.6441 8.20052
threshold=0 0.087522380320290652 1.0199424957269025 1 -0.91285657141955323 0.85098635845068193 0.68506890208150895 -0.69896516276456044
decision_type=1 2 2 1 2 2 8 10
left_child=-1 2 4 -3 -2 6 7 -6
right_child=1 3 -4 -5 5 -7 -8 -9
leaf_value=0.0060118145701148155 0.0078711332794451343 0.010287064220626037 -0.014087585981680452 -0.0038180098259298027 -0.007323847551387464 0.0024700836638850126 -0.0085396530613909127 -0.00022756927342579581
leaf_weight=966 512 700 514 633 511 658 571 1931
leaf_count=966 512 700 514 633 511 658 571 1931
internal_value=5.11859e-06 -0.000969686 -0.00228476 0.00364812 -0.00081936 -0.00204049 -0.00302801 -0.00172443
internal_weight=6996 6030 4697 1333 4183 3671 3013 2442
internal_count=6996 6030 4697 1333 4183 3671 3013 2442
cat_boundaries=0 1 2
cat_threshold=6 1601
is_linear=0
shrinkage=0.05


Tree=40
num_leaves=11
num_cat=0
split_feature=132 132 214 84 196 207 128 84 217 78
split_gain=15.7444 21.2012 19.7448 10.4213 7.31198 6.88479 4.88852 4.14626 8.95176 3.68216
threshold=0.013530827521906451 -0.21558039271419299 0.77293107383298731 -0.20753539600243784 -0.012677978472799788 -0.29515659290055002 -0.14303423071287238 0.40916763798176586 -0.43659760094694972 -0.42079474054426153
decision_type=10 8 2 8 2 2 10 10 2 10
left_child=1 7 5 6 -5 -2 -3 8 -1 -7
right_child=2 3 -4 4 -6 9 -8 -9 -10 -11
leaf_value=0.0045849169195312251 0.0059291725891442706 -0.0046025146358653311 0.011919394274653373 -0.0045761766520731502 -0.012131629486070879 0.0020244695995643271 0.0019880509017966689 0.0058934722780282413 -0.0034102093471543929 -0.002732896241209341
leaf_weight=708 520 572 501 727 582 720 545 516 683 922
leaf_count=708 520 572 501 727 582 720 545 516 683 922
internal_value=5.49133e-06 -0.00185337 0.00302788 -0.00494992 -0.00796882 0.000944698 -0.00139236 0.00208856 0.000661047 -0.000647028
internal_weight=6996 4333 2663 2426 1309 2162 1117 1907 1391 1642
internal_count=6996 4333 2663 2426 1309 2162 1117 1907 1391 1642
is_linear=0
shrinkage=0.05


Tree=41
num_leaves=9
num_cat=0
split_feature=19 25 200 72 72 138 214 212
split_gain=15.2176 28.799 9.46325 15.3127 12.2186 9.71325 4.62771 4.02268
threshold=-0.10580322852451288 1.3559318219780401 0.89744022556904057 -0.70095450987327035 0.71047989883683405 0.28745572419876869 -0.70328485640056104 0.36722011639017255
decision_type=2 2 2 10 10 10 2 2
left_child=-1 2 3 -2 5 6 -5 -4
right_child=1 -3 7 4 -6 -7 -8 -9
leaf_value=-0.0066700871473212844 -0.0079307130634142936 0.012217104309082969 0.0010620352939771361 -0.0036921139709415653 -0.0065916586814569597 0.006953398461982882 0.0010826028601629292 0.0073241221812431791
leaf_weight=756 701 504 523 657 585 599 2169 502
leaf_count=756 701 504 523 657 585 599 2169 502
internal_value=5.39125e-06 0.000818844 -0.000192445 -0.00114057 5.48377e-05 0.00119803 -3.20031e-05 0.0041496
internal_weight=6996 6240 5736 4711 4010 3425 2826 1025
internal_count=6996 6240 5736 4711 4010 3425 2826 1025
is_linear=0
shrinkage=0.05


Tree=42
num_leaves=8
num_cat=2
split_feature=247 25 81 132 72 72 247
split_gain=14.3679 14.5674 13.1441 7.01478 7.62004 7.82018 4.31519
threshold=0 1.0718512211710514 0.59647795965066064 -0.34882839868302468 0.71047989883683405 -0.70095450987327035 1
decision_type=1 2 2 8 8 10 1
left_child=-1 2 3 -2 5 -5 -7
right_child=1 -3 -4 4 -6 6 -8
leaf_value=0.0056179935006593533 0.0040718521766830241 -0.0082262861383880712 0.0075093351134392144 -0.0058601883125164308 -0.0066594232132839055 0.0017397236451294571 -0.0021399388934762384
leaf_weight=966 620 606 511 611 629 1934 1119
leaf_count=966 620 606 511 611 629 1934 1119
internal_value=5.25578e-06 -0.000905617 -8.25557e-05 -0.000879018 -0.00159793 -0.000721135 0.000315249
internal_weight=6996 6030 5424 4913 4293 3664 3053
internal_count=6996 6030 5424 4913 4293 3664 3053
cat_boundaries=0 1 2
cat_threshold=6 704
is_linear=0
shrinkage=0.05


Tree=43
num_leaves=11
num_cat=2
split_feature=214 247 25 247 204 219 202 219 74 24
split_gain=14.2668 8.86727 7.92751 8.25359 6.98683 6.05012 4.82841 7.46171 3.79215 3.38754
threshold=1.4776080183134637 0 -0.63487001923955222 1 -0.77495104400477499 -0.44772930176676412 0.64136474021962708 0.23505017019609981 -0.54792174130733196 0.067287748377555287
decision_type=2 1 2 1 2 2 2 2 8 2
left_child=1 8 3 -3 -4 -6 7 -7 -1 -10
right_child=-2 2 4 -5 5 6 -8 -9 9 -11
leaf_value=-0.00022422563377347748 0.0079988203671215036 0.0020889877328898786 0.0067755880226170895 -0.0061102013985885641 0.0041516326247217098 -0.0035039679266809518 -0.0049883651889887056 0.0037923665196871212 -0.0027143311193063967 -0.007951587987716063
leaf_weight=577 512 505 577 752 891 607 506 815 683 571
leaf_count=577 512 505 577 752 891 607 506 815 683 571
internal_value=5.2247e-06 -0.000631655 0.000531119 -0.00285281 0.00178757 0.000756417 -0.000819318 0.000676463 -0.00356342 -0.00512119
internal_weight=6996 6484 4653 1257 3396 2819 1928 1422 1831 1254
internal_count=6996 6484 4653 1257 3396 2819 1928 1422 1831 1254
cat_boundaries=0 1 2
cat_threshold=1074 520
is_linear=0
shrinkage=0.05


Tree=44
num_leaves=11
num_cat=2
split_feature=20 247 81 247 24 197 200 197 200 74
split_gain=14.2146 33.7518 32.7817 16.8631 10.1282 7.06594 7.98638 13.0964 6.23419 3.24779
threshold=-0.10580330218331807 0 0.80010717499383643 1 -0.24996867863241654 0.87539170575192982 0.84832417588773124 -1.0000000180025095e-35 -1.1458741726874599 0.0096393177082961124
decision_type=2 1 2 1 2 2 2 2 2 10
left_child=3 2 4 -1 -2 6 7 8 -3 -10
right_child=1 5 -4 -5 -6 -7 -8 -9 9 -11
leaf_value=0.0014686625273302018 -0.0031964852863109738 -0.005678730644908361 0.016300698569718435 -0.0099008548721716463 0.0053749925984471134 0.0030265515479099264 0.002736634297627407 -0.0085907798037108112 0.0039046931273961729 -0.0016650065197721135
leaf_weight=602 538 503 574 696 941 621 531 952 510 528
leaf_count=602 538 503 574 696 941 621 531 952 510 528
internal_value=4.6518e-06 0.00108117 0.00618334 -0.00470709 0.00225677 -0.00180908 -0.00281145 -0.00399628 -0.00113928 0.00107715
internal_weight=6996 5698 2053 1298 1479 3645 3024 2493 1541 1038
internal_count=6996 5698 2053 1298 1479 3645 3024 2493 1541 1038
cat_boundaries=0 1 2
cat_threshold=518 217
is_linear=0
shrinkage=0.05


Tree=45
num_leaves=11
num_cat=1
split_feature=132 81 132 123 247 25 134 84 200 71
split_gain=13.6547 21.1678 17.5494 9.47783 13.6771 8.03034 5.45258 5.36949 4.27881 7.52903
threshold=0.013530827521906451 0.64053363012330533 -0.21558039271419299 0.087522380320290652 0 -0.63487001923955222 0.19075357002971416 -0.18856912498933734 0.81791145924382802 -1.0000000180025095e-35
decision_type=10 2 8 2 1 2 10 8 2 2
left_child=2 5 8 4 -4 -2 -7 -6 9 -1
right_child=1 -3 3 -5 7 6 -8 -9 -10 -11
leaf_value=-0.0010109588664487423 -0.0037238424200205186 0.011957930158234832 -0.011778631490996139 0.00086083449374331218 0.00064450731492402002 0.0053242145097538189 -0.00088274277382037686 -0.0062500560556726301 -0.0014119169048076672 0.0068289273424262335
leaf_weight=523 703 507 696 607 558 853 600 565 654 730
leaf_count=523 703 507 696 607 558 853 600 565 654 730
internal_value=3.952e-06 0.00281863 -0.00172716 -0.00454441 -0.00634555 0.000646754 0.00276688 -0.00281166 0.00185932 0.00356556
internal_weight=6996 2663 4333 2426 1819 2156 1453 1123 1907 1253
internal_count=6996 2663 4333 2426 1819 2156 1453 1123 1907 1253
cat_boundaries=0 1
cat_threshold=544
is_linear=0
shrinkage=0.05


Tree=46
num_leaves=9
num_cat=2
split_feature=20 247 69 25 247 128 138 138
split_gain=12.4655 30.6233 20.1698 17.7077 15.2157 9.16277 7.48922 8.24956
threshold=-0.10580330218331807 0 -1.0000000180025095e-35 0.91287069940210697 1 0.41021905807950604 0.20460392100868316 0.10756567457095396
decision_type=2 1 2 2 1 10 10 8
left_child=4 -2 -3 5 -1 6 7 -4
right_child=1 2 3 -5 -6 -7 -8 -9
leaf_value=0.001874469588722727 0.0099971220622718099 0.0058399897534458199 -0.0012465112298217541 -0.010812992273828044 -0.0090036678750005216 0.0053155732099980707 0.0021395027040764757 -0.0079282544520590196
leaf_weight=556 798 999 1373 503 742 514 818 693
leaf_count=556 798 999 1373 503 742 514 818 693
internal_value=2.93309e-06 0.00101104 -0.000480503 -0.00210574 -0.0044094 -0.000802827 -0.00190059 -0.0035015
internal_weight=6996 5698 4900 3901 1298 3398 2884 2066
internal_count=6996 5698 4900 3901 1298 3398 2884 2066
cat_boundaries=0 1 2
cat_threshold=6 185
is_linear=0
shrinkage=0.05


Tree=47
num_leaves=10
num_cat=0
split_feature=212 199 128 201 214 138 70 136 129
split_gain=12.418 9.33076 12.6984 11.6673 9.94386 7.94597 12.369 3.19735 3.15561
threshold=1.5509978726164244 -1.1576594154781901 0.084248009519913708 0.7596041693549842 -0.051733230792130797 0.21409929033246503 -0.068412346587062536 0.13417147621554346 0.041500085284650483
decision_type=2 2 10 2 2 10 8 10 2
left_child=1 -1 3 5 -4 6 7 -3 -7
right_child=-2 2 4 -5 -6 8 -8 -9 -10
leaf_value=-0.0063841395467525673 0.0072507685456860704 0.0013684011383639917 0.00039571228263474823 0.003724754263732602 0.0081949280726294708 0.0022497509046484759 -0.0098044684792506359 -0.0038777622870340687 -0.0025768353362930489
leaf_weight=626 540 504 968 856 703 761 762 674 602
leaf_count=626 540 504 968 856 703 761 762 674 602
internal_value=2.8547e-06 -0.000608525 1.65739e-05 -0.00146261 0.00369155 -0.00281056 -0.00486196 -0.00163693 0.000116352
internal_weight=6996 6456 5830 4159 1671 3303 1940 1178 1363
internal_count=6996 6456 5830 4159 1671 3303 1940 1178 1363
is_linear=0
shrinkage=0.05


Tree=48
num_leaves=10
num_cat=1
split_feature=19 25 247 207 74 219 219 25 24
split_gain=11.2798 22.9946 7.97392 7.8333 7.48252 6.5575 6.05088 4.24714 4.2054
threshold=-0.10580322852451288 1.3559318219780401 0 -0.31250442508521298 -0.13935204254448294 -0.15488531383913887 0.23723158004813497 -0.047665419058461715 0.067287748377555287
decision_type=2 2 1 2 8 2 2 2 2
left_child=-1 2 8 4 -4 7 -7 -5 -2
right_child=1 -3 3 5 -6 6 -8 -9 -10
leaf_value=-0.0057445239035061437 -0.0010364995331061794 0.010888134341517489 0.008575297019124524 -0.00012657589239977726 0.00082052145732076746 -0.0072097520057962635 -0.00046874541629087619 0.0056159437553134246 -0.0061926266958908169
leaf_weight=756 965 504 554 867 704 503 968 507 668
leaf_count=756 965 504 554 867 704 503 968 507 668
internal_value=2.7313e-06 0.000703075 -0.00020055 0.000976612 0.00425601 -0.000474966 -0.00279041 0.00200507 -0.00313898
internal_weight=6996 6240 5736 4103 1258 2845 1471 1374 1633
internal_count=6996 6240 5736 4103 1258 2845 1471 1374 1633
cat_boundaries=0 1
cat_threshold=1074
is_linear=0
shrinkage=0.05


Tree=49
num_leaves=12
num_cat=2
split_feature=212 20 247 82 247 197 197 205 196 199 21
split_gain=10.8329 9.06536 15.1285 17.1876 13.4218 5.99353 5.69071 5.13601 3.81714 5.4689 3.64949
threshold=1.5509978726164244 -0.10580330218331807 0 0.57730465808325437 1 0.87539170575192982 0.54227132891148877 0.079924459882520282 -0.0817322360599151 -0.045623678279176953 -0.16307928418004897
decision_type=2 2 1 10 1 2 2 2 2 2 2
left_child=1 4 3 7 -1 6 8 -3 10 -10 -4
right_child=-2 2 5 -5 -6 -7 -8 -9 9 -11 -12
leaf_value=0.0011946543263784087 0.006772319698159438 -0.0022473487440892352 0.0035916450814117672 0.010999960500101479 -0.009433409915816357 0.0030739211769920181 -0.0068958317618801543 0.0041938889875401727 5.5154728388143746e-06 -0.0071272513795463304 -0.0018978631282298847
leaf_weight=555 540 684 531 588 625 561 594 557 533 537 691
leaf_count=555 540 684 531 588 625 561 594 557 533 537 691
internal_value=2.77761e-06 -0.000568251 0.000319061 0.00397588 -0.00452019 -0.00163101 -0.00255496 0.00064891 -0.00141741 -0.0035907 0.000492428
internal_weight=6996 6456 5276 1829 1180 3447 2886 1241 2292 1070 1222
internal_count=6996 6456 5276 1829 1180 3447 2886 1241 2292 1070 1222
cat_boundaries=0 1 2
cat_threshold=518 217
is_linear=0
shrinkage=0.05


Tree=50
num_leaves=11
num_cat=1
split_feature=132 247 132 84 82 208 200 124 128 128
split_gain=10.9883 18.1823 14.3107 8.43195 6.79085 6.27687 3.98237 7.06511 3.25045 2.73167
threshold=0.013530827521906451 0 -0.21558039271419299 -0.20753539600243784 0.057952867965470514 0.21049356164838753 0.81791145924382802 0.57735024953021108 -0.14302896566258044 -0.05364989306839326
decision_type=10 1 8 8 8 2 2 10 10 10
left_child=2 -2 6 8 -5 9 7 -1 -4 -3
right_child=1 5 3 4 -6 -7 -8 -9 -10 -11
leaf_value=-0.00077614175846531946 0.0079579432435837039 0.0042069135614640442 -0.0034459997072239326 -0.0038934645065850267 -0.011297312755255228 -0.0051121733694966878 -0.0014674409172954874 0.0067449806263871828 0.001932641764108318 -0.00065149325853346575
leaf_weight=570 962 501 587 799 510 527 654 683 530 673
leaf_count=570 962 501 587 799 510 527 654 683 530 673
internal_value=2.12994e-06 0.00252707 -0.00155079 -0.00409483 -0.00681009 -0.000601801 0.00168788 0.00333407 -0.000896674 0.00143086
internal_weight=6996 2663 4333 2426 1309 1701 1907 1253 1117 1174
internal_count=6996 2663 4333 2426 1309 1701 1907 1253 1117 1174
cat_boundaries=0 1
cat_threshold=518
is_linear=0
shrinkage=0.05


Tree=51
num_leaves=11
num_cat=2
split_feature=75 135 20 247 22 80 73 126 247 70
split_gain=10.0474 18.1634 10.4584 10.2499 16.1487 7.27263 6.19495 3.43742 3.09351 1.83598
threshold=-0.80141259120851871 -0.038531526045443611 -0.10580330218331807 0 0.36152433941354106 -0.08224974333970915 0.76841300077390773 0.59145921621628395 1 -0.27168760786162022
decision_type=2 2 2 1 2 10 2 8 1 10
left_child=1 -1 -2 4 5 -4 7 8 9 -5
right_child=2 -3 3 6 -6 -7 -8 -9 -10 -11
leaf_value=-0.0027274464331141779 -0.0055704373133161639 0.0087855209654046466 -0.0052343908856746849 0.0044689686893378952 0.0086008283714930564 0.0030981254090027208 -0.0062298209697332976 -0.0036292356912476509 -0.0023036637404548073 0.00023005904866455772
leaf_weight=601 997 786 511 502 749 527 615 645 547 516
leaf_count=601 997 786 511 502 749 527 615 645 547 516
internal_value=2.38461e-06 0.00380497 -0.000940474 6.53581e-05 0.00301458 -0.00100934 -0.00180652 -0.000572476 0.000694885 0.00230942
internal_weight=6996 1387 5609 4612 1787 1038 2825 2210 1565 1018
internal_count=6996 1387 5609 4612 1787 1038 2825 2210 1565 1018
cat_boundaries=0 1 2
cat_threshold=1542 200
is_linear=0
shrinkage=0.05


Tree=52
num_leaves=11
num_cat=1
split_feature=132 81 132 247 82 81 25 129 218 134
split_gain=9.93466 17.0065 13.2999 12.0185 12.7173 9.43293 6.55374 6.01801 4.83648 2.8275
threshold=0.013530827521906451 0.64053363012330533 -0.33285934958516256 0 0.37128002740129806 1.0000000180025095e-35 -0.63487001923955222 0.023902833868335683 -0.63343024288080141 -0.15421598569725342
decision_type=10 2 8 1 8 2 2 2 2 10
left_child=2 6 7 4 9 -5 -2 -1 -8 -4
right_child=1 -3 3 5 -6 -7 8 -9 -10 -11
leaf_value=0.0068084534842453902 -0.0034915016914502783 0.010594729365163858 -0.0050360820249803718 -0.0026153190695076089 -0.012538710330440867 0.0057871219762311056 0.0062398348530125361 -0.00066575761360926399 0.00022668414860774942 -0.00025782528503904152
leaf_weight=574 703 507 790 949 501 509 515 502 938 508
leaf_count=574 703 507 790 949 501 509 515 502 938 508
internal_value=2.0826e-06 0.00240292 -0.00147451 -0.0030659 -0.00577758 0.000325571 0.000456499 0.00333446 0.00237207 -0.00317417
internal_weight=6996 2663 4333 3257 1799 1458 2156 1076 1453 1298
internal_count=6996 2663 4333 3257 1799 1458 2156 1076 1453 1298
cat_boundaries=0 1
cat_threshold=688
is_linear=0
shrinkage=0.05


Tree=53
num_leaves=11
num_cat=1
split_feature=212 132 132 25 84 200 124 70 247 128
split_gain=9.51106 8.39435 10.6909 9.04722 6.44117 5.75641 5.03583 3.65751 2.92117 1.74442
threshold=1.5509978726164244 0.013529113831145185 -0.21558039271419299 0.005940247679918847 -0.20753539600243784 0.83690707281972099 0.57735024953021108 -0.068412346587062536 0 -0.14303423071287238
decision_type=2 10 8 2 8 2 10 8 1 10
left_child=1 2 5 8 9 6 -1 -6 -3 -4
right_child=-2 3 4 -5 7 -7 -8 -9 -10 -11
leaf_value=-0.00068584150130312983 0.0063452487618346279 0.0012407467311831835 -0.0033232515694548467 0.0055824435753229059 -0.0042415568404944688 -0.0033549059969440209 0.0058844540039928745 -0.0098389712764490583 -0.0030768222884436907 0.00075222596160139793
leaf_weight=524 540 910 534 942 681 515 650 525 666 509
leaf_count=524 540 910 534 942 681 515 650 525 666 509
internal_value=2.15887e-06 -0.000532897 -0.00197362 0.00171976 -0.00422757 0.00103126 0.00296141 -0.0067088 -0.000599383 -0.00134026
internal_weight=6996 6456 3938 2518 2249 1689 1174 1206 1576 1043
internal_count=6996 6456 3938 2518 2249 1689 1174 1206 1576 1043
cat_boundaries=0 1
cat_threshold=681
is_linear=0
shrinkage=0.05


Tree=54
num_leaves=9
num_cat=1
split_feature=75 134 71 247 75 73 219 219
split_gain=8.78884 17.2262 7.97332 8.65147 14.3949 5.73891 3.7549 4.79193
threshold=-0.80141259120851871 -0.15420176560096446 -0.16284161358517099 0 0.31083883086211966 0.76841300077390773 0.42165842434769507 -0.19229205644942354
decision_type=2 10 2 1 2 2 2 2
left_child=1 -1 -2 4 -4 6 7 -5
right_child=2 -3 3 5 -6 -7 -8 -9
leaf_value=-0.0017276732064150022 -0.0049549228014189968 0.0094000914893774285 -0.0014380142817807637 0.00066488181866119589 0.0075327357296303566 -0.005970930409301271 0.0029973535612059818 -0.0047322111369929969
leaf_weight=730 984 657 964 925 827 618 557 734
leaf_count=730 984 657 964 925 827 618 557 734
internal_value=1.75139e-06 0.0035582 -0.000880078 -8.71287e-06 0.00269867 -0.00172487 -0.000537709 -0.00173003
internal_weight=6996 1387 5609 4625 1791 2834 2216 1659
internal_count=6996 1387 5609 4625 1791 2834 2216 1659
cat_boundaries=0 1
cat_threshold=1542
is_linear=0
shrinkage=0.05


Tree=55
num_leaves=11
num_cat=2
split_feature=34 70 70 247 70 126 197 201 20 247
split_gain=9.1278 9.15163 12.4971 21.717 7.76423 7.55453 10.1039 7.11161 5.96339 7.64534
threshold=-1.5087051902787307 0.68664442398528169 0.23346605107618201 0 0.96100525923051661 -0.57735025183211486 -0.04284369229424919 -0.026469321786028586 -1.0000000180025095e-35 1
decision_type=10 8 10 1 10 10 2 2 2 1
left_child=1 2 5 -4 -3 -1 8 -8 -7 -10
right_child=-2 4 3 -5 -6 6 7 -9 9 -11
leaf_value=0.0041474598427960812 0.0057182890374220799 -0.009238513884257794 -0.0022694594885591958 0.011545639168787529 -0.00096753471401497468 -0.0042645850197589657 -0.0005270877031355001 -0.0080430889476637429 0.0049517665233891365 -0.0019250874649447477
leaf_weight=611 630 501 541 581 649 536 502 842 864 739
leaf_count=611 630 501 541 581 649 536 502 842 864 739
internal_value=1.72705e-06 -0.000568046 0.000323393 0.00498614 -0.0045952 -0.000959002 -0.00185946 -0.00524813 0.000277027 0.00180416
internal_weight=6996 6366 5216 1122 1150 4094 3483 1344 2139 1603
internal_count=6996 6366 5216 1122 1150 4094 3483 1344 2139 1603
cat_boundaries=0 1 2
cat_threshold=1144 582
is_linear=0
shrinkage=0.05


Tree=56
num_leaves=10
num_cat=0
split_feature=212 24 126 126 128 75 72 130 138
split_gain=8.53928 15.145 8.68584 8.86617 7.68434 9.68474 4.18747 3.39968 2.59187
threshold=0.6963405973963207 0.021062969058833682 0.7018007074085324 -0.69896516276456044 -0.1377078052403892 -0.5795572784940255 -0.056514960576593963 -0.15066718461825807 0.22381784252562084
decision_type=2 2 8 10 10 2 10 10 10
left_child=2 -2 3 -1 7 -6 -7 8 -5
right_child=1 -3 -4 4 5 6 -8 -9 -10
leaf_value=-0.005272222693535218 0.0088726687619121794 -0.0014942083429586865 -0.0055313551250117908 -0.0046631622229848834 0.0090593171525210989 0.0039356520370932976 -0.0014248212151887901 0.0016188327829008455 -0.00037349314315626345
leaf_weight=687 672 732 844 747 501 666 793 690 664
leaf_count=687 672 732 844 747 501 666 793 690 664
internal_value=2.48824e-06 0.00348159 -0.000873351 -4.04007e-05 0.000850062 0.00309813 0.0010272 -0.00124951 -0.00265294
internal_weight=6996 1404 5592 4748 4061 1960 1459 2101 1411
internal_count=6996 1404 5592 4748 4061 1960 1459 2101 1411
is_linear=0
shrinkage=0.05


Tree=57
num_leaves=11
num_cat=3
split_feature=34 132 247 132 247 81 82 208 247 214
split_gain=8.202 7.86004 12.4612 9.24706 10.7622 9.83856 7.04475 4.57866 1.80889 1.43738
threshold=-1.5087051902787307 0.013530827521906451 0 -0.34882839868302468 1 0.088208416591060254 -0.17831140391510394 0.16114540893026252 2 -0.4557308237563375
decision_type=10 10 1 8 1 2 10 2 1 2
left_child=1 3 -3 -1 5 9 -6 8 -4 -5
right_child=-2 2 7 4 6 -7 -8 -9 -10 -11
leaf_value=0.0026313212625446486 0.0054214399896963597 0.006453413583499025 0.0030065365005545247 -0.0045574020367220875 -0.0027184374595269397 -0.010452137900663693 0.0046175478242777594 -0.0048584580090059674 -0.0011839068837453048 -0.00088797864035652485
leaf_weight=876 630 867 503 542 821 681 537 510 502 527
leaf_count=876 630 867 503 542 821 681 537 510 502 527
internal_value=2.53261e-06 -0.000537574 0.00173235 -0.00189521 -0.00317321 -0.00574248 0.000187386 -0.00101752 0.000935947 -0.00276099
internal_weight=6996 6366 2382 3984 3108 1750 1358 1515 1005 1069
internal_count=6996 6366 2382 3984 3108 1750 1358 1515 1005 1069
cat_boundaries=0 1 2 3
cat_threshold=518 688 192
is_linear=0
shrinkage=0.05


Tree=58
num_leaves=9
num_cat=0
split_feature=214 199 199 130 130 199 199 217
split_gain=8.10344 5.42595 6.46658 7.66627 6.0259 4.71646 13.7819 4.78348
threshold=1.4776080183134637 1.1379015971521038 -1.1533272566718284 0.3286060441074567 -0.32136591383197072 -0.028930570698919595 0.12531418436491409 -0.49598790952270877
decision_type=2 2 2 10 8 2 2 2
left_child=1 2 -1 4 -4 7 -7 -6
right_child=-2 -3 3 -5 5 6 -8 -9
leaf_value=-0.0045645989581445381 0.006027296412649711 -0.0043054389098140322 0.0048575419932063886 0.0056145558989656036 0.0044004315512914524 -0.0093903138413280081 9.0129935300635681e-06 -0.00092145597685131138
leaf_weight=660 512 805 534 676 670 523 1492 1124
leaf_count=660 512 805 534 676 670 523 1492 1124
internal_value=2.90678e-06 -0.000477078 6.89028e-05 0.000682146 -9.11708e-05 -0.000790411 -0.00244782 0.0010728
internal_weight=6996 6484 5679 5019 4343 3809 2015 1794
internal_count=6996 6484 5679 5019 4343 3809 2015 1794
is_linear=0
shrinkage=0.05


Tree=59
num_leaves=9
num_cat=1
split_feature=212 199 128 247 201 128 128 128
split_gain=8.01675 7.18903 8.03683 8.74443 6.87218 5.49281 3.3494 9.33253
threshold=1.5509978726164244 -1.1576594154781901 0.084248009519913708 0 0.80064074792700757 -0.06123099018169998 -0.15662306845297128 -0.21290290867778397
decision_type=2 2 10 1 2 8 10 8
left_child=1 -1 4 -4 5 6 7 -3
right_child=-2 2 3 -5 -6 -7 -8 -9
leaf_value=-0.0055580208792108399 0.0058263423099340619 9.639847610851704e-05 0.0070115810074944124 -0.00024815865000856326 0.0029694522072329383 -0.0068108180731771759 0.0017132803915234675 -0.0069656680743251601
leaf_weight=626 540 1410 732 939 821 522 711 695
leaf_count=626 540 1410 732 939 821 522 711 695
internal_value=2.82308e-06 -0.000488406 6.02432e-05 0.00298384 -0.00111657 -0.00212449 -0.00124525 -0.00224624
internal_weight=6996 6456 5830 1671 4159 3338 2816 2105
internal_count=6996 6456 5830 1671 4159 3338 2816 2105
cat_boundaries=0 1
cat_threshold=643
is_linear=0
shrinkage=0.05


Tree=60
num_leaves=11
num_cat=0
split_feature=200 200 200 70 72 126 25 123 212 129
split_gain=7.66984 17.5513 9.00881 10.419 7.69262 11.7328 11.0046 8.22521 6.49853 5.48846
threshold=0.91392704146818737 0.83690707281972099 0.54512892026366433 0.68664442398528169 0.31717109672831051 0.32112870853390718 -0.047665419058461715 0.059327428150369822 0.64139483690428645 -0.00057593300155236765
decision_type=2 2 2 8 10 10 2 2 2 2
left_child=1 2 3 4 5 7 -7 -1 -2 -6
right_child=8 -3 -4 -5 9 6 -8 -9 -10 -11
leaf_value=-0.0096648298011756551 0.00050356651282837395 -0.009608134810878969 0.0057164923273110568 -0.0064491061193350345 0.0069528641559672994 -0.0017902285665170187 0.0065671929111600904 -0.0013447147119235302 0.0079582074288674174 0.00012404889729025084
leaf_weight=502 696 505 625 660 613 940 671 722 500 562
leaf_count=502 696 505 625 660 613 940 671 722 500 562
internal_value=3.09479e-06 -0.000749393 0.000103759 -0.000652721 0.000308141 -0.00110212 0.00170028 -0.00478249 0.00364021 0.00370102
internal_weight=6996 5800 5295 4670 4010 2835 1611 1224 1196 1175
internal_count=6996 5800 5295 4670 4010 2835 1611 1224 1196 1175
is_linear=0
shrinkage=0.05


Tree=61
num_leaves=9
num_cat=1
split_feature=214 247 200 200 197 124 197 79
split_gain=7.05688 8.11479 7.39659 11.6942 7.51824 13.1123 7.52961 2.66024
threshold=1.4776080183134637 0 0.89744022556904057 0.79964413278333735 0.60859909809540869 -0.65654150795161381 -0.21017457294485883 -0.087348417068823098
decision_type=2 1 2 2 2 10 2 2
left_child=1 -1 3 4 5 -3 -7 -4
right_child=-2 2 7 -5 -6 6 -8 -9
leaf_value=-0.0059541931157713014 0.0056248239553182222 -0.0080196004905911181 0.0065197155628512349 -0.0078873730882111463 0.0040565700601616298 0.0017518630438214233 -0.0044402654865288741 0.0014199793924203933
leaf_weight=591 512 546 509 501 953 2245 623 516
leaf_count=591 512 546 509 501 953 2245 623 516
internal_value=2.9031e-06 -0.000445016 0.000121959 -0.00069165 0.000141949 -0.000955132 0.000401394 0.00397179
internal_weight=6996 6484 5893 4868 4367 3414 2868 1025
internal_count=6996 6484 5893 4868 4367 3414 2868 1025
cat_boundaries=0 1
cat_threshold=1042
is_linear=0
shrinkage=0.05


Tree=62
num_leaves=10
num_cat=1
split_feature=207 212 196 124 25 196 128 219 247
split_gain=6.8789 10.6883 5.99566 9.77981 16.206 6.29355 5.66869 4.62866 3.35655
threshold=-0.31250442508521298 0.6963405973963207 1.207787072618816 -0.25394037555261578 0.042711718795261956 -0.03465680569247967 -0.099573184407162105 0.21186518355974215 0
decision_type=2 2 2 8 2 2 10 2 1
left_child=1 7 3 4 -2 6 8 -1 -5
right_child=2 -3 -4 5 -6 -7 -8 -9 -10
leaf_value=-0.0027889656979668471 -0.00097189881691385612 0.0076320535481235801 -0.0053177111904258367 0.00023583044614283342 0.0099242484787388993 -0.0061832844374181363 0.0028528200187762634 0.0026570560102447929 -0.0051028976123296396
leaf_weight=746 956 656 701 529 525 706 711 807 659
leaf_count=746 956 656 701 529 525 706 711 807 659
internal_value=2.08529e-06 0.00230705 -0.00106286 -0.000327279 0.00291107 -0.00217041 -0.000666199 4.04469e-05 -0.00277541
internal_weight=6996 2209 4787 4086 1481 2605 1899 1553 1188
internal_count=6996 2209 4787 4086 1481 2605 1899 1553 1188
cat_boundaries=0 1
cat_threshold=1224
is_linear=0
shrinkage=0.05


Tree=63
num_leaves=8
num_cat=1
split_feature=34 247 25 81 131 131 199
split_gain=6.74087 6.9909 21.0424 6.11751 3.93911 4.26127 3.16513
threshold=-1.5087051902787307 0 1.0718512211710514 0.55087168660268215 0.28247365991151169 0.091383937835310375 -0.045623678279176953
decision_type=10 1 2 2 2 2 2
left_child=1 -1 3 4 5 6 -3
right_child=-2 2 -4 -5 -6 -7 -8
leaf_value=0.003653303335205155 0.0049143179035773064 0.001276099630023393 -0.010235535277894923 0.0049682432529275814 0.0024809422403147137 -0.004762477651874846 -0.0020496227493717843
leaf_weight=865 630 1314 566 527 790 745 1559
leaf_count=865 630 1314 566 527 790 745 1559
internal_value=1.7383e-06 -0.000487902 -0.00114636 -9.69308e-05 -0.000707442 -0.0014061 -0.00052899
internal_weight=6996 6366 5501 4935 4408 3618 2873
internal_count=6996 6366 5501 4935 4408 3618 2873
cat_boundaries=0 1
cat_threshold=6
is_linear=0
shrinkage=0.05


Tree=64
num_leaves=10
num_cat=1
split_feature=214 247 200 126 138 200 81 73 82
split_gain=6.87984 5.64673 4.66428 4.87365 4.68102 3.68516 3.39714 2.82774 0.978463
threshold=1.4776080183134637 0 0.84832417588773124 0.7018007074085324 0.30650159906235197 -0.056245641725351396 -0.66093522764518198 -0.31359090076736595 -0.30800236002090425
decision_type=2 1 2 10 10 2 2 2 10
left_child=1 7 3 4 5 6 -3 -1 -4
right_child=-2 2 8 -5 -6 -7 -8 -9 -10
leaf_value=-0.00045403652371901298 0.0055528733068698844 -0.0025899256947369055 0.004986683446765585 -0.0046354096069023461 0.0046356513900608623 -0.0029767033726841659 0.0022200339624792297 -0.0047017030053244438 0.0018462325005335737
leaf_weight=657 512 507 505 567 532 951 1294 970 501
leaf_count=657 512 507 505 567 532 951 1294 970 501
internal_value=1.92106e-06 -0.000440343 0.000416122 -0.000376052 0.000365278 -0.000467155 0.000862559 -0.00297487 0.00343957
internal_weight=6996 6484 4857 3851 3284 2752 1801 1627 1006
internal_count=6996 6484 4857 3851 3284 2752 1801 1627 1006
cat_boundaries=0 1
cat_threshold=50
is_linear=0
shrinkage=0.05


Tree=65
num_leaves=11
num_cat=2
split_feature=127 22 123 247 130 81 81 25 247 196
split_gain=6.61586 17.8035 6.97907 8.98178 6.15295 6.1958 4.56741 3.69134 1.89227 1.32176
threshold=0.044170656609134586 -1.0623221344704692 0.059327428150369822 0 0.3286060441074567 0.088208416591060254 -0.13278092325382904 -0.28896183830415662 1 -0.012677978472799788
decision_type=2 2 2 1 10 2 2 2 1 2
left_child=1 -1 3 -3 5 7 8 9 -5 -2
right_child=4 2 -4 6 -6 -7 -8 -9 -10 -11
leaf_value=0.010015361164221304 -0.00099844768259292095 -0.005767687068369623 0.0041211088638773864 0.00032095935887236558 0.0031692323315878814 -0.0064120903967616362 0.0032913324326427108 0.0024594185303716334 -0.0037286801487453891 -0.0045233087533941597
leaf_weight=507 553 747 810 656 504 815 884 505 501 514
leaf_count=507 553 747 810 656 504 815 884 505 501 514
internal_value=1.96371e-06 0.00129172 5.02596e-05 -0.00113771 -0.00182845 -0.0028881 0.000592101 -0.00104656 -0.00147043 -0.00270964
internal_weight=6996 4105 3598 2788 2891 2387 2041 1572 1157 1067
internal_count=6996 4105 3598 2788 2891 2387 2041 1572 1157 1067
cat_boundaries=0 1 2
cat_threshold=1553 168
is_linear=0
shrinkage=0.05


Tree=66
num_leaves=11
num_cat=1
split_feature=19 25 247 207 21 219 219 210 24 215
split_gain=6.29767 14.9344 5.62301 5.20309 4.90003 4.36403 3.21082 2.82057 2.70216 1.55616
threshold=-0.10580322852451288 1.3559318219780401 0 -0.31250442508521298 -0.42444271738770595 -0.15488531383913887 0.23723158004813497 -0.026211722354240092 0.067287748377555287 -0.52522669253999865
decision_type=2 2 1 2 2 2 2 2 2 2
left_child=-1 2 8 4 -4 7 -7 -5 -2 -8
right_child=1 -3 3 5 -6 6 9 -9 -10 -11
leaf_value=-0.0042930851231770331 -0.0010921637259451997 0.0087327119309733286 0.0071208945916233848 0.0044925984613528938 0.0008555511591808448 -0.0054397270755720435 0.0013387915770695343 -0.00011259487035157434 -0.0054767286835587202 -0.002564528666217068
leaf_weight=756 860 504 513 512 789 526 501 931 593 511
leaf_count=756 860 504 513 512 789 526 501 931 593 511
internal_value=1.27975e-06 0.000524579 -0.000203615 0.000709831 0.00334195 -0.000441085 -0.00229058 0.00153127 -0.00287453 -0.000635072
internal_weight=6996 6240 5736 4283 1302 2981 1538 1443 1453 1012
internal_count=6996 6240 5736 4283 1302 2981 1538 1443 1453 1012
cat_boundaries=0 1
cat_threshold=50
is_linear=0
shrinkage=0.05


Tree=67
num_leaves=9
num_cat=1
split_feature=212 199 128 247 79 126 130 24
split_gain=6.0599 6.18118 6.80338 7.65124 7.01167 6.18594 6.7353 7.78558
threshold=1.5509978726164244 -1.1576594154781901 0.084248009519913708 0 0.92783489361213312 -0.69896516276456044 0.067519961035030898 -0.56530718583473616
decision_type=2 2 10 1 2 8 10 2
left_child=1 -1 4 -4 5 -3 7 -7
right_child=-2 2 3 -5 -6 6 -8 -9
leaf_value=-0.0051265912727864607 0.0050644749241960905 -0.0048882384890741272 0.0065404533405484817 -0.00024991162179320548 -0.0063150692796356189 -0.0046100882678043013 0.0054536084341457059 0.0014508468093288771
leaf_weight=626 540 586 732 939 535 769 594 1675
leaf_count=626 540 586 732 939 535 769 594 1675
internal_value=1.34297e-06 -0.000425745 8.29721e-05 0.00277285 -0.000999798 -0.000207502 0.000701914 -0.000461734
internal_weight=6996 6456 5830 1671 4159 3624 3038 2444
internal_count=6996 6456 5830 1671 4159 3624 3038 2444
cat_boundaries=0 1
cat_threshold=643
is_linear=0
shrinkage=0.05


Tree=68
num_leaves=10
num_cat=1
split_feature=200 200 24 130 247 81 130 82 212
split_gain=5.87602 11.1251 6.30987 5.39749 10.1487 13.4226 11.7283 6.13628 2.49073
threshold=0.87744591156817464 0.77035047735154838 -0.0937979364181349 -0.32137087952174886 0 -0.046034253214082242 0.32859249694508946 0.708360584624525 -0.73038335745791971
decision_type=2 2 2 8 1 2 10 8 2
left_child=1 3 -2 -1 5 -5 7 8 -6
right_child=2 -3 -4 4 6 -7 -8 -9 -10
leaf_value=0.0047453418442618793 0.006392300930291063 -0.0077240379009683932 -0.00039980012511445456 -0.001099217451169222 0.00017092777413210529 0.0095989707778916591 0.0049356774122936813 -0.0080412486571275685 -0.0032631108724258933
leaf_weight=530 668 509 694 695 798 501 518 530 1553
leaf_count=530 668 509 694 695 798 501 518 530 1553
internal_value=1.62936e-06 -0.000711323 0.00294262 -7.99134e-06 -0.000560816 0.00337541 -0.00195295 -0.00320469 -0.00209961
internal_weight=6996 5634 1362 5125 4595 1196 3399 2881 2351
internal_count=6996 5634 1362 5125 4595 1196 3399 2881 2351
cat_boundaries=0 1
cat_threshold=67
is_linear=0
shrinkage=0.05


Tree=69
num_leaves=11
num_cat=2
split_feature=127 82 127 133 132 247 127 81 247 218
split_gain=5.80851 15.6927 3.98067 6.71366 3.44597 3.28707 4.73765 4.60482 2.61509 1.93725
threshold=0.044170656609134586 1.1546997110708122 0.14962641538646096 0.037889318875632225 -0.33285934958516256 0 -0.12513985846140643 -0.61246846055945336 1 -0.28202368859816135
decision_type=2 10 2 2 8 1 2 2 1 2
left_child=1 4 3 -2 -1 6 -6 -7 -4 -9
right_child=2 -3 8 -5 5 7 -8 9 -10 -11
leaf_value=0.0035392531485838562 -0.0079461719775438429 0.0092837557296845171 0.0016553674553260189 -0.00030794490073738696 0.00077232250704429293 -0.0029718121442865193 -0.0051602619663939329 0.0045809764219415317 -0.0021875789337662283 0.00041872283823154299
leaf_weight=580 551 520 901 597 611 531 741 601 842 521
leaf_count=580 551 520 901 597 611 531 741 601 842 521
internal_value=1.73771e-06 0.00121023 -0.00171336 -0.00399259 2.78794e-05 -0.00065461 -0.00246804 0.000841384 -0.000205056 0.00265867
internal_weight=6996 4105 2891 1148 3585 3005 1352 1653 1743 1122
internal_count=6996 4105 2891 1148 3585 3005 1352 1653 1743 1122
cat_boundaries=0 1 2
cat_threshold=1586 1609
is_linear=0
shrinkage=0.05


Tree=70
num_leaves=10
num_cat=4
split_feature=20 247 69 25 247 83 247 247 218
split_gain=5.7839 19.4181 14.9486 22.9601 13.8101 6.49902 6.58172 6.57406 1.20703
threshold=-0.10580330218331807 0 -1.0000000180025095e-35 0.91287069940210697 1 -0.0082988429020630795 2 3 -0.3056278023105225
decision_type=2 1 2 2 1 2 1 1 2
left_child=4 -2 -3 5 -1 7 -7 8 -4
right_child=1 2 3 -5 -6 6 -8 -9 -10
leaf_value=0.0029422885266306154 0.0078441849362271884 0.0049424290949371726 0.001838531271958291 -0.011812615593827484 -0.0073898408759803915 0.0054407736250040679 -0.00099352666385607038 -0.0058908366431976132 -0.0015559126249161935
leaf_weight=556 798 999 529 503 742 709 877 774 509
leaf_count=556 798 999 529 503 742 709 877 774 509
internal_value=1.67268e-06 0.00068837 -0.000498789 -0.00189804 -0.00300389 -0.000415204 0.00191885 -0.00245781 0.000172874
internal_weight=6996 5698 4900 3901 1298 3398 1586 1812 1038
internal_count=6996 5698 4900 3901 1298 3398 1586 1812 1038
cat_boundaries=0 1 2 3 4
cat_threshold=6 185 576 1224
is_linear=0
shrinkage=0.05


Tree=71
num_leaves=11
num_cat=1
split_feature=75 135 24 75 79 247 82 81 21 79
split_gain=5.61516 16.4133 6.38395 8.51589 8.70526 5.60302 4.49247 5.41226 4.86114 2.24973
threshold=-0.82585772707034577 -0.038531526045443611 1.3002625492287871 0.73282823850918744 0.20686590715658629 0 0.40319302281501668 -0.40937992682037155 -0.16307928418004897 -0.26677621334508878
decision_type=2 2 2 2 2 1 8 2 2 2
left_child=1 -1 3 5 -5 -2 7 9 -9 -7
right_child=2 -3 -4 4 -6 6 -8 8 -10 -11
leaf_value=-0.0033681507389725857 -0.005873880320129028 0.0076796338709831701 -0.005934265727178146 0.0081700699878767477 -0.00038136254299349446 -0.0042159542165321117 -0.0044765370900031135 0.0060620098168454204 -7.1766369453482243e-05 -0.00020924495619329588
leaf_weight=591 553 768 522 544 649 558 582 582 718 929
leaf_count=591 553 768 522 544 649 558 582 582 718 929
internal_value=1.56303e-06 0.00288045 -0.000694434 -0.000154422 0.00353586 -0.00128001 -0.000499477 0.000335779 0.00268698 -0.00172186
internal_weight=6996 1359 5637 5115 1193 3922 3369 2787 1300 1487
internal_count=6996 1359 5637 5115 1193 3922 3369 2787 1300 1487
cat_boundaries=0 1
cat_threshold=22
is_linear=0
shrinkage=0.05


Tree=72
num_leaves=10
num_cat=1
split_feature=34 129 247 81 129 129 78 82 200
split_gain=5.52827 5.67274 12.8097 14.0663 9.45884 6.50984 3.68019 3.13913 2.43247
threshold=-1.5087051902787307 0.0087291905241933723 0 0.66594031594169723 -0.063482302824501638 0.31149047575258676 -0.47587680567558116 -0.44805380233766673 -0.02507441601445146
decision_type=10 2 1 2 2 2 8 8 2
left_child=1 4 -3 5 6 8 -1 -8 -4
right_child=-2 2 3 -5 -6 -7 7 -9 -10
leaf_value=0.0021605789078320311 0.0044498099903502748 0.0042084181400519 -0.0014939310120618238 -0.010802030372973391 0.0052003769460482914 0.002040577347308802 0.00030081226790916547 -0.0043830261397514213 -0.0058160424557939655
leaf_weight=715 630 670 625 521 959 758 664 769 685
leaf_count=715 630 670 625 521 959 758 664 769 685
internal_value=9.71839e-07 -0.000442446 -0.0018984 -0.00348662 0.00108533 -0.00163883 -0.000759685 -0.00221921 -0.00376749
internal_weight=6996 6366 3259 2589 3107 2068 2148 1433 1310
internal_count=6996 6366 3259 2589 3107 2068 2148 1433 1310
cat_boundaries=0 1
cat_threshold=15
is_linear=0
shrinkage=0.05


Tree=73
num_leaves=9
num_cat=1
split_feature=214 247 200 200 130 130 124 24
split_gain=5.65477 7.39917 5.37706 9.66 6.94237 8.49052 4.84312 1.89524
threshold=1.4776080183134637 0 0.89744022556904057 0.79964413278333735 -0.2912533400947544 0.3286060441074567 -0.65654150795161381 -0.079257073694292537
decision_type=2 1 2 2 8 10 8 2
left_child=1 -1 3 4 -3 6 -6 -4
right_child=-2 2 7 -5 5 -7 -8 -9
leaf_value=-0.0056605580063974507 0.005033599611505059 0.005518747333256642 0.0055621676159030957 -0.0070922702328525605 -0.0057628265906302448 0.0051620483494980857 -0.00064131830535383064 0.0012567132864008985
leaf_weight=591 512 534 512 501 551 553 2729 513
leaf_count=591 512 534 512 501 551 553 2729 513
internal_value=1.07616e-06 -0.000399882 0.000141412 -0.000552259 0.000205291 -0.000541186 -0.00150913 0.0034239
internal_weight=6996 6484 5893 4868 4367 3833 3280 1025
internal_count=6996 6484 5893 4868 4367 3833 3280 1025
cat_boundaries=0 1
cat_threshold=1042
is_linear=0
shrinkage=0.05


Tree=74
num_leaves=10
num_cat=2
split_feature=207 127 247 72 196 130 25 136 247
split_gain=5.26661 6.77761 6.40719 5.10604 5.86098 8.47372 19.1823 5.97265 5.22392
threshold=-0.31250442508521298 0.044170656609134586 0 -0.99612565444873791 1.207787072618816 0.067290933496363572 0.005940247679918847 0.13415998748296584 1
decision_type=2 2 1 10 2 10 2 10 1
left_child=1 2 -1 -2 5 7 -7 8 -5
right_child=3 -3 -4 4 -6 6 -8 -9 -10
leaf_value=0.007545240103360655 -0.0055792503346203497 -0.0013976369022119881 0.00059382966249327371 0.0042206743260700908 -0.00506304950416847 -0.0011071117926984776 0.010985056401246774 -0.0043922237895429195 -0.0020649485010232958
leaf_weight=688 521 875 646 579 568 869 521 997 732
leaf_count=688 521 875 646 579 568 869 521 997 732
internal_value=7.3867e-07 0.00201757 0.00425454 -0.00093108 -0.000357539 0.000371072 0.0034484 -0.00148571 0.000732951
internal_weight=6996 2209 1334 4787 4266 3698 1390 2308 1311
internal_count=6996 2209 1334 4787 4266 3698 1390 2308 1311
cat_boundaries=0 1 2
cat_threshold=646 578
is_linear=0
shrinkage=0.05


Tree=75
num_leaves=8
num_cat=0
split_feature=212 77 208 124 196 196 201
split_gain=5.36055 4.60138 11.2566 6.83986 6.06026 6.10932 3.67959
threshold=1.5509978726164244 1.1877782894578182 0.86199861982057946 0.69404218985308697 1.1964570977095565 0.56136514606887267 0.80589928082259654
decision_type=2 2 2 10 2 2 2
left_child=1 2 3 4 5 6 -1
right_child=-2 -3 -4 -5 -6 -7 -8
leaf_value=-0.0010123043466910822 0.0047635886378355604 -0.0048729687013374968 0.0071233063615000723 -0.0054294626332484991 -0.0042203399352045944 0.0048570051649022197 0.003106082616370227
leaf_weight=2644 540 523 502 657 719 734 677
leaf_count=2644 540 523 502 657 719 734 677
internal_value=1.57052e-06 -0.000400118 -2.06014e-06 -0.000666621 -6.16137e-06 0.00074534 -0.000169346
internal_weight=6996 6456 5933 5431 4774 4055 3321
internal_count=6996 6456 5933 5431 4774 4055 3321
is_linear=0
shrinkage=0.05


Tree=76
num_leaves=12
num_cat=2
split_feature=198 196 72 126 128 84 82 247 25 247 76
split_gain=5.16539 6.67108 5.43199 10.9716 9.63464 4.98344 6.93829 4.75994 8.95273 2.98335 1.20796
threshold=1.1208970764116251 -0.99999999972724574 -0.40308960808669947 -1.0000000180025095e-35 0.12183416541268761 -0.15377011127973081 0.049433485799061351 0 -0.047665419058461715 1 -0.2255477597159771
decision_type=2 2 8 10 10 8 8 1 2 1 10
left_child=1 -1 7 4 5 9 -7 8 -3 -4 -9
right_child=-2 2 3 -5 -6 6 -8 10 -10 -11 -12
leaf_value=-0.0059099082008815642 0.0046808334267980705 -0.00011573885304481378 0.0035512076780948006 -0.0078176139643767236 0.0052247449332371507 -0.00038620175814102346 -0.008286970259833824 -0.0024231323909799699 0.0078369522576174164 -0.0015596545116087985 0.00088267979361093775
leaf_weight=500 539 724 507 527 671 619 500 505 687 618 599
leaf_count=500 539 724 507 527 671 619 500 505 687 618 599
internal_value=1.6461e-06 -0.00039227 7.54201e-05 -0.00121453 -9.42233e-06 -0.00158268 -0.00393764 0.00183974 0.0037439 0.000766787 -0.000627935
internal_weight=6996 6457 5957 3442 2915 2244 1119 2515 1411 1125 1104
internal_count=6996 6457 5957 3442 2915 2244 1119 2515 1411 1125 1104
cat_boundaries=0 1 2
cat_threshold=582 578
is_linear=0
shrinkage=0.05


Tree=77
num_leaves=11
num_cat=3
split_feature=20 247 247 123 25 26 247 26 129 219
split_gain=4.88593 18.1282 17.2194 12.7076 21.1709 5.93009 6.1387 6.01947 2.62993 1.44719
threshold=-0.10580330218331807 0 1 0.059327428150369822 0.91287069940210697 -0.014450938242245392 2 0.13784012851259761 0.02031543479046146 -0.17202169062573683
decision_type=2 1 1 2 2 2 1 2 2 2
left_child=1 -1 -2 4 5 6 9 -7 -9 -4
right_child=2 -3 3 -5 -6 7 -8 8 -10 -11
leaf_value=0.002406509437658467 0.007371241359939675 -0.0094078245668902331 0.0021008034020689177 0.0045347612708023857 -0.01129508954702004 0.0063698782481408887 -0.0056423338079927207 0.002219486485628822 -0.0026635741300741677 -0.0016207660900351283
leaf_weight=738 798 560 515 998 503 502 769 547 546 520
leaf_count=738 798 560 515 998 503 502 769 547 546 520
internal_value=1.55165e-06 -0.00276086 0.000632695 -0.000485159 -0.00177449 -0.000351063 -0.00231182 0.00186691 -0.000220831 0.000230015
internal_weight=6996 1298 5698 4900 3902 3399 1804 1595 1093 1035
internal_count=6996 1298 5698 4900 3902 3399 1804 1595 1093 1035
cat_boundaries=0 1 2 3
cat_threshold=241 6 1224
is_linear=0
shrinkage=0.05


Tree=78
num_leaves=8
num_cat=0
split_feature=214 199 200 199 70 196 196
split_gain=5.15161 4.42462 4.36643 9.48306 6.76068 2.76129 5.50839
threshold=1.4776080183134637 1.1024185804625335 0.91392704146818737 -1.0905210260465299 -0.63487653621081874 0.57177208118366318 -1.0000000180025095e-35
decision_type=2 2 2 2 8 2 2
left_child=1 2 3 -1 -5 6 -6
right_child=-2 -3 -4 4 5 -7 -8
leaf_value=-0.0068233361968749219 0.0048043119013615717 -0.0037862964740322871 0.0040965815716966364 0.0057202183732547535 0.00061217517356599498 0.00217005333661522 -0.0036828084607812631
leaf_weight=506 512 827 610 516 1967 861 1197
leaf_count=506 512 827 610 516 1967 861 1197
internal_value=8.96599e-07 -0.000381808 0.0001188 -0.000365549 0.000360751 -0.000332571 -0.00101594
internal_weight=6996 6484 5657 5047 4541 4025 3164
internal_count=6996 6484 5657 5047 4541 4025 3164
is_linear=0
shrinkage=0.05


Tree=79
num_leaves=10
num_cat=2
split_feature=75 135 25 247 207 25 247 129 79
split_gain=4.88915 14.4965 6.09201 4.03902 4.62117 2.66252 3.35367 1.69321 1.45155
threshold=-0.82585772707034577 -0.038531526045443611 1.0718512211710514 0 -0.55946730758564855 0.042711718795261956 1 -0.00057593300155236765 0.095148044068818063
decision_type=2 2 2 1 2 2 1 2 2
left_child=1 -1 3 8 -5 6 -6 -8 -2
right_child=2 -3 -4 4 5 -7 7 -9 -10
leaf_value=-0.0031849952452037106 -0.00099969794965865154 0.0071975906955413409 -0.0057090458595771675 0.0048575008893550079 -0.0031313820006359135 0.0024130551620192234 0.0023819656886048201 -0.0009548857392506784 -0.0044401362829678123
leaf_weight=591 661 768 533 561 964 829 716 800 573
leaf_count=591 661 768 533 561 964 829 716 800 573
internal_value=9.62853e-07 0.0026873 -0.000648483 -0.000114949 0.000680804 -3.1509e-05 -0.000851875 0.00061967 -0.00258783
internal_weight=6996 1359 5637 5104 3870 3309 2480 1516 1234
internal_count=6996 1359 5637 5104 3870 3309 2480 1516 1234
cat_boundaries=0 1 2
cat_threshold=50 68
is_linear=0
shrinkage=0.05


Tree=80
num_leaves=9
num_cat=0
split_feature=214 199 199 70 136 21 23 23
split_gain=4.92756 4.00356 4.13282 5.82004 3.53785 7.15391 6.25446 5.13108
threshold=1.4776080183134637 1.1024185804625335 -1.1576594154781901 -0.63487653621081874 -0.25623308982366522 0.76684086540489205 0.46175081259378969 -0.26174262218908162
decision_type=2 2 2 8 8 2 2 2
left_child=1 2 -1 -4 7 6 -6 -5
right_child=-2 -3 3 4 5 -7 -8 -9
leaf_value=-0.0036358730018331842 0.0046984353648735992 -0.0036121031008738455 0.0054039924858658708 0.0055115792789392579 -0.001192923344208796 -0.0062062253404692796 0.0050603664734365133 -0.00037654776562181006
