tree
version=v4
num_class=1
num_tree_per_iteration=1
label_index=0
max_feature_idx=247
objective=regression
feature_names=market_cap pe_ratio pb_ratio ps_ratio profit_margins operating_margins gross_margins return_on_equity return_on_assets revenue_growth earnings_growth debt_to_equity current_ratio quick_ratio dividend_yield payout_ratio enterprise_to_ebitda enterprise_to_revenue beta vix treasury_10y returns_1m returns_3m returns_6m returns_1y volatility volume_trend log_market_cap fcf_yield ocf_yield earnings_yield profit_margins_lag1q profit_margins_lag2q operating_margins_lag1q operating_margins_lag2q gross_margins_lag1q gross_margins_lag2q return_on_equity_lag1q return_on_equity_lag2q return_on_assets_lag1q return_on_assets_lag2q revenue_growth_lag1q revenue_growth_lag2q earnings_growth_lag1q earnings_growth_lag2q current_ratio_lag1q current_ratio_lag2q quick_ratio_lag1q quick_ratio_lag2q debt_to_equity_lag1q debt_to_equity_lag2q pe_ratio_lag1q pe_ratio_lag2q pb_ratio_lag1q pb_ratio_lag2q ps_ratio_lag1q ps_ratio_lag2q enterprise_to_ebitda_lag1q enterprise_to_ebitda_lag2q enterprise_to_revenue_lag1q enterprise_to_revenue_lag2q dividend_yield_lag1q dividend_yield_lag2q payout_ratio_lag1q payout_ratio_lag2q market_cap_lag1q market_cap_lag2q beta_lag1q beta_lag2q vix_lag1q vix_lag2q treasury_10y_lag1q treasury_10y_lag2q returns_1m_lag1q returns_1m_lag2q returns_3m_lag1q returns_3m_lag2q returns_6m_lag1q returns_6m_lag2q returns_1y_lag1q returns_1y_lag2q volatility_lag1q volatility_lag2q volume_trend_lag1q volume_trend_lag2q profit_margins_qoq profit_margins_yoy operating_margins_qoq operating_margins_yoy gross_margins_qoq gross_margins_yoy return_on_equity_qoq return_on_equity_yoy return_on_assets_qoq return_on_assets_yoy revenue_growth_qoq revenue_growth_yoy earnings_growth_qoq earnings_growth_yoy current_ratio_qoq current_ratio_yoy quick_ratio_qoq quick_ratio_yoy debt_to_equity_qoq debt_to_equity_yoy pe_ratio_qoq pe_ratio_yoy pb_ratio_qoq pb_ratio_yoy ps_ratio_qoq ps_ratio_yoy enterprise_to_ebitda_qoq enterprise_to_ebitda_yoy enterprise_to_revenue_qoq enterprise_to_revenue_yoy dividend_yield_qoq dividend_yield_yoy payout_ratio_qoq payout_ratio_yoy market_cap_qoq market_cap_yoy beta_qoq beta_yoy vix_qoq vix_yoy treasury_10y_qoq treasury_10y_yoy returns_1m_qoq returns_1m_yoy returns_3m_qoq returns_3m_yoy returns_6m_qoq returns_6m_yoy returns_1y_qoq returns_1y_yoy volatility_qoq volatility_yoy volume_trend_qoq volume_trend_yoy profit_margins_mean4q profit_margins_std4q profit_margins_slope4q operating_margins_mean4q operating_margins_std4q operating_margins_slope4q gross_margins_mean4q gross_margins_std4q gross_margins_slope4q return_on_equity_mean4q return_on_equity_std4q return_on_equity_slope4q return_on_assets_mean4q return_on_assets_std4q return_on_assets_slope4q revenue_growth_mean4q revenue_growth_std4q revenue_growth_slope4q earnings_growth_mean4q earnings_growth_std4q earnings_growth_slope4q current_ratio_mean4q current_ratio_std4q current_ratio_slope4q quick_ratio_mean4q quick_ratio_std4q quick_ratio_slope4q debt_to_equity_mean4q debt_to_equity_std4q debt_to_equity_slope4q pe_ratio_mean4q pe_ratio_std4q pe_ratio_slope4q pb_ratio_mean4q pb_ratio_std4q pb_ratio_slope4q ps_ratio_mean4q ps_ratio_std4q ps_ratio_slope4q enterprise_to_ebitda_mean4q enterprise_to_ebitda_std4q enterprise_to_ebitda_slope4q enterprise_to_revenue_mean4q enterprise_to_revenue_std4q enterprise_to_revenue_slope4q dividend_yield_mean4q dividend_yield_std4q dividend_yield_slope4q payout_ratio_mean4q payout_ratio_std4q payout_ratio_slope4q market_cap_mean4q market_cap_std4q market_cap_slope4q beta_mean4q beta_std4q beta_slope4q vix_mean4q vix_std4q vix_slope4q treasury_10y_mean4q treasury_10y_std4q treasury_10y_slope4q returns_1m_mean4q returns_1m_std4q returns_1m_slope4q returns_3m_mean4q returns_3m_std4q returns_3m_slope4q returns_6m_mean4q returns_6m_std4q returns_6m_slope4q returns_1y_mean4q returns_1y_std4q returns_1y_slope4q volatility_mean4q volatility_std4q volatility_slope4q volume_trend_mean4q volume_trend_std4q volume_trend_slope4q profit_margins_missing operating_margins_missing gross_margins_missing return_on_equity_missing return_on_assets_missing revenue_growth_missing earnings_growth_missing current_ratio_missing quick_ratio_missing debt_to_equity_missing pe_ratio_missing pb_ratio_missing ps_ratio_missing enterprise_to_ebitda_missing enterprise_to_revenue_missing dividend_yield_missing payout_ratio_missing market_cap_missing beta_missing vix_missing treasury_10y_missing returns_1m_missing returns_3m_missing returns_6m_missing returns_1y_missing volatility_missing volume_trend_missing sector
feature_infos=none none none none none none none none none none none none none none none none none none none [-6.614588833337443:8.4025463640795763] [-0.1935654584581803:8.4025462332193257] [-4.0212734255803815:6.2101265131308701] [-3.5762329913288156:5.4494646449414033] [-3.5237502909138199:4.8493703174677387] [-3.0558022350907481:6.6212923278633911] [-1.6363339050722052:5.833390920448843] [-2.2092632165291861:7.7554980407483693] none none none none [-3.778221328838677:4.0520152523729864] [-4.5292333805876455:3.8900585918071187] [-3.3153078221961327:3.8782121177924966] [-3.625319814189385:3.7552447874784964] none none [-2.390058783486158:6.892800862036629] [-2.9523046074435002:7.1369503216534946] none none none none none none [-1.2734449868080693:4.7367256994860059] [-1.4711573865529777:4.8345158929528482] none none none [-1.5281840334549031:3.6507719951276965] none none none [-1.618045052665352:4.8118925467229454] none [-1.2171506072785629:3.4347586913394541] none none none none none none none none none [-1.5784913992771905:5.6486703365208033] none none [-4.6623457539643072:7.5177727414751505] [-2.9077200764186468:7.2721735571421444] [-4.3908526481046497:6.5306861700270353] [-3.8760830613932931:5.4440642532988983] [-3.4716913906722491:4.8718262773249652] [-3.3695255924105019:4.4094325094832545] [-3.3503455035246534:5.767173600110242] [-3.0426257438434132:5.0759288568713501] [-3.7019326773386831:4.7360054533749478] [-3.2237045650702143:4.6951154635759735] [-2.8480732868128342:5.9909312373799315] [-2.7707304523441887:5.7363170045796803] [-2.2988857691518714:6.5123769272592575] [-1.7445802340502801:6.2409067030826089] [-2.621518545198982:5.1853079657542942] [-2.423567734248282:5.1858790119483187] none none none none none none none none none none none none none none none none none none none none none none none none none none none none none none none none none none none none none none [-3.9518538341206324:6.589902910276181] [-3.5939498721669634:6.6888837654517816] [-4.6272007951304772:6.701365717200896] [-3.9220863673726383:5.9901358661448807] [-7.7309145759558193:8.055225896752102] [-9.2532144023259715:8.9066647874351794] [-6.9333385962429439:7.4647454779631168] [-8.0737936762622056:8.591160345667177] [-8.0727276247639601:8.0365776913397315] [-7.9258003102132699:8.1538625307462755] [-7.4381974068942531:8.324758791544097] [-7.7219894140220253:8.4142763003640919] [-4.5363163889458216:5.9300420964125484] [-3.1730501309879018:5.3280172775439896] [-8.5246906902207442:6.9218921573270711] [-8.0119581943382538:6.9043183859264463] [-4.1890870037983747:4.0090947980577836] [-0.96105275531677681:5.2637206298725214] none [-3.5078268394947458:3.941327606757639] [-1.0734027232207404:5.5813899241637586] none none none none [-3.9178219070844111:6.1135394278292079] [-1.4595623199647911:6.4147892993319529] none none none none none none none none none none [-1.2675951743392606:4.6061480507628865] [-0.86602539674531487:5.8980933145969017] none none none none none none none none none none [-1.4562367480588871:3.8600175029891357] [-1.2939295098433297:4.218499156464703] none [-1.5486365957913997:3.2523442531732405] [-1.1334556585821227:3.4689714664185254] none none none none none none none none none none none none none [-1.428490791519416:4.0652688281689384] [-1.5536656190101557:4.0528062926080679] none none none none [-2.2578239721262476:5.1919630478362162] [-1.722696820715486:5.008996499404641] [-4.0959546516165393:5.9721786961031071] [-2.546401903031529:4.7279180487069272] [-1.7226968159330081:4.9758755106505443] [-4.0384630918688682:4.5620338376244893] [-3.5443748491571507:4.8718265263504401] [-1.4996660804089674:5.5931129565789588] [-5.2779273288886328:3.9340533305309888] [-3.6230335391566637:5.1202745799835085] [-1.499778470412177:5.4211681294001854] [-3.9870652650186056:5.133889189657979] [-3.2998319244344776:5.3107911700945181] [-1.4986746649297618:4.9286878247529584] [-4.3116556413135676:4.4118187292667788] [-2.9827192005082863:5.9783673050589474] [-1.4998822690505966:5.3761210231456236] [-4.9023367389411252:4.8529377669793794] [-1.6878341552640583:5.8689895436712618] [-1.4981365772721664:7.0284565475594745] [-6.631421817180958:7.1481477707117502] [-2.3583052719520365:5.6920505935858552] [-1.5318547479226317:6.2074302633600276] [-5.0450830242352103:5.4930214732981852] none none none none none none none none none none none none none none none none none none none none none none none none none none none -1:9:6:5:7:3:2:1:10:0:4:8
tree_sizes=1565 1738 1565 1544 1737 1719 1466 1562 1562 1479 1459 1379 1363 1460 1375 1366 1560 1470 1268 1746 1385 1366 1361 1845 1289 1558 1182 1272 1386 1272 1290 1368 1576 1483 1759 1084 1450 1373 1466 1471 1286 1273 1389 1388 1280 1369 1107 1188 994 1459 1460 1394 1751 1282 1008 1008 1087 1268 1558 1165 1468 1653 1460 1274 1663 1176 1458 1080 1289 1085 1578 986 1083 1183 1297 985 915 987 1273 1481 1074 1090 1370 1271 1268 1649 1271 1566 1386 1090 1663 994 1183 1469 1005 1575 1273 1086 1290 1474 892 1664 1103 1088 1200 1476 1268 1286 1299 1271 1474 1281 1100 1281 1662 1563 893 1281 1367 1204 1287 991 896 1281 1295 1378 1092 1177 1659 894 1590 1110 1377 1173 1181 983 1108 903 894 1488 1371 898 1090 1204 1297 1202 1187 1298 989 1466 991 896 1273 1464 1480

Tree=0
num_leaves=16
num_cat=1
split_feature=82 123 69 123 20 128 247 69 23 123 123 69 79 200 73
split_gain=27.9103 21.2564 24.7842 17.9689 17.8578 11.0036 10.137 8.61045 7.11903 5.17073 10.3465 5.97283 4.2528 2.20728 1.33573
threshold=1.9553914407989732 -0.50243681435924514 0.59670634784652143 -0.19534778810310727 -0.16458508598253754 0.23252540751089287 0 0.37773467244856374 0.1047647078738146 0.45787430845957683 0.56056630474259872 -0.34575543933214387 0.59749849456465853 0.58914650750061426 0.099000132843539992
decision_type=10 8 10 8 10 10 1 10 10 10 10 8 8 10 10
left_child=1 2 5 7 -5 -1 12 8 -3 11 -11 -8 14 -4 -6
right_child=-2 3 13 4 6 -7 9 -9 -10 10 -12 -13 -14 -15 -16
leaf_value=0.17105677272711695 0.18742416177874527 0.18790849952633046 0.17482562376875665 0.16679923219977716 0.17959650876426761 0.16175977508239026 0.16999297347139861 0.17708628875771698 0.1799979679075997 0.18035048268539494 0.17265148140097603 0.175610514661102 0.1834470157612445 0.17919053675590624 0.17641682278574469
leaf_weight=771 544 588 536 500 711 549 786 712 559 1020 755 1182 523 619 613
leaf_count=771 544 588 536 500 711 549 786 712 559 1020 755 1182 523 619 613
internal_value=0.176436 0.175858 0.171816 0.177118 0.175804 0.167149 0.176617 0.181414 0.184085 0.175121 0.177074 0.173356 0.179633 0.177167 0.17813
internal_weight=10968 10424 2475 7949 6090 1320 5590 1859 1147 3743 1775 1968 1847 1155 1324
internal_count=10968 10424 2475 7949 6090 1320 5590 1859 1147 3743 1775 1968 1847 1155 1324
cat_boundaries=0 1
cat_threshold=518
is_linear=0
shrinkage=1


Tree=1
num_leaves=17
num_cat=0
split_feature=19 214 123 69 137 129 137 128 81 137 127 131 131 131 135 77
split_gain=30.1944 34.1373 16.1668 18.7671 10.1274 9.30893 8.56364 7.13013 5.08195 3.99486 3.51485 3.69595 2.79092 2.46219 1.86885 0.847762
threshold=-0.15047786366828533 0.8819245833970909 -0.50243681435924514 0.59670634784652143 0.22298029811086095 -0.17094106355629379 -0.19902755710810452 0.15846312348470501 -0.17798667724968384 0.019390444537324383 -0.14073286061110976 -0.31456858549991734 -0.19130029744264801 -0.23593156169266741 -0.073047118529411606 -0.027057697784206639
decision_type=8 10 8 10 10 8 10 10 10 10 10 10 8 10 10 10
left_child=-1 2 3 7 6 10 -3 -2 12 -10 11 -4 -7 -13 -14 -12
right_child=1 4 5 -5 -6 8 -8 -9 9 -11 15 13 14 -15 -16 -17
leaf_value=-0.010954015450994014 -0.0051777486472209117 0.0090526721037008425 0.00047107860651705857 0.001013786768884351 0.012527840196796104 0.0037188923469531326 0.00022021037771349376 -0.01312622761666574 0.0017464307506694849 0.0070790600040283539 -0.00074262669060085886 -0.0061960256162380172 0.0014152140698176535 -0.0016981751801593882 -0.0018804594377077417 0.0020017069172557395
leaf_weight=590 657 507 569 873 573 591 592 505 667 747 541 750 845 518 866 577
leaf_count=590 657 507 569 873 573 591 592 505 667 747 541 750 845 518 866 577
internal_value=2.59615e-08 0.00062775 -0.000630192 -0.00452546 0.00716012 0.000560566 0.00431742 -0.00867356 0.00222482 0.00457861 -0.00153251 -0.002875 0.00077222 -0.00437246 -0.000253466 0.000676331
internal_weight=10968 10378 8706 2035 1672 6671 1099 1162 3716 1414 2955 1837 2302 1268 1711 1118
internal_count=10968 10378 8706 2035 1672 6671 1099 1162 3716 1414 2955 1837 2302 1268 1711 1118
is_linear=0
shrinkage=0.05


Tree=2
num_leaves=15
num_cat=1
split_feature=19 25 247 127 127 81 137 81 137 127 73 127 137 137
split_gain=27.2745 32.0479 15.5996 9.00696 12.721 6.82608 5.76415 6.86688 5.28882 4.85157 3.44407 3.41276 3.45144 2.07359
threshold=-0.15047786366828533 1.9262980662065596 0 0.13260534601637411 0.35336681007675963 0.14098730036852872 0.23085352924906044 -0.043317324092493364 0.063205136611342347 0.13260534601637411 0.25174517622731529 -0.14075350222813013 0.049423782604345358 0.26385233407805397
decision_type=8 8 1 10 10 10 10 10 10 8 10 10 10 8
left_child=-1 2 6 5 -5 11 8 -8 9 -2 -7 13 -13 -4
right_child=1 -3 3 4 -6 10 7 -9 -10 -11 -12 12 -14 -15
leaf_value=-0.010410917284350625 0.0049251837904668904 0.012176272948973079 -0.0036987528386668066 -0.0088267772973207159 -0.00034378450526314423 0.0054701145247466384 0.0014105738444592075 0.0091251989667643866 -0.0029469046527849495 -0.00087622268762216609 6.1208963332240883e-05 0.0032475311931327022 -0.001622421074319264 -0.00030035103398924032
leaf_weight=590 941 560 1511 866 898 627 536 625 560 580 551 622 862 639
leaf_count=590 941 560 1511 866 898 627 536 625 560 580 551 622 862 639
internal_value=1.26166e-08 0.000596613 -6.97302e-05 -0.00146846 -0.00452152 -0.000348771 0.00276132 0.0055849 0.00118966 0.00271732 0.00295109 -0.00142104 0.000422809 -0.00269176
internal_weight=10968 10378 9818 6576 1764 4812 3242 1161 2081 1521 1178 3634 1484 2150
internal_count=10968 10378 9818 6576 1764 4812 3242 1161 2081 1521 1178 3634 1484 2150
cat_boundaries=0 1
cat_threshold=518
is_linear=0
shrinkage=0.05


Tree=3
num_leaves=15
num_cat=0
split_feature=81 123 123 123 20 81 136 125 127 133 214 123 73 197
split_gain=23.5215 14.9369 18.4307 15.911 14.9434 12.4454 7.96883 5.66996 9.5521 5.99606 4.4162 3.72854 3.26158 1.69927
threshold=2.0803507960723366 -0.50243681435924514 -0.61506067551884425 -0.19534778810310727 -0.16458508598253754 0.13125994779386979 -0.204516864218309 -0.29932916592862896 -0.23711638020560241 -0.23496050923723028 0.32356266247354831 -0.29291695476136143 0.34783487300683019 0.60204228561179096
decision_type=10 8 10 8 8 10 10 10 8 10 10 10 8 10
left_child=1 2 13 5 -5 11 -4 8 -6 -9 -11 -3 -10 -1
right_child=-2 3 6 4 7 -7 -8 9 12 10 -12 -13 -14 -15
leaf_value=-0.001306774241444581 0.010518134650783486 -0.0016713494661178255 -0.0044752523961241325 -0.0088142045667039016 -0.0036337874599007263 0.0095106027419588884 -0.012371353224264676 -0.0050302427014650083 0.0048998792122239591 -0.0012533253729905556 0.0040576342792679083 0.0041008081297824002 0.00053675821273629909 0.002491664746882628
leaf_weight=563 502 559 737 513 614 755 572 823 1324 1712 502 551 634 607
leaf_count=563 502 559 737 513 614 755 572 823 1324 1712 502 551 634 607
internal_value=1.80358e-07 -0.000509093 -0.00389543 0.000543736 -0.000688742 0.00458046 -0.0079596 6.1602e-05 0.0017872 -0.00140032 -4.26945e-05 0.00119947 0.00349207 0.000666086
internal_weight=10968 10466 2479 7987 6122 1865 1309 5609 2572 3037 2214 1110 1958 1170
internal_count=10968 10466 2479 7987 6122 1865 1309 5609 2572 3037 2214 1110 1958 1170
is_linear=0
shrinkage=0.05


Tree=4
num_leaves=17
num_cat=2
split_feature=19 214 69 69 127 129 71 128 247 247 131 81 137 24 211 127
split_gain=23.0345 26.5253 11.7935 14.62 8.73618 7.61681 6.85858 5.19963 4.97957 3.17235 3.07435 2.95585 2.15305 2.06382 1.48983 1.25992
threshold=-0.15047786366828533 0.8819245833970909 0.52954170681619039 0.59670634784652143 -0.054623290615536245 -0.17094106355629379 -0.2447964462930306 0.15437094516813937 0 1 -0.0048409480895005852 -0.16091820681269367 0.25863218445599984 0.021356555351252405 0.14040497607284438 -0.2050217108134611
decision_type=8 10 10 10 10 8 10 10 1 1 8 8 10 8 10 10
left_child=-1 2 5 7 6 9 -3 -4 11 12 -10 -7 15 -12 -11 -2
right_child=1 4 3 -5 -6 8 -8 -9 10 14 13 -13 -14 -15 -16 -17
leaf_value=-0.0095674322640800658 -0.0054372488433000396 0.013094762164186442 -0.0045120422336431282 0.00090239191486034547 0.0016102962541423502 0.0020272889304809943 0.0049433270128183297 -0.011393246965278991 0.0023064399478011201 -0.0010239765161605527 0.00048021055508813747 0.0062040927847078677 -0.00034879883693152895 -0.0039047195912246149 0.0027323031330038564 -0.0022412491711357348
leaf_weight=590 635 527 608 879 625 939 520 513 956 549 568 778 661 502 500 618
leaf_count=590 635 527 608 879 625 939 520 513 956 549 568 778 661 502 500 618
internal_value=1.15721e-07 0.000548386 -0.00056047 -0.00392512 0.00630659 0.000445182 0.00908903 -0.00769768 0.00194331 -0.00144741 0.000250836 0.00390968 -0.00264823 -0.00158561 0.000763656 -0.0038761
internal_weight=10968 10378 8706 2000 1672 6706 1047 1121 3743 2963 2026 1717 1914 1070 1049 1253
internal_count=10968 10378 8706 2000 1672 6706 1047 1121 3743 2963 2026 1717 1914 1070 1049 1253
cat_boundaries=0 1 2
cat_threshold=646 504
is_linear=0
shrinkage=0.05


Tree=5
num_leaves=17
num_cat=3
split_feature=25 123 123 123 81 123 123 69 138 71 71 247 247 69 73 247
split_gain=20.9575 13.1659 18.0368 13.2359 10.181 8.8312 12.7803 7.82612 7.13476 5.98486 4.74714 4.22669 3.80987 3.40442 2.3498 1.72729
threshold=1.9262980662065596 -0.50243681435924514 -0.61506067551884425 -0.19534778810310727 0.13125994779386979 0.45787430845957683 1.7264307814268021 -0.33443296735172418 0.12962906349677225 -0.49999999562236686 0.2475800877984545 0 1 0.21073217087528298 -0.31941789672835613 2
decision_type=8 8 10 8 10 10 10 8 10 10 10 1 1 10 10 1
left_child=1 2 15 4 13 7 9 11 -4 -7 14 -5 -11 -3 -9 -1
right_child=-2 3 8 5 -6 6 -8 10 -10 12 -12 -13 -14 -15 -16 -17
leaf_value=0.0026418439561025414 0.0091422821240893029 0.0038074504433661758 -0.0046170209212363037 -0.0080076351324447521 0.0086404142605868602 -0.00168971402057629 -0.0053699602511863183 -0.0047595138594184131 -0.012192709167840661 0.0062785906726853559 0.0030245443211234496 -0.0022333627821410486 0.0013857901049342273 -0.001708904638013761 -0.00035084583634758523 -0.0011167282456788384
leaf_weight=586 588 566 763 701 750 508 555 517 532 1075 662 626 664 544 720 611
leaf_count=586 588 566 763 701 750 508 555 517 532 1075 662 626 664 544 720 611
internal_value=1.59161e-08 -0.000522022 -0.0036863 0.000479346 0.00416052 -0.000659025 0.00139317 -0.00244089 -0.00776412 0.00307184 -0.000378917 -0.00537917 0.00446366 0.0011084 -0.00220518 0.000739331
internal_weight=10968 10380 2492 7888 1860 6028 2802 3226 1295 2247 1899 1327 1739 1110 1237 1197
internal_count=10968 10380 2492 7888 1860 6028 2802 3226 1295 2247 1899 1327 1739 1110 1237 1197
cat_boundaries=0 1 2 3
cat_threshold=672 676 596
is_linear=0
shrinkage=0.05


Tree=6
num_leaves=14
num_cat=2
split_feature=19 25 123 69 81 128 247 123 125 129 131 247 127
split_gain=20.2777 23.4475 14.0416 19.1249 12.1809 9.01106 6.76089 4.03356 4.37078 3.02998 3.01079 1.34723 1.33525
threshold=-0.15047786366828533 1.9262980662065596 -0.5294991483423388 0.59670634784652143 0.72056570381081597 0.20262270282703218 0 -0.22890114580427892 -0.31203629309096059 -0.16752495731077208 -0.0048409480895005852 1 -0.14075350222813013
decision_type=8 8 8 10 10 10 1 8 8 10 10 1 8
left_child=-1 2 3 5 6 -2 9 -8 -9 12 -11 -5 -4
right_child=1 -3 4 11 -6 -7 7 8 -10 10 -12 -13 -14
leaf_value=-0.0089769851116310931 -0.0037639643826275779 0.010418993760859986 -0.0038548075253967301 0.0034041596244693017 0.0067129168839178775 -0.012149743675195368 0.0053774691540744504 0.0034058317717212058 -0.00086702218370918497 0.0023157202961656006 -0.0017692738075619791 -0.00014982796071530009 -0.0010261441202682488
leaf_weight=590 742 560 1017 507 827 568 683 1073 1342 880 915 551 713
leaf_count=590 742 560 1017 507 827 568 683 1073 1342 880 915 551 713
internal_value=-1.95143e-07 0.000514222 -5.57433e-05 -0.00340553 0.00101056 -0.00743231 0.000293996 0.00199271 0.00103455 -0.00120189 0.000234267 0.00159188 -0.00269532
internal_weight=10968 10378 9818 2368 7450 1310 6623 3098 2415 3525 1795 1058 1730
internal_count=10968 10378 9818 2368 7450 1310 6623 3098 2415 3525 1795 1058 1730
cat_boundaries=0 1 2
cat_threshold=1400 580
is_linear=0
shrinkage=0.05


Tree=7
num_leaves=15
num_cat=1
split_feature=19 82 123 69 81 128 247 129 129 81 131 73 128 127
split_gain=18.3174 19.9523 13.7325 15.5012 11.8043 7.46328 6.17143 3.9288 2.68613 2.66607 2.66374 1.73446 1.37962 1.2209
threshold=-0.15047786366828533 1.9553914407989732 -0.5294991483423388 0.59670634784652143 0.72056570381081597 0.20262270282703218 0 -0.17094138895562092 -0.16752495731077208 -0.16091820681269367 -0.0048409480895005852 0.33858330310221202 -0.087281372449447697 -0.1396102418380514
decision_type=8 10 8 10 10 10 1 8 10 8 10 10 10 10
left_child=-1 2 3 5 6 -2 8 11 13 -9 -10 -8 -5 -4
right_child=1 -3 4 12 -6 -7 7 9 10 -11 -12 -13 -14 -15
leaf_value=-0.0085319077566230854 -0.00365251373771216 0.01004423176908331 -0.0035892496314054176 0.0029591416363638767 0.006415909920380207 -0.011308716726612994 0.0014220338178609934 0.0017740034567625806 0.0021841548739082936 0.0057232070134762732 -0.0016603274620755654 -0.002194998347766831 -0.00066345012545002428 -0.0008609178324944281
leaf_weight=590 746 514 1058 534 891 560 785 992 879 755 914 566 510 674
leaf_count=590 746 514 1058 534 891 560 785 992 879 755 914 566 510 674
internal_value=-5.81371e-08 0.000488861 -1.38929e-05 -0.00334572 0.00102967 -0.00696603 0.000300754 0.00192367 -0.00112853 0.00349219 0.000225224 -9.5824e-05 0.00119476 -0.00253307
internal_weight=10968 10378 9864 2350 7514 1306 6623 3098 3525 1747 1793 1351 1044 1732
internal_count=10968 10378 9864 2350 7514 1306 6623 3098 3525 1747 1793 1351 1044 1732
cat_boundaries=0 1
cat_threshold=1400
is_linear=0
shrinkage=0.05


Tree=8
num_leaves=15
num_cat=2
split_feature=19 25 123 69 81 132 247 129 129 127 131 73 211 247
split_gain=16.5459 19.5027 11.4701 15.6694 10.1398 7.45356 6.68238 3.83689 2.62908 2.59938 2.58334 1.84232 1.31301 1.21233
threshold=-0.15047786366828533 1.9262980662065596 -0.5294991483423388 0.59670634784652143 0.97739583086194426 0.092609091445453498 0 -0.17094106355629379 -0.17093957395884257 -0.087620268851075683 -0.0048409480895005852 0.51558699575871014 0.15007854957201286 1
decision_type=8 8 8 10 10 10 1 10 10 10 10 10 8 1
left_child=-1 2 3 5 6 -2 8 11 12 -10 -9 -8 -4 -5
right_child=1 -3 4 13 -6 -7 7 10 9 -11 -12 -13 -14 -15
leaf_value=-0.0081088971866988338 -0.0037268098847156013 0.0094978125915817294 -0.0010051631856570294 0.0031600150093578417 0.0074616505420605876 -0.011504055965094745 -0.0013723108655486211 0.0022691784018192196 0.0067501597126293188 0.0020441016787466331 -0.00090108871040034248 -0.0047410087088752377 0.002587930185865442 -0.00020862310472176518
leaf_weight=590 810 560 506 507 542 500 1610 1239 554 631 1325 541 502 551
leaf_count=590 810 560 506 507 542 500 1610 1239 554 631 1325 541 502 551
internal_value=-9.94002e-08 0.000464577 -5.52337e-05 -0.00308279 0.000908503 -0.00672768 0.00038932 -0.000672402 0.00265934 0.00426335 0.000632312 -0.00222861 0.000788196 0.00144068
internal_weight=10968 10378 9818 2368 7450 1310 6908 4715 2193 1185 2564 2151 1008 1058
internal_count=10968 10378 9818 2368 7450 1310 6908 4715 2193 1185 2564 2151 1008 1058
cat_boundaries=0 1 2
cat_threshold=518 580
is_linear=0
shrinkage=0.05


Tree=9
num_leaves=14
num_cat=1
split_feature=19 82 123 69 81 136 247 123 71 129 131 128 127
split_gain=14.9466 16.6249 11.2508 12.5856 9.70538 6.67065 5.15696 3.23017 3.66809 2.18628 2.20208 1.24443 1.09261
threshold=-0.15047786366828533 1.9553914407989732 -0.5294991483423388 0.59670634784652143 0.72056570381081597 -0.204516864218309 0 -0.22890114580427892 0.2475800877984545 -0.16752495731077208 -0.0070216016610355854 -0.087281372449447697 -0.1396102418380514
decision_type=8 10 8 10 10 10 1 10 10 10 10 10 10
left_child=-1 2 3 5 6 -2 9 -8 -9 12 -11 -5 -4
right_child=1 -3 4 11 -6 -7 7 8 -10 10 -12 -13 -14
leaf_value=-0.007706859444821754 -0.003038148328079842 0.0091640278714621957 -0.0033062621047761928 0.0027342024751780027 0.0058113595405217214 -0.010237184609404829 0.0046753609543679067 -0.00092631106024202358 0.0030114671300522878 0.0019843237154190448 -0.0015122487495580728 -0.00070585789837864866 -0.00072622920103770287
leaf_weight=590 720 514 1058 534 891 586 721 1299 1078 868 925 510 674
leaf_count=590 720 514 1058 534 891 586 721 1299 1078 868 925 510 674
internal_value=9.02463e-08 0.000441739 -1.7181e-05 -0.00303296 0.000927391 -0.00629507 0.000266457 0.00175002 0.000862095 -0.00104004 0.00018127 0.00105836 -0.00230723
internal_weight=10968 10378 9864 2350 7514 1306 6623 3098 2377 3525 1793 1044 1732
internal_count=10968 10378 9864 2350 7514 1306 6623 3098 2377 3525 1793 1044 1732
cat_boundaries=0 1
cat_threshold=1400
is_linear=0
shrinkage=0.05


Tree=10
num_leaves=14
num_cat=0
split_feature=19 214 137 137 125 71 69 135 123 123 197 69 136
split_gain=13.5012 15.4373 9.0746 7.24107 6.66486 7.23408 5.12538 8.68286 6.67033 5.57566 7.30882 3.94859 1.19449
threshold=-0.15047786366828533 0.74376242120118141 0.22298029811086095 -0.24302851027940039 0.56827642640291665 -1.4999999209005777 0.37773467244856374 -0.1428236120500814 -0.22890114580427892 0.49999998140395635 0.45181776500825382 -0.34575543933214387 -0.51386109851570094
decision_type=8 10 10 10 10 10 10 10 8 8 8 10 10
left_child=-1 4 3 -3 6 -6 8 12 -2 11 -11 -10 -8
right_child=1 2 -4 -5 5 -7 7 -9 9 10 -12 -13 -14
leaf_value=-0.0073247546286062566 0.0052889387229578984 0.0064165973402246753 0.0091946436048777076 -0.0012437582834556107 0.00019678727034492247 -0.0077431084636328841 -0.0010523090768561122 -0.0059284860224596558 -0.0031238664876697617 0.0051320599217635002 -0.0016985687456383314 0.00055032896520844094 0.0021634660139818415
leaf_weight=590 731 525 659 735 538 609 520 846 1352 1006 636 1583 638
leaf_count=590 731 525 659 735 538 609 520 846 1352 1006 636 1583 638
internal_value=6.79819e-08 0.000419818 0.0044624 0.0019608 -0.000499372 -0.00403421 5.75002e-05 -0.00209383 0.000870925 0.000160315 0.00248921 -0.00114461 0.000721106
internal_weight=10968 10378 1919 1260 8459 1147 7312 2004 5308 4577 1642 2935 1158
internal_count=10968 10378 1919 1260 8459 1147 7312 2004 5308 4577 1642 2935 1158
is_linear=0
shrinkage=0.05


Tree=11
num_leaves=13
num_cat=1
split_feature=19 25 247 71 71 129 125 212 123 129 123 82
split_gain=12.1957 15.6094 9.13369 6.4046 7.29989 6.2764 4.83042 3.58652 2.52524 2.45696 2.23786 1.83432
threshold=-0.15047786366828533 1.9262980662065596 0 -0.5776162498338987 -0.32798462062692074 -0.019534121696926279 1.0000000180025095e-35 0.81602566854187109 -0.49999992770258611 -0.22566056537987131 0.44578861785081653 -0.31787747606171818
decision_type=8 8 1 8 8 10 8 10 10 10 8 10
left_child=-1 2 7 -4 5 -5 10 8 -2 -10 -6 -11
right_child=1 -3 3 4 6 -7 -8 -9 9 11 -12 -13
leaf_value=-0.0069615945202433473 -0.0011212791176832364 0.0084804698575387995 -0.0053163533570586207 -0.00083089621714235143 -0.001960045381420761 0.0048375713053342168 -0.0061551128361038631 0.0056831887949662018 -0.00019961943166268712 0.0012113616679997668 0.00086652858885306059 0.0051108680044004966
leaf_weight=590 751 560 800 999 2276 948 546 572 653 503 1007 763
leaf_count=590 751 560 800 999 2276 948 546 572 653 503 1007 763
internal_value=8.34652e-08 0.000399024 -6.60084e-05 -0.00113626 -0.000555167 0.00193442 -0.00182196 0.0021003 0.0013314 0.00229167 -0.00109305 0.0035724
internal_weight=10968 10378 9818 6576 5776 1947 3829 3242 2670 1919 3283 1266
internal_count=10968 10378 9818 6576 5776 1947 3829 3242 2670 1919 3283 1266
cat_boundaries=0 1
cat_threshold=518
is_linear=0
shrinkage=0.05


Tree=12
num_leaves=13
num_cat=0
split_feature=19 25 22 125 125 71 20 69 71 127 81 209
split_gain=11.0166 14.147 6.59245 5.49422 6.76636 5.51359 4.58087 3.25365 6.20263 5.2295 2.91554 2.7688
threshold=-0.15047786366828533 0.81428340182835413 -0.70813807700371545 0.56827642640291665 1.3654236666393871 -0.42585274273067425 -0.14579116734514722 0.21073217087528298 0.57761624949305712 -0.22740715707332976 -0.062161139709773452 -0.037857122726688876
decision_type=8 8 10 10 10 8 10 10 10 8 10 10
left_child=-1 3 -3 5 -5 10 -7 9 -9 -8 -2 -4
right_child=1 2 11 4 -6 6 7 8 -10 -11 -12 -13
leaf_value=-0.0066164398033214935 0.00086633404269084626 0.0087383641222641938 -0.00048378960120952827 -0.0074976773360825102 -7.75768587788518e-05 0.0035189455232341703 -0.0032721504641839492 -0.0059839274247509731 0.00085614835225887326 0.0007635272357714956 0.0053866726026033452 0.0044873461967060704
leaf_weight=590 826 597 510 570 660 601 1103 801 561 2909 626 614
leaf_count=590 826 597 510 570 660 601 1103 801 561 2909 626 614
internal_value=1.62325e-07 0.000379328 0.00451275 -0.000444522 -0.00353259 6.89323e-05 -0.000603112 -0.00106694 -0.00317371 -0.000348674 0.00282698 0.00223961
internal_weight=10968 10378 1721 8657 1230 7427 5975 5374 1362 4012 1452 1124
internal_count=10968 10378 1721 8657 1230 7427 5975 5374 1362 4012 1452 1124
is_linear=0
shrinkage=0.05


Tree=13
num_leaves=14
num_cat=0
split_feature=25 71 125 71 129 133 129 23 129 123 127 133 135
split_gain=10.1329 7.65674 11.888 9.50166 10.5144 6.84836 6.65798 6.62283 6.21593 8.14128 5.27108 3.47146 1.57149
threshold=1.9262980662065596 -0.5776162498338987 1.3654236666393871 -0.32798462062692074 -0.019534121696926279 -0.24948664796947348 -0.22175848606523613 -0.21868794006124551 0.17735650826885435 -0.49999999845287513 -0.14717529867597737 -0.27252192517054236 -0.35280457065511733
decision_type=8 8 10 8 10 8 10 10 8 10 10 10 10
left_child=1 2 -1 4 6 11 -3 -6 9 -7 -11 -5 -10
right_child=-2 3 -4 5 7 8 -8 -9 12 10 -12 -13 -14
leaf_value=-0.0092793588523636585 0.0063571394700125102 0.002355227507032254 0.00033119527827704936 3.4162426450397323e-05 0.0095934556643761746 -0.0079374926253510773 -0.0043282343424928919 0.0026902652665756802 -0.0004839836820276498 -0.0040129574308787833 0.00024615384802723262 0.0049258844537326402 0.0034086318456171302
leaf_weight=575 588 891 722 939 587 656 633 855 513 1383 1523 586 517
leaf_count=575 588 891 722 939 587 656 633 855 513 1383 1523 586 517
internal_value=1.69837e-07 -0.000362823 -0.00394873 0.000151115 0.00247116 -0.000974926 -0.000425853 0.00552381 -0.00193864 -0.00292698 -0.00178422 0.00192382 0.00147691
internal_weight=10968 10380 1297 9083 2966 6117 1524 1442 4592 3562 2906 1525 1030
internal_count=10968 10380 1297 9083 2966 6117 1524 1442 4592 3562 2906 1525 1030
is_linear=0
shrinkage=0.05


Tree=14
num_leaves=13
num_cat=1
split_feature=81 19 247 20 71 71 25 128 25 126 138 209
split_gain=9.65654 6.94659 8.33193 5.17358 5.11498 5.36122 3.72311 3.19264 3.91656 3.03848 2.97883 2.06481
threshold=2.0803507960723366 -0.15047786366828533 0 -0.14579116734514722 -0.5776162498338987 -0.42585274273067425 -0.19223109096756072 -0.25382312843133809 0.019424840395022139 0.66748940326928874 -0.32223513980416268 -0.027429609460529535
decision_type=10 8 1 8 8 8 10 10 8 10 8 10
left_child=1 -1 7 -4 -5 6 -6 8 -3 11 -7 -9
right_child=-2 2 3 4 5 10 -8 9 -10 -11 -12 -13
leaf_value=-0.0056589128154939678 0.0067394646712398811 0.0015173181355643075 0.0035937540713348428 -0.0053650263360654716 -0.00038769707902748361 -0.0047525423982177975 0.0053078636903163634 0.00045191355241479833 0.0074472671466507198 -0.0014981913895156659 -0.0011603888720577958 0.0043487250765545677
leaf_weight=572 502 622 547 733 663 689 500 697 504 813 3465 661
leaf_count=572 502 622 547 733 663 689 500 697 504 813 3465 661
internal_value=2.50207e-07 -0.000326059 -1.5049e-05 -0.00104038 -0.0014637 -0.000921331 0.00207319 0.002032 0.00419277 0.000913591 -0.0017612 0.00235766
internal_weight=10968 10466 9894 6597 6050 5317 1163 3297 1126 2171 4154 1358
internal_count=10968 10466 9894 6597 6050 5317 1163 3297 1126 2171 4154 1358
cat_boundaries=0 1
cat_threshold=518
is_linear=0
shrinkage=0.05


Tree=15
num_leaves=13
num_cat=0
split_feature=71 71 81 125 19 123 197 129 138 127 200 79
split_gain=8.75405 13.8665 12.5159 10.0349 8.78201 7.02977 9.61483 8.59645 6.38776 4.12651 2.78595 2.6353
threshold=-0.56978938416383318 -0.42585274273067425 0.45405518090123381 0.93433686478487887 1.0000000180025095e-35 0.49999998140395635 0.37030589333383257 0.14714821564419464 -0.12634743806475626 -0.14719181662066091 -0.035028981645002462 0.037944646864937176
decision_type=8 8 10 10 8 10 10 10 8 8 10 10
left_child=3 2 11 -1 5 7 -7 8 10 -10 -3 -2
right_child=1 4 -4 -5 -6 6 -8 -9 9 -11 -12 -13
leaf_value=-0.0085593171861107105 0.0039180271578161188 -0.0083289192142830797 0.011159163472724946 -0.00035648247922543893 0.0046492397703418861 0.0066264741936615653 -0.0025412320730754034 0.0027183142656021452 -0.0033647897953054725 -5.0632372348972563e-06 -0.0032283573277704343 -0.00084603529410231084
leaf_weight=591 651 549 513 997 793 655 501 954 1621 2087 538 518
leaf_count=591 651 549 513 997 793 655 501 954 1621 2087 538 518
internal_value=4.78815e-07 0.000582185 0.00468773 -0.00342658 -0.00031733 -0.000890664 0.00265944 -0.0016062 -0.00246853 -0.00147636 -0.00583079 0.00181239
internal_weight=10968 9380 1682 1588 7698 6905 1156 5749 4795 3708 1087 1169
internal_count=10968 9380 1682 1588 7698 6905 1156 5749 4795 3708 1087 1169
is_linear=0
shrinkage=0.05


Tree=16
num_leaves=15
num_cat=2
split_feature=81 125 125 125 129 125 127 23 129 214 129 247 247 131
split_gain=8.64427 5.59066 10.6896 6.77954 11.2243 6.92115 6.4499 5.34462 4.9014 5.11056 4.8424 4.45575 3.38323 1.92396
threshold=2.0803507960723366 0.5776162431336116 1.3654236666393871 0.025890505243595111 -0.019534121696926279 -0.17552924383443777 -0.16300872914181533 -0.21868794006124551 -0.22175848606523613 1.0000000180025095e-35 -0.14202188774261867 0 1 0.033923417293563733
decision_type=10 10 10 8 10 10 10 10 10 10 10 1 1 10
left_child=1 3 -3 5 8 6 10 -6 9 -5 12 -8 -1 -13
right_child=-2 2 -4 4 7 -7 11 -9 -10 -11 -12 13 -14 -15
leaf_value=-0.0069682754575820169 0.0063767091063433564 -0.008771267956530427 0.00046445485153893224 -0.0011875727720637641 0.0086050235462284946 -0.0054732902981196457 0.0041296123857611075 0.002570281785299445 -0.0041590588219207894 0.0051034769382486862 0.0016013074991526534 0.0010909818360387439 -0.0019007268944870774 -0.0020154033769531022
leaf_weight=574 502 533 749 891 626 732 879 892 650 500 512 1312 819 797
leaf_count=574 502 533 749 891 626 732 879 892 650 500 512 1312 819 797
internal_value=4.96824e-07 -0.000308236 -0.00339452 0.000124192 0.00183062 -0.000956149 -0.00027548 0.005079 -0.000591883 0.00108395 -0.00254536 0.00117352 -0.00406976 -8.45247e-05
internal_weight=10968 10466 1282 9184 3559 5625 4893 1518 2041 1391 1905 2988 1393 2109
internal_count=10968 10466 1282 9184 3559 5625 4893 1518 2041 1391 1905 2988 1393 2109
cat_boundaries=0 1 2
cat_threshold=516 544
is_linear=0
shrinkage=0.05


Tree=17
num_leaves=14
num_cat=1
split_feature=82 69 69 128 69 19 25 247 131 69 125 200 69
split_gain=7.92061 5.65645 9.46739 5.05404 4.52107 6.29709 5.81019 4.27676 4.10144 2.77195 1.44628 1.43548 1.28981
threshold=1.9553914407989732 0.52954170681619039 0.59670634784652143 0.1893073330448822 -1.7264307946388218 -1.0000000180025095e-35 0.013780789145822363 0 -0.16173882096388464 -0.46461076252731048 0.49999999838908371 0.58914650750061426 -0.47413074976782726
decision_type=10 10 10 10 8 8 8 1 10 8 10 10 8
left_child=1 4 3 -3 -1 8 10 -8 -6 -9 12 -4 -7
right_child=-2 2 11 -5 5 6 7 9 -10 -11 -12 -13 -14
leaf_value=-0.0040544775534956251 0.0058538412970593817 -0.0026116472517723243 -0.0010661906636389518 -0.0090152382704244693 -0.0045236435868000122 0.0022936301063796786 0.0071550383069944271 0.004615278872361502 0.00061902478931727563 0.00046599599350912406 -0.0019414763921998383 0.002439506647075798 -8.8663600366028035e-06
leaf_weight=542 544 711 538 547 842 841 557 660 713 1023 658 628 2164
leaf_count=542 544 711 538 547 842 841 557 660 713 1023 658 628 2164
internal_value=2.4386e-07 -0.000307899 -0.0024212 -0.00542071 0.000333542 0.000654938 0.00140062 0.00340351 -0.0021712 0.00208964 0.000172841 0.000824309 0.000638266
internal_weight=10968 10424 2424 1258 8000 7458 5903 2240 1555 1683 3663 1166 3005
internal_count=10968 10424 2424 1258 8000 7458 5903 2240 1555 1683 3663 1166 3005
cat_boundaries=0 1
cat_threshold=134
is_linear=0
shrinkage=0.05


Tree=18
num_leaves=12
num_cat=0
split_feature=81 19 71 71 125 214 129 123 127 129 129
split_gain=7.20914 5.18706 5.5922 9.38062 8.26646 5.38015 4.91098 6.84844 4.31791 2.25341 2.09505
threshold=2.0803507960723366 1.0000000180025095e-35 -0.5776162498338987 -1.4999999209005777 0.42773698076999783 0.38642519672614373 0.28195426474524354 -0.49999999845287513 -0.14719181662066091 -0.15026865057345853 0.49989016709485751
decision_type=10 8 8 10 10 10 10 8 8 10 10
left_child=1 2 3 -1 6 9 7 -4 -9 -6 -8
right_child=-2 -3 4 -5 5 -7 10 8 -10 -11 -12
leaf_value=0.00033199877103635609 0.0058234741114352277 0.0034367825089418138 -0.0058455344536222295 -0.0085631795114200666 -0.0011265873967393845 0.0071246406620069334 0.0043687753396159249 -0.0024250212453610222 0.00060668515811641897 0.0029908421430521908 -1.944983390728596e-05
leaf_weight=634 502 856 804 551 609 512 516 2274 2420 721 569
leaf_count=634 502 856 804 551 609 512 516 2274 2420 721 569
internal_value=5.6274e-07 -0.00028138 -0.000614186 -0.00382267 -0.000160903 0.00279538 -0.0009896 -0.0015963 -0.000863037 0.00110833 0.00207795
internal_weight=10968 10466 9610 1185 8425 1842 6583 5498 4694 1330 1085
internal_count=10968 10466 9610 1185 8425 1842 6583 5498 4694 1330 1085
is_linear=0
shrinkage=0.05


Tree=19
num_leaves=17
num_cat=2
split_feature=247 131 213 133 133 133 123 123 247 127 219 138 25 125 130 213
split_gain=6.98703 6.45255 3.84386 3.5467 8.17424 3.91813 2.93836 4.6622 4.09609 3.15351 2.73469 2.9001 1.90372 1.08509 0.763247 0.661975
threshold=0 0.2358663063289507 0.78368676081878852 0.18736629843372554 0.28179085922378982 0.051075444324591761 0.49999999449182692 0.56056630474259872 1 -0.16301933452582548 -0.63544537509937082 0.28173436714582684 0.33044109092805385 -0.29694557700666008 -0.25781901009950869 0.069208683392756945
decision_type=1 8 10 10 10 10 10 10 1 8 10 10 10 10 8 10
left_child=1 2 10 5 -5 6 8 -8 9 -2 -1 12 -12 -11 -10 -16
right_child=3 -3 -4 4 -6 -7 7 -9 14 13 11 -13 -14 -15 15 -17
leaf_value=-0.0033728897734686455 -0.0058780744940826494 0.0057614214659325218 0.004618902353513918 -0.0077712519474814629 -0.00012955342098496734 0.003113057864759591 0.004185064945830777 -0.0019555003932923832 0.0017220738422536117 -2.048113153186916e-05 0.00051817761629367081 -0.0022140877145526857 0.0042885415448271893 -0.0031643510775021429 -0.0014658462264361485 0.00068958969524990669
leaf_weight=510 703 782 510 569 897 707 644 586 501 552 899 595 530 541 818 624
leaf_count=510 703 782 510 569 897 707 644 586 501 552 899 595 530 541 818 624
internal_value=6.87329e-07 0.00172098 0.000680894 -0.000922557 -0.00311187 -0.000356484 -0.000852771 0.00126349 -0.0015497 -0.00325832 -0.000119216 0.000706924 0.00192664 -0.00158392 5.04238e-05 -0.00053396
internal_weight=10968 3826 3044 7142 1466 5676 4969 1230 3739 1796 2534 2024 1429 1093 1943 1442
internal_count=10968 3826 3044 7142 1466 5676 4969 1230 3739 1796 2534 2024 1429 1093 1943 1442
cat_boundaries=0 1 2
cat_threshold=518 160
is_linear=0
shrinkage=0.05


Tree=20
num_leaves=13
num_cat=1
split_feature=71 71 81 125 19 138 138 138 247 73 128 23
split_gain=6.53451 10.6501 10.3536 7.85186 6.55807 4.1465 5.66579 4.69755 3.3572 3.75252 1.77944 1.7058
threshold=-0.56978938416383318 -0.42585274273067425 0.45405518090123381 0.93433686478487887 1.0000000180025095e-35 -0.32223513980416268 -0.49473997665635888 -0.2383892432947218 0 1.0806784176492366 -0.17656902064946156 -0.014776752407622053
decision_type=8 8 10 10 8 8 10 8 1 8 8 10
left_child=3 2 11 -1 5 6 -3 -7 9 -9 -10 -2
right_child=1 4 -4 -5 -6 7 -8 8 10 -11 -12 -13
leaf_value=-0.0075004888824835711 0.0035485419432366655 -0.00031206409118663959 0.0099868783216229481 -0.00024493764751546521 0.0040067875685391233 0.0043438425888820791 -0.0070217267674998422 0.0013056349233360148 -0.0037606896846384299 -0.0034043909426948876 -0.00090408016455246695 -0.00027302742646925451
leaf_weight=591 536 693 513 997 793 512 572 2382 942 509 1295 633
leaf_count=591 536 693 513 997 793 512 572 2382 942 509 1295 633
internal_value=6.28457e-07 0.000503209 0.00410123 -0.00296028 -0.000285104 -0.000780546 -0.0033617 -0.000199153 -0.000656533 0.000470301 -0.00210332 0.00148686
internal_weight=10968 9380 1682 1588 7698 6905 1265 5640 5128 2891 2237 1169
internal_count=10968 9380 1682 1588 7698 6905 1265 5640 5128 2891 2237 1169
cat_boundaries=0 1
cat_threshold=1606
is_linear=0
shrinkage=0.05


Tree=21
num_leaves=13
num_cat=0
split_feature=82 19 71 71 129 69 129 73 129 131 20 200
split_gain=6.35459 4.35368 4.7247 8.06309 5.65492 5.328 4.46271 4.37754 3.19655 5.34165 2.19788 2.14448
threshold=1.9553914407989732 1.0000000180025095e-35 -0.5776162498338987 -1.4999999209005777 0.17735650826885435 -0.46461076252731048 0.32886658035440858 0.0081274496259210443 -0.16546284981982209 0.10071632660574363 -1.0000000180025095e-35 0.45552774088446774
decision_type=10 8 8 8 10 8 10 10 10 10 10 10
left_child=1 2 3 -1 5 7 -6 -4 10 -10 -7 -9
right_child=-2 -3 4 -5 6 8 -8 11 9 -11 -12 -13
leaf_value=0.0003262610471394101 0.005243680606772598 0.0031433921908288615 0.0039772159627551179 -0.0078749917524487938 0.0047839858599008408 -0.0025307347834777004 -0.00030011431554113443 0.0013976544372708306 -0.0045601109946167067 0.0012568153108934467 0.00058480060633997661 -0.002874486380490756
leaf_weight=640 544 850 871 558 910 875 816 595 1638 517 1583 571
leaf_count=640 544 850 871 558 910 875 816 595 1638 517 1583 571
internal_value=5.91805e-07 -0.000275413 -0.000580425 -0.00351054 -0.000159492 -0.000821587 0.00238645 0.00130604 -0.0017615 -0.00316491 -0.000527155 -0.000697789
internal_weight=10968 10424 9574 1198 8376 6650 1726 2037 4613 2155 2458 1166
internal_count=10968 10424 9574 1198 8376 6650 1726 2037 4613 2155 2458 1166
is_linear=0
shrinkage=0.05


Tree=22
num_leaves=13
num_cat=0
split_feature=25 137 137 123 123 125 137 129 129 127 127 198
split_gain=5.90386 6.24424 7.08448 2.43014 3.4976 3.88682 3.27972 4.69594 8.70621 2.31925 1.85872 1.02319
threshold=0.68656614891844503 0.22298029811086095 -0.24302851027940039 1.7264307814268021 0.49999999661274536 0.49999999838908371 0.26385233407805397 0.28195426474524354 0.10823363408210768 -0.14717529867597737 -0.1396102418380514 -0.28867513404026285
decision_type=8 8 10 8 10 10 10 10 10 10 10 10
left_child=3 2 -2 4 6 -6 7 8 9 -1 -8 -9
right_child=1 -3 -4 -5 5 -7 10 11 -10 -11 -12 -13
leaf_value=-0.0024508646829121362 0.0048230792472048825 0.0061785093815643205 -0.0024947708775331333 -0.0038120596848340129 0.004144057441990299 -0.001239586251725235 0.0032299877818997035 -0.00011726365663735108 -0.0082813955878766454 1.2592818680291715e-05 -0.0003201847745615985 0.002862572400719153
leaf_weight=2052 544 711 827 535 815 564 665 542 502 1784 818 609
leaf_count=2052 544 711 827 535 815 564 665 542 502 1784 818 609
internal_value=6.20839e-07 0.00239388 0.000415858 -0.000561154 -0.000350731 0.00194567 -0.000806007 -0.00136951 -0.0021224 -0.00130666 0.00127727 0.00146494
internal_weight=10968 2082 1371 8886 8351 1379 6972 5489 4338 3836 1483 1151
internal_count=10968 2082 1371 8886 8351 1379 6972 5489 4338 3836 1483 1151
is_linear=0
shrinkage=0.05


Tree=23
num_leaves=18
num_cat=2
split_feature=247 213 137 137 137 133 133 133 123 123 247 127 71 129 132 207 207
split_gain=5.73527 5.42183 5.06185 6.76191 4.67436 2.99123 6.65887 2.99271 2.2744 3.58549 3.54395 2.53615 2.03135 2.69039 0.868819 0.785224 0.609005
threshold=0 0.91096872870810341 0.23085352924906044 0.08011781852491566 0.32929335661155029 0.18736629843372554 0.28179085922378982 0.051075444324591761 0.49999999449182692 0.56056630474259872 1 -0.1630453254172409 0.31870472306238007 -0.02204172437691531 -0.092769845352996427 -0.42017680676350172 0.14534385295933169
decision_type=1 8 10 10 10 10 10 10 10 10 1 8 10 10 8 8 10
left_child=1 2 3 12 -4 7 -7 8 10 -10 11 -2 13 -1 -13 -12 -17
right_child=5 -3 4 -5 -6 6 -8 -9 9 -11 15 14 -14 -15 -16 16 -18
leaf_value=-0.0026944004054536112 -0.0054172969429703193 0.0060216221405237549 0.0067232763039449528 -0.0050792392929246144 0.00020434266935933569 -0.0070517528819091435 -0.00015443489484496967 0.002716304934757175 0.0036742752114596426 -0.0017107588903674722 0.001761334570279602 -0.0028143541784526249 0.0037207053270027143 0.0023535714180004199 -4.6040058470707483e-05 -0.0016167669668508237 0.00045934382416383036
leaf_weight=516 662 574 556 609 540 569 897 707 644 586 528 602 501 530 532 645 770
leaf_count=516 662 574 556 609 540 569 897 707 644 586 528 602 501 530 532 645 770
internal_value=6.47548e-07 0.00155924 0.000768353 -0.00063887 0.00352691 -0.000835817 -0.00284637 -0.000315954 -0.000749687 0.00111218 -0.00136284 -0.00295217 0.00111988 -0.000137604 -0.00152154 0.000124558 -0.000489371
internal_weight=10968 3826 3252 2156 1096 7142 1466 5676 4969 1230 3739 1796 1547 1046 1134 1943 1415
internal_count=10968 3826 3252 2156 1096 7142 1466 5676 4969 1230 3739 1796 1547 1046 1134 1943 1415
cat_boundaries=0 1 2
cat_threshold=518 160
is_linear=0
shrinkage=0.05


Tree=24
num_leaves=12
num_cat=1
split_feature=25 123 123 137 129 129 25 71 81 247 131
split_gain=5.4885 4.4449 5.51908 5.03227 6.29879 12.1183 4.51286 3.33712 3.41711 3.0016 3.00092
threshold=1.9262980662065596 1.7264307814268021 0.49999999661274536 0.26385233407805397 0.28195426474524354 0.10823363408210768 1.0000000180025095e-35 -0.32798462062692074 1.0000000180025095e-35 0 0.033918272160634894
decision_type=8 10 10 10 10 10 10 10 10 1 10
left_child=1 2 3 4 5 10 -4 8 -5 -6 -1
right_child=-2 -3 6 7 9 -7 -8 -9 -10 -11 -12
leaf_value=-0.0017190485470008694 0.0046791891346455511 -0.0045993281368178684 0.00061809140481974357 0.00095684053456305542 -0.00048946150605944344 -0.0087285574767781912 0.0061391345729675416 -0.0010034977513508378 0.0065095734199029564 0.0041553276502505265 0.0016208323077816418
leaf_weight=3691 588 555 991 614 705 586 587 658 503 672 818
leaf_count=3691 588 555 991 614 705 586 587 658 503 672 818
internal_value=6.39077e-07 -0.000266514 -1.95445e-05 -0.000538307 -0.00118511 -0.00199573 0.00268477 0.00181676 0.00347518 0.00181064 -0.00111202
internal_weight=10968 10380 9825 8247 6472 5095 1578 1775 1117 1377 4509
internal_count=10968 10380 9825 8247 6472 5095 1578 1775 1117 1377 4509
cat_boundaries=0 1
cat_threshold=106
is_linear=0
shrinkage=0.05


Tree=25
num_leaves=15
num_cat=2
split_feature=19 247 20 213 247 137 81 21 125 71 133 129 133 25
split_gain=5.33455 8.13431 7.30702 4.8122 4.23377 3.51212 3.69242 3.12844 2.49528 2.11607 2.57797 2.49859 1.88958 0.659597
threshold=-0.15047786366828533 0 -0.12975125211304417 0.78368676081878852 1 0.21176871403485859 0.19833773866760809 -1.2322985116308098 0.5776162431336116 -0.32798462062692074 -0.24948664796947348 -0.019534121696926279 -0.21929023267945466 -0.3272984126994255
decision_type=8 1 10 10 1 8 10 8 10 10 10 10 10 10
left_child=-1 2 -2 4 -4 6 -6 -3 9 11 -11 13 -12 -9
right_child=1 7 3 -5 5 -7 -8 8 -10 10 12 -13 -14 -15
leaf_value=-0.0046033035049962371 0.0073676621601576377 0.0027585533011964553 0.0031475322753085604 0.0053590283936654501 -2.0451080812228391e-05 0.0021011245828351753 -0.0057250190190360198 -0.0023528315930644774 -0.0037917043374378376 0.00085671139113441285 -0.0047366439562429342 0.0025495550262600582 -0.0015100260126709628 0.00019710622387947296
leaf_weight=590 566 572 830 563 587 542 544 501 747 905 582 891 2041 507
leaf_count=590 566 572 830 563 587 542 544 501 747 905 582 891 2041 507
internal_value=9.59602e-07 0.000264807 0.00216745 0.00120409 0.000260701 -0.00118829 -0.00277741 -0.000762492 -0.00109191 -0.000717145 -0.00144079 0.000627514 -0.00223361 -0.00107563
internal_weight=10968 10378 3632 3066 2503 1673 1131 6746 6174 5427 3528 1899 2623 1008
internal_count=10968 10378 3632 3066 2503 1673 1131 6746 6174 5427 3528 1899 2623 1008
cat_boundaries=0 1 2
cat_threshold=518 6
is_linear=0
shrinkage=0.05


Tree=26
num_leaves=11
num_cat=0
split_feature=80 19 20 34 197 196 123 69 126 128
split_gain=4.99831 4.51682 4.95922 4.70084 5.27187 8.18411 5.29844 3.49504 2.88083 2.03836
threshold=-1.3914639482703228 1.0000000180025095e-35 -0.14579116734514722 -0.38873668889870633 0.45552774359466186 -0.44335571276550445 0.49999999661274536 -0.34575543933214387 0.8660253969569216 -0.22379765707447605
decision_type=8 8 10 8 10 10 10 8 10 10
left_child=-1 2 -2 -4 6 -6 7 -5 -8 -7
right_child=1 -3 3 4 5 9 8 -9 -10 -11
leaf_value=0.0047760249762724503 -0.0051643839741561098 0.0032654575825901153 0.0042717869104060922 -0.0030417260488825207 -0.0070496227632593587 0.0013847101802501494 0.0051269572957255817 0.00026036896294286534 0.00028650267247021911 -0.0019145797478781817
leaf_weight=517 543 841 532 1035 689 714 749 3489 520 1339
leaf_count=517 543 841 532 1035 689 714 749 3489 520 1339
internal_value=1.09143e-06 -0.00023729 -0.000545365 -0.00026605 -0.000551236 -0.00235531 0.00030398 -0.000497608 0.00315239 -0.000766564
internal_weight=10968 10451 9610 9067 8535 2742 5793 4524 1269 2053
internal_count=10968 10451 9610 9067 8535 2742 5793 4524 1269 2053
is_linear=0
shrinkage=0.05


Tree=27
num_leaves=12
num_cat=0
split_feature=82 69 137 129 129 69 19 69 71 20 83
split_gain=4.79182 3.44349 5.8723 7.17566 7.4152 4.28762 3.77256 3.99321 4.12924 2.61327 1.81997
threshold=1.9553914407989732 0.37773467244856374 -0.24504510957519512 0.28195426474524354 0.10823363408210768 0.12014505489363124 1.0000000180025095e-35 -1.7264307946388218 0.49999999654621774 -1.0000000180025095e-35 -0.39430906166841434
decision_type=10 10 10 10 10 10 8 10 10 10 10
left_child=1 5 -3 4 10 6 7 -1 9 -9 -4
right_child=-2 2 3 -5 -6 -7 -8 8 -10 -11 -12
leaf_value=-0.0044249402852270421 0.0045540459228809735 0.0018143449173535818 -0.00025969342819440205 0.0013229481375104787 -0.009743133101285651 0.0041478274935058878 0.0039416277100608171 -0.002391507862295689 0.0042390198393480938 0.00024670265619923466 -0.0043295565874936137
leaf_weight=551 544 899 513 688 507 674 544 1254 520 3686 588
leaf_count=551 544 899 513 688 507 674 544 1254 520 3686 588
internal_value=1.08702e-06 -0.000238589 -0.00160421 -0.00294378 -0.00476778 0.000365665 -2.6091e-05 -0.00038815 2.29015e-05 -0.000424738 -0.00244299
internal_weight=10968 10424 3195 2296 1608 7229 6555 6011 5460 4940 1101
internal_count=10968 10424 3195 2296 1608 7229 6555 6011 5460 4940 1101
is_linear=0
shrinkage=0.05


Tree=28
num_leaves=13
num_cat=1
split_feature=25 123 123 25 247 127 123 129 127 131 123 133
split_gain=4.46294 3.64213 4.26482 4.02343 2.60904 3.4774 4.40457 2.70851 2.1901 3.23711 1.8546 2.49103
threshold=1.9262980662065596 1.7264307814268021 0.49999999661274536 1.0000000180025095e-35 0 -0.19056899759465515 0.1671192290381234 0.2819491918950402 -0.15428296200037209 0.044165447684193504 -0.49999999845287513 0.03102407268456191
decision_type=8 10 10 10 1 8 10 8 10 10 10 10
left_child=1 2 4 -4 5 6 -1 10 -7 -10 -6 -12
right_child=-2 -3 3 -5 7 8 -8 -9 9 -11 11 -13
leaf_value=0.0047990534399542269 0.0042198695667232519 -0.0041619750949134218 0.0004104760388532398 0.0056224477332934104 -0.0042565458260459014 -0.0036329558348097281 -0.00069808773586627721 0.0010830091758882801 0.0019219501255629532 -0.0015835483985196333 -0.002466691616953065 0.001465825679633617
leaf_weight=804 588 555 991 587 790 501 661 800 1169 1495 1478 549
leaf_count=804 588 555 991 587 790 501 661 800 1169 1495 1478 549
internal_value=1.01258e-06 -0.000239891 -1.63342e-05 0.00236091 -0.000472357 0.000314377 0.00232484 -0.00147527 -0.000617422 -4.45684e-05 -0.00220765 -0.00140061
internal_weight=10968 10380 9825 1578 8247 4630 1465 3617 3165 2664 2817 2027
internal_count=10968 10380 9825 1578 8247 4630 1465 3617 3165 2664 2817 2027
cat_boundaries=0 1
cat_threshold=1607
is_linear=0
shrinkage=0.05


Tree=29
num_leaves=12
num_cat=0
split_feature=139 71 71 81 71 138 138 138 127 135 24
split_gain=4.55562 4.7207 7.09298 7.16102 4.57621 3.26079 3.23889 2.89794 2.74322 3.55021 1.67614
threshold=-0.52072926359914018 -0.56978938416383318 -0.42585274273067425 0.44364697328371122 -1.4999999209005777 -0.32223513980416268 -0.49473997665635888 -0.27042755936775803 0.32080422889559884 -0.15123250663893004 -0.1030454144949725
decision_type=8 8 8 10 10 8 10 10 10 10 10
left_child=-1 4 3 10 -2 6 -4 -7 9 -9 -3
right_child=1 2 5 -5 -6 7 -8 8 -10 -11 -12
leaf_value=0.0046394625915725032 0.00022798255824175791 0.003038162420546978 -0.00045202874519826111 0.0081069655700868656 -0.0052805930779607413 0.0031754989528726637 -0.005539851455057746 0.0014277282771308891 0.0026000255749113817 -0.0016265874624225602 -0.00081581232440961274
leaf_weight=500 686 518 691 505 831 649 568 1314 684 3413 609
leaf_count=500 686 518 691 505 831 649 568 1314 684 3413 609
internal_value=1.02397e-06 -0.000222638 0.000214978 0.00319035 -0.002797 -0.000450199 -0.00276024 3.16062e-05 -0.000348058 -0.000776945 0.000961175
internal_weight=10968 10468 8951 1632 1517 7319 1259 6060 5411 4727 1127
internal_count=10968 10468 8951 1632 1517 7319 1259 6060 5411 4727 1127
is_linear=0
shrinkage=0.05


Tree=30
num_leaves=12
num_cat=1
split_feature=80 19 71 71 135 123 197 247 135 71 75
split_gain=4.2873 3.80102 4.12965 5.66367 4.59908 5.50748 5.87002 4.23748 3.8007 3.25242 1.11091
threshold=-1.3914639482703228 1.0000000180025095e-35 -0.5776162498338987 -1.4999999696055357 -0.31585977946505289 0.49999999608486162 0.45181776500825382 0 -0.46764893607692076 0.2475800877984545 0.49999665894187556
decision_type=8 8 8 10 8 10 10 1 10 8 8
left_child=-1 2 3 -2 8 7 -7 10 -4 -9 -6
right_child=1 -3 4 -5 5 6 -8 9 -10 -11 -12
leaf_value=0.0044234860289580511 2.1271724224880445e-05 0.0029936483469145646 -0.00028680802831612386 -0.0068456992463630439 0.00088375795728648965 0.004270426629429531 -0.0019840398535546696 -0.0043086214485490142 0.0044390061119768112 -0.00098093880870540255 -0.0016227368322507851
leaf_weight=517 632 841 805 567 1574 975 604 1548 896 1400 609
leaf_count=517 632 841 805 567 1574 975 604 1548 896 1400 609
internal_value=1.18923e-06 -0.000219588 -0.000502198 -0.00324102 -0.000110082 -0.000698984 0.00187925 -0.00149346 0.00220822 -0.00272342 0.000181571
internal_weight=10968 10451 9610 1199 8411 6710 1579 5131 1701 2948 2183
internal_count=10968 10451 9610 1199 8411 6710 1579 5131 1701 2948 2183
cat_boundaries=0 1
cat_threshold=1102
is_linear=0
shrinkage=0.05


Tree=31
num_leaves=13
num_cat=0
split_feature=139 19 197 197 123 125 25 133 128 123 127 125
split_gain=4.1179 4.92163 4.75281 6.77668 5.65723 5.70155 5.48065 2.58163 3.4769 1.26685 2.70576 1.61521
threshold=-0.52072926359914018 1.0000000180025095e-35 0.45552774359466186 0.5451904823584941 0.49999999661274536 0.49999999542256385 0.038073757414290164 0.20654361600910834 -0.10260998661457153 -0.7217309140467727 0.10947569585152515 -0.1298349509786563
decision_type=8 8 10 10 10 10 10 10 8 10 10 10
left_child=-1 2 4 -4 5 7 -6 8 -2 -5 11 -11
right_child=1 -3 3 9 6 -7 -8 -9 -10 10 -12 -13
leaf_value=0.0044111250695890039 -0.0022263197110666305 0.0034474340700853105 -0.007219722212868273 0.0010633600152911502 0.00064378527994187569 0.0032174801125507153 0.0071898914869579838 -0.0046209968583102263 0.00084617211451113524 -0.0020403595707442572 -0.0045753196603787356 0.0011557436494050515
leaf_weight=500 1993 840 533 550 849 846 509 501 1704 843 564 736
leaf_count=500 1993 840 533 550 849 846 509 501 1704 843 564 736
internal_value=1.15263e-06 -0.000211493 -0.000532342 -0.0020957 0.000256465 -0.000515395 0.00311474 -0.00127059 -0.000810934 -0.00107006 -0.0016188 -0.000551653
internal_weight=10968 10468 9628 3226 6402 5044 1358 4198 3697 2693 2143 1579
internal_count=10968 10468 9628 3226 6402 5044 1358 4198 3697 2693 2143 1579
is_linear=0
shrinkage=0.05


Tree=32
num_leaves=15
num_cat=1
split_feature=125 81 129 123 129 247 24 212 123 73 123 132 23 130
split_gain=3.91857 7.27042 8.90357 5.91276 3.87922 3.04321 2.32504 2.23569 1.46697 1.71072 1.52679 1.36429 0.88285 0.389806
threshold=0.56827642640291665 0.95408958285126932 -0.019534121696926279 -0.7217309140467727 -0.15025701378339609 0 0.44072888346425915 0.50823667348145973 -0.50243681435924514 0.47641733183109319 0.50537006243953564 -0.019391993499654276 -0.23019649986935045 -0.1788526382634171
decision_type=10 10 10 10 10 1 10 8 8 10 10 10 10 10
left_child=1 5 -3 -2 -5 7 8 12 -7 10 -10 -8 -1 -14
right_child=3 2 -4 4 -6 6 11 -9 9 -11 -12 -13 13 -15
leaf_value=0.0020139444431048212 0.0020735160710785728 0.00035709301403155652 0.0089335057188644155 -0.0015538661881354865 -0.0075906862410063686 -0.0020164809543137545 -0.0011716241051039995 0.0042991152691907843 0.00030547341150185614 -0.0015831435287381259 0.0032895145029407298 -0.0043015473179339372 0.0006544626560309215 -0.0012568018560407887
leaf_weight=636 519 723 516 567 502 875 831 515 2163 931 530 601 511 548
leaf_count=636 519 723 516 567 502 875 831 515 2163 931 530 601 511 548
internal_value=1.12444e-06 0.000390315 0.00395042 -0.00229176 -0.00441088 -0.000153599 -0.000743422 0.00142435 -0.000185206 0.000259117 0.00089776 -0.00249563 0.000549194 -0.000335816
internal_weight=10968 9380 1239 1588 1069 8141 5931 2210 4499 3624 2693 1432 1695 1059
internal_count=10968 9380 1239 1588 1069 8141 5931 2210 4499 3624 2693 1432 1695 1059
cat_boundaries=0 1
cat_threshold=516
is_linear=0
shrinkage=0.05


Tree=33
num_leaves=14
num_cat=1
split_feature=139 19 197 196 123 125 25 247 128 128 197 21 128
split_gain=3.73231 4.37125 4.24666 6.42475 5.13184 5.22938 4.89515 2.44523 3.14022 1.96702 1.364 1.35017 0.920919
threshold=-0.52072926359914018 1.0000000180025095e-35 0.45552774359466186 -0.44335571276550445 0.49999999661274536 0.49999999542256385 0.038073757414290164 0 -0.10260998661457153 -0.23322463561345338 0.73294474892223183 0.18537876525057387 -0.081398733944430479
decision_type=8 8 10 10 10 10 10 1 8 10 10 10 8
left_child=-1 2 4 -4 5 7 -6 8 -2 -5 -11 -12 -9
right_child=1 -3 3 9 6 -7 -8 12 -10 10 11 -13 -14
leaf_value=0.004199557425719363 -0.0036499634460989 0.0032469561412006055 -0.0060511716203172639 0.0012233517917805815 0.00062886754849025123 0.0030817490508453622 0.0068155961420345362 0.0016315423881084403 -0.00035642319499811241 -0.0035534076411089057 0.001237485101636693 -0.0023915497366651349 -0.0010879927969625388
leaf_weight=500 1466 840 741 830 849 846 509 803 1427 639 500 516 502
leaf_count=500 1466 840 741 830 849 846 509 803 1427 639 500 516 502
internal_value=1.12409e-06 -0.000201322 -0.000503698 -0.00198147 0.000241926 -0.000493217 0.00296425 -0.00121647 -0.00202183 -0.000758218 -0.00175269 -0.000608293 0.000580814
internal_weight=10968 10468 9628 3226 6402 5044 1358 4198 2893 2485 1655 1016 1305
internal_count=10968 10468 9628 3226 6402 5044 1358 4198 2893 2485 1655 1016 1305
cat_boundaries=0 1
cat_threshold=938
is_linear=0
shrinkage=0.05


Tree=34
num_leaves=17
num_cat=1
split_feature=125 81 129 123 129 247 212 123 73 79 135 135 129 21 130 77
split_gain=3.67556 6.55508 7.94259 5.28865 3.37548 2.7507 2.00755 1.43162 2.69091 1.61175 1.79277 2.69286 1.30707 0.840022 0.83971 0.761449
threshold=0.56827642640291665 0.95408958285126932 -0.019534121696926279 -0.7217309140467727 -0.15025701378339609 0 0.50823667348145973 0.499999998167937 0.24318231215453809 0.29292418400415926 -0.15123250663893004 0.33130223055144586 -0.10670624980067492 0.41144365364903113 -0.11535957138005194 0.079291809085296774
decision_type=10 10 10 10 10 1 8 8 8 10 10 10 10 10 10 10
left_child=1 5 -3 -2 -5 6 13 9 -9 10 12 -12 -7 15 -11 -1
right_child=3 2 -4 4 -6 7 -8 8 -10 14 11 -13 -14 -15 -16 -17
leaf_value=0.00088547594649337569 0.00190934180490893 0.00036447154810418026 0.0084650434050423003 -0.0015572814832438353 -0.0071900129940381911 -0.0010002087676943233 0.0040860262086380317 0.0034344158372932691 -0.001611855991789981 -0.0015046668696529445 -0.0030112676808058338 0.00085893071515542668 0.0019309183301609676 0.0022327505617041358 -0.0040160133284607453 -0.0016630244818648993
leaf_weight=688 519 723 516 567 502 628 515 536 512 875 1157 730 950 504 543 503
leaf_count=688 519 723 516 567 502 628 515 536 512 875 1157 730 950 504 543 503
internal_value=1.18123e-06 0.000378111 0.00375854 -0.00221946 -0.00422356 -0.000138357 0.00136181 -0.000699138 0.000973114 -0.0010601 -0.000477488 -0.00151574 0.000764937 0.000532523 -0.00247708 -0.000193296
internal_weight=10968 9380 1239 1588 1069 8141 2210 5931 1048 4883 3465 1887 1578 1695 1418 1191
internal_count=10968 9380 1239 1588 1069 8141 2210 5931 1048 4883 3465 1887 1578 1695 1418 1191
cat_boundaries=0 1
cat_threshold=516
is_linear=0
shrinkage=0.05


Tree=35
num_leaves=10
num_cat=0
split_feature=80 20 20 123 123 25 69 69 73
split_gain=3.46532 2.68368 4.81623 3.54509 3.82862 3.6006 2.50321 3.84805 2.0691
threshold=-1.3914639482703228 -0.16458508598253754 -0.14082247539942463 1.7264307814268021 0.49999999661274536 1.0000000180025095e-35 -0.33443296735172418 0.37773467244856374 0.10825076427756329
decision_type=8 8 10 8 10 10 10 10 10
left_child=-1 -2 -3 4 6 -6 8 -8 -4
right_child=1 2 3 -5 5 -7 7 -9 -10
leaf_value=0.0039770086088496128 -0.0029821482919191087 0.0036818829777103229 -0.00058423677938783793 -0.0042146029942156321 0.00029065105242616595 0.0052305493433511289 0.0014762709398418404 -0.0012764396177113565 -0.0041552942799813154
leaf_weight=517 794 822 860 540 967 592 2324 2786 766
leaf_count=517 794 822 860 540 967 592 2324 2786 766
internal_value=1.18169e-06 -0.000197306 3.30889e-05 -0.000308282 -5.15969e-05 0.00217721 -0.00056867 -2.43026e-05 -0.00227412
internal_weight=10968 10451 9657 8835 8295 1559 6736 5110 1626
internal_count=10968 10451 9657 8835 8295 1559 6736 5110 1626
is_linear=0
shrinkage=0.05


Tree=36
num_leaves=14
num_cat=0
split_feature=126 72 209 125 123 131 214 200 25 138 82 138 23
split_gain=3.52348 5.90782 4.88674 2.8516 5.49412 5.14926 5.86661 4.67027 3.741 3.09589 2.36331 1.61604 1.17474
threshold=-1.1306012505714083 0.95678538960917348 0.29106545262565703 0.56827642640291665 0.49999999661274536 0.11339298103307004 0.40604695280287761 0.45552774088446774 -0.134766197319863 -0.17634109879715751 -0.18825138427082752 0.28173436714582684 0.1047647078738146
decision_type=8 10 10 10 10 8 8 10 10 8 10 8 10
left_child=2 3 -1 4 5 9 12 -5 -6 10 -2 -11 -7
right_child=1 -3 -4 7 8 6 -8 -9 -10 11 -12 -13 -14
leaf_value=-0.00072846616104424271 -0.00054030042697943506 -0.0042747146806613673 0.0058851943233287707 -0.0050269596044088833 0.00091542870533508703 0.0017446174232587251 0.0065331165345987041 0.00079512358950513623 0.0065959655525927837 0.00059454191534394948 -0.0049717325788882546 -0.0015999612985920686 -0.0015725166518763324
leaf_weight=543 525 849 568 661 613 555 544 711 548 2341 704 1301 505
leaf_count=543 525 849 568 661 613 555 544 711 548 2341 704 1301 505
internal_value=1.1555e-06 -0.000300176 0.00266399 7.65859e-05 0.000453987 -0.000114875 0.0023379 -0.0020179 0.00361347 -0.000924133 -0.00308859 -0.0001905 0.000164321
internal_weight=10968 9857 1111 9008 7636 6475 1604 1372 1161 4871 1229 3642 1060
internal_count=10968 9857 1111 9008 7636 6475 1604 1372 1161 4871 1229 3642 1060
is_linear=0
shrinkage=0.05


Tree=37
num_leaves=13
num_cat=0
split_feature=139 19 197 196 200 197 70 200 214 128 138 123
split_gain=3.30983 3.6004 3.62913 5.48311 4.30364 4.63576 3.11093 2.61695 1.91961 1.67995 1.36058 1.23702
threshold=-0.52072926359914018 1.0000000180025095e-35 0.45552774359466186 -0.44335571276550445 0.59967232150528693 0.072500809597704163 0.91402528659808191 -1.3471132378536745 -0.27321024853360282 -0.23322463561345338 0.12962906349677225 0.49999999661274536
decision_type=8 8 10 10 10 10 10 8 10 10 10 10
left_child=-1 2 4 -4 6 -6 7 8 -2 -5 -11 -9
right_child=1 -3 3 9 5 -7 -8 11 -10 10 -12 -13
leaf_value=0.0039548714791201546 -0.00016604907518274733 0.0029400588810556162 -0.0055896304858175554 0.0011313536538865173 0.00026119997034367682 0.006067196278731239 -0.0038048189934938022 -0.0011721191309444529 0.0040219342537210307 -0.00020508930304267414 -0.0030695578183109451 0.0013062452055808554
leaf_weight=500 503 840 741 830 835 580 607 2667 594 841 814 616
leaf_count=500 503 840 741 830 835 580 607 2667 594 841 814 616
internal_value=1.19681e-06 -0.000189447 -0.000463867 -0.00182998 0.000225414 0.00265403 -0.000465643 9.26258e-07 0.00210961 -0.000699917 -0.00161896 -0.000705816
internal_weight=10968 10468 9628 3226 6402 1415 4987 4380 1097 2485 1655 3283
internal_count=10968 10468 9628 3226 6402 1415 4987 4380 1097 2485 1655 3283
is_linear=0
shrinkage=0.05


Tree=38
num_leaves=14
num_cat=2
split_feature=247 131 81 135 77 69 133 133 133 22 77 247 135
split_gain=3.17521 4.09844 8.46698 3.15267 2.85868 2.49337 2.15321 4.21916 2.00438 2.51635 1.44016 1.63344 0.974126
threshold=0 0.11335559287338136 0.49069136648568762 -0.26488633563338831 -0.37189479850445523 -0.46461076252731048 0.18736540534130044 0.28179085922378982 -0.20029643666774452 -0.38921323292255683 0.39257899330829599 1 0.0128281952658618
decision_type=1 8 8 10 10 10 10 10 10 10 10 1 10
left_child=1 3 -3 -1 -5 -6 8 -8 10 -10 11 -2 -11
right_child=6 2 -4 4 5 -7 7 -9 9 12 -12 -13 -14
leaf_value=-0.0033181503517107644 -0.00044726343955882531 -0.00039838603328767077 0.0084470802013864362 -0.0020762485239006903 0.0043971714060277419 0.00043061834556195857 -0.0055401773440939646 -0.00013096093937519477 0.0027808121119076842 0.00079563743750683835 0.00059627447285902292 -0.0034157615171344692 -0.0014104306530403658
leaf_weight=528 951 574 506 570 656 992 598 897 983 999 806 915 993
leaf_count=528 951 574 506 570 656 992 598 897 983 999 806 915 993
internal_value=1.26629e-06 0.00116096 0.00376571 0.000135747 0.000963569 0.00201806 -0.000621117 -0.0023059 -0.000174537 0.000717669 -0.0011674 -0.00192876 -0.000304852
internal_weight=10968 3826 1080 2746 2218 1648 7142 1495 5647 2975 2672 1866 1992
internal_count=10968 3826 1080 2746 2218 1648 7142 1495 5647 2975 2672 1866 1992
cat_boundaries=0 1 2
cat_threshold=518 1097
is_linear=0
shrinkage=0.05


Tree=39
num_leaves=14
num_cat=2
split_feature=82 72 72 209 128 214 70 124 127 210 247 19 247
split_gain=3.11868 2.66303 9.31339 2.85938 1.89457 4.19586 2.5828 3.30947 1.83667 1.58772 1.45551 0.989853 1.20895
threshold=1.9553914407989732 1.001391786221725 0.94525542293240694 0.52186572215687821 -0.25382312843133809 0.40604695280287761 0.86602539521299826 -1.0031247350990964 -0.14719181662066091 0.23579506611766149 0 -0.11868003337050111 1
decision_type=10 10 10 10 10 10 10 10 10 10 1 8 1
left_child=1 2 4 -3 5 11 8 -8 10 -10 -6 -1 -13
right_child=-2 3 -4 -5 6 -7 7 -9 9 -11 -12 12 -14
leaf_value=-0.0019510968547946596 0.0036741082661722424 0.00013430681799609433 -0.0069711171046309616 0.004819277693596258 -0.0035353852945695231 0.0045872672904254223 -0.00032796580053607249 -0.0054830650154194761 0.001585502634247419 -0.00067200821670533584 -0.00014051327585377051 0.0023090631218765276 -0.00047330194510860826
leaf_weight=527 544 902 520 505 558 614 698 558 1749 1397 718 592 1086
leaf_count=527 544 902 520 505 558 614 698 558 1749 1397 718 592 1086
internal_value=1.04312e-06 -0.000192314 -0.000508234 0.00182695 -0.000108851 0.000949728 -0.000634785 -0.00263087 -6.54972e-05 0.000583566 -0.0016618 -7.12614e-05 0.00052317
internal_weight=10968 10424 9017 1407 8497 2819 5678 1256 4422 3146 1276 2205 1678
internal_count=10968 10424 9017 1407 8497 2819 5678 1256 4422 3146 1276 2205 1678
cat_boundaries=0 1 2
cat_threshold=166 640
is_linear=0
shrinkage=0.05


Tree=40
num_leaves=12
num_cat=1
split_feature=139 71 71 81 200 138 73 25 138 79 247
split_gain=2.9283 3.06984 4.74359 5.47328 3.89762 2.27764 2.48384 4.2758 2.15057 1.45501 1.22304
threshold=-0.52072926359914018 -0.56978938416383318 -0.42585274273067425 0.44364697328371122 0.45672461744161463 -0.32223513980416268 1.161641351500087 0.81428340182835413 -0.49473997665635888 0.037944646864937176 0
decision_type=8 8 8 10 10 8 10 8 10 10 1
left_child=-1 4 3 9 -2 8 7 10 -4 -3 -7
right_child=1 2 5 -5 -6 6 -8 -9 -10 -11 -12
leaf_value=0.0037196768649351225 -0.0043554049739229096 0.0022675416381638465 -0.0004189278807863393 0.0069057917181107424 0.00078743898288427538 0.00069898966903725096 -0.0027981072222492678 0.0038995773392660766 -0.004565191468198013 -0.0013305599031791966 -0.00092472750237669512
leaf_weight=500 896 623 691 505 621 2150 682 744 568 504 2484
leaf_count=500 896 623 691 505 621 2150 682 744 568 504 2484
internal_value=8.5141e-07 -0.000178468 0.000174429 0.00260765 -0.00225446 -0.000369542 3.31249e-05 0.000394427 -0.00230018 0.000659683 -0.00017193
internal_weight=10968 10468 8951 1632 1517 7319 6060 5378 1259 1127 4634
internal_count=10968 10468 8951 1632 1517 7319 6060 5378 1259 1127 4634
cat_boundaries=0 1
cat_threshold=1669
is_linear=0
shrinkage=0.05


Tree=41
num_leaves=12
num_cat=2
split_feature=32 19 71 125 214 71 123 124 81 247 247
split_gain=2.80159 3.26985 3.16416 4.91919 7.62007 4.89557 2.01689 4.33812 3.73249 2.6331 0.640604
threshold=-0.66499670029618174 1.0000000180025095e-35 -0.5776162498338987 0.42773698076999783 0.3943956087963994 -1.4999999209005777 0.49999998140395635 0.86602538894660019 1.4999998052296017 0 1
decision_type=8 8 8 10 10 10 10 10 8 1 1
left_child=-1 2 5 6 10 -2 8 -8 9 -4 -5
right_child=1 -3 3 4 -6 -7 7 -9 -10 -11 -12
leaf_value=0.0035543481461100981 0.00013265585418852378 0.0027881873741045548 -0.0022176747731593636 -0.001033542653033466 0.007394132764585358 -0.0062638681227206346 0.0041994690054726379 -0.0021222903143131625 -0.0051782277179656319 0.00016791686881248557 0.0011468031608039627
leaf_weight=523 643 848 1813 581 503 554 572 508 511 3151 761
leaf_count=523 643 848 1813 581 503 554 572 508 511 3151 761
internal_value=8.871e-07 -0.000178657 -0.000442125 -9.87203e-05 0.00217846 -0.00284155 -0.000740837 0.00122982 -0.00113034 -0.000708852 0.000203361
internal_weight=10968 10445 9597 8400 1845 1197 6555 1080 5475 4964 1342
internal_count=10968 10445 9597 8400 1845 1197 6555 1080 5475 4964 1342
cat_boundaries=0 1 2
cat_threshold=432 1102
is_linear=0
shrinkage=0.05


Tree=42
num_leaves=13
num_cat=1
split_feature=212 123 123 125 25 69 127 25 127 135 25 247
split_gain=2.80263 2.25994 2.40717 3.36595 3.63119 2.76133 4.62571 3.59772 3.19771 3.23998 2.6265 0.603836
threshold=1.9676237547225306 1.7264307814268021 0.49999999661274536 0.54953717082033282 -0.15314815918690269 -0.33443296735172418 -0.1905697183201577 -0.094669592107795228 -0.14717529867597737 -0.41640952725239727 1.0000000180025095e-35 0
decision_type=10 10 8 8 10 10 10 10 10 10 10 1
left_child=1 2 5 4 -4 10 7 -7 -8 -10 11 -1
right_child=-2 -3 3 -5 -6 6 8 -9 9 -11 -12 -13
leaf_value=0.00057084347518091948 0.0035871623691428461 -0.0032878646620147808 0.0006412284298779854 -0.0016448949891389873 0.0062689620140667576 0.00061301603977799489 -0.0042947209266811625 0.005933639351987042 -0.0030352221991549501 0.0005263622969780106 -0.0040887018913572382 -0.0016535897590074457
leaf_weight=660 514 548 627 509 525 773 502 536 770 3622 837 545
leaf_count=660 514 548 627 509 525 773 502 536 770 3622 837 545
internal_value=8.13006e-07 -0.00017715 -3.49379e-06 0.00173009 0.00322196 -0.000353571 0.000171782 0.00280596 -0.000534926 -0.000100792 -0.00194596 -0.000446852
internal_weight=10968 10454 9906 1661 1152 8245 6203 1309 4894 4392 2042 1205
internal_count=10968 10454 9906 1661 1152 8245 6203 1309 4894 4392 2042 1205
cat_boundaries=0 1
cat_threshold=1864
is_linear=0
shrinkage=0.05


Tree=43
num_leaves=13
num_cat=1
split_feature=126 126 209 214 128 214 70 70 21 127 247 78
split_gain=2.7354 8.93172 3.72139 2.09815 1.76469 4.10407 2.17737 3.15078 2.25151 1.08817 0.732813 0.713134
threshold=-1.0013917760190421 -0.98275985348518879 0.52186572215687821 2.0893829465707521 -0.25382312843133809 0.40604695280287761 0.86602539521299826 1.1491021037050591 1.1156825382073892 -0.13366534499199809 0 -0.087673856197654512
decision_type=8 8 10 8 8 10 10 10 10 10 1 10
left_child=2 -2 -1 4 5 10 8 -8 9 -6 -3 -12
right_child=1 3 -4 -5 6 -7 7 -9 -10 -11 11 -13
leaf_value=2.339277889049409e-05 -0.0067816975366757574 0.00098450070272310878 0.0051720355288045654 0.0031636377197139898 -0.00079447306709271373 0.0045706936653198988 -0.0049728991739200895 -7.5872963015321399e-05 -0.0031785061513316276 0.00092324562600245696 0.00049651668144411654 -0.0019533254220236401
leaf_weight=916 500 855 564 506 1437 595 623 689 520 2553 511 699
leaf_count=916 500 855 564 506 1437 595 623 689 520 2553 511 699
internal_value=7.26128e-07 -0.000311436 0.00199625 5.2073e-05 -0.000135304 0.000930579 -0.000622674 -0.00241127 -0.000100262 0.000304389 -0.000126774 -0.000913419
internal_weight=10968 9488 1480 8988 8482 2660 5822 1312 4510 3990 2065 1210
internal_count=10968 9488 1480 8988 8482 2660 5822 1312 4510 3990 2065 1210
cat_boundaries=0 1
cat_threshold=645
is_linear=0
shrinkage=0.05


Tree=44
num_leaves=12
num_cat=2
split_feature=82 72 72 247 20 247 25 125 133 134 133
split_gain=2.54881 2.09874 7.36878 2.22334 1.4409 2.04745 2.04857 1.356 2.80139 0.876077 0.78487
threshold=1.9553914407989732 1.001391786221725 0.94525542293240694 0 -0.16458508598253754 1 0.68656614891844503 -0.29932916592862896 -0.2192742678734326 0.24631707369230524 -0.24948664796947348
decision_type=10 10 10 1 8 1 8 10 10 10 10
left_child=1 2 4 -3 -1 6 9 10 -9 -6 -7
right_child=-2 3 -4 -5 5 7 -8 8 -10 -11 -12
leaf_value=-0.0021798753240447532 0.0033212442592380972 -0.00031609524158806223 -0.0062032864752414067 0.0036427593988842856 0.00074572570646482157 0.0019754552824330107 0.0031508072700022179 -0.0044778656151843402 -0.00047283297083192116 -0.0011444138057193028 -0.00057731017523787633
leaf_weight=753 544 730 520 677 2711 533 777 587 1669 787 680
leaf_count=753 544 730 520 677 2711 533 777 587 1669 787 680
internal_value=6.79482e-07 -0.000174121 -0.000454578 0.00161848 -9.93273e-05 0.000104254 0.000835186 -0.000796522 -0.00152252 0.000319445 0.000547896
internal_weight=10968 10424 9017 1407 8497 7744 4275 3469 2256 3498 1213
internal_count=10968 10424 9017 1407 8497 7744 4275 3469 2256 3498 1213
cat_boundaries=0 1 2
cat_threshold=1227 1606
is_linear=0
shrinkage=0.05


Tree=45
num_leaves=13
num_cat=0
split_feature=32 19 197 197 213 123 25 72 125 130 202 84
split_gain=2.42784 2.904 2.84936 4.54318 3.66636 2.15841 3.16526 2.59148 1.24992 1.18665 1.26043 0.925199
threshold=-0.66499670029618174 1.0000000180025095e-35 0.45552774359466186 0.5451904823584941 0.78368676081878852 0.49999999807108525 0.9752987869532469 -0.76251444880375907 0.49999999542256385 -0.37434975676269772 0.46497966540236951 -0.24314894610925916
decision_type=8 8 10 10 10 10 10 10 8 10 10 10
left_child=-1 2 4 -4 5 6 8 -7 -2 -5 11 -11
right_child=1 -3 3 9 -6 7 -8 -9 -10 10 -12 -13
leaf_value=0.0033086922075247489 -0.00063039059462496785 0.0026295494663749579 -0.0057994734823885894 0.0012177626925638811 0.0036186919820199652 -0.00095589795942553353 -0.0040983895221598232 0.0037556403270483673 0.0016488134899561883 0.00086183623302358799 -0.0034554093597828233 -0.0016094681854524871
leaf_weight=523 3192 848 538 578 692 519 596 657 736 627 520 942
leaf_count=523 3192 848 538 578 692 519 596 657 736 627 520 942
internal_value=7.39322e-07 -0.0001664 -0.000414693 -0.00163014 0.000195537 -0.000222853 -0.000719081 0.00168107 -0.000201777 -0.000779798 -0.00133409 -0.000622291
internal_weight=10968 10445 9597 3205 6392 5700 4524 1176 3928 2667 2089 1569
internal_count=10968 10445 9597 3205 6392 5700 4524 1176 3928 2667 2089 1569
is_linear=0
shrinkage=0.05


Tree=46
num_leaves=10
num_cat=1
split_feature=80 20 20 123 247 25 137 123 129
split_gain=2.64634 1.8823 3.66489 2.76151 2.21379 2.92641 2.04636 3.20655 2.35493
threshold=-1.3914639482703228 -0.16458508598253754 -0.14082247539942463 1.7264307814268021 0 1.0000000180025095e-35 -0.24302851027940039 -0.49999997395127932 -0.11196120897654027
decision_type=8 8 10 8 1 10 10 10 10
left_child=-1 -2 -3 4 5 -4 8 -8 -6
right_child=1 2 3 -5 6 -7 7 -9 -10
leaf_value=0.0034751062568230736 -0.002505013190866396 0.0032031437762022256 -0.00052299974890701866 -0.0037252474222289524 -0.0017158358064537325 0.0048287757416078173 -0.0027762001688289243 -8.485425259262749e-05 0.0022901618096523397
leaf_weight=517 794 822 512 540 514 503 1527 3988 1251
leaf_count=517 794 822 512 540 514 503 1527 3988 1251
internal_value=7.13565e-07 -0.000172741 2.02163e-05 -0.000277564 -5.10133e-05 0.00211906 -0.000357236 -0.000831877 0.00112199
internal_weight=10968 10451 9657 8835 8295 1015 7280 5515 1765
internal_count=10968 10451 9657 8835 8295 1015 7280 5515 1765
cat_boundaries=0 1
cat_threshold=6
is_linear=0
shrinkage=0.05


Tree=47
num_leaves=11
num_cat=1
split_feature=80 124 70 20 247 76 83 126 200 123
split_gain=2.39065 1.85793 4.77107 2.5479 2.29574 2.89295 1.95983 1.18787 2.15732 1.55348
threshold=-1.3914639482703228 1.2555972700407476 -0.99582850076416862 -0.16458508598253754 0 0.999480078076039 0.17218709369259247 0.87985322364791407 0.45672461744161463 0.50537006243953564
decision_type=8 10 8 8 1 8 10 10 10 10
left_child=-1 2 -2 -4 5 6 -5 9 -9 -6
right_child=1 -3 3 4 7 -7 -8 8 -10 -11
leaf_value=0.0033030153022364493 -0.0040203788634950001 0.0025254818644761378 -0.0030554933511600722 0.0016489902179165428 -0.00039717325128056077 0.004745776328873106 -0.001326655571886038 -0.0041981817267911104 0.00019313385447377289 0.0022701896103194488
leaf_weight=517 799 600 630 1611 3706 513 837 513 607 635
leaf_count=517 799 600 630 1611 3706 513 837 513 607 635
internal_value=7.3409e-07 -0.000164128 -0.000329143 -1.28638e-06 0.000228858 0.00134611 0.000630952 -0.000379373 -0.00182796 -4.8294e-06
internal_weight=10968 10451 9851 9052 8422 2961 2448 5461 1120 4341
internal_count=10968 10451 9851 9052 8422 2961 2448 5461 1120 4341
cat_boundaries=0 1
cat_threshold=518
is_linear=0
shrinkage=0.05


Tree=48
num_leaves=9
num_cat=0
split_feature=204 72 123 143 123 123 71 131
split_gain=2.29966 1.82846 2.55415 1.84064 2.50278 4.63951 3.18145 2.29248
threshold=1.6046120715144283 -1.3560929218956137 1.7264307814268021 -0.36822880868819652 -0.57761624657402277 -0.90666768900755834 0.50249017508923177 0.11339298103307004
decision_type=10 10 10 10 8 8 10 10
left_child=1 -1 3 4 5 -3 7 -6
right_child=-2 2 -4 -5 6 -7 -8 -9
leaf_value=0.0025408770023736035 0.0031548342433841206 1.6284933329292065e-05 -0.0037834234525935444 0.0023837233016424605 -0.00076459117708167009 -0.0060511370732863248 0.0035095064198093352 0.0014785820510095902
leaf_weight=584 544 814 502 666 5307 509 597 1445
leaf_count=584 544 814 502 666 5307 509 597 1445
internal_value=7.35862e-07 -0.000165302 -0.000327121 -0.000139389 -0.000334423 -0.00233204 2.65377e-05 -0.000283789
internal_weight=10968 10424 9840 9338 8672 1323 7349 6752
internal_count=10968 10424 9840 9338 8672 1323 7349 6752
is_linear=0
shrinkage=0.05


Tree=49
num_leaves=14
num_cat=0
split_feature=212 24 25 130 75 23 22 20 26 69 23 137 203
split_gain=2.16973 2.22967 6.14292 3.3239 1.94035 2.25717 1.90966 1.86669 1.70176 1.58774 1.0664 0.854083 0.547891
threshold=1.896969910902681 0.44072888346425915 1.2524640175399273 -0.20904514522203313 -0.49999998665259043 -1.0745523055182302 0.97829279328929475 -0.14082247539942463 -0.094095827109799218 -0.49999999962979863 -0.23019649986935045 0.063205136611342347 -0.24213850328057338
decision_type=10 10 8 8 10 10 10 10 10 10 10 8 8
left_child=1 2 4 8 5 -1 12 -6 -3 -9 -11 -7 -5
right_child=-2 3 -4 6 7 11 -8 9 -10 10 -12 -13 -14
leaf_value=-0.0041730992722481281 0.0030269286815052523 0.0027324914510084347 0.005394019629220031 -0.0027199787149048424 0.0029730657761438892 0.00060743985106191222 -0.0053643496309671848 -0.0017233461893061343 -0.001204193189588235 0.0017732473840169406 -0.00010680051869328862 -0.0015273670821438533 -0.00050263065015288281
leaf_weight=521 557 537 539 579 637 931 505 942 552 1211 1985 934 538
leaf_count=521 557 537 539 579 637 931 505 942 552 1211 1985 934 538
internal_value=7.55673e-07 -0.000162523 0.000271784 -0.00139431 -0.000117255 -0.00128009 -0.00282558 0.000464526 0.000740653 7.52418e-05 0.000607228 -0.000462906 -0.001659
internal_weight=10968 10411 7700 2711 7161 2386 1622 4775 1089 4138 3196 1865 1117
internal_count=10968 10411 7700 2711 7161 2386 1622 4775 1089 4138 3196 1865 1117
is_linear=0
shrinkage=0.05


Tree=50
num_leaves=14
num_cat=0
split_feature=126 126 209 24 25 130 75 127 127 214 80 203 78
split_gain=2.10777 6.51109 3.20101 1.69314 5.67336 2.45099 1.6451 1.35303 1.65619 1.17966 1.13862 0.941363 0.545211
threshold=-1.0013917760190421 -0.98275985348518879 0.52186572215687821 0.44072888346425915 1.2524640175399273 -0.20904514522203313 -0.32082579499709146 -0.23711638020560241 -0.1905697183201577 0.053175660334996079 0.87732355824524499 0.23154268911371809 -0.59392988243327116
decision_type=8 8 10 10 8 8 10 10 10 10 10 8 8
left_child=2 -2 -1 4 6 10 9 -8 -9 12 -5 -7 -3
right_child=1 3 -4 5 -6 11 7 8 -10 -11 -12 -13 -14
leaf_value=-7.6798189086480583e-05 -0.0057976703043902608 -0.001263724162359493 0.0046977838601509683 -0.00084935596366501821 0.0055147873358237127 -0.0033897269694239669 -0.0010749391824654781 0.0037865457220237157 0.00066128517111973314 -0.0023306528441768165 0.0024300982851291793 -0.0007646024607376083 0.00060010341013316522
leaf_weight=916 500 630 564 532 507 898 775 528 2087 936 518 555 1022
leaf_count=916 500 630 564 532 507 898 775 528 2087 936 518 555 1022
internal_value=6.99338e-07 -0.000273321 0.0017524 3.70499e-05 0.000463398 -0.00106629 3.07341e-05 0.000754988 0.00129833 -0.000917587 0.000772358 -0.00239307 -0.000112347
internal_weight=10968 9488 1480 8988 6485 2503 5978 3390 2615 2588 1050 1453 1652
internal_count=10968 9488 1480 8988 6485 2503 5978 3390 2615 2588 1050 1453 1652
is_linear=0
shrinkage=0.05


Tree=51
num_leaves=13
num_cat=1
split_feature=32 19 197 197 213 81 196 247 202 197 136 84
split_gain=2.01427 2.30672 2.39187 3.54861 3.18961 2.16635 1.74197 1.65171 1.05381 0.811655 0.736305 0.611541
threshold=-0.66499670029618174 1.0000000180025095e-35 0.45552774359466186 0.5451904823584941 0.78368676081878852 1.4608554135512666 -1.1595069751008584 0 0.56122027296253207 0.8081801305725288 -0.17593377393706591 -0.22517009725705497
decision_type=8 8 10 10 10 8 10 1 10 10 10 10
left_child=-1 2 4 -4 5 6 -2 -8 9 11 -11 -5
right_child=1 -3 3 8 -6 -7 7 -9 -10 10 -12 -13
leaf_value=0.0030137755839281122 0.0026620461244797416 0.0023403644271509753 -0.0051713082311483291 -4.2243929228823901e-05 0.0033791174403520977 -0.0031543453488499292 0.0006640587032640951 -0.0012402961105857115 -0.0027217592693379584 -0.00048411896267698106 0.0020830988582334277 -0.0024841349387056768
leaf_weight=523 590 848 538 517 692 556 2457 2097 529 607 510 504
leaf_count=523 590 848 538 517 692 556 2457 2097 529 607 510 504
internal_value=7.13198e-07 -0.000151526 -0.000372816 -0.00148642 0.000186278 -0.000203965 0.000117686 -0.00021451 -0.000734798 -0.000237966 0.000692081 -0.00125388
internal_weight=10968 10445 9597 3205 6392 5700 5144 4554 2667 2138 1117 1021
internal_count=10968 10445 9597 3205 6392 5700 5144 4554 2667 2138 1117 1021
cat_boundaries=0 1
cat_threshold=1606
is_linear=0
shrinkage=0.05


Tree=52
num_leaves=17
num_cat=2
split_feature=82 84 82 82 200 197 126 84 74 247 196 138 74 247 128 21
split_gain=1.98717 1.77281 4.6593 3.00797 1.45202 1.33339 1.14006 0.956219 1.08086 0.8716 0.769566 0.759155 1.14339 1.09686 0.668697 0.693456
threshold=1.9553914407989732 -0.082462891250796727 0.8660570611803623 0.92792482291701162 0.58914650750061426 0.79250025615657516 0.86602539517788846 0.2561486501703128 -0.95308964580609501 0 -0.39439012739641849 0.26270888295469857 -0.036430508909539146 1 -0.069788117330566279 -0.36198936383889407
decision_type=10 10 10 10 8 8 10 10 10 1 10 8 10 1 10 10
left_child=1 2 4 7 6 10 11 9 -9 -3 -6 13 -13 -1 15 -10
right_child=-2 3 -4 -5 5 -7 -8 8 14 -11 -12 12 -14 -15 -16 -17
leaf_value=0.0021364599506910943 0.0029326087301281049 -0.0031418466556053983 0.0047196267134262879 -0.0044828789760313426 0.0035778645948124355 -0.00087418245667335672 -0.0025100496888257541 0.0020538338687990541 -0.0012179572869927546 -0.00041270060117445159 0.00097434642438314642 0.0003324473065574869 -0.0027070012662880135 -0.00051627995032065346 -0.0014515737806614355 0.0010470879357584472
leaf_weight=624 544 513 566 510 502 547 646 545 514 686 657 645 588 990 927 964
leaf_count=624 544 513 566 510 502 547 646 545 514 686 657 645 588 990 927 964
internal_value=6.24955e-07 -0.00015372 0.00043232 -0.000878566 -3.85128e-05 0.00115514 -0.000622318 -0.000430657 5.38918e-05 -0.0016181 0.00211254 -0.000190331 -0.0011221 0.000522753 -0.000402638 0.000257929
internal_weight=10968 10424 5765 4659 5199 1706 3493 4149 2950 1199 1159 2847 1233 1614 2405 1478
internal_count=10968 10424 5765 4659 5199 1706 3493 4149 2950 1199 1159 2847 1233 1614 2405 1478
cat_boundaries=0 1 2
cat_threshold=354 898
is_linear=0
shrinkage=0.05


Tree=53
num_leaves=12
num_cat=1
split_feature=66 71 71 71 81 129 81 25 131 77 247
split_gain=1.93628 2.1287 3.43475 3.20115 6.82818 1.9053 3.36249 2.35794 2.33601 2.09001 1.17218
threshold=-0.064916844666653442 -0.5776162498338987 -1.4999999696055357 -0.42585274273067425 0.50000192852644199 0.12006010196561927 1.3035137990864385 0.038073757414290164 0.081656057154447556 0.87730562821898583 0
decision_type=8 8 10 10 8 10 10 10 10 10 1
left_child=-1 2 -2 4 10 6 8 -7 9 -5 -3
right_child=1 3 -4 5 -6 7 -8 -9 -10 -11 -12
leaf_value=0.0027357730827682002 0.00040638828469242007 0.0012555880667151659 -0.0047678305659214111 -0.00046879438559489388 0.0068518733431459202 -0.00031051101609379825 -0.0045998536865240781 0.003884447658571745 -0.0031619383403120381 0.0024267429478885293 -0.00166382270939093
leaf_weight=606 670 871 609 3807 509 897 520 529 663 740 547
leaf_count=606 670 871 609 3807 509 897 520 529 663 740 547
internal_value=5.16035e-07 -0.000160692 -0.00206631 0.000108631 0.00191472 -0.000378719 -0.00078574 0.00125382 -0.000401015 4.58684e-06 0.000124654
internal_weight=10968 10362 1279 9083 1927 7156 5730 1426 5210 4547 1418
internal_count=10968 10362 1279 9083 1927 7156 5730 1426 5210 4547 1418
cat_boundaries=0 1
cat_threshold=693
is_linear=0
shrinkage=0.05


Tree=54
num_leaves=9
num_cat=1
split_feature=80 20 20 247 123 20 143 69
split_gain=1.90185 1.78938 2.71248 4.16312 3.26102 2.10302 2.7206 2.4968
threshold=-1.1914297911858587 -0.16458508598253754 -0.12975125211304417 0 1.7264307814268021 -1.0000000180025095e-35 -0.66722147124689146 0.57761625099440106
decision_type=8 8 10 1 8 10 10 10
left_child=-1 -2 3 -3 5 -4 7 -7
right_child=1 2 4 -5 -6 6 -8 -9
leaf_value=0.0023122561729656261 -0.0025121456881364189 0.0054690000953943087 -0.0031074516733640488 -0.00025403562855857959 -0.0042207928259737999 0.000272461820597804 0.003219026722445398 -0.0023924714253287585
leaf_weight=818 760 527 528 773 502 5364 650 1046
leaf_count=818 760 527 528 773 502 5364 650 1046
internal_value=5.30593e-07 -0.000186821 2.62127e-06 0.00211802 -0.000338405 -7.89476e-05 0.000149586 -0.000163935
internal_weight=10968 10150 9390 1300 8090 7588 7060 6410
internal_count=10968 10150 9390 1300 8090 7588 7060 6410
cat_boundaries=0 1
cat_threshold=800
is_linear=0
shrinkage=0.05


Tree=55
num_leaves=9
num_cat=1
split_feature=204 126 199 143 200 247 25 134
split_gain=1.83367 1.67597 2.43044 1.48676 1.75122 1.89527 1.86447 1.78928
threshold=1.6046120715144283 1.2695455689963822 -1.2784092314311526 -0.36822880868819652 -1.3471132378536745 0 1.4276772019636075 0.20536171350224589
decision_type=10 10 8 10 10 1 10 10
left_child=1 2 -1 4 5 -4 7 -6
right_child=-2 -3 3 -5 6 -7 -8 -9
leaf_value=-0.0036401920408111986 0.0028171789614094712 0.0021134094823714567 0.0032135379376273636 0.0021376104084204995 4.4704481895694909e-05 -0.00054972537010149539 -0.0035487425323297811 -0.0019074698799575248
leaf_weight=518 544 755 660 662 5152 661 501 1515
leaf_count=518 544 755 660 662 5152 661 501 1515
internal_value=7.14025e-07 -0.00014755 -0.000325097 -0.000135558 -0.000313981 0.0013556 -0.0006224 -0.000400002
internal_weight=10968 10424 9669 9151 8489 1321 7168 6667
internal_count=10968 10424 9669 9151 8489 1321 7168 6667
cat_boundaries=0 1
cat_threshold=646
is_linear=0
shrinkage=0.05


Tree=56
num_leaves=10
num_cat=0
split_feature=81 81 81 77 132 196 127 129 129
split_gain=1.85266 1.75718 3.14098 1.10203 2.36514 1.29808 1.18105 4.15001 1.80111
threshold=2.0803507960723366 1.4999974352110408 1.0097628256733133 0.85334664898902934 -0.055000974078074111 -1.3375394255903141 0.13260534601637411 -0.01824892769001998 0.097587938969188812
decision_type=10 8 10 10 10 10 10 10 10
left_child=1 2 3 5 -5 -1 7 -7 -8
right_child=-2 -3 -4 4 -6 6 8 -9 -10
leaf_value=-0.0028461284417500518 0.0029526783013176742 -0.0029641611409430904 0.0036272505917782135 0.002994941213023748 -0.0013332917613165657 -0.00074786985426072668 0.00041185195640386417 0.0022673720225329288 -0.0026057465142262544
leaf_weight=514 502 519 560 734 547 3993 870 1592 1137
leaf_count=514 502 519 560 734 547 3993 870 1592 1137
internal_value=8.15208e-07 -0.000142113 6.54721e-06 -0.000211269 0.00114874 -0.000426769 -0.000261206 0.000112882 -0.0012999
internal_weight=10968 10466 9947 9387 1281 8106 7592 5585 2007
internal_count=10968 10466 9947 9387 1281 8106 7592 5585 2007
is_linear=0
shrinkage=0.05


Tree=57
num_leaves=12
num_cat=2
split_feature=24 25 25 247 23 205 20 75 124 247 134
split_gain=1.85113 8.60754 2.49689 2.30292 1.74645 1.65589 2.19657 1.27615 1.26447 1.07918 0.711409
threshold=0.39786313485621078 1.2524640175399273 1.17681793164342 0 0.80478447896882399 -1.1154379588242704 -0.14579116734514722 0.29223080502338283 0.99582849415815899 1 -0.01578787586710196
decision_type=10 8 8 1 10 8 10 10 10 1 8
left_child=1 4 3 -2 5 -1 -7 -5 9 -8 -9
right_child=2 -3 -4 7 -6 6 8 10 -10 -11 -12
leaf_value=-0.0023419795197733716 0.0017150458195561826 0.00604836522489234 -0.0042361394203822003 9.1538106071652699e-05 0.0027021351612139758 0.0026760624762250849 0.0012774269085305224 -0.0012188158720537977 -0.0023748764837991671 -0.00049681146084528175 -0.0038612067485544071
leaf_weight=854 857 619 501 795 520 677 1139 506 662 3316 522
leaf_count=854 857 619 501 795 520 677 1139 506 662 3316 522
internal_value=8.14467e-07 0.000415984 -0.00101457 -0.000405557 -7.42835e-05 -0.00029332 1.0399e-05 -0.00140612 -0.000344547 -4.0522e-05 -0.00257277
internal_weight=10968 7787 3181 2680 7168 6648 5794 1823 5117 4455 1028
internal_count=10968 7787 3181 2680 7168 6648 5794 1823 5117 4455 1028
cat_boundaries=0 1 2
cat_threshold=516 516
is_linear=0
shrinkage=0.05


Tree=58
num_leaves=15
num_cat=2
split_feature=213 24 25 25 75 23 133 20 127 247 25 23 137 247
split_gain=1.83078 2.23975 4.84216 2.28463 1.60357 1.84786 1.50645 1.42937 1.27307 1.39767 0.942072 0.941629 0.745271 0.330662
threshold=1.6852762449876768 0.39786313485621078 1.2524640175399273 0.93541418533244258 -0.49999998665259043 -1.0745523055182302 0.17099161694553508 -0.14082247539942463 -0.23847757934775585 0 0.14245272142549556 -0.70623131353032387 0.063205136611342347 1
decision_type=8 10 10 10 10 10 10 10 10 1 10 10 10 1
left_child=1 2 4 6 5 -1 10 -6 -9 -10 13 -7 -13 -3
right_child=-2 3 -4 -5 7 11 -8 8 9 -11 -12 12 -14 -15
leaf_value=-0.0036206645151843409 0.0029232012830381219 -0.0016116256749030403 0.0046318391502163719 -0.0043789746209187989 0.0027488743334802626 0.0013456756533087814 -0.002764714513295654 -0.0014422987496177265 0.0024697714713488995 1.9692367788975491e-05 0.0018514528243747811 4.3512384466904642e-05 -0.0023932799636947801 6.1621965090832837e-05
leaf_weight=558 506 518 591 503 598 565 626 964 762 2332 523 666 588 668
leaf_count=558 506 518 591 503 598 565 626 964 762 2332 523 666 588 668
internal_value=8.8703e-07 -0.000141781 0.000304676 -0.00133957 -6.19783e-05 -0.0011173 -0.00067687 0.000477411 0.00013971 0.00063415 9.3733e-05 -0.000341548 -0.00110407 -0.000685901
internal_weight=10968 10462 7624 2838 7033 2377 2335 4656 4058 3094 1709 1819 1254 1186
internal_count=10968 10462 7624 2838 7033 2377 2335 4656 4058 3094 1709 1819 1254 1186
cat_boundaries=0 1 2
cat_threshold=516 171
is_linear=0
shrinkage=0.05


Tree=59
num_leaves=11
num_cat=0
split_feature=72 72 209 19 74 126 72 70 26 123
split_gain=1.77783 4.61402 2.35994 1.59239 2.17979 2.09669 3.39836 3.18838 2.41714 1.28462
threshold=1.001391786221725 0.94525542293240694 0.52186572215687821 -0.15047786366828533 1.36319105587255 0.87985322364791407 -1.0814343234255235 -0.7005420872872653 0.85911718400931514 0.49999999661274536
decision_type=10 10 10 8 10 10 10 10 8 10
left_child=1 3 -2 -1 5 8 -7 -8 9 -5
right_child=2 -3 -4 4 -6 6 7 -9 -10 -11
leaf_value=-0.0025227352151472181 5.7724854506264885e-05 -0.0046614577837330523 0.0041754770723559358 -0.00027212061567315839 0.0031164179615110962 0.00090277967369615543 -0.00043934084445319561 -0.0056661792317420617 0.003043024359456855 0.0020213334535404939
leaf_weight=569 922 553 554 4210 590 912 561 605 783 709
leaf_count=569 922 553 554 4210 590 912 561 605 783 709
internal_value=8.82844e-07 -0.000250386 0.00161216 2.49528e-05 0.00019955 -2.35119e-05 -0.00138127 -0.00316399 0.000472078 6.01632e-05
internal_weight=10968 9492 1476 8939 8370 7780 2078 1166 5702 4919
internal_count=10968 9492 1476 8939 8370 7780 2078 1166 5702 4919
is_linear=0
shrinkage=0.05


Tree=60
num_leaves=14
num_cat=0
split_feature=139 197 197 123 125 71 25 123 202 131 71 84 21
split_gain=1.70042 1.77706 4.53969 3.32734 1.77567 3.89374 3.47972 1.66241 1.55765 1.47151 2.00411 0.941049 0.749647
threshold=-0.52072926359914018 0.45552774359466186 0.52988051799372793 1.1124620057433046 0.42773698076999783 -0.56978938416383318 -1.0000000180025095e-35 -0.49999992770258611 0.37364182398109197 -0.23473518402578006 -0.3756569899581525 -0.34932751809478263 -0.30613731241158698
decision_type=8 10 10 10 8 8 8 10 10 10 10 10 10
left_child=-1 3 -3 4 7 -6 -7 -2 11 -9 -11 -4 -13
right_child=1 2 8 -5 5 6 -8 9 -10 10 -12 12 -14
leaf_value=0.0028346833894876446 -0.0026798599943855909 -0.0053854924836193177 0.0017631436801748349 0.0041816295225880129 -0.0019825857082363765 0.00060093152054306348 0.0061315197099343337 -0.0020635387267650888 -0.0019860431608729762 -0.0023083349484308369 0.00097951123568631136 0.00080798784817524654 -0.0015639851007703553
leaf_weight=500 724 509 820 515 568 641 508 749 954 559 2598 657 666
leaf_count=500 724 509 820 515 568 641 508 749 954 559 2598 657 666
internal_value=8.33126e-07 -0.000135813 -0.00103371 0.000336441 2.13933e-05 0.00139236 0.00306211 -0.000487974 -0.00031095 -7.87884e-05 0.000394613 0.000437638 -0.000387459
internal_weight=10968 10468 3606 6862 6347 1717 1149 4630 3097 3906 3157 2143 1323
internal_count=10968 10468 3606 6862 6347 1717 1149 4630 3097 3906 3157 2143 1323
is_linear=0
shrinkage=0.05


Tree=61
num_leaves=16
num_cat=0
split_feature=213 24 25 25 205 133 83 25 69 73 127 129 133 132 136
split_gain=1.5912 2.01339 4.2956 2.11092 1.49531 1.32098 1.40564 1.13106 1.06738 2.00987 1.7629 0.959752 0.729653 0.424671 0.797595
threshold=1.6852762449876768 0.39786313485621078 1.2524640175399273 0.93541418533244258 -0.53616554284516671 0.17099161694553508 -0.27540945386176113 0.38763098599805873 -0.34575543933214387 0.0081274496259210443 -0.1863112398106766 0.28195469689546004 -0.24948664796947348 -0.2322993931422814 -0.20454405594976841
decision_type=8 10 10 10 10 10 10 10 10 10 10 10 10 10 10
left_child=1 2 4 5 7 6 -3 13 9 -6 -10 -12 -11 -1 -15
right_child=-2 3 -4 -5 8 -7 -8 -9 10 12 11 -13 -14 14 -16
leaf_value=0.00065177015836026173 0.0027251812297583843 0.0016157108792419841 0.0043667039101483963 -0.0041894147978769249 0.0014332858111885654 -0.0025860228845495407 -0.0012498439390131108 -0.0031803837859007604 0.003425830518864784 -0.00040864860277071589 -0.00023267340957871076 0.002211249790636353 -0.0029321260986121048 0.00013435669147697076 -0.0023607114932072113
leaf_weight=549 506 799 591 503 843 626 910 501 624 533 1541 538 619 701 584
leaf_count=549 506 799 591 503 843 626 910 501 624 533 1541 538 619 701 584
internal_value=7.76199e-07 -0.00013223 0.000291064 -0.00126788 -5.42806e-05 -0.000630921 9.06793e-05 -0.00108709 0.000459658 -0.000417037 0.00110629 0.000403549 -0.00177139 -0.000508169 -0.00100434
internal_weight=10968 10462 7624 2838 7033 2335 1709 2335 4698 1995 2703 2079 1152 1834 1285
internal_count=10968 10462 7624 2838 7033 2335 1709 2335 4698 1995 2703 2079 1152 1834 1285
is_linear=0
shrinkage=0.05


Tree=62
num_leaves=14
num_cat=0
split_feature=201 209 201 210 200 71 135 123 197 123 205 210 207
split_gain=1.61213 6.97048 3.61446 1.93213 1.62275 3.65323 2.12131 2.92685 1.73681 1.50553 1.369 1.1525 1.196
threshold=-0.45854972273884459 0.77348030482935348 -0.30112204915142743 -1.2243451377148897 0.45552774144631575 -0.5776162498338987 -0.31585053854266781 0.49999999497505793 0.55422604577431911 0.49999999807108525 0.31529303055347185 -0.30528537808163064 0.41010240993662345
decision_type=10 10 10 10 10 10 10 10 10 10 10 8 8
left_child=1 9 -2 -4 5 -5 -7 -8 -6 10 11 -1 -13
right_child=2 -3 3 4 8 6 7 -9 -10 -11 -12 12 -14
leaf_value=0.0020476506064971405 -0.0041544859294900529 0.0050988175546339597 -0.0030610461301893892 -0.0042480793262794653 0.0028592729802408069 0.0024888038924334387 -0.0013094035823776218 0.0029208175996514782 -0.00024318994854629754 0.0021265742235595225 -0.0021695137556770128 -0.0020394049441737959 0.001024863625101824
leaf_weight=548 602 757 505 533 947 768 2110 502 856 575 984 713 568
leaf_count=548 602 757 505 533 947 768 2110 502 856 575 984 713 568
internal_value=7.24263e-07 0.00077792 -0.000471649 -0.000112215 0.000150758 -0.000421173 0.000187684 -0.000492371 0.00138974 -0.000193614 -0.000670811 0.000139207 -0.000681995
internal_weight=10968 4145 6823 6221 5716 3913 3380 2612 1803 3388 2813 1829 1281
internal_count=10968 4145 6823 6221 5716 3913 3380 2612 1803 3388 2813 1829 1281
is_linear=0
shrinkage=0.05


Tree=63
num_leaves=12
num_cat=0
split_feature=22 21 24 23 218 215 20 124 20 137 218
split_gain=1.52887 4.60945 2.07791 2.29545 1.63756 1.8172 1.30358 1.64609 1.73757 1.39756 1.16285
threshold=-1.1287864057461763 -0.58920538019093838 0.44072888346425915 0.90842222100338998 0.69542503871396144 -0.69218933396167037 -0.14082247539942463 0.99582849415815899 -1.0000000180025095e-35 0.32151502122120063 -0.29755306549594246
decision_type=10 8 10 10 10 10 10 10 10 10 10
left_child=1 -1 3 6 5 -4 -2 8 -8 -10 -7
right_child=2 -3 4 -5 -6 10 7 -9 9 -11 -12
leaf_value=-0.00098844423433558002 0.0017122976174162826 0.0052661566100028262 -0.0025049799421439558 0.0035084834057544563 -0.0037994775262345142 0.002179032208398414 -0.0026378096234856794 -0.0025793051797312512 3.8114125485484189e-06 0.0025723930764991166 -0.00074315066912749585
leaf_weight=687 951 509 906 501 540 537 532 681 3597 616 911
leaf_count=687 951 509 906 501 540 537 532 681 3597 616 911
internal_value=7.18615e-07 0.00168426 -0.000206087 0.000266966 -0.00132889 -0.000755289 9.75152e-06 -0.000289951 4.09855e-05 0.000381978 0.000344329
