tree
version=v4
num_class=1
num_tree_per_iteration=1
label_index=0
max_feature_idx=247
objective=regression
feature_names=market_cap pe_ratio pb_ratio ps_ratio profit_margins operating_margins gross_margins return_on_equity return_on_assets revenue_growth earnings_growth debt_to_equity current_ratio quick_ratio dividend_yield payout_ratio enterprise_to_ebitda enterprise_to_revenue beta vix treasury_10y returns_1m returns_3m returns_6m returns_1y volatility volume_trend log_market_cap fcf_yield ocf_yield earnings_yield profit_margins_lag1q profit_margins_lag2q operating_margins_lag1q operating_margins_lag2q gross_margins_lag1q gross_margins_lag2q return_on_equity_lag1q return_on_equity_lag2q return_on_assets_lag1q return_on_assets_lag2q revenue_growth_lag1q revenue_growth_lag2q earnings_growth_lag1q earnings_growth_lag2q current_ratio_lag1q current_ratio_lag2q quick_ratio_lag1q quick_ratio_lag2q debt_to_equity_lag1q debt_to_equity_lag2q pe_ratio_lag1q pe_ratio_lag2q pb_ratio_lag1q pb_ratio_lag2q ps_ratio_lag1q ps_ratio_lag2q enterprise_to_ebitda_lag1q enterprise_to_ebitda_lag2q enterprise_to_revenue_lag1q enterprise_to_revenue_lag2q dividend_yield_lag1q dividend_yield_lag2q payout_ratio_lag1q payout_ratio_lag2q market_cap_lag1q market_cap_lag2q beta_lag1q beta_lag2q vix_lag1q vix_lag2q treasury_10y_lag1q treasury_10y_lag2q returns_1m_lag1q returns_1m_lag2q returns_3m_lag1q returns_3m_lag2q returns_6m_lag1q returns_6m_lag2q returns_1y_lag1q returns_1y_lag2q volatility_lag1q volatility_lag2q volume_trend_lag1q volume_trend_lag2q profit_margins_qoq profit_margins_yoy operating_margins_qoq operating_margins_yoy gross_margins_qoq gross_margins_yoy return_on_equity_qoq return_on_equity_yoy return_on_assets_qoq return_on_assets_yoy revenue_growth_qoq revenue_growth_yoy earnings_growth_qoq earnings_growth_yoy current_ratio_qoq current_ratio_yoy quick_ratio_qoq quick_ratio_yoy debt_to_equity_qoq debt_to_equity_yoy pe_ratio_qoq pe_ratio_yoy pb_ratio_qoq pb_ratio_yoy ps_ratio_qoq ps_ratio_yoy enterprise_to_ebitda_qoq enterprise_to_ebitda_yoy enterprise_to_revenue_qoq enterprise_to_revenue_yoy dividend_yield_qoq dividend_yield_yoy payout_ratio_qoq payout_ratio_yoy market_cap_qoq market_cap_yoy beta_qoq beta_yoy vix_qoq vix_yoy treasury_10y_qoq treasury_10y_yoy returns_1m_qoq returns_1m_yoy returns_3m_qoq returns_3m_yoy returns_6m_qoq returns_6m_yoy returns_1y_qoq returns_1y_yoy volatility_qoq volatility_yoy volume_trend_qoq volume_trend_yoy profit_margins_mean4q profit_margins_std4q profit_margins_slope4q operating_margins_mean4q operating_margins_std4q operating_margins_slope4q gross_margins_mean4q gross_margins_std4q gross_margins_slope4q return_on_equity_mean4q return_on_equity_std4q return_on_equity_slope4q return_on_assets_mean4q return_on_assets_std4q return_on_assets_slope4q revenue_growth_mean4q revenue_growth_std4q revenue_growth_slope4q earnings_growth_mean4q earnings_growth_std4q earnings_growth_slope4q current_ratio_mean4q current_ratio_std4q current_ratio_slope4q quick_ratio_mean4q quick_ratio_std4q quick_ratio_slope4q debt_to_equity_mean4q debt_to_equity_std4q debt_to_equity_slope4q pe_ratio_mean4q pe_ratio_std4q pe_ratio_slope4q pb_ratio_mean4q pb_ratio_std4q pb_ratio_slope4q ps_ratio_mean4q ps_ratio_std4q ps_ratio_slope4q enterprise_to_ebitda_mean4q enterprise_to_ebitda_std4q enterprise_to_ebitda_slope4q enterprise_to_revenue_mean4q enterprise_to_revenue_std4q enterprise_to_revenue_slope4q dividend_yield_mean4q dividend_yield_std4q dividend_yield_slope4q payout_ratio_mean4q payout_ratio_std4q payout_ratio_slope4q market_cap_mean4q market_cap_std4q market_cap_slope4q beta_mean4q beta_std4q beta_slope4q vix_mean4q vix_std4q vix_slope4q treasury_10y_mean4q treasury_10y_std4q treasury_10y_slope4q returns_1m_mean4q returns_1m_std4q returns_1m_slope4q returns_3m_mean4q returns_3m_std4q returns_3m_slope4q returns_6m_mean4q returns_6m_std4q returns_6m_slope4q returns_1y_mean4q returns_1y_std4q returns_1y_slope4q volatility_mean4q volatility_std4q volatility_slope4q volume_trend_mean4q volume_trend_std4q volume_trend_slope4q profit_margins_missing operating_margins_missing gross_margins_missing return_on_equity_missing return_on_assets_missing revenue_growth_missing earnings_growth_missing current_ratio_missing quick_ratio_missing debt_to_equity_missing pe_ratio_missing pb_ratio_missing ps_ratio_missing enterprise_to_ebitda_missing enterprise_to_revenue_missing dividend_yield_missing payout_ratio_missing market_cap_missing beta_missing vix_missing treasury_10y_missing returns_1m_missing returns_3m_missing returns_6m_missing returns_1y_missing volatility_missing volume_trend_missing sector
feature_infos=none none none none none none none none none none none none none none none none none none none [-6.614588833337443:8.4025463640795763] [-3.6983648385694061:8.4025462332193257] [-4.0212734255803815:6.2101265131308701] [-3.5762329913288156:5.4494646449414033] [-3.5237502909138199:4.8493703174677387] [-3.0558022350907481:6.6212923278633911] [-1.6363339050722052:5.833390920448843] [-2.2092632165291861:7.7554980407483693] none none none none [-3.778221328838677:4.0520152523729864] [-4.5292333805876455:3.8900585918071187] [-3.3153078221961327:3.8782121177924966] [-3.625319814189385:3.7552447874784964] none none [-2.390058783486158:7.1668598816520532] [-2.9523046074435002:7.1369503216534946] none none none none none none [-1.2734449868080693:4.7367256994860059] [-1.4711573865529777:4.8345158929528482] none none none [-1.5281840334549031:3.6507719951276965] none none none [-1.618045052665352:4.8118925467229454] [-1.2508834786447234:3.7844633292872647] [-1.3797192416215545:3.4347586913394541] none none none none none none none none [-1.3054205581135068:4.364357791253723] [-1.5784913992771905:5.6486703365208033] none none [-4.6623457539643072:7.5177727414751505] [-4.2325631102551169:7.2721735571421444] [-4.6661528783119612:6.5306861700270353] [-3.8760830613932931:5.4440642532988983] [-3.4716913906722491:4.8718262773249652] [-3.8326891477445688:4.4094325094832545] [-3.3503455035246534:5.767173600110242] [-3.0426257438434132:5.0759288568713501] [-3.7019326773386831:4.7360054533749478] [-3.2237045650702143:4.6951154635759735] [-2.8480732868128342:5.9909312373799315] [-2.7707304523441887:5.7363170045796803] [-2.2988857691518714:6.5123769272592575] [-1.7445802340502801:6.2409067030826089] [-2.621518545198982:5.1853079657542942] [-2.423567734248282:5.1858790119483187] none none none none none none none none none none none none none none none none none none none none none none none none none none none none none none none none none none none none none none [-3.9518538341206324:6.589902910276181] [-3.5939498721669634:6.6888837654517816] [-4.6272007951304772:6.701365717200896] [-3.9220863673726383:5.9901358661448807] [-7.7309145759558193:8.055225896752102] [-9.2532144023259715:8.9066647874351794] [-6.9333385962429439:7.4647454779631168] [-8.0737936762622056:9.2675178330441881] [-8.0727276247639601:8.0365776913397315] [-7.9258003102132699:8.1538625307462755] [-7.4381974068942531:8.324758791544097] [-7.7219894140220253:8.4142763003640919] [-4.5363163889458216:5.9300420964125484] [-3.1730501309879018:5.3280172775439896] [-8.5246906902207442:6.9218921573270711] [-8.0119581943382538:6.9043183859264463] [-4.1890870037983747:4.0090947980577836] [-0.96105275531677681:5.2637206298725214] none [-3.5078268394947458:3.941327606757639] [-1.1638954346977857:5.5813899241637586] none none none none [-3.9178219070844111:6.1135394278292079] [-1.4595623199647911:6.4147892993319529] none none none none none none none none none none [-1.2675951743392606:4.6061480507628865] [-0.86602539674531487:5.8980933145969017] none none none none none none none none none none [-1.4562367480588871:3.8600175029891357] [-1.2939295098433297:4.218499156464703] none [-1.5486365957913997:3.2523442531732405] [-1.1334556585821227:3.4689714664185254] none none none none none none none none none none none none none [-1.428490791519416:4.0652688281689384] [-1.5536656190101557:4.0528062926080679] none none none none [-2.9733179830803347:5.1919630478362162] [-1.9854841132216277:5.008996499404641] [-4.0959546516165393:5.9721786961031071] [-2.6962103898348961:4.7279180487069272] [-4.8495857955172408:4.9758755106505443] [-4.0384630918688682:4.5620338376244893] [-3.5443748491571507:4.8718265263504401] [-1.4996660804089674:5.5931129565789588] [-5.2779273288886328:3.9340533305309888] [-3.6230335391566637:5.1202745799835085] [-1.499778470412177:5.4211681294001854] [-3.9870652650186056:5.133889189657979] [-3.2998319244344776:5.3107911700945181] [-1.4986746649297618:4.9286878247529584] [-4.3116556413135676:4.4118187292667788] [-2.9827192005082863:5.9783673050589474] [-1.4998822690505966:5.3761210231456236] [-4.9023367389411252:4.8529377669793794] [-1.6878341552640583:5.8689895436712618] [-1.6378899421477975:7.0284565475594745] [-6.631421817180958:7.1481477707117502] [-2.3583052719520365:5.6920505935858552] [-1.5318547479226317:6.2074302633600276] [-5.0450830242352103:5.4930214732981852] none none none none none none none none none none none none none none none none none none none none none none none none none none none -1:9:6:5:7:3:2:1:10:4:0:8
tree_sizes=1287 1474 1731 1765 1660 1652 1267 1731 1656 1670 1575 1573 1742 1456 1381 1453 1388 1363 1573 1567 1457 1771 1659 1948 1274 1746 1661 1288 1733 1368 1290 1480 1663 1177 1470 1377 1386 1099 1563 1660 1362 1460 1282 1452 1369 1381 1574 1369 1367 1562 1370 1273 1384 1179 1360 1484 1484 1185 1375 1587 993 1460 1571 1288 1096 1370 1367 1849 910 1183 1577 1677 1266 1181 1394 1767 984 1370 900 1559 1260 1871 1555 1089 914 898 1674 902 1371 1282 1262 1383 1080 1096 1579 1014 1298 1485 905 1188 1589 921 991 899 1083 1675 917 1377 1362 1373 1467 1081 897 1759 1378 1007 1558 992 999 899 1292 1099 1277 1278 1194 1185 1367 1287 895 895 1278 1766

Tree=0
num_leaves=13
num_cat=0
split_feature=214 137 69 69 19 128 20 196 137 71 127 200
split_gain=34.5795 15.0335 14.6143 20.462 18.2785 10.1845 9.19249 10.6812 8.07429 6.65168 6.86545 1.16943
threshold=0.88784795575556774 0.22221639158986981 0.52954170681619039 0.59670634784652143 -0.14082245092512977 0.19612704860396854 -0.12975125211304417 -1.3375394255903141 -0.24302851027940039 0.49999999680239443 -0.19363778735936441 0.68702809977249046
decision_type=8 10 10 10 10 10 10 10 8 8 10 10
left_child=2 8 4 5 -1 -4 -6 -8 -2 10 -9 -5
right_child=1 -3 3 11 6 -7 7 9 -10 -11 -12 -13
leaf_value=0.16900536352520593 0.18340731979528313 0.18813148790151463 0.17040202900516105 0.174254775322467 0.18116538145682876 0.16102239864772946 0.16929065358567422 0.17298109474629536 0.17547888640912976 0.18166495827135568 0.17709991116975504 0.17758318666836614
leaf_weight=954 534 615 694 506 870 503 585 1483 794 531 3156 541
leaf_count=954 534 615 694 506 870 503 585 1483 794 531 3156 541
internal_value=0.175613 0.181699 0.174407 0.170867 0.175457 0.166416 0.176391 0.175665 0.178684 0.176391 0.175782 0.175976
internal_weight=11766 1943 9823 2244 7579 1197 6625 5755 1328 5170 4639 1047
internal_count=11766 1943 9823 2244 7579 1197 6625 5755 1328 5170 4639 1047
is_linear=0
shrinkage=1


Tree=1
num_leaves=14
num_cat=1
split_feature=214 123 123 19 129 20 196 247 136 123 210 197 217
split_gain=31.2363 13.9263 17.8566 15.7294 8.49432 8.3447 9.65323 6.10476 5.9877 4.92776 2.02727 1.94309 1.72624
threshold=0.88784795575556774 -0.50243681435924514 -0.61961082918735977 -0.14082245092512977 -0.11195035637285726 -0.12975125211304417 -1.3375394255903141 0 -0.20452424480333659 0.49999999670033285 0.18339562007290472 0.61970960706282374 0.16570161240121944
decision_type=8 10 10 10 10 10 10 1 10 10 10 10 8
left_child=1 2 11 -3 12 -5 -7 10 -4 -9 -8 -1 -2
right_child=4 3 8 5 -6 6 7 9 -10 -11 -12 -13 -14
leaf_value=-0.0020131587253910347 0.0046163368084016117 -0.0062609913781240109 -0.0054267192367835199 0.0052888289661097267 0.0091777862205304813 -0.0060090483104172799 0.0048403319959156119 -0.0015613137780412223 -0.012494524507754146 0.0026067429483892491 0.0012456218439434326 0.0022351333123494499 0.00046663555000807242
leaf_weight=515 500 907 678 871 943 585 916 2582 553 972 691 553 500
leaf_count=515 500 907 678 871 943 585 916 2582 553 972 691 553 500
internal_value=-3.14724e-08 -0.0011465 -0.00454776 -0.000104898 0.00578411 0.000743015 4.99442e-05 0.000741883 -0.00863948 -0.000418137 0.00328292 0.000186731 0.00255413
internal_weight=11766 9823 2299 7524 1943 6617 5746 5161 1231 3554 1607 1068 1000
internal_count=11766 9823 2299 7524 1943 6617 5746 5161 1231 3554 1607 1068 1000
cat_boundaries=0 1
cat_threshold=518
is_linear=0
shrinkage=0.05


Tree=2
num_leaves=17
num_cat=2
split_feature=25 19 123 69 81 129 137 128 247 81 247 133 24 69 73 81
split_gain=28.2871 11.9434 13.5969 18.035 11.1804 9.04412 8.9418 8.11807 5.96137 3.86933 3.46622 3.29224 3.28765 2.13418 1.70357 1.41453
threshold=0.69209708815689985 -0.15047786366828533 -0.50243681435924514 0.59670634784652143 2.1386790085416019 -0.17094105291254522 0.22221639158986981 0.19612704860396854 0 -0.16403824233970618 1 -0.11787421245979469 0.32567530877746048 -0.22576188442120484 -0.18963052691797075 -0.68670399409201288
decision_type=8 10 8 10 8 10 10 10 1 10 1 10 10 8 10 10
left_child=1 -1 3 7 6 10 11 -3 9 -7 -4 -2 15 14 -12 -10
right_child=4 2 5 -5 -6 8 -8 -9 12 -11 13 -13 -14 -15 -16 -17
leaf_value=-0.0081945221952934699 0.0029456361889429361 -0.0047215809601881681 0.000878779137003957 0.00085708059734300804 0.011571855673241507 0.002116829121737523 0.0079994470787220634 -0.013116834128207414 -0.00062374570134335642 0.0070197988554272081 -0.0016282588415475483 -0.0025502241882472531 -0.0028023788964427181 -0.00032955261971289005 -0.0051194827011157391 0.0026000400164747622
leaf_weight=565 587 690 939 978 509 922 601 501 513 718 570 500 621 631 925 996
leaf_count=565 587 690 939 978 509 922 601 501 513 718 570 500 621 631 925 996
internal_value=-9.97586e-08 -0.00117534 -0.000730586 -0.00417484 0.0051097 0.000364658 0.00313267 -0.00829316 0.00200341 0.00425234 -0.00165101 0.00041754 0.000244872 -0.00275897 -0.00379825 0.00150564
internal_weight=11766 9569 9004 2169 2197 6835 1688 1191 3770 1640 3065 1087 2130 2126 1495 1509
internal_count=11766 9569 9004 2169 2197 6835 1688 1191 3770 1640 3065 1087 2130 2126 1495 1509
cat_boundaries=0 1 2
cat_threshold=646 519
is_linear=0
shrinkage=0.05


Tree=3
num_leaves=17
num_cat=1
split_feature=214 137 19 123 123 129 128 137 133 81 133 127 127 127 247 79
split_gain=25.8665 12.9877 11.6285 13.6345 15.9845 8.45985 8.31176 7.18038 5.24058 6.97871 4.71012 3.49906 3.20323 2.96312 1.54831 1.46718
threshold=0.88784795575556774 0.22221639158986981 -0.15047786366828533 -0.50243681435924514 -0.61961082918735977 -0.17094105291254522 0.19612704860396854 -0.24302851027940039 -0.27577761176957932 -0.18816250346690666 -0.11787421245979469 -0.1407108363968852 -0.08762047825427545 -0.27820205762423861 0 -0.15150540057670425
decision_type=8 10 10 10 10 10 10 10 10 10 10 10 10 10 1 10
left_child=2 7 -1 4 -4 11 -6 -2 -7 10 -10 13 -11 -5 -13 -15
right_child=1 -3 3 5 6 8 -8 -9 9 12 -12 14 -14 15 -16 -17
leaf_value=-0.0078005601164599083 0.0062710225158587284 0.011241308842980934 0.00080166883702050397 -0.00032972519695680753 -0.0042802723645321726 -0.0023796784346752833 -0.012655916957487624 -0.0010667602761766349 0.0043601931532920076 0.0082277062070062173 -0.00082595381562919541 0.002596214730197621 0.0033082244476038691 -0.0063450262353910609 -0.00098675755743440246 -0.0027725345737174001
leaf_weight=593 637 615 951 769 711 574 513 691 647 607 1329 546 746 507 641 689
leaf_count=593 637 615 951 769 711 574 513 691 647 607 1329 546 746 507 641 689
internal_value=-1.23225e-07 0.00526342 -0.00104341 -0.000605291 -0.00406149 0.000462349 -0.00782786 0.00246326 0.00201715 0.0027777 0.000878861 -0.00146305 0.00553743 -0.00275533 0.000678828 -0.00430707
internal_weight=11766 1943 9823 9230 2175 7055 1224 1328 3903 3329 1976 3152 1353 1965 1187 1196
internal_count=11766 1943 9823 9230 2175 7055 1224 1328 3903 3329 1976 3152 1353 1965 1187 1196
cat_boundaries=0 1
cat_threshold=580
is_linear=0
shrinkage=0.05


Tree=4
num_leaves=16
num_cat=1
split_feature=81 123 69 123 123 20 81 247 127 131 69 79 21 69 26
split_gain=24.5925 15.5277 19.462 16.6946 15.7446 14.1478 13.5258 8.0701 5.37803 5.30454 4.58718 3.31701 2.37446 1.49019 0.827256
threshold=1.9477667454796053 -0.50243681435924514 0.59670634784652143 -0.57761624657402277 -0.19534778810310727 -0.16458508598253754 0.13175758896011888 0 -0.22744676486573825 -0.17503171048713953 0.21073217087528298 0.5968174102589624 -0.16652220500052201 1.620185123693098 -1.0000000180025095e-35
decision_type=10 8 10 10 10 10 10 1 10 10 10 10 10 10 10
left_child=1 2 3 -1 6 -6 10 11 12 -10 -3 14 -9 -4 -7
right_child=-2 4 13 -5 5 7 -8 8 9 -11 -12 -13 -14 -15 -16
leaf_value=-0.015129058734625431 0.0098613205879325219 0.0038633135150262714 0.0026501209570871645 -0.0037796774725631201 -0.008443394649208024 0.00026463903744712222 0.00939069442457874 -0.001958190394558146 0.0027529735077736388 -0.0017717454103913302 -0.0019980026264445122 0.0061156102180455691 -0.0062934357341118885 -0.00083929324637502494 0.0027412215200678814
leaf_weight=504 595 715 548 905 539 739 791 697 1050 1673 618 511 583 681 617
leaf_count=504 595 715 548 905 539 739 791 697 1050 1673 618 511 583 681 617
internal_value=-1.04721e-07 -0.00052953 -0.00387833 -0.0078785 0.000507427 -0.000729562 0.00423289 -1.46733e-05 -0.00128019 -2.51473e-05 0.0011486 0.00268735 -0.00394956 0.000721039 0.00139745
internal_weight=11766 11171 2638 1409 8533 6409 2124 5870 4003 2723 1333 1867 1280 1229 1356
internal_count=11766 11171 2638 1409 8533 6409 2124 5870 4003 2723 1333 1867 1280 1229 1356
cat_boundaries=0 1
cat_threshold=518
is_linear=0
shrinkage=0.05


Tree=5
num_leaves=16
num_cat=1
split_feature=25 19 247 81 128 69 69 129 69 129 203 81 77 127 127
split_gain=22.2609 8.92033 9.6413 8.8571 7.3919 6.74779 9.01379 4.48403 3.01357 3.93941 2.98405 2.75755 2.7719 1.74849 1.80275
threshold=0.69209708815689985 -0.15047786366828533 0 2.1386790085416019 -0.25454301000096907 0.52954170681619039 0.59670634784652143 -0.17094105291254522 0.38622499731985899 -0.17093957395884257 0.29905230325433957 -0.60247614471452826 -0.032516309553242924 -0.1407108363968852 -0.27820205762423861
decision_type=8 10 1 8 8 10 10 10 10 8 10 10 10 10 10
left_child=1 -1 8 4 -2 7 -7 13 9 -3 -6 -9 -13 14 -4
right_child=3 2 5 -5 10 6 -8 11 -10 -11 -12 12 -14 -15 -16
leaf_value=-0.007108900476504411 0.0077149427972019909 0.00048724758322764582 -0.0012617894706424 0.010284404619410046 -0.0016231850723536717 -0.0079895824308271607 -0.00038070827536540648 -0.0015090554365532033 -0.00070004190446222797 0.0051609774724453352 0.0034566349942641034 0.003566315408585144 -0.00050626019378975564 -0.00057399602186389883 -0.0049664971458490605
leaf_weight=565 518 830 543 509 668 855 712 982 768 985 502 965 732 789 843
leaf_count=565 518 830 543 509 668 855 712 982 768 985 502 965 732 789 843
internal_value=-1.54116e-07 -0.00104272 -0.000658336 0.00453279 0.0027732 -0.00169454 -0.00454453 -0.000774239 0.00191497 0.00303089 0.000561796 0.000594923 0.00181329 -0.00245817 -0.00352484
internal_weight=11766 9569 9004 2197 1688 6421 1567 4854 2583 1815 1170 2679 1697 2175 1386
internal_count=11766 9569 9004 2197 1688 6421 1567 4854 2583 1815 1170 2679 1697 2175 1386
cat_boundaries=0 1
cat_threshold=518
is_linear=0
shrinkage=0.05


Tree=6
num_leaves=12
num_cat=0
split_feature=81 19 123 69 81 128 123 131 131 123 200
split_gain=20.2267 13.5659 15.646 18.9482 11.6805 10.6619 5.57472 4.63981 4.93243 4.20481 1.26967
threshold=1.9477667454796053 -0.15047786366828533 -0.5294991483423388 0.59670634784652143 0.71011963262375188 0.24287654109541967 1.7264307814268021 -0.23306387692496117 -0.25069900466706413 0.49999999670033285 0.59319594826760869
decision_type=10 8 8 10 10 10 10 8 10 10 10
left_child=1 -1 3 5 6 -3 7 8 -4 -9 -5
right_child=-2 2 4 10 -6 -7 -8 9 -10 -11 -12
leaf_value=-0.0073893180126247612 0.0089433014189247238 -0.0039441038503765704 0.00068701526643662712 -0.00039253310392384 0.0062613083439405307 -0.013006629375496967 -0.0045780289903114601 0.00090846264895973335 -0.0043609094531499096 0.0048648719024698348 0.0030235188088799537
leaf_weight=663 595 868 1264 508 937 520 529 3710 778 816 578
leaf_count=663 595 868 1264 508 937 520 529 3710 778 816 578
internal_value=-6.03906e-08 -0.000480198 -4.09614e-05 -0.00351365 0.00102994 -0.00737379 0.000335337 0.000734251 -0.00124219 0.00162635 0.00143111
internal_weight=11766 11171 10508 2474 8034 1388 7097 6568 2042 4526 1086
internal_count=11766 11171 10508 2474 8034 1388 7097 6568 2042 4526 1086
is_linear=0
shrinkage=0.05


Tree=7
num_leaves=17
num_cat=3
split_feature=25 129 127 71 71 129 71 71 127 135 247 129 247 247 131 131
split_gain=18.4642 8.58248 12.8377 7.75987 9.80821 9.92917 8.87749 8.73549 6.77962 6.05605 4.49299 4.43263 3.95886 3.91851 2.04584 1.78998
threshold=0.69209708815689985 -0.11195035637285726 -0.054623290615536245 -0.56978938416383318 -0.32798462062692074 -0.019534121696926279 -0.034237792408969084 -1.4999999579291166 -0.16301092314681911 -0.093895694277533151 0 -0.20025823238678103 1 2 0.033922909558454846 -0.0048409480895005852
decision_type=8 8 8 8 8 10 8 10 8 10 1 10 1 1 8 8
left_child=3 10 -3 7 5 11 -6 -1 9 -8 -2 -5 15 -7 -14 -10
right_child=1 2 -4 4 6 13 8 -9 12 -11 -12 -13 14 -15 -16 -17
leaf_value=9.9916085170715475e-05 0.0043735207667647919 0.012676239397900753 0.0016894597320671672 0.0019095599480357434 -0.0060966162460011838 0.0018337352742372305 -0.0062898331484254333 -0.0078888666800687162 0.0007260549367479139 -0.00046164071405429701 -0.0018586962205049172 -0.0041021637024570073 0.0043422935827228124 0.0075182763470221133 0.00033891860954207503 -0.0025839009806675065
leaf_weight=607 532 544 519 626 887 540 805 779 848 993 602 592 830 764 518 780
leaf_count=607 532 544 519 626 887 540 805 779 848 993 602 592 830 764 518 780
internal_value=-2.48158e-07 0.00412808 0.00734507 -0.000949755 -0.000362632 0.0022281 -0.00151776 -0.00440239 -0.00066153 -0.00308124 0.0010935 -0.00101722 0.000803097 0.00525169 0.00279022 -0.0008576
internal_weight=11766 2197 1063 9569 8183 2522 5661 1386 4774 1798 1134 1218 2976 1304 1348 1628
internal_count=11766 2197 1063 9569 8183 2522 5661 1386 4774 1798 1134 1218 2976 1304 1348 1628
cat_boundaries=0 1 2 3
cat_threshold=358 1144 1114
is_linear=0
shrinkage=0.05


Tree=8
num_leaves=16
num_cat=2
split_feature=81 123 123 123 81 20 132 247 123 123 69 69 211 73 247
split_gain=17.4055 11.0278 15.0163 12.3741 11.3898 10.2069 8.24553 6.2118 4.00191 6.91688 5.11532 3.89452 2.13492 1.62024 1.54814
threshold=1.9477667454796053 -0.50243681435924514 -0.61961082918735977 -0.19534778810310727 0.13175758896011888 -0.16458508598253754 0.092609046834469827 0 0.45787430845957683 0.82140577017826633 -0.34575543933214387 0.21073217087528298 0.50667949037694882 0.0081298819529835292 1
decision_type=10 8 10 10 10 10 10 1 8 10 10 10 10 10 1
left_child=1 2 14 4 11 -5 -4 12 10 -10 -9 -3 13 -7 -1
right_child=-2 3 6 5 -6 7 -8 8 9 -11 -12 -13 -14 -15 -16
leaf_value=0.0025200093464490393 0.0082966535726445734 0.0034037138868128142 -0.0038030738107214393 -0.007219712260958285 0.0084645305634630536 0.0029176624667145803 -0.011786084942840801 -0.0056359788497232976 0.0026015337647456397 -0.0037176165701719764 -0.00060316138647234746 -0.0019965484139735975 0.0048132943017980467 -0.00062686300390286595 -0.00095703911587258705
leaf_weight=587 595 715 855 539 791 649 523 859 1277 649 1218 618 585 633 673
leaf_count=587 595 715 855 539 791 649 523 859 1277 649 1218 618 585 633 673
internal_value=4.00558e-07 -0.000444996 -0.00326716 0.000428885 0.00373161 -0.000667723 -0.00686457 -6.04682e-05 -0.00117056 0.000468071 -0.00269316 0.000901961 0.00231034 0.00117188 0.000678737
internal_weight=11766 11171 2638 8533 2124 6409 1378 5870 4003 1926 2077 1333 1867 1282 1260
internal_count=11766 11171 2638 8533 2124 6409 1378 5870 4003 1926 2077 1333 1867 1282 1260
cat_boundaries=0 1 2
cat_threshold=518 580
is_linear=0
shrinkage=0.05


Tree=9
num_leaves=16
num_cat=1
split_feature=82 19 247 123 129 20 128 123 77 131 131 127 123 123 127
split_gain=15.9884 11.3784 12.5091 7.61527 8.95525 6.61578 5.33241 4.73736 5.77722 4.4572 4.64437 4.62845 3.60117 6.75538 2.97694
threshold=1.9281947267154342 -0.15047786366828533 0 -0.5294991483423388 0.27689477440571414 -0.12975125211304417 0.19612704860396854 -0.18049783363431068 -0.014440945063438553 0.227232248116601 0.033920679935685788 -0.099742008289523204 0.45787430845957683 0.56056630474259872 -0.19408294131862641
decision_type=10 8 1 10 8 10 10 10 10 10 8 8 10 10 10
left_child=1 -1 5 4 6 -3 -4 8 -5 10 11 -7 14 -14 -9
right_child=-2 2 3 7 -6 9 -8 12 -10 -11 -12 -13 13 -15 -16
leaf_value=-0.0067551961426261537 0.0080295851890844466 0.0077606561485882549 -0.0035090221035887258 0.0051809886122642463 0.0011687824413011631 -0.00043348317286813877 -0.010196788993172438 -0.0045585965387304498 -0.0013601219738886455 0.0053159786233261327 -0.0036972962922863883 0.0047995520456490179 0.0030209973895702208 -0.0029096615065856337 -0.00076872771249783328
leaf_weight=662 584 503 697 757 567 1013 527 982 603 614 501 719 1092 849 1096
leaf_count=662 584 503 697 757 567 1013 527 982 603 614 501 719 1092 849 1096
internal_value=3.76221e-07 -0.000422365 -2.08343e-05 -0.00119903 -0.00401976 0.00249503 -0.00641825 -0.000259205 0.00228642 0.00156148 0.000519552 0.00174645 -0.0011224 0.000426096 -0.00256635
internal_weight=11766 11182 10520 7170 1791 3350 1224 5379 1360 2847 2233 1732 4019 1941 2078
internal_count=11766 11182 10520 7170 1791 3350 1224 5379 1360 2847 2233 1732 4019 1941 2078
cat_boundaries=0 1
cat_threshold=518
is_linear=0
shrinkage=0.05


Tree=10
num_leaves=15
num_cat=1
split_feature=19 25 247 22 125 71 125 129 125 212 127 23 127 129
split_gain=14.7352 19.7821 9.54668 7.74058 6.93177 6.22778 6.45394 5.53044 5.51956 4.09704 2.55994 2.36654 2.19221 3.44574
threshold=-0.15047786366828533 1.2358002239603545 0 0.025246897317409835 0.56827642640291665 -0.32798462062692074 1.0000000180025095e-35 -0.019534121696926279 1.3654236666393871 0.57214338078652649 -0.16937694499026837 -0.069796456034857832 0.13260908433927091 -0.022058506900616101
decision_type=8 8 1 10 10 8 10 10 10 10 10 10 10 8
left_child=-1 2 9 -3 5 7 10 -4 -6 12 -7 -9 13 -2
right_child=1 3 4 -5 8 6 -8 11 -10 -11 -12 -13 -14 -15
leaf_value=-0.0069717518486173474 0.00047258866541898529 0.010901866729628291 -0.0010169645259885914 0.0024640511816068651 -0.0085837504578755077 -0.0026179307933082464 -0.0068296135315627218 0.0065475769197676009 -0.0013519066636818059 0.0059125181778594974 9.6620689748085368e-05 0.0018362146374574563 -0.0014233238643438591 0.0055472981019573679
leaf_weight=707 954 560 969 531 517 1372 520 530 538 609 2351 542 555 511
leaf_count=707 954 560 969 531 517 1372 520 530 538 609 2351 542 555 511
internal_value=3.80516e-07 0.000449057 -0.000251872 0.00682508 -0.00117769 -0.000547934 -0.00163908 0.00171889 -0.00491963 0.00232558 -0.000905915 0.00418511 0.00124373 0.00225552
internal_weight=11766 11059 9968 1091 7339 6284 4243 2041 1055 2629 3723 1072 2020 1465
internal_count=11766 11059 9968 1091 7339 6284 4243 2041 1055 2629 3723 1072 2020 1465
cat_boundaries=0 1
cat_threshold=516
is_linear=0
shrinkage=0.05


Tree=11
num_leaves=15
num_cat=1
split_feature=81 123 123 19 128 81 247 25 129 131 133 127 197 127
split_gain=13.6218 8.87712 13.1362 10.8499 8.43679 8.25345 5.48987 3.57456 1.96823 3.03422 1.65146 1.63093 1.57325 1.08029
threshold=1.9477667454796053 -0.50243681435924514 -0.61961082918735977 -0.15047786366828533 0.24287654109541967 0.71011963262375188 0 0.030385994130384193 -0.16752566326920112 -0.0048409480895005852 -0.14696122600807096 -0.23710196289338537 0.60204228561179096 -0.13367492546287149
decision_type=10 8 10 8 10 10 1 8 10 10 8 8 10 10
left_child=1 2 12 -3 -4 6 8 11 13 -10 -9 -8 -1 -5
right_child=-2 3 4 5 -6 -7 7 10 9 -11 -12 -13 -14 -15
leaf_value=-0.0011224702659049129 0.0073397875649000828 -0.0065243914366600849 -0.0032550097905745751 -0.003055141940606377 -0.011358837644901677 0.0052591723345382603 -0.0018480569604693324 0.0022246729067824577 0.002061372412667697 -0.0018278410189422019 0.0062182601289479137 0.0014031383675276153 0.0024065672789171828 -0.00060577335833557778
leaf_weight=587 595 527 867 1190 511 932 502 536 995 1001 512 1611 673 727
leaf_count=587 595 527 867 1190 511 932 502 536 995 1001 512 1611 673 727
internal_value=4.67344e-07 -0.000393555 -0.00292561 0.00039049 -0.00629033 0.000849455 0.00026517 0.00181011 -0.000985681 0.000111227 0.004196 0.00062819 0.000764546 -0.00213024
internal_weight=11766 11171 2638 8533 1378 8006 7074 3161 3913 1996 1048 2113 1260 1917
internal_count=11766 11171 2638 8533 1378 8006 7074 3161 3913 1996 1048 2113 1260 1917
cat_boundaries=0 1
cat_threshold=1400
is_linear=0
shrinkage=0.05


Tree=12
num_leaves=17
num_cat=0
split_feature=82 71 125 71 129 133 127 131 127 23 129 131 25 133 128 131
split_gain=12.5257 8.67098 13.441 10.0479 13.4783 9.127 6.89171 9.24096 6.80183 6.75865 5.90272 5.8008 4.25899 3.58488 2.08569 1.93444
threshold=1.9281947267154342 -0.5776162498338987 1.3654236666393871 -0.32798462062692074 -0.019534121696926279 -0.24841091556451064 -0.15370192929130413 0.03664914043639237 -0.19056899759465515 -0.21868794006124551 -0.20025823238678103 0.11334236092268234 -0.15444653686134313 -0.27577761176957932 -0.26921884378966637 -0.025874280999660375
decision_type=10 8 10 10 10 10 10 10 10 10 10 10 8 10 8 10
left_child=1 2 -1 4 10 13 8 15 14 -6 12 -9 -3 -5 -7 -8
right_child=-2 3 -4 5 9 6 7 11 -10 -11 -12 -13 -14 -15 -16 -17
leaf_value=-0.0092723975671341712 0.0071071332905439351 -0.0013216036450021339 0.00052970394828872551 0.00026567780271188424 0.0096988258910806757 -0.00013930031075031803 0.00090636522337668934 -0.0076178365819053462 -0.0083961125449185433 0.0029616266999948314 -0.0042600282708998528 -0.00096706816944897944 0.0050122233415601722 0.0049569669514312412 -0.0041689032767524828 0.0046994461249995831
leaf_weight=651 584 550 748 991 646 627 970 515 678 885 671 892 505 687 654 512
leaf_count=651 584 550 748 991 646 627 970 515 678 885 671 892 505 687 654 512
internal_value=3.86954e-07 -0.000373786 -0.00404831 0.000153482 0.0024196 -0.000978482 -0.00207816 -0.00052364 -0.00436349 0.00582668 -0.00061065 -0.00341978 0.00171957 0.00219539 -0.00220478 0.00222819
internal_weight=11766 11182 1399 9783 3257 6526 4848 2889 1959 1531 1726 1407 1055 1678 1281 1482
internal_count=11766 11182 1399 9783 3257 6526 4848 2889 1959 1531 1726 1407 1055 1678 1281 1482
is_linear=0
shrinkage=0.05


Tree=13
num_leaves=14
num_cat=0
split_feature=25 71 71 129 71 133 129 123 25 129 69 133 202
split_gain=11.6067 8.48415 10.4244 12.7785 9.3861 8.43701 7.51463 8.34478 6.99359 6.92477 4.71907 3.18494 1.20759
threshold=2.1842104365205333 -0.5776162498338987 -0.32798462062692074 -0.019534121696926279 -1.4999999579291166 -0.24841091556451064 0.2819541770669598 -0.50243681435924514 0.038611214493022447 -0.20025823238678103 -0.33443296735172418 -0.27252195049829903 0.023918168288338253
decision_type=8 8 8 10 10 8 10 8 10 10 8 10 10
left_child=1 4 3 9 -1 11 7 -7 -5 -3 -9 12 -4
right_child=-2 2 5 8 -6 6 -8 10 -10 -11 -12 -13 -14
leaf_value=0.00013117475867327591 0.0073630755018314177 0.0021765554770969684 0.0020933707542418554 0.0031147881657015517 -0.0079952502991075085 -0.0077820418519728559 0.0019922438724060726 -0.0040813080539996065 0.01002838506212792 -0.0043665882106743879 -0.00023981994207965295 0.0048545573380306874 -0.001314627838930315
leaf_weight=708 507 972 513 963 708 722 956 1375 592 685 1902 646 517
leaf_count=708 507 972 513 963 708 722 956 1375 592 685 1902 646 517
internal_value=3.67496e-07 -0.000334301 0.000186994 0.00252273 -0.00394587 -0.000945463 -0.00198237 -0.00293384 0.00577055 -0.000533364 -0.00185544 0.00211686 0.000384667
internal_weight=11766 11259 9843 3212 1416 6631 4955 3999 1555 1657 3277 1676 1030
internal_count=11766 11259 9843 3212 1416 6631 4955 3999 1555 1657 3277 1676 1030
is_linear=0
shrinkage=0.05


Tree=14
num_leaves=13
num_cat=1
split_feature=19 82 247 20 20 125 137 125 138 214 137 125
split_gain=10.9355 14.4967 9.45007 5.93366 5.38656 4.71934 4.44693 4.20225 3.20804 3.01993 2.97155 2.6693
threshold=-0.15047786366828533 1.9281947267154342 0 -0.14579116734514722 -0.12975125211304417 0.5776162431336116 0.23055361951469933 0.42773698076999783 -0.31277846041053542 -0.14240796887862847 0.072112141008318462 -0.29932916592862896
decision_type=8 10 1 8 10 10 10 10 8 10 10 10
left_child=-1 2 4 -4 -2 7 10 8 -5 -9 11 -6
right_child=1 -3 3 5 6 -7 -8 9 -10 -11 -12 -13
leaf_value=-0.0060058289808724756 0.0069130205991844084 0.008345963998577002 0.0037029162721582336 -0.004702468691120126 0.0039899511144502334 -0.0050562811608750114 0.004106765841765443 -0.00057083477388129714 -0.0011037915689804864 0.0043289633925259448 -0.0030280558193512895 -0.00059622887946641861
leaf_weight=707 503 539 597 738 524 806 948 725 3755 549 585 790
leaf_count=707 503 539 597 738 524 806 948 725 3755 549 585 790
internal_value=4.7601e-07 0.000386999 -2.45559e-05 -0.00104859 0.00216217 -0.00148424 0.00131973 -0.000981056 -0.00169946 0.00154929 -7.87136e-05 0.00124085
internal_weight=11766 11059 10520 7170 3350 6573 2847 5767 4493 1274 1899 1314
internal_count=11766 11059 10520 7170 3350 6573 2847 5767 4493 1274 1899 1314
cat_boundaries=0 1
cat_threshold=518
is_linear=0
shrinkage=0.05


Tree=15
num_leaves=14
num_cat=0
split_feature=25 137 137 71 125 71 129 69 135 127 125 77 129
split_gain=10.0111 7.56769 7.99127 4.60562 7.1012 5.43546 3.41053 7.43759 3.64456 3.5569 3.96342 3.2353 1.20825
threshold=0.69209708815689985 0.22221639158986981 -0.24302851027940039 -0.56978938416383318 0.93433686478487887 -0.42585274273067425 0.28747666003555289 0.095269419392457713 -0.31584543668237336 -0.23711993895530989 0.061917878349044164 -0.20690364352255558 0.49999586831034887
decision_type=8 8 10 8 10 8 10 10 10 8 8 10 10
left_child=3 2 -2 4 -1 11 7 9 -9 -7 -11 -5 -8
right_child=1 -3 -4 5 -6 6 12 8 -10 10 -12 -13 -14
leaf_value=-0.0080179389038965796 0.0054262005153798941 0.0070342613603670903 -0.0021693513080560905 0.00530532361759077 -0.00061552735396648182 -0.0034188784126390663 0.0035362847604923937 -0.0011403788413916528 -0.0064667962769659861 0.0013147372313117114 -0.0025294119407851933 0.00053762352086141204 8.682648598319337e-05
leaf_weight=510 574 766 857 602 876 750 506 511 871 2687 888 863 505
leaf_count=510 574 766 857 602 876 750 506 511 871 2687 888 863 505
internal_value=6.71469e-07 0.00304051 0.000885647 -0.000698486 -0.00335839 -0.000246187 -0.000848248 -0.0013225 -0.00450854 -0.000300403 0.000357684 0.00250816 0.00182217
internal_weight=11766 2197 1431 9569 1386 8183 6718 5707 1382 4325 3575 1465 1011
internal_count=11766 2197 1431 9569 1386 8183 6718 5707 1382 4325 3575 1465 1011
is_linear=0
shrinkage=0.05


Tree=16
num_leaves=13
num_cat=1
split_feature=19 81 20 247 125 125 125 129 137 81 137 23
split_gain=9.78423 13.4498 7.7577 6.87925 4.37057 3.95326 5.20464 3.41648 3.06599 4.1996 3.16155 2.11047
threshold=-0.15047786366828533 1.9477667454796053 -0.14579116734514722 0 0.5776162431336116 0.16362892252938635 1.0000000180025095e-35 0.044062757725870337 0.23055361951469933 -0.015460601357123018 0.06127998934608106 -0.23061487932336783
decision_type=8 10 10 1 10 10 8 10 10 10 10 10
left_child=-1 2 -2 8 5 6 -5 -7 10 -10 11 -4
right_child=1 -3 3 4 -6 7 -8 -9 9 -11 -12 -13
leaf_value=-0.0056807226400849876 0.0044591394951186717 0.0079449195185091626 0.0039473511526955506 -0.0010763780406638467 -0.0048305819505174421 -0.0010135992003855411 -0.0064033841159277394 0.0031229332358237698 0.00039154708407967249 0.0067139273336427087 -0.0026864364408077102 5.3413561221186221e-05
leaf_weight=707 875 551 581 3232 793 1067 530 930 504 545 594 857
leaf_count=707 875 551 581 3232 793 1067 530 930 504 545 594 857
internal_value=6.14174e-07 0.000366224 -3.47637e-05 -0.000445063 -0.00136006 -0.000880757 -0.00183436 0.000915766 0.00149935 0.00369256 0.000368196 0.00163492
internal_weight=11766 11059 10508 9633 6552 5759 3762 1997 3081 1049 2032 1438
internal_count=11766 11059 10508 9633 6552 5759 3762 1997 3081 1049 2032 1438
cat_boundaries=0 1
cat_threshold=518
is_linear=0
shrinkage=0.05


Tree=17
num_leaves=13
num_cat=0
split_feature=214 137 137 20 20 70 70 123 125 129 129 129
split_gain=8.32945 9.65699 6.10654 3.48639 4.38737 4.16607 9.82153 4.96449 4.05034 3.52811 3.959 2.36373
threshold=0.78911108507854755 0.22221639158986981 0.033900241564772546 -0.16458508598253754 -0.14082247539942463 -0.99582850076416862 -1.1209771503124133 0.49999999654513622 0.49999997755276099 0.28195471480545947 0.10820792411517656 0.32725573862137131
decision_type=8 10 8 10 10 8 10 10 10 10 10 10
left_child=3 2 -2 -1 -5 6 -6 9 -9 10 -7 -11
right_child=1 -3 -4 4 5 7 -8 8 -10 11 -12 -13
leaf_value=-0.0038984252622351052 0.0028876515388578773 0.007746349860126964 -0.0038927772755214755 0.0033412474866425929 0.00071088954724333824 -0.00088727795104760017 -0.0086579559536331795 0.0044122889640081896 -0.0011444504605973528 0.004062260450353317 -0.0049694571588251076 -0.00047210302982887172
leaf_weight=745 947 675 505 734 621 3765 503 905 510 516 701 639
leaf_count=745 947 675 505 734 621 3765 503 905 510 516 701 639
internal_value=6.88439e-07 0.00282891 0.000524178 -0.000624548 -0.000348278 -0.000681997 -0.00350153 -0.000229411 0.00241253 -0.000896031 -0.00153287 0.00156242
internal_weight=11766 2127 1452 9639 8894 8160 1124 7036 1415 5621 4466 1155
internal_count=11766 2127 1452 9639 8894 8160 1124 7036 1415 5621 4466 1155
is_linear=0
shrinkage=0.05


Tree=18
num_leaves=15
num_cat=1
split_feature=19 25 22 247 125 71 125 125 212 129 24 72 128 129
split_gain=8.45125 11.719 7.01846 6.49445 3.86773 3.57447 4.19648 3.54089 3.46673 2.77693 1.90728 1.53684 1.51383 2.1933
threshold=-0.15047786366828533 1.2358002239603545 0.025246897317409835 0 0.56827642640291665 -0.32798462062692074 1.0000000180025095e-35 1.3654236666393871 0.57214338078652649 -0.019534121696926279 -0.20324896736467249 0.95678538960917348 0.18919458464470129 -0.018248962655753442
decision_type=8 8 10 1 10 8 10 10 10 10 10 10 8 10
left_child=-1 3 -3 8 5 9 11 -6 12 -5 -11 -7 13 -2
right_child=1 2 -4 4 7 6 -8 -9 -10 10 -12 -13 -14 -15
leaf_value=-0.005279529244158726 0.0003360221934330363 0.0091275164420897784 0.0011094839245132206 -0.00071353617326581898 -0.0066924590635050645 -0.00017905745155232815 -0.0055043614702299237 -0.00090239668632682239 0.0052250606940002393 0.0052048380185697966 0.00097866547563234762 -0.0026072507151421891 -0.0013604039801090283 0.0043486298028966265
leaf_weight=707 972 560 531 969 517 2886 520 538 609 502 570 837 528 520
leaf_count=707 972 560 531 969 517 2886 520 538 609 502 570 837 528 520
internal_value=6.37832e-07 0.000340431 0.00524793 -0.000199057 -0.000962689 -0.000492312 -0.00131891 -0.00375799 0.00192678 0.00122512 0.00297269 -0.000727725 0.000931471 0.00174437
internal_weight=11766 11059 1091 9968 7339 6284 4243 1055 2629 2041 1072 3723 2020 1492
internal_count=11766 11059 1091 9968 7339 6284 4243 1055 2629 2041 1072 3723 2020 1492
cat_boundaries=0 1
cat_threshold=516
is_linear=0
shrinkage=0.05


Tree=19
num_leaves=15
num_cat=2
split_feature=19 20 247 25 213 71 125 125 218 247 25 214 127 129
split_gain=8.02377 11.0921 8.98525 7.37675 7.26896 4.45375 4.08831 4.62886 3.60044 3.59864 3.4069 2.43462 2.18207 1.96176
threshold=1.0000000180025095e-35 -0.14579116734514722 0 -0.12762343982261784 0.79044298809694447 -0.5776162498338987 0.16362892252938635 1.0000000180025095e-35 -0.86642847665324474 1 -0.049219745180015144 -0.044790127428245043 -0.23711993895530989 -0.018245793498587303
decision_type=8 10 1 8 10 8 10 8 8 1 10 10 10 10
left_child=1 -1 4 -2 8 -4 7 12 -3 -10 13 -11 -7 -8
right_child=3 2 5 -5 -6 6 10 -9 9 11 -12 -13 -14 -15
leaf_value=-0.0069382958721814275 0.00011024467393403256 0.0044046039250882699 -0.0045522597041209477 0.0085012347820489012 0.0069120616731566777 -0.0031554129127285635 -0.0020760523829786901 -0.0058169673590457334 0.0028208601263246158 0.0009890920450953463 0.0038762396648760107 -0.0031542876151605635 -0.00013413838574819742 0.0018182318534870484
leaf_weight=608 541 596 806 503 628 779 723 543 748 606 749 843 2516 577
leaf_count=608 541 596 806 503 628 779 723 543 748 606 749 843 2516 577
internal_value=6.71591e-07 -0.000407469 -1.16356e-05 0.00417428 0.00206761 -0.00107663 -0.000599147 -0.0015612 0.000975333 3.71551e-05 0.0012023 -0.00141428 -0.000852123 -0.000347245
internal_weight=11766 10722 10114 1044 3421 6693 5887 3838 2793 2197 2049 1449 3295 1300
internal_count=11766 10722 10114 1044 3421 6693 5887 3838 2793 2197 2049 1449 3295 1300
cat_boundaries=0 1 2
cat_threshold=518 6
is_linear=0
shrinkage=0.05


Tree=20
num_leaves=14
num_cat=0
split_feature=25 71 125 71 129 129 133 25 129 127 129 133 197
split_gain=7.42771 5.49668 8.67483 6.84969 8.40833 6.03606 5.94865 5.56461 4.98602 5.76115 5.41971 2.28834 1.18029
threshold=2.1842104365205333 -0.5776162498338987 1.3654236666393871 -0.32798462062692074 -0.019534121696926279 -0.20025823238678103 -0.24841091556451064 0.038611214493022447 0.2819541770669598 0.35515471141528893 -0.20644786936595072 -0.27252195049829903 0.30053598744982418
decision_type=8 8 10 8 10 10 8 10 10 8 10 10 10
left_child=1 2 -1 4 5 -3 11 -6 9 10 -8 12 -5
right_child=-2 3 -4 6 7 -7 8 -9 -10 -11 -12 -13 -14
leaf_value=-0.0073570537069260937 0.0058907600320026177 0.0020968711567819695 0.00047159142352162781 0.0019885914112764678 0.0023150731285561748 -0.0040119336520328423 -0.0012690966761677452 0.0084770144545156297 0.0016016670020267028 0.0024216569267123105 -0.0052289045377297109 0.0041266441394961833 -0.0013811743327167671
leaf_weight=657 507 972 759 525 963 685 1822 592 956 531 1646 646 505
leaf_count=657 507 972 759 525 963 685 1822 592 956 531 1646 646 505
internal_value=8.34398e-07 -0.00026689 -0.00317387 0.000152704 0.00204606 -0.000432967 -0.000765273 0.00468062 -0.00163596 -0.00241098 -0.00315334 0.00180607 0.000337734
internal_weight=11766 11259 1416 9843 3212 1657 6631 1555 4955 3999 3468 1676 1030
internal_count=11766 11259 1416 9843 3212 1657 6631 1555 4955 3999 3468 1676 1030
is_linear=0
shrinkage=0.05


Tree=21
num_leaves=17
num_cat=1
split_feature=19 20 247 213 81 127 129 127 131 135 129 125 20 129 211 218
split_gain=6.89949 9.53006 7.92529 6.51123 5.06015 3.96889 6.62617 4.42351 3.70684 3.46225 3.0609 2.41868 2.70321 2.37934 1.63017 1.37498
threshold=1.0000000180025095e-35 -0.14579116734514722 0 0.86737332080855145 -0.13427231393308062 0.084654350863032954 0.10820792411517656 -0.1471880407068922 0.227232248116601 -0.023374658409430506 -0.23891637057479856 -0.54851738934744698 -0.11868002853356478 0.069522962572251365 -0.09404336700485369 -0.24176997121662117
decision_type=8 10 1 10 8 10 10 10 10 8 10 10 10 10 10 10
left_child=1 -1 3 8 -2 7 -7 11 9 15 -11 -4 -13 14 -9 -3
right_child=4 2 5 -5 -6 6 -8 13 -10 10 -12 12 -14 -15 -16 -17
leaf_value=-0.0064310049254057526 0.00050765085927937769 -0.00019349621819083208 -0.0046212977548964534 0.0069493832829899127 0.0074619090193409586 0.00014243732927634087 -0.0057406950893909153 -0.0013832963559977296 0.0047348567211263123 -0.0011300097024616207 0.0038525747614616794 -0.0039267279249618151 0.00017896161276032316 0.0037669355678896193 0.0020316259996973544 -0.0037820595085439426
leaf_weight=608 542 541 525 542 502 915 998 728 534 507 774 529 1607 728 663 523
leaf_count=608 542 541 525 542 502 915 998 728 534 507 774 529 1607 728 663 523
internal_value=1.00809e-06 -0.000377459 -1.05545e-05 0.0019422 0.00387118 -0.00101077 -0.00293372 -0.000241033 0.000995875 0.000136176 0.00188382 -0.00159703 -0.000844646 0.00146155 0.000245824 -0.00196686
internal_weight=11766 10722 10114 3421 1044 6693 1913 4780 2879 2345 1281 2661 2136 2119 1391 1064
internal_count=11766 10722 10114 3421 1044 6693 1913 4780 2879 2345 1281 2661 2136 2119 1391 1064
cat_boundaries=0 1
cat_threshold=518
is_linear=0
shrinkage=0.05


Tree=22
num_leaves=16
num_cat=0
split_feature=25 127 129 129 129 25 123 25 129 133 19 133 125 79 26
split_gain=6.49655 4.85575 11.5017 10.6864 9.65196 7.45089 4.92338 5.09644 3.32264 4.83543 2.86052 2.42134 2.13117 1.96451 1.9071
threshold=2.1842104365205333 0.084654350863032954 -0.019534121696926279 0.10820792411517656 0.23840905608288146 -1.0000000180025095e-35 0.49999999621294927 1.0000000180025095e-35 -0.15025659992266777 -0.20029644757884582 -1.0000000180025095e-35 0.031024006610050985 -0.22789973254628934 0.099474447732930557 0.30616676648519076
decision_type=8 10 10 10 10 10 10 10 10 10 10 10 10 10 10
left_child=1 2 6 11 -5 13 8 -8 10 -10 12 -3 -1 -4 -12
right_child=-2 3 5 4 -6 -7 7 -9 9 -11 14 -13 -14 -15 -16
leaf_value=-0.0044621013348886294 0.0055093896998737795 -0.000899006501434696 0.002486750235952761 -0.0090233402765230262 -0.00127339204338345 0.0068671646651828335 -0.0006021251381369124 0.0055137066615845998 -0.0067611389436739479 -0.00043573130340808882 -0.00051372204663414933 0.0031834515461355451 -0.00022998734946840001 -0.0013311241911282182 0.0030468617720180191
leaf_weight=703 507 709 917 719 907 909 890 546 653 560 1469 736 514 527 500
leaf_count=703 507 709 917 719 907 909 890 546 653 560 1469 736 514 527 500
internal_value=1.00902e-06 -0.000249372 0.000386703 -0.00194317 -0.00471749 0.00333385 -0.000803589 0.00173432 -0.00163309 -0.00385469 -0.000782542 0.00118417 -0.00268292 0.0010936 0.000395866
internal_weight=11766 11259 8188 3071 1626 2353 5835 1436 4399 1213 3186 1445 1217 1444 1969
internal_count=11766 11259 8188 3071 1626 2353 5835 1436 4399 1213 3186 1445 1217 1444 1969
is_linear=0
shrinkage=0.05


Tree=23
num_leaves=19
num_cat=1
split_feature=82 137 137 214 71 127 135 137 127 127 137 200 21 135 81 247 24 137
split_gain=6.02296 4.401 5.05887 6.20649 4.25353 3.99939 4.48558 5.30536 3.57944 6.3921 3.06967 2.91113 2.23309 2.1916 1.97046 1.96262 1.80498 0.585392
threshold=1.9281947267154342 0.26462469091165353 0.3286726540755836 -0.098771174851930391 -0.5776162498338987 -0.1471880407068922 -0.1385930940066703 -0.025626640035274238 0.13260908433927091 0.22120192249909898 0.072112141008318462 0.6287121353989088 -0.037591280525971389 -0.18319936446109727 -0.29118687343958466 0 -0.10526774147859543 0.49999999987205451
decision_type=10 8 8 10 8 10 10 10 10 10 10 8 10 10 10 1 10 10
left_child=1 4 3 -3 -1 6 13 -8 10 -10 15 17 -9 -6 -12 -7 -11 -4
right_child=-2 2 11 -5 5 8 7 12 9 16 14 -13 -14 -15 -16 -17 -18 -19
leaf_value=-0.004134758378332294 0.0049290346852830826 0.00033977244185464745 -0.00043608267715270003 0.0081980597638543935 -0.002169635024990269 0.00082476882258756363 0.0024582876529458584 -0.00052008270446487982 -0.0059556124816459834 0.0027279882779374172 -0.0020861677099813822 0.002537595218810322 -0.0050843349845547765 -0.0066111093896139205 0.0018399313294490023 0.0048005902063242706 -0.001020240425283425 -0.0026850310063729049
leaf_weight=869 584 500 550 501 577 516 891 550 503 578 620 651 520 544 649 841 711 611
leaf_count=869 584 500 550 501 577 516 891 550 503 578 620 651 520 544 649 841 711 611
internal_value=9.81425e-07 -0.000258483 0.00145084 0.00429404 -0.000833545 -0.000448545 -0.00182945 -0.000384179 0.000515757 -0.00120508 0.00169012 -0.000127321 -0.00275156 -0.00434478 -7.89166e-05 0.00333866 0.000664548 -0.00162608
internal_weight=11766 11182 2813 1001 8369 7500 3082 1961 4418 1792 2626 1812 1070 1121 1269 1357 1289 1161
internal_count=11766 11182 2813 1001 8369 7500 3082 1961 4418 1792 2626 1812 1070 1121 1269 1357 1289 1161
cat_boundaries=0 1
cat_threshold=1114
is_linear=0
shrinkage=0.05


Tree=24
num_leaves=12
num_cat=0
split_feature=19 20 71 71 81 71 81 196 123 129 214
split_gain=5.67852 7.91878 6.19937 9.22048 9.07228 5.82958 4.16631 2.86628 5.94636 4.20543 2.31147
threshold=1.0000000180025095e-35 -0.14579116734514722 -0.5776162498338987 -1.4999999579291166 0.93521985288121534 -1.0000000180025095e-35 -0.13427231393308062 -1.2934521227634768 0.49999999654513622 0.13831697162667059 -0.36629341316507041
decision_type=8 10 8 10 10 10 8 8 10 10 10
left_child=1 -1 3 -3 7 -6 -2 -4 9 -9 -10
right_child=6 2 4 -5 5 -7 -8 8 10 -11 -12
leaf_value=-0.0058603431955373021 0.00046017202617318776 0.00044666628924228168 -0.0037304301942349414 -0.0082690859400715126 0.0084326475694842546 0.001291017626599848 0.0067703882411638498 -0.0013179425483814443 0.0010845616675200576 0.0018040171825597193 0.0053254370034300676
leaf_weight=608 542 700 520 530 527 622 502 4516 658 1412 629
leaf_count=608 542 700 520 530 527 622 502 4516 658 1412 629
internal_value=1.12782e-06 -0.000342223 -7.77103e-06 -0.00332718 0.000453417 0.00458894 0.0035122 -0.000163464 9.60202e-05 -0.000573424 0.00316981
internal_weight=11766 10722 10114 1230 8884 1149 1044 7735 7215 5928 1287
internal_count=11766 10722 10114 1230 8884 1149 1044 7735 7215 5928 1287
is_linear=0
shrinkage=0.05


Tree=25
num_leaves=17
num_cat=2
split_feature=25 137 81 71 127 135 133 133 137 137 247 200 137 129 22 247
split_gain=5.15268 4.41804 5.30873 4.38119 3.91601 5.19479 4.65268 3.79699 3.58061 6.94692 2.48949 2.07769 1.76758 1.65898 1.49562 1.0742
threshold=2.1842104365205333 0.26462469091165353 0.52227985990092507 -0.5776162498338987 -0.1471880407068922 -0.1385930940066703 -0.23495232581440803 -0.064645463769126998 -0.24302851027940039 -0.042286134990820352 0 0.6287121353989088 0.49999999953356417 -0.22176482771011993 -0.13176088881305295 1
decision_type=8 10 10 8 10 8 8 10 10 10 1 10 10 10 10 1
left_child=1 3 11 -1 5 10 14 13 -9 -10 -5 12 -3 -6 -7 -15
right_child=-2 2 -4 4 7 6 -8 8 9 -11 -12 -13 -14 15 -16 -17
leaf_value=-0.004099860188035675 0.0049068855057043947 0.00074281813613644426 0.0061573283299821025 -0.0065256348916740564 1.310643880451462e-05 8.6884769530159921e-05 -0.002729122017288164 0.0020942063105199829 -0.0068674265335758738 2.7609463712928474e-05 -0.001759019194482682 0.0025551484121047519 -0.0028318573853268508 0.0044116223891303239 0.0038249229823071316 0.0013497836784453121
leaf_weight=886 507 890 500 619 558 508 958 808 502 1307 536 777 559 788 561 502
leaf_count=886 507 890 500 619 558 508 958 808 502 1307 536 777 559 788 561 502
internal_value=1.20815e-06 -0.000221778 0.00152883 -0.000781604 -0.000394715 -0.00173365 -0.000206037 0.000560353 -0.000664749 -0.00189943 -0.00440213 0.000477714 -0.000641228 0.00229236 0.00205724 0.00327442
internal_weight=11766 11259 2726 8533 7647 3182 2027 4465 2617 1809 1155 2226 1449 1848 1069 1290
internal_count=11766 11259 2726 8533 7647 3182 2027 4465 2617 1809 1155 2226 1449 1848 1069 1290
cat_boundaries=0 1 2
cat_threshold=672 676
is_linear=0
shrinkage=0.05


Tree=26
num_leaves=16
num_cat=2
split_feature=139 19 197 197 123 135 25 247 247 137 196 21 123 132 84
split_gain=5.06146 6.38412 6.28805 10.789 8.42343 7.02658 6.59502 4.89217 4.23666 3.41641 3.10419 1.99628 1.6764 1.07298 0.782522
threshold=-0.53081864351488572 1.0000000180025095e-35 0.45552774359466186 0.52970867979408853 0.49999999654513622 -0.3246248283860681 0.038611214493022447 0 1 -0.19870757937167205 -0.44335571276550445 0.0796395366710516 0.1671192290381234 -0.043969592040344306 -0.20332884026057077
decision_type=8 8 10 10 10 8 10 1 1 8 10 10 10 8 10
left_child=-1 2 4 -4 5 7 -6 -2 13 -10 -5 14 -13 -7 -12
right_child=1 -3 3 10 6 8 -8 -9 9 -11 11 12 -14 -15 -16
leaf_value=0.0047341036384062176 0.0056960581119395483 0.0036084662507772634 -0.0090036104036635249 -0.0042928843728266657 0.0010650925828296117 0.0010891129720199543 0.0080319323350223921 -0.00027803393485347465 -0.0063061087501043167 -0.0019285132475825081 0.0024749726405095037 -6.1619357157270197e-05 -0.0040118997238143021 -0.0015815961131767165 -3.3322530140782426e-05
leaf_weight=534 614 985 510 620 915 1128 537 758 610 1648 527 574 500 558 748
leaf_count=534 614 985 510 620 915 1128 537 758 610 1648 527 574 500 558 748
internal_value=1.0694e-06 -0.000225958 -0.000596125 -0.00232205 0.00029212 -0.000630457 0.00366039 0.00244582 -0.00170235 -0.00310871 -0.00116111 -0.000327142 -0.00191074 0.000201956 0.00100906
internal_weight=11766 11232 10247 3479 6768 5316 1452 1372 3944 2258 2969 2349 1074 1686 1275
internal_count=11766 11232 10247 3479 6768 5316 1452 1372 3944 2258 2969 2349 1074 1686 1275
cat_boundaries=0 1 2
cat_threshold=660 1102
is_linear=0
shrinkage=0.05


Tree=27
num_leaves=12
num_cat=1
split_feature=126 72 209 19 214 247 127 214 129 126 25
split_gain=4.8683 7.87623 5.36133 4.73676 6.24167 3.43131 3.31381 5.29771 4.95876 1.08558 1.05187
threshold=-1.1213647528564425 0.98982175277755446 0.49970378759765094 -0.15047786366828533 2.0307773898641894 0 -0.054623290615536245 0.7478361363051419 0.10821359012089597 0.87985322364791407 -0.18092706505904901
decision_type=8 10 10 8 8 1 10 10 10 10 10
left_child=2 3 -1 -2 5 6 7 -5 -8 10 -7
right_child=1 -3 -4 4 -6 9 8 -9 -10 -11 -12
leaf_value=0.00013969845251930195 -0.0039672755594724208 -0.0049119528009410884 0.006921601765569667 0.00084512502658238859 0.005591663956858753 9.5128930550323457e-05 0.0014277008215525487 0.0061393680764221231 -0.0036172293061664759 -0.0029834646939168284 -0.0021486285250396911
leaf_weight=684 672 860 503 3070 533 1339 1056 554 896 748 851
leaf_count=684 672 860 503 3070 533 1339 1056 554 896 748 851
internal_value=1.22912e-06 -0.000339943 0.00303056 6.69355e-05 0.000368618 3.85505e-05 0.000766649 0.0016618 -0.00089133 -0.00134031 -0.000779669
internal_weight=11766 10579 1187 9719 9047 8514 5576 3624 1952 2938 2190
internal_count=11766 10579 1187 9719 9047 8514 5576 3624 1952 2938 2190
cat_boundaries=0 1
cat_threshold=711
is_linear=0
shrinkage=0.05


Tree=28
num_leaves=17
num_cat=3
split_feature=71 81 125 200 71 71 81 127 133 131 247 79 247 123 22 247
split_gain=4.61773 8.03878 6.99116 7.14166 3.92578 7.58635 4.30971 3.3912 3.5512 3.23967 3.01133 2.80525 2.3273 2.25168 1.44526 0.759609
threshold=-0.56978938416383318 1.9477667454796053 0.93433686478487887 0.45552774144631575 -0.15087846750307018 -0.034237792408969084 0.5579880868737076 -0.16301092314681911 -0.27129128018112453 0.03664914043639237 0 0.21331028262411086 1 -0.21528204197240589 0.29841602677899798 2
decision_type=8 8 10 10 10 10 10 10 10 10 1 10 1 10 10 1
left_child=2 4 -1 -4 6 -6 11 8 -7 10 -9 13 -10 -2 -11 -13
right_child=1 -3 3 -5 5 7 -8 9 12 14 -12 15 -14 -15 -16 -17
leaf_value=-0.0065337850391279069 0.0035415993183683667 0.0060732482697112272 -0.0040692046624874311 0.0040268791710292894 -0.0064434351356630701 0.00072784398995450568 0.0053831933650477547 0.0047766513759917063 -0.00072859999261514765 0.0002069030465856103 0.00071387663272066016 -4.087642334433644e-05 -0.0051641443000911185 6.0681492695689386e-05 -0.0032371522399012513 -0.0027544662058075738
leaf_weight=635 912 585 529 551 522 870 563 660 509 755 1451 501 746 942 505 530
leaf_count=635 912 585 529 551 522 870 563 660 509 755 1451 501 746 942 505 530
internal_value=1.24267e-06 0.000410726 -0.00239281 6.08198e-05 5.77599e-05 -0.000712842 0.00140182 -0.000163199 -0.00172528 0.000822595 0.00201833 0.000616898 -0.00342198 0.0017779 -0.00118079 -0.00146938
internal_weight=11766 10051 1715 1080 9466 6018 3448 5496 2125 3371 2111 2885 1255 1854 1260 1031
internal_count=11766 10051 1715 1080 9466 6018 3448 5496 2125 3371 2111 2885 1255 1854 1260 1031
cat_boundaries=0 1 2 3
cat_threshold=518 1115 806
is_linear=0
shrinkage=0.05


Tree=29
num_leaves=13
num_cat=0
split_feature=139 71 71 71 214 138 138 138 74 130 23 80
split_gain=4.50928 4.52798 8.51445 5.7687 11.1423 4.17049 4.36845 4.20401 3.19629 2.7432 1.20161 0.250443
threshold=-0.53081864351488572 -0.5776162498338987 -1.7264307901514702 -0.42585274273067425 0.39630083299294089 -0.31277846041053542 -0.45744273577037148 -0.27042755936775803 -0.99677535674074524 -0.19447825444735053 -0.21868794006124551 0.027644997175818965
decision_type=8 8 10 10 10 8 10 8 8 10 10 10
left_child=-1 2 -2 4 10 6 -5 -7 -9 -10 -3 -12
right_child=1 3 -4 5 -6 7 -8 8 9 -11 11 -13
leaf_value=0.0044683761900134568 0.0022986765453424595 0.0022289607090010951 -0.0057836953084140635 -0.00048013636098905482 0.0087143312428954456 0.0044266652920173242 -0.00621005799817339 0.0027401898628819799 0.00033932248875103506 -0.0019719165370759104 0.00011611495670719497 -0.0014567408359295131
leaf_weight=534 507 546 896 763 531 505 586 747 2723 2422 503 503
leaf_count=534 507 546 896 763 531 505 586 747 2723 2422 503 503
internal_value=9.71202e-07 -0.000213315 -0.00286519 0.00016648 0.00249904 -0.000461984 -0.00298293 7.15483e-05 -0.000305163 -0.000749548 0.000351393 -0.000673628
internal_weight=11766 11232 1403 9829 2083 7746 1349 6397 5892 5145 1552 1006
internal_count=11766 11232 1403 9829 2083 7746 1349 6397 5892 5145 1552 1006
is_linear=0
shrinkage=0.05


Tree=30
num_leaves=12
num_cat=1
split_feature=126 72 209 19 214 127 247 21 70 214 24
split_gain=4.2557 7.06737 4.71706 3.62978 5.14499 8.3587 2.21588 2.02036 1.67594 1.36892 0.749647
threshold=-1.1213647528564425 0.99582849902986259 0.49970378759765094 -0.15047786366828533 0.88784795575556774 -0.054623290615536245 0 -0.85407590931314048 0.86602540324291521 -0.019217897309507796 0.34588170086231712
decision_type=8 10 10 8 10 8 1 10 10 10 8
left_child=2 3 -1 -2 6 -6 7 -5 -9 10 -8
right_child=1 -3 -4 4 5 -7 9 8 -10 -11 -12
leaf_value=0.00012191080622632174 -0.0035057806259475473 -0.0051470824589390021 0.0064832176536841384 0.0027563183489116723 0.005797639551451037 -0.0019860143988722555 -0.00015259268616930809 0.00046720647929224469 -0.0020163644214848961 -0.003312020346685483 -0.002309040474385256
leaf_weight=684 672 702 503 763 946 538 1511 3377 845 680 545
leaf_count=684 672 702 503 763 946 538 1511 3377 845 680 545
internal_value=1.12293e-06 -0.000317862 0.00283345 2.78015e-05 0.00028753 0.00297861 -0.000231297 0.000396607 -3.16578e-05 -0.00137042 -0.000728434
internal_weight=11766 10579 1187 9877 9205 1484 7721 4985 4222 2736 2056
internal_count=11766 10579 1187 9877 9205 1484 7721 4985 4222 2736 2056
cat_boundaries=0 1
cat_threshold=711
is_linear=0
shrinkage=0.05


Tree=31
num_leaves=14
num_cat=1
split_feature=19 20 247 25 34 197 198 200 69 71 123 133 135
split_gain=4.09725 5.03107 5.63423 4.70078 4.58759 5.38486 3.96927 3.84536 2.68683 1.79682 1.89234 3.04983 2.48256
threshold=1.0000000180025095e-35 -0.14579116734514722 0 -0.12762343982261784 0.47259799096754257 0.45552774359466186 -0.67230359324027467 0.62156502136913672 0.49999999835698444 -0.5776162498338987 0.49999999815073987 -0.21928571654722828 -0.072191626730931449
decision_type=8 10 1 8 8 8 8 10 10 8 10 8 10
left_child=1 -1 4 -2 -3 7 -7 8 -6 -4 11 -11 -13
right_child=3 2 9 -5 5 6 -8 -9 -10 10 -12 12 -14
leaf_value=-0.0046890195139341374 -0.0002576386273612892 0.0055895065638286202 -0.0039798194485291417 0.0064375655930929299 0.0017402822869194718 0.0013131750680650275 -0.0037739220620717179 0.0048622792223679918 -0.001963375522256929 -0.0038346837558739578 0.0011706853679369297 0.0010248761859480615 -0.0022741553610565951
leaf_weight=608 541 503 549 503 1966 627 974 756 647 967 838 1238 1049
leaf_count=608 541 503 549 503 1966 627 974 756 647 967 838 1238 1049
internal_value=1.00726e-06 -0.000290646 -2.40525e-05 0.00298342 0.00106139 0.000600086 -0.00178378 0.0017339 0.000821228 -0.00130333 -0.000942998 -0.00148829 -0.000489982
internal_weight=11766 10722 10114 1044 5473 4970 1601 3369 2613 4641 4092 3254 2287
internal_count=11766 10722 10114 1044 5473 4970 1601 3369 2613 4641 4092 3254 2287
cat_boundaries=0 1
cat_threshold=583
is_linear=0
shrinkage=0.05


Tree=32
num_leaves=16
num_cat=2
split_feature=139 19 197 197 123 135 25 247 247 71 196 21 123 132 84
split_gain=3.88154 4.93244 4.79833 8.78073 6.90055 5.54529 5.42902 4.08098 3.81519 3.58701 2.47522 1.68276 1.63258 0.925544 0.745553
threshold=-0.53081864351488572 1.0000000180025095e-35 0.45552774359466186 0.48322872974841585 0.49999999654513622 -0.31585768239026446 0.038611214493022447 0 1 0.2475800877984545 -0.44335571276550445 0.0796395366710516 0.1671192290381234 -0.043969592040344306 -0.20332884026057077
decision_type=8 8 8 10 10 10 10 1 1 10 8 10 10 8 10
left_child=-1 2 4 -4 5 7 -6 -2 13 -10 -5 14 -13 -7 -12
right_child=1 -3 3 10 6 8 -8 -9 9 -11 11 12 -14 -15 -16
leaf_value=0.0041457895434280703 0.0050570237719978935 0.003172567551740977 -0.0080294617916037633 -0.0037793660208387866 0.00095597944905856163 0.0010801356277950881 0.007276937086731188 -0.00033798667219864302 -0.0046014769298062747 -0.00048513352350868367 0.002358868908137083 8.3070497197178938e-05 -0.0037440321497808852 -0.0014719304682064551 -5.1098680055151966e-05
leaf_weight=534 624 985 512 623 915 1117 537 780 1301 892 545 604 512 515 770
leaf_count=534 624 985 512 623 915 1117 537 780 1301 892 545 604 512 515 770
internal_value=9.85901e-07 -0.000197826 -0.000523197 -0.00200279 0.000267448 -0.000579948 0.00331064 0.00210272 -0.00156611 -0.00291879 -0.000980955 -0.000257512 -0.0016816 0.000271104 0.000952861
internal_weight=11766 11232 10247 3566 6681 5229 1452 1404 3825 2193 3054 2431 1116 1632 1315
internal_count=11766 11232 10247 3566 6681 5229 1452 1404 3825 2193 3054 2431 1116 1632 1315
cat_boundaries=0 1 2
cat_threshold=660 1102
is_linear=0
shrinkage=0.05


Tree=33
num_leaves=11
num_cat=0
split_feature=80 20 20 123 123 25 129 137 129 137
split_gain=3.70105 3.09203 5.36287 3.63883 5.0794 4.63863 4.01631 5.16478 2.8361 1.22739
threshold=-1.4422296736767544 -0.16458508598253754 -0.14082247539942463 1.7264307814268021 0.49999999654513622 1.0000000180025095e-35 0.27689477440571414 0.22221639158986981 0.39929769537962029 0.048174966355842397
decision_type=8 8 10 8 10 10 10 10 10 10
left_child=-1 -2 -3 4 6 9 7 -4 -8 -6
right_child=1 2 3 -5 5 -7 8 -9 -10 -11
leaf_value=0.0041419109309050652 -0.0030501286286082896 0.003758188615596117 -0.002348618317507053 -0.0041097563902291277 0.0020103534804908146 0.005791293359065525 0.0037267153733447017 0.00084954072101568366 -0.00043682219970551874 -0.0013943290313055893
leaf_weight=511 866 887 3691 582 548 632 780 1914 852 503
leaf_count=511 866 887 3691 582 548 632 780 1914 852 503
internal_value=1.17167e-06 -0.000188582 5.13015e-05 -0.000296526 -4.5563e-05 0.00242444 -0.000621252 -0.00125672 0.00155841 0.000382014
internal_weight=11766 11255 10389 9502 8920 1683 7237 5605 1632 1051
internal_count=11766 11255 10389 9502 8920 1683 7237 5605 1632 1051
is_linear=0
shrinkage=0.05


Tree=34
num_leaves=14
num_cat=2
split_feature=126 72 209 19 25 137 133 137 81 247 21 125 247
split_gain=3.6269 5.75574 4.16024 2.77339 4.95244 3.00251 3.3142 3.6459 3.04684 2.98618 2.13385 1.50504 0.969971
threshold=-1.1213647528564425 0.95678538960917348 0.47715700840523029 -1.0000000180025095e-35 1.2358002239603545 0.24340306837689937 0.031031612250674859 -0.26505612444217336 -0.063541169656511312 0 -0.30613232499729398 0.061917878349044164 1
decision_type=8 10 8 8 8 10 10 10 10 1 10 10 1
left_child=2 3 -1 9 5 6 11 -8 12 -2 -11 -5 -7
right_child=1 -3 -4 4 -6 8 7 -9 -10 10 -12 -13 -14
leaf_value=3.0653323423500884e-05 -0.0046988825618499638 -0.0041040506875453407 0.0059912129101491844 0.0011750937840037481 0.0044151711374331428 0.0015920693440587643 0.00080916840084457571 -0.0041927945350302698 0.0040925937666496303 -0.0025654345117396807 0.001229749432831249 -0.00095769677606222638 -0.0013795438144657442
leaf_weight=675 541 901 512 2065 726 509 560 1030 810 644 858 1373 562
leaf_count=675 541 901 512 2065 726 509 560 1030 810 644 858 1373 562
internal_value=1.30293e-06 -0.000293175 0.00261602 6.35449e-05 0.000501515 8.73716e-05 -0.000550293 -0.00243408 0.00178882 -0.00157045 -0.000397952 0.000323188 3.55461e-05
internal_weight=11766 10579 1187 9678 7635 6909 5028 1590 1881 2043 1502 3438 1071
internal_count=11766 10579 1187 9678 7635 6909 5028 1590 1881 2043 1502 3438 1071
cat_boundaries=0 1 2
cat_threshold=150 689
is_linear=0
shrinkage=0.05


Tree=35
num_leaves=13
num_cat=0
split_feature=139 19 197 197 123 125 125 133 69 202 84 129
split_gain=3.46533 4.19599 4.30614 7.48036 5.74638 4.99348 4.50905 2.87263 3.6402 1.90262 1.09749 0.883877
threshold=-0.53081864351488572 1.0000000180025095e-35 0.45552774359466186 0.52970867979408853 0.49999999654513622 0.49999999542256385 0.49999997755276099 0.20653563464831107 -0.34575543933214387 0.39438909838859543 -0.20332884026057077 -0.16754478823787125
decision_type=8 8 10 10 10 10 10 10 8 10 10 10
left_child=-1 2 4 -4 5 7 -6 8 -2 10 -5 -12
right_child=1 -3 3 9 6 -7 -8 -9 -10 -11 11 -13
leaf_value=0.0039173639391482844 -0.0030661066752481515 0.0029218440239924121 -0.0074786020434112286 0.0011032252991454523 0.0053150250558004096 0.0029071413686054294 -0.00035317635324891191 -0.0046572351429979173 0.00026534458474128121 -0.0029313187008597726 0.00036899640317871173 -0.002409268662727821
leaf_weight=534 1164 985 510 961 865 884 587 524 2744 855 512 641
leaf_count=534 1164 985 510 961 865 884 587 524 2744 855 512 641
internal_value=1.07774e-06 -0.000186773 -0.000486871 -0.00191513 0.000248179 -0.000513827 0.00303019 -0.00119868 -0.00072958 -0.000948499 -0.000141529 -0.00117929
internal_weight=11766 11232 10247 3479 6768 5316 1452 4432 3908 2969 2114 1153
internal_count=11766 11232 10247 3479 6768 5316 1452 4432 3908 2969 2114 1153
is_linear=0
shrinkage=0.05


Tree=36
num_leaves=13
num_cat=1
split_feature=71 69 71 214 130 138 138 138 73 25 69 247
split_gain=3.50937 5.90569 5.85688 8.37002 3.45048 3.30228 3.85435 3.06254 3.39034 3.73342 1.45018 1.44812
threshold=-0.56978938416383318 0.92128496597928611 -0.42585274273067425 0.39439044575466908 0.011389772342444803 -0.31277846041053542 -0.47469272611981572 -0.27042755936775803 1.1511834709165794 0.8089510657822957 0.21073217087528298 0
decision_type=8 10 10 10 10 8 10 8 10 10 10 1
left_child=1 4 3 11 -1 6 -4 -7 9 10 -9 -2
right_child=2 -3 5 -5 -6 7 -8 8 -10 -11 -12 -13
leaf_value=-0.0016972239664897384 0.0021436017850716212 0.0023767113900528508 -0.00013417400665395132 0.0082853969610492094 -0.0071293299938449371 0.0039500044864148962 -0.0053514924624521523 0.00030508143050311733 -0.0033024291163450238 0.0035791498036800897 -0.0017787212115455749 -0.0011171888789601821
leaf_weight=695 823 515 817 512 505 509 620 3652 711 767 1077 563
leaf_count=695 823 515 817 512 505 509 620 3652 711 767 1077 563
internal_value=9.36839e-07 -0.00208612 0.000357911 0.00285557 -0.00400333 -0.000224933 -0.00239596 0.000241032 -6.60543e-05 0.000355246 -0.000170869 0.000827177
internal_weight=11766 1715 10051 1898 1200 8153 1437 6716 6207 5496 4729 1386
internal_count=11766 1715 10051 1898 1200 8153 1437 6716 6207 5496 4729 1386
cat_boundaries=0 1
cat_threshold=930
is_linear=0
shrinkage=0.05


Tree=37
num_leaves=10
num_cat=1
split_feature=72 72 209 209 214 20 247 214 25
split_gain=3.25107 11.0405 2.80031 2.58672 3.34845 1.95074 2.17419 2.80788 1.13008
threshold=1.001391786221725 0.95678538960917348 0.51270493409293205 -0.97403145540378955 2.0307773898641894 -0.16458508598253754 0 0.7478361363051419 0.4641815293929924
decision_type=10 10 10 8 8 10 1 10 10
left_child=1 3 -2 -1 5 -5 8 -8 -7
right_child=2 -3 -4 4 -6 6 7 -9 -10
leaf_value=-0.0033666007369051961 0.00047188641150049603 -0.0074077783858758619 0.0048342357572707714 -0.0024290128936956031 0.0040752796304381082 -0.00025093785086965106 0.00044671263975614128 0.0039166616424779078 -0.0026305167052743019
leaf_weight=517 975 517 587 742 534 3183 3426 698 587
leaf_count=517 975 517 587 742 534 3183 3426 698 587
internal_value=9.36359e-07 -0.000324546 0.00212145 5.71158e-05 0.000251873 1.32341e-05 0.000244186 0.00103554 -0.000622789
internal_weight=11766 10204 1562 9687 9170 8636 7894 4124 3770
internal_count=11766 10204 1562 9687 9170 8636 7894 4124 3770
cat_boundaries=0 1
cat_threshold=1464
is_linear=0
shrinkage=0.05


Tree=38
num_leaves=15
num_cat=2
split_feature=139 19 71 71 125 81 71 197 123 247 73 25 247 71
split_gain=3.11514 3.84906 4.08429 6.66194 5.25709 8.24028 3.27468 4.30348 5.55329 4.03595 3.08223 2.67064 1.49929 1.25952
threshold=-0.53081864351488572 1.0000000180025095e-35 -0.5776162498338987 -1.4999999579291166 0.42773698076999783 0.49999789570112146 0.2475800877984545 0.45552774359466186 0.50005748294952934 0 0.19976476848455887 1.0000000180025095e-35 1 -0.1324107899229299
decision_type=8 8 8 10 10 10 8 8 10 1 10 10 1 10
left_child=-1 2 3 -2 6 12 9 8 -8 13 -9 -11 -6 -4
right_child=1 -3 4 -5 5 -7 7 10 -10 11 -12 -13 -14 -15
leaf_value=0.0037139769635904721 0.00028983202274508513 0.0028000660403202605 0.0009025753349931687 -0.0069753077136966053 -0.0016879443730835595 0.0076070824732638737 -1.7345483556679982e-05 -6.6157789656599275e-05 0.0051847269092838363 -0.0018481032137783314 -0.004664041793210524 -0.0065678387915931074 0.0015380761085613682 -0.0017716092997726992
leaf_weight=534 671 985 867 590 579 512 1816 906 710 599 605 606 901 885
leaf_count=534 671 985 867 590 579 512 1816 906 710 599 605 606 901 885
internal_value=8.39832e-07 -0.000177267 -0.000464691 -0.00312352 -9.00491e-05 0.00217281 -0.000735638 0.000190539 0.00145219 -0.00199827 -0.00191645 -0.00420427 0.000273561 -0.000446908
internal_weight=11766 11232 10247 1261 8986 1992 6994 4037 2526 2957 1511 1205 1480 1752
internal_count=11766 11232 10247 1261 8986 1992 6994 4037 2526 2957 1511 1205 1480 1752
cat_boundaries=0 1 2
cat_threshold=1133 1098
is_linear=0
shrinkage=0.05


Tree=39
num_leaves=16
num_cat=2
split_feature=80 125 69 135 247 131 131 69 69 214 73 247 135 132 215
split_gain=3.03089 2.40997 4.63508 2.87785 4.29187 2.67325 2.60442 2.50873 3.6257 3.83475 3.09626 2.9646 5.261 2.16822 0.932389
threshold=-1.4422296736767544 0.56827642640291665 0.85653706564597376 -0.3246248283860681 0 0.081653456828943441 -0.17503171048713953 -0.46941636218973498 -0.33443296735172418 -0.39183465307231213 -0.074493252271064597 1 0.21687439696957214 0.15107759603136703 -0.14257481585158807
decision_type=8 10 10 10 1 10 10 10 10 10 10 1 10 10 8
left_child=-1 3 6 4 14 7 -3 11 9 -9 -10 12 -5 -7 -2
right_child=1 2 -4 5 -6 13 -8 8 10 -11 -12 -13 -14 -15 -16
leaf_value=0.0037479045350573164 -0.0018614008774865143 -0.0015507602099378158 0.0019389589703030048 0.0069613222031376237 0.0041719362105709255 -0.00031037628227130942 -0.0063905532101204907 0.00030422901160609384 -0.0012609367227189117 -0.0049557011787355679 0.001892465778588143 -0.0010680569444737806 0.00030242528029418656 -0.0048478355049687716 0.00096355262362465767
leaf_weight=511 527 622 524 501 971 509 504 608 1505 799 1602 680 718 542 643
leaf_count=511 527 622 524 501 971 509 504 608 1505 799 1602 680 718 542 643
internal_value=7.58299e-07 -0.000170959 -0.00193318 0.000132614 0.00174634 -0.000331133 -0.00373574 5.26752e-05 -0.000588784 -0.00268972 0.000365417 0.00157499 0.00303167 -0.00266222 -0.000308762
internal_weight=11766 11255 1650 9605 2141 7464 1126 6413 4514 1407 3107 1899 1219 1051 1170
internal_count=11766 11255 1650 9605 2141 7464 1126 6413 4514 1407 3107 1899 1219 1051 1170
cat_boundaries=0 1 2
cat_threshold=1130 678
is_linear=0
shrinkage=0.05


Tree=40
num_leaves=13
num_cat=0
split_feature=82 72 72 23 134 128 124 19 128 74 76 77
split_gain=2.83024 2.33718 8.3941 1.9368 1.80356 3.4819 2.34178 1.8384 2.72475 1.79022 1.49623 1.18429
threshold=1.9281947267154342 1.001391786221725 0.94525542293240694 -0.21868794006124551 0.24631721536497239 0.28764676610716872 0.083667379079914742 -1.0000000180025095e-35 -0.1888637132598249 0.50794027549325604 -0.29795148667095767 0.38254308110642954
decision_type=10 8 10 10 10 10 10 10 10 10 10 10
left_child=1 2 4 -3 6 -6 7 -1 -9 10 -8 -11
right_child=-2 3 -4 -5 5 -7 9 8 -10 11 -12 -13
leaf_value=-0.0011025833960673799 0.0033789852044287384 0.0035751439585768874 -0.0064083910145180797 0.0001264937916734074 0.00051630722476138271 -0.0038952998619256858 -0.0012284446211379288 0.0042967038126821323 0.00076047642935190695 -0.0034373137360588879 0.0011659403704140936 -0.000370015323010161
leaf_weight=656 584 685 557 994 965 827 1113 786 1759 719 1562 559
leaf_count=656 584 685 557 994 965 827 1113 786 1759 719 1562 559
internal_value=8.10542e-07 -0.000177052 -0.000481058 0.00153991 -0.000108634 -0.0015248 0.000246918 0.00125121 0.00185889 -0.000566871 0.000169264 -0.00210234
internal_weight=11766 11182 9503 1679 8946 1792 7154 3201 2545 3953 2675 1278
internal_count=11766 11182 9503 1679 8946 1792 7154 3201 2545 3953 2675 1278
is_linear=0
shrinkage=0.05


Tree=41
num_leaves=14
num_cat=2
split_feature=24 82 130 72 72 70 247 130 131 23 20 19 247
split_gain=2.82821 6.72834 2.85212 2.64233 4.56502 2.24666 1.95652 1.79415 1.58432 1.3968 1.61007 1.71273 1.30874
threshold=0.41404301065711585 1.6494679411083506 -0.2090214584616556 1.001391786221725 0.87365850781723575 -0.5879422070985113 0 0.4508647629073278 -0.0070216097435297905 0.76421195590459601 -0.12975125211304417 -0.14082245092512977 1
decision_type=10 8 8 10 10 10 1 10 10 10 10 10 1
left_child=1 3 6 4 9 -5 -2 8 -4 10 11 -1 -12
right_child=2 -3 7 5 -6 -7 -8 -9 -10 -11 12 -13 -14
leaf_value=-0.00041800267227005039 0.0022957256612362868 0.0057512649443000972 -0.0018893342370227115 0.0044434579760312173 -0.0046681098050047635 -6.7279096359460142e-05 -0.0015560796190106088 3.0241673355531222e-05 -0.005233504699914621 0.0026111610394982847 -0.0011309657245161355 0.0033396667010795987 0.00066679884117260566
leaf_weight=588 721 561 832 595 536 511 584 543 624 511 3036 619 1505
leaf_count=588 721 561 832 595 536 511 584 543 624 511 3036 619 1505
internal_value=7.14323e-07 0.000485121 -0.00123878 0.000107805 -0.000261626 0.00236846 0.000578292 -0.00242349 -0.00333556 0.000119156 -0.000104461 0.00151491 -0.000536085
internal_weight=11766 8462 3304 7901 6795 1106 1305 1999 1456 6259 5748 1207 4541
internal_count=11766 8462 3304 7901 6795 1106 1305 1999 1456 6259 5748 1207 4541
cat_boundaries=0 1 2
cat_threshold=580 952
is_linear=0
shrinkage=0.05


Tree=42
num_leaves=12
num_cat=2
split_feature=139 19 70 70 123 247 132 82 247 126 198
split_gain=2.76477 3.13546 3.54295 7.66021 4.96744 3.60352 3.05937 7.56384 3.73744 2.65514 2.08791
threshold=-0.53081864351488572 1.0000000180025095e-35 -0.99582850076416862 -1.0455462638646127 0.49999999654513622 0 0.27483102443941398 1.3430117637006553 1 0.87124057913629682 0.18443325265916014
decision_type=8 8 8 10 10 1 10 10 1 10 10
left_child=-1 2 3 -2 6 10 7 8 -4 -8 -6
right_child=1 -3 4 -5 5 -7 9 -9 -10 -11 -12
leaf_value=0.0034988700633948274 0.00023265041931866761 0.0025201965812161552 -0.0022686421058213144 -0.0076490819229367464 0.0019746939514665414 -0.00083253855896374981 -0.00034526015216132777 -0.0065937601008314506 0.00044737187289946214 0.0041383600299564607 0.0065090654371198087
leaf_weight=534 781 985 1959 504 517 541 787 562 3527 563 506
leaf_count=534 781 985 1959 504 517 541 787 562 3527 563 506
internal_value=7.7899e-07 -0.000167013 -0.000426426 -0.00287637 -7.37367e-05 0.00248186 -0.000615322 -0.00109572 -0.000526991 0.00153295 0.00419742
internal_weight=11766 11232 10247 1285 8962 1564 7398 6048 5486 1350 1023
internal_count=11766 11232 10247 1285 8962 1564 7398 6048 5486 1350 1023
cat_boundaries=0 1 2
cat_threshold=678 176
is_linear=0
shrinkage=0.05


Tree=43
num_leaves=14
num_cat=0
split_feature=80 71 125 135 25 123 197 25 82 134 129 24 83
split_gain=2.62585 2.17497 3.97066 2.45251 3.56691 3.15304 5.56626 3.4862 3.19889 2.30508 2.84894 2.20692 0.710079
threshold=-1.4422296736767544 -0.5776162498338987 1.3654236666393871 -0.3246248283860681 0.36748050831598655 0.49999999621294927 0.45472589574412747 -0.13542726286319576 1.3430117637006553 0.21413148178917771 -0.019534121696926279 0.17141414893333901 -0.078799323277675137
decision_type=8 8 10 10 8 10 8 10 8 10 10 10 10
left_child=-1 2 -2 4 11 8 7 -7 9 10 -5 12 -3
right_child=1 3 -4 5 -6 6 -8 -9 -10 -11 -12 -13 -14
leaf_value=0.0034884551394836396 -0.0048407896877956822 0.0031625044164555974 0.00047426148650533598 -0.00069292564657582071 0.0051603187505839219 0.001119272091652191 -0.0020616306925143424 0.0067477242047038512 -0.0046628313928594022 -0.0029956480263183313 0.0024411969221837353 -0.0019703072816225921 0.00054040754296490136
leaf_weight=511 651 505 755 3726 524 604 669 504 503 792 895 599 528
leaf_count=511 651 505 755 3726 524 604 669 504 503 792 895 599 528
internal_value=6.61974e-07 -0.00015917 -0.00199512 0.000103802 0.00159216 -0.00031408 0.00153013 0.00369832 -0.000868853 -0.000512322 -8.39231e-05 0.000434239 0.00183132
internal_weight=11766 11255 1406 9849 2156 7693 1777 1108 5916 5413 4621 1632 1033
internal_count=11766 11255 1406 9849 2156 7693 1777 1108 5916 5413 4621 1632 1033
is_linear=0
shrinkage=0.05


Tree=44
num_leaves=13
num_cat=0
split_feature=25 123 123 25 69 127 25 135 129 25 137 25
split_gain=2.63535 2.48956 2.55662 2.94683 2.89399 6.03307 3.91002 2.98157 3.60974 2.68505 0.705679 0.458232
threshold=2.1842104365205333 1.7264307814268021 0.49999999654513622 1.0000000180025095e-35 -0.33443296735172418 -0.1905697183201577 0.020538443794477657 0.35441927792514077 0.28195773247631434 1.0000000180025095e-35 0.108015349278979 -0.57948103235821702
decision_type=8 10 10 10 10 10 10 10 10 10 10 10
left_child=1 2 4 10 9 6 -6 8 -7 11 -4 -1
right_child=-2 -3 3 -5 5 7 -8 -9 -10 -11 -12 -13
leaf_value=0.00038729810974326228 0.0035090946704372074 -0.0032625625285277425 0.001381481919703666 0.0044397476133644182 0.0011423523854607008 -0.001809487747426005 0.0066164750392729704 0.0027562256030860257 0.0013766751649837801 -0.0040424254168521878 -0.0011761200556406949 -0.0014482030022873566
leaf_weight=712 507 606 565 645 929 3508 500 589 1186 869 507 643
leaf_count=712 507 606 565 645 929 3508 500 589 1186 869 507 643
internal_value=7.54398e-07 -0.000158716 1.92953e-05 0.00178345 -0.000320485 0.000197762 0.00307411 -0.000582434 -0.00100385 -0.00188148 0.000172025 -0.00048584
internal_weight=11766 11259 10653 1717 8936 6712 1429 5283 4694 2224 1072 1355
internal_count=11766 11259 10653 1717 8936 6712 1429 5283 4694 2224 1072 1355
is_linear=0
shrinkage=0.05


Tree=45
num_leaves=13
num_cat=1
split_feature=143 24 25 25 247 23 24 20 124 19 131 133
split_gain=2.57763 2.89757 7.36228 3.68689 3.82256 2.64117 2.6148 1.80632 2.9751 1.67505 1.57639 1.80928
threshold=-0.35187677183211813 0.41404301065711585 1.1963432124902005 1.0682947655987196 0 0.79853624198996986 -1.1006323695026743 -0.12975125211304417 0.99582849415815899 -0.14082245092512977 0.09672045158176415 -0.1811123391176285
decision_type=10 10 8 10 1 10 8 10 10 10 10 8
left_child=1 2 5 4 -3 6 -1 9 -9 -8 11 -6
right_child=-2 3 -4 -5 10 -7 7 8 -10 -11 -12 -13
leaf_value=-0.0034761425074146587 0.0025405319556411564 0.0021586249144691645 0.0053025635369573793 -0.0053929023217201034 -0.0030869299420287718 0.0031727939292014689 -0.00030456567253406649 -9.8572692154685486e-05 -0.0040147860230874792 0.0036385336865952808 -0.0042457674090144136 0.0008626389313617851
leaf_weight=640 916 772 665 509 544 539 521 4405 540 551 553 611
leaf_count=640 916 772 665 509 544 539 521 4405 540 551 553 611
internal_value=9.26307e-07 -0.000214549 0.000289431 -0.00153827 -0.000737883 -0.000177205 -0.000450623 -0.000126194 -0.000529851 0.00172964 -0.00205019 -0.00100288
internal_weight=11766 10850 7861 2989 2480 7196 6657 6017 4945 1072 1708 1155
internal_count=11766 10850 7861 2989 2480 7196 6657 6017 4945 1072 1708 1155
cat_boundaries=0 1
cat_threshold=516
is_linear=0
shrinkage=0.05


Tree=46
num_leaves=15
num_cat=1
split_feature=247 22 213 81 128 82 130 20 25 124 135 137 127 127
split_gain=2.46846 5.47454 3.46679 4.80838 2.00169 2.52523 1.97353 1.56427 2.14674 1.30453 0.825922 1.22289 1.59624 0.973778
threshold=0 -1.3315353729829742 1.0722778343422272 1.4689705296874183 1.0000000180025095e-35 0.51403518472229603 -0.013835827836745787 -0.14579116734514722 0.49809685518167196 0.78703610768323784 0.33142687649497848 -0.24302851027940039 0.13261730581645673 -0.14718710182095582
decision_type=1 10 10 8 8 10 10 8 8 10 10 8 10 8
left_child=1 -1 3 4 5 9 -6 -2 10 -3 11 -9 13 -13
right_child=7 2 -4 -5 6 -7 -8 8 -10 -11 -12 12 -14 -15
leaf_value=0.0055809111516045016 0.0013867079930450386 0.001308972675890909 0.0036736761832054567 -0.0046985528091323435 0.00070334782081664913 0.0042733912264760953 -0.0027319399764353541 0.00058066709483993657 -0.0035781357234802714 -0.0010537768128687992 0.00083864016690837317 -0.0023441179386169781 -0.0040681441420986177 2.2800181760133134e-05
leaf_weight=516 716 1556 645 528 806 510 860 884 740 929 750 709 507 1110
leaf_count=516 716 1556 645 528 806 510 860 884 740 929 750 709 507 1110
internal_value=9.09165e-07 0.00066903 0.000231328 -0.000199685 0.000314437 0.00108663 -0.00107284 -0.000782117 -0.0011153 0.000425333 -0.000651143 -0.000999986 -0.00160067 -0.000903661
internal_weight=11766 6350 5834 5189 4661 2995 1666 5416 4700 2485 3960 3210 2326 1819
internal_count=11766 6350 5834 5189 4661 2995 1666 5416 4700 2485 3960 3210 2326 1819
cat_boundaries=0 1
cat_threshold=583
is_linear=0
shrinkage=0.05


Tree=47
num_leaves=13
num_cat=0
split_feature=82 200 197 123 200 72 123 136 136 123 199 208
split_gain=2.4799 1.96171 3.66606 3.45344 3.03715 2.83603 2.27192 2.63826 3.21587 1.82807 2.24112 1.18235
threshold=1.9281947267154342 0.6287121353989088 0.55422604577431911 1.0623236176236428 0.74247857997566324 -0.91787476412334967 0.49999999654513622 -0.21226151450126843 -1.0000000180025095e-35 -0.73185338462998673 0.43237064550328536 0.43355844175608532
decision_type=10 8 8 10 10 8 10 8 8 10 10 10
left_child=1 3 4 5 -3 -1 7 11 -9 -4 -11 -7
right_child=-2 2 9 -5 -6 6 -8 8 -10 10 -12 -13
leaf_value=-0.0031959388212923242 0.0031630455514191076 0.0049293705216169291 0.0018288088671719602 -0.0044103470503862267 0.0006035975515768726 0.0015839743186627172 0.0026924711118434218 -0.0042265655596203681 -0.00040176559510427353 -7.6681369161605032e-05 -0.0041403978511375559 -0.0011174288694850933
leaf_weight=760 584 729 537 553 911 1792 705 698 2524 922 532 519
leaf_count=760 584 729 537 553 911 1792 705 698 2524 922 532 519
internal_value=8.61461e-07 -0.000165629 0.000788721 -0.00062476 0.00253559 -0.000322677 2.96625e-05 -0.00031175 -0.00123562 -0.000652937 -0.00157264 0.000976196
internal_weight=11766 11182 3631 7551 1640 6998 6238 5533 3222 1991 1454 2311
internal_count=11766 11182 3631 7551 1640 6998 6238 5533 3222 1991 1454 2311
is_linear=0
shrinkage=0.05


Tree=48
num_leaves=13
num_cat=0
split_feature=142 200 199 200 200 123 136 136 199 137 25 25
split_gain=2.42131 2.42564 3.78538 3.60882 3.27808 3.27082 3.49155 3.53056 2.64289 2.0543 1.9845 1.79966
threshold=-0.48507423391210119 0.6287121353989088 -1.3364291021538983 0.78964076940312877 0.45552774233568544 0.49999999654513622 -0.21226151450126843 -0.026109428938074251 -0.44335571097659393 0.2070943288316284 0.030385994130384193 0.33196746726013615
decision_type=8 8 10 8 10 10 10 10 10 10 10 10
left_child=-1 2 -2 10 5 6 11 -8 -5 -10 -3 -4
right_child=1 3 4 8 -6 -7 7 -9 9 -11 -12 -13
leaf_value=0.0033878920134041684 -0.0047648006273831433 0.0014139346377763761 0.00015331790263790445 0.0020493461767256776 -0.0035505506885593211 0.0027271015393075504 -0.0048455796028593831 -0.00069961674110898138 -0.0028552090538056089 0.001032406703630281 0.0053797183786251073 0.0032670508785624854
leaf_weight=500 517 801 1821 788 716 937 649 2401 982 515 521 618
leaf_count=500 517 801 1821 788 716 937 649 2401 982 515 521 618
internal_value=7.59599e-07 -0.000151002 -0.000654384 0.000917291 -0.000353711 4.97184e-06 -0.000461768 -0.00158831 -0.00028651 -0.0015188 0.00299123 0.000947353
internal_weight=11766 11266 7659 3607 7142 6426 5489 3050 2285 1497 1322 2439
internal_count=11766 11266 7659 3607 7142 6426 5489 3050 2285 1497 1322 2439
is_linear=0
shrinkage=0.05


Tree=49
num_leaves=15
num_cat=1
split_feature=66 71 71 129 25 123 197 81 24 127 247 69 84 69
split_gain=2.33244 2.54264 4.70955 3.36498 9.15547 3.14759 3.5875 3.56041 2.63397 3.135 1.73872 1.54265 0.948288 0.526827
threshold=-0.064916844666653442 -0.5776162498338987 -1.7264307901514702 -0.019534121696926279 0.83402038136823997 0.49999999621294927 0.45472589574412747 1.1100658294493673 0.29745446630912603 0.13260908433927091 0 -0.40789936418721712 -0.20332884026057077 0.083680948721431364
decision_type=8 8 10 8 8 10 10 10 10 8 1 10 8 10
left_child=-1 2 -2 5 8 7 -7 10 9 12 11 -3 -5 -12
right_child=1 3 -4 4 -6 6 -8 -9 -10 -11 13 -13 -14 -15
leaf_value=0.0029507211822127136 0.001683154258241672 -0.0042757206349919082 -0.0043527820859832972 0.0044108456246081456 0.0069559822060894852 0.0035151149756761945 -0.0017752053450968783 -0.0051354761914998923 -0.001935418251375008 -0.0011520389860485728 0.0004441447034645274 -0.00094803685095767507 0.0015672267988639963 -0.0011737106896628788
leaf_weight=629 504 515 885 537 598 849 509 506 969 817 2063 1067 658 660
leaf_count=629 504 515 885 537 598 849 509 506 969 817 2063 1067 658 660
internal_value=7.78859e-07 -0.000167079 -0.00216446 0.000118493 0.00133709 -0.000588998 0.00153298 -0.00118894 0.00020016 0.00123092 -0.000719651 -0.0020286 0.00285812 5.03921e-05
internal_weight=11766 11137 1389 9748 3579 6169 1358 4811 2981 2012 4305 1582 1195 2723
internal_count=11766 11137 1389 9748 3579 6169 1358 4811 2981 2012 4305 1582 1195 2723
cat_boundaries=0 1
cat_threshold=176
is_linear=0
shrinkage=0.05


Tree=50
num_leaves=13
num_cat=2
split_feature=32 200 199 200 200 247 123 135 25 247 199 69
split_gain=2.19995 2.15157 3.3158 3.34275 3.21411 3.07068 2.67515 3.3349 3.43322 2.95489 2.07201 1.95196
threshold=-0.66499670029618174 0.6287121353989088 -1.3364291021538983 0.45552774233568544 0.77513478045876194 0 0.49999999654513622 -0.3246248283860681 0.9805220361920034 1 -0.44335571097659393 0.38622499731985899
decision_type=8 8 10 10 8 1 10 10 10 1 10 10
left_child=-1 2 -2 6 5 -3 7 9 -9 -4 -6 -12
right_child=1 4 3 -5 10 -7 -8 8 -10 -11 11 -13
leaf_value=0.0030678513310318798 -0.0044591241091894475 0.005582427361125358 0.0044353298538009683 -0.0036124667795527123 0.0017776510860068166 0.00061527521665714782 0.0024846848774784077 -0.00050667343334075056 -0.0046088900122229449 -0.00035187627366669455 -2.5007197992492267e-05 -0.0038084401052353107
leaf_weight=552 520 561 573 699 810 702 933 3621 589 716 969 521
leaf_count=552 520 561 573 699 810 702 933 3621 589 716 969 521
internal_value=7.56462e-07 -0.000151519 -0.000624048 -0.000341461 0.000862618 0.00288378 1.65463e-05 -0.000404093 -0.00108538 0.00181666 -0.000251111 -0.00135625
internal_weight=11766 11214 7651 7131 3563 1263 6432 5499 4210 1289 2300 1490
internal_count=11766 11214 7651 7131 3563 1263 6432 5499 4210 1289 2300 1490
cat_boundaries=0 1 2
cat_threshold=644 659
is_linear=0
shrinkage=0.05


Tree=51
num_leaves=12
num_cat=0
split_feature=82 123 69 123 125 137 125 137 125 21 137
split_gain=2.21895 1.83962 1.8386 3.76684 3.59654 3.32751 4.38559 2.48032 1.97799 1.29401 1.90803
threshold=1.9281947267154342 1.7264307814268021 0.37773467244856374 -0.24579900890765247 0.93433686478487887 -0.24302851027940039 1.0000000180025095e-35 0.072112141008318462 -0.49999998434791743 1.0269053464173385 -0.32260809024151044
decision_type=10 10 10 8 10 10 10 10 8 10 8
left_child=1 2 3 -1 5 -4 7 -7 -5 10 -10
right_child=-2 -3 4 8 -6 6 -8 -9 9 -11 -12
leaf_value=0.0037628334512208499 0.0029923581430989273 -0.0028101466459050819 0.0012105454461789123 0.0028050038011067295 0.002887747517357079 0.0019519191210486658 -0.0052966527452684656 -0.0025255230476169815 -0.0026683278975947558 -0.0022980242370977066 0.00038887500213352242
leaf_weight=764 584 612 763 589 515 511 894 768 570 661 4535
leaf_count=764 584 612 763 589 515 511 894 768 570 661 4535
internal_value=1.16789e-06 -0.00015632 -1.40816e-06 0.00045768 -0.000947744 -0.00162429 -0.00262017 -0.000736012 5.76874e-05 -0.00022514 4.52454e-05
internal_weight=11766 11182 10570 7119 3451 2936 2173 1279 6355 5766 5105
internal_count=11766 11182 10570 7119 3451 2936 2173 1279 6355 5766 5105
is_linear=0
shrinkage=0.05


Tree=52
num_leaves=13
num_cat=1
split_feature=143 24 25 25 247 23 24 20 197 131 133 19
split_gain=2.09593 2.37919 6.38174 3.38197 3.12879 2.43209 2.28375 1.51208 1.65471 1.36473 1.59528 1.23848
threshold=-0.35187677183211813 0.41404301065711585 1.1963432124902005 1.0682947655987196 0 0.76421195590459601 -1.1006323695026743 -0.12975125211304417 0.45552774359466186 0.09672045158176415 -0.1811123391176285 -0.14082245092512977
decision_type=10 10 8 10 1 10 8 10 10 10 8 10
left_child=1 2 5 4 -3 6 -1 11 -9 10 -6 -8
right_child=-2 3 -4 -5 9 -7 7 8 -10 -11 -12 -13
leaf_value=-0.0032738119444227056 0.0022911674501840786 0.0019935991528679266 0.0049308690309744774 -0.005084346912297668 -0.0027964981011147248 0.0029080330090866472 -0.00018603982736244568 0.0001035318128150585 -0.0018813751114033204 -0.0038559270310181228 0.00091172359578626161 0.0032110731666221727
leaf_weight=639 916 772 665 509 544 584 521 3389 1516 553 611 547
leaf_count=639 916 772 665 509 544 584 521 3389 1516 553 611 547
internal_value=1.11801e-06 -0.000193183 0.000263495 -0.00139267 -0.000626278 -0.000170953 -0.000444894 -0.000139767 -0.000511239 -0.00181385 -0.000839358 0.00156072
internal_weight=11766 10850 7861 2989 2480 7196 6612 5973 4905 1708 1155 1068
internal_count=11766 10850 7861 2989 2480 7196 6612 5973 4905 1708 1155 1068
cat_boundaries=0 1
cat_threshold=516
is_linear=0
shrinkage=0.05


Tree=53
num_leaves=11
num_cat=0
split_feature=72 72 209 209 214 134 214 128 214 129
split_gain=2.12564 6.29155 2.2956 1.69752 2.14302 1.31648 1.52028 1.49452 4.32183 1.57365
threshold=1.001391786221725 0.95678538960917348 0.51270493409293205 -0.97403145540378955 2.0307773898641894 -0.40234391163118538 -0.098771174851930391 -0.25382297755480204 0.39438924799278424 0.10821359012089597
decision_type=10 10 10 8 8 8 10 10 10 10
left_child=1 3 -2 -1 5 6 -5 8 -7 -9
right_child=2 -3 -4 4 -6 7 -8 9 -10 -11
leaf_value=-0.0027474312005467336 0.00022337019197762786 -0.0056091319741855177 0.0041718058410707103 8.4654775703562181e-05 0.0032425861254054538 0.0001270706383765547 -0.0036404903865915536 0.0002992938709375454 0.0053543921868036068 -0.0016329888198943659
leaf_weight=517 975 517 587 598 534 1761 500 3823 505 1449
leaf_count=517 975 517 587 598 534 1761 500 3823 505 1449
internal_value=1.13133e-06 -0.000262053 0.00171577 2.60702e-05 0.000183851 -7.05044e-06 -0.00162049 0.000228885 0.00130125 -0.000232835
internal_weight=11766 10204 1562 9687 9170 8636 1098 7538 2266 5272
internal_count=11766 10204 1562 9687 9170 8636 1098 7538 2266 5272
is_linear=0
shrinkage=0.05


Tree=54
num_leaves=13
num_cat=0
split_feature=212 24 25 130 23 25 75 26 20 124 19 24
split_gain=2.03477 2.10349 5.2326 2.67743 2.16384 2.2578 1.86041 1.37889 1.08594 1.58408 1.41206 0.898278
threshold=1.939065322621677 0.41404301065711585 1.1963432124902005 -0.2090214584616556 0.76421195590459601 0.55129230215275327 0.75568060770816625 -0.10774823720338776 -0.12975125211304417 0.99582849415815899 -0.14082245092512977 0.80638489767423827
decision_type=10 10 8 8 10 10 10 10 10 10 10 10
left_child=1 2 4 7 5 8 11 -3 10 -10 -1 -5
right_child=-2 3 -4 6 -6 -7 -8 -9 9 -11 -12 -13
leaf_value=-0.00045255905729232085 0.0029507753392848685 0.0022435266774076552 0.0046704918095131767 -0.0027452130784903386 0.0027307584515859091 -0.0030751470138307251 -0.0048200544691955191 -0.0011414463309261549 -5.082169355063004e-05 -0.002848507396052084 0.0030280936353004745 -5.5150929817794204e-05
leaf_weight=567 552 600 619 607 618 678 576 594 4569 564 592 630
leaf_count=567 552 600 619 607 618 678 576 594 4569 564 592 630
internal_value=1.07206e-06 -0.000145375 0.000269237 -0.00127554 -9.26398e-05 -0.000344756 -0.0024838 0.000561808 -4.83327e-05 -0.000360697 0.00133068 -0.00138091
internal_weight=11766 11214 8207 3007 7588 6970 1813 1194 6292 5133 1159 1237
internal_count=11766 11214 8207 3007 7588 6970 1813 1194 6292 5133 1159 1237
is_linear=0
shrinkage=0.05


Tree=55
num_leaves=14
num_cat=1
split_feature=201 212 201 210 135 215 126 199 215 135 247 23 126
split_gain=1.9894 4.43117 4.11808 2.12462 1.9562 1.55418 1.28372 2.43964 1.26478 1.0995 1.09358 0.974584 0.877281
threshold=-0.45854972273884459 1.0774732236001803 -0.30112204915142743 -1.2351027672767467 0.39860514552477749 -0.75603737693971718 1.3482451361426409 -1.3364291021538983 -0.95804384803605036 0.012899224442300568 0 -0.21868794006124551 -0.28348646178631021
decision_type=10 10 10 10 10 8 10 10 10 10 1 10 10
left_child=1 4 -2 -4 5 9 7 -5 -9 -1 11 -7 -10
right_child=2 -3 3 6 -6 10 -8 8 12 -11 -12 -13 -14
leaf_value=-0.0033442101888334387 -0.0042024100817638381 0.0051868816673825676 -0.0031841690625806643 -0.0031879596276827454 0.0030371013149474171 0.0030345466237784052 0.002371980260937193 0.0024979954411877337 0.0010356593450540894 -0.0002729571847849889 -0.00087704968014487453 0.00035905661387124243 -0.00049132820294362064
leaf_weight=524 678 512 518 568 542 564 576 554 1348 651 799 851 3081
leaf_count=524 678 512 518 568 542 564 576 554 1348 651 799 851 3081
internal_value=1.0277e-06 0.000835175 -0.000505289 -0.00012519 0.00026251 -0.000185049 0.000135813 -9.81485e-05 0.000256894 -0.00165097 0.000594904 0.00142238 -2.59341e-05
internal_weight=11766 4443 7323 6645 3931 3389 6127 5551 4983 1175 2214 1415 4429
internal_count=11766 4443 7323 6645 3931 3389 6127 5551 4983 1175 2214 1415 4429
cat_boundaries=0 1
cat_threshold=679
is_linear=0
shrinkage=0.05


Tree=56
num_leaves=14
num_cat=1
split_feature=247 22 213 25 25 124 25 137 24 131 131 124 197
split_gain=1.93873 4.61826 2.93883 4.74111 2.69466 1.28486 1.71928 0.987596 0.813424 0.854263 1.07306 0.868164 0.789241
threshold=0 -1.3315353729829742 1.0722778343422272 1.0682947655987196 0.48808001846109289 0.99861013831550705 0.49809685518167196 0.32091771730461344 0.49414332927063814 -0.23593156169266741 -0.15927267849965629 0.62503915443777114 0.17511890139523897
decision_type=1 10 10 10 10 10 8 10 10 10 10 10 8
left_child=1 -1 3 4 7 6 8 12 9 -2 -11 -12 -3
right_child=5 2 -4 -5 -6 -7 -8 -9 -10 10 11 -13 -14
leaf_value=0.0051044631351546106 -0.001673315904758152 0.00020197494807905363 0.003360472987853707 -0.0042391027754765873 0.0035373587852143493 0.001542045050690396 -0.0030771382599141363 0.0015871473110258109 -0.002003538471414836 0.0021068197086630816 0.00030936799618096688 -0.0020758892594080064 -0.0013645675069313085
leaf_weight=516 750 1870 645 634 577 570 795 704 764 587 1436 514 1404
leaf_count=516 750 1870 645 634 577 570 795 704 764 587 1436 514 1404
internal_value=9.80754e-07 0.000593088 0.000191056 -0.000205762 0.000359662 -0.000692959 -0.000958593 -0.000105118 -0.000539552 -0.000196751 0.000242191 -0.000323063 -0.000470867
internal_weight=11766 6350 5834 5189 4555 5416 4846 3978 4051 3287 2537 1950 3274
internal_count=11766 6350 5834 5189 4555 5416 4846 3978 4051 3287 2537 1950 3274
cat_boundaries=0 1
cat_threshold=583
is_linear=0
shrinkage=0.05


Tree=57
num_leaves=11
num_cat=0
split_feature=139 19 204 70 124 218 126 124 199 75
split_gain=1.8835 1.92782 2.79987 2.32563 4.13909 2.29273 1.68399 2.79696 0.909366 0.633865
threshold=-0.53081864351488572 1.0000000180025095e-35 -1.3644500132648714 0.86602540241225812 -0.76380770512221874 -0.76005451162270454 -1.1213647528564425 0.99582849415815899 -0.19031666989053483 -0.066560852814880223
decision_type=8 8 8 8 10 10 10 10 10 10
left_child=-1 2 -2 4 -4 -5 -6 -8 -7 -10
right_child=1 -3 3 5 6 8 7 -9 9 -11
leaf_value=0.0028882536951118586 -0.0033541656246443246 0.0019696118080629287 0.004682455531790794 -0.00440737224955312 0.0022801770385686292 -0.0018760169322571158 0.00016097230717679119 -0.0029587895471360789 -0.00089553923444075532 0.0016027851402201398
leaf_weight=534 712 985 503 516 718 819 5143 830 500 506
leaf_count=534 712 985 503 516 718 819 5143 830 500 506
internal_value=1.00215e-06 -0.00013749 -0.000340898 -0.000114251 0.000331345 -0.00148137 9.95246e-07 -0.000274658 -0.000644296 0.000362785
internal_weight=11766 11232 10247 9535 7194 2341 6691 5973 1825 1006
internal_count=11766 11232 10247 9535 7194 2341 6691 5973 1825 1006
is_linear=0
shrinkage=0.05


Tree=58
num_leaves=13
num_cat=0
split_feature=204 123 123 25 69 140 69 137 25 129 73 25
split_gain=1.83754 1.71848 1.91586 2.61858 2.28875 2.38024 2.75168 3.6873 2.33076 1.79325 0.454797 0.403787
threshold=1.5372063681242858 1.7264307814268021 0.49999999654513622 1.0000000180025095e-35 -0.34575543933214387 -0.46366963371807957 0.43223832596551665 -0.24302851027940039 1.0000000180025095e-35 -0.2428329452540948 0.1743252376709688 -0.57948103235821702
decision_type=10 10 10 10 8 10 10 10 10 8 10 10
left_child=1 2 4 10 8 6 9 -8 11 -6 -4 -1
right_child=-2 -3 3 -5 5 -7 7 -9 -10 -11 -12 -13
leaf_value=0.00046187281343223097 0.0025977216733600412 -0.0027361329125580487 0.0010056674956818805 0.0040643869929078849 -0.0019473289251850379 0.0027348574323990808 0.0014470815224119781 -0.0026563778628922977 -0.003766208855822223 0.0012424959457282229 -0.0010776864004676612 -0.0013207072203394285
leaf_weight=675 639 602 537 635 516 785 782 1800 839 2862 502 592
leaf_count=675 639 602 537 635 516 785 782 1800 839 2862 502 592
internal_value=9.54002e-07 -0.000149273 -8.26709e-08 0.00154848 -0.000293672 0.000155897 -0.000185789 -0.00141318 -0.00173049 0.000753082 -1.25979e-06 -0.000372947
internal_weight=11766 11127 10525 1674 8851 6745 5960 2582 2106 3378 1039 1267
internal_count=11766 11127 10525 1674 8851 6745 5960 2582 2106 3378 1039 1267
is_linear=0
shrinkage=0.05


Tree=59
num_leaves=15
num_cat=1
split_feature=25 123 196 127 129 25 214 129 129 247 123 214 133 211
split_gain=1.77652 1.57109 1.72962 1.53223 3.05618 3.68152 2.54654 1.39063 2.19269 1.32152 2.51592 1.25413 1.07215 0.993303
threshold=2.1842104365205333 1.7264307814268021 -1.1720362594955047 -0.054623290615536245 -0.018248962655753442 0.038611214493022447 0.76822990513485856 0.10820792411517656 0.23840905608288146 0 0.45787430845957683 0.06347809681859358 -1.0000000180025095e-35 -0.040821649616482596
decision_type=8 10 8 8 10 10 10 8 8 1 10 10 10 10
left_child=1 2 -1 4 9 13 7 12 -9 11 -11 -4 -5 -6
right_child=-2 -3 3 6 5 -7 -8 8 -10 10 -12 -13 -14 -15
leaf_value=0.0026216058722432494 0.0028814036551693791 -0.002595717382901474 -0.00014789809896651948 -0.0006132406209395355 0.0016397432363087078 0.0050189495654501433 -0.0041639367669165815 -0.0038074393945705938 5.7294351625271106e-05 -0.0019005040876237851 0.0012829555803872204 0.0027613267221987077 0.0021156616903982412 -0.0013196920796865132
leaf_weight=594 507 606 1208 743 637 659 530 599 935 2160 866 529 690 503
leaf_count=594 507 606 1208 743 637 659 530 599 935 2160 866 529 690 503
internal_value=9.0735e-07 -0.000130025 1.13891e-05 -0.000143974 0.000306518 0.00205925 -0.000988539 -0.000415261 -0.00145928 -0.000356961 -0.000985576 0.00073924 0.000703533 0.000333897
internal_weight=11766 11259 10653 10059 6562 1799 3497 2967 1534 4763 3026 1737 1433 1140
internal_count=11766 11259 10653 10059 6562 1799 3497 2967 1534 4763 3026 1737 1433 1140
cat_boundaries=0 1
cat_threshold=1095
is_linear=0
shrinkage=0.05


Tree=60
num_leaves=9
num_cat=0
split_feature=80 210 206 22 134 76 70 127
split_gain=1.74184 1.38521 3.18781 1.24564 2.08426 1.46289 1.10615 0.919463
threshold=-1.4422296736767544 -1.6628248486749797 1.7042316469708829 0.97264396553008414 0.05740396604585709 0.99706896921692845 -0.99582850076416862 0.17717963126884842
decision_type=8 8 8 10 8 8 10 10
left_child=-1 -2 3 5 -5 6 -3 -8
right_child=1 2 -4 4 -6 -7 7 -9
leaf_value=0.0028416087285434116 -0.0025694625518420736 -0.0017470334108328723 0.0038349233088264406 0.00018777149915300153 -0.0038031346698100994 0.0024572072486134162 0.00035571903250460811 -0.00098439888964214537
leaf_weight=511 548 957 510 717 596 569 5714 1644
leaf_count=511 548 957 510 717 596 569 5714 1644
internal_value=9.43344e-07 -0.000129233 -3.19765e-06 -0.000196946 -0.00163135 1.58481e-05 -0.000152592 5.5831e-05
internal_weight=11766 11255 10707 10197 1313 8884 8315 7358
internal_count=11766 11255 10707 10197 1313 8884 8315 7358
is_linear=0
shrinkage=0.05


Tree=61
num_leaves=14
num_cat=0
split_feature=126 126 209 70 124 70 72 123 126 197 75 21 84
split_gain=1.69752 4.64038 2.26397 1.38923 4.2943 3.6395 1.44151 2.62093 2.4669 3.10106 2.30591 1.17066 1.00903
